#! FIELDS phi psi b1.bias der_phi der_psi
#! SET min_phi -pi
#! SET max_phi pi
#! SET nbins_phi  31
#! SET periodic_phi true
#! SET min_psi -pi
#! SET max_psi pi
#! SET nbins_psi  31
#! SET periodic_psi true
   -3.141592654   -3.141592654   23.339034741  -96.519723119   41.165356175
   -2.938909257   -3.141592654   30.252378014    0.521626580   18.071434830
   -2.736225860   -3.141592654   34.583281968  -33.786245265   27.316871935
   -2.533542463   -3.141592654   34.829284246   29.646876143   40.251560635
   -2.330859066   -3.141592654   29.986902912   11.986644347   51.526422339
   -2.128175669   -3.141592654   28.893538922  -10.062804740   14.789620023
   -1.925492272   -3.141592654   36.688325331  -46.961258576   16.804152546
   -1.722808875   -3.141592654   37.692806080   29.802662814   23.541190542
   -1.520125478   -3.141592654   37.605640277  -39.087124051  -22.836941704
   -1.317442081   -3.141592654   40.903873464   37.431278124   10.169411457
   -1.114758684   -3.141592654   28.169650408   51.254205922   59.267962449
   -0.912075287   -3.141592654   23.613414112   13.680093009   32.311719948
   -0.709391890   -3.141592654   16.440945277   58.521205044   69.729935552
   -0.506708493   -3.141592654    0.891658293   89.910297986   79.272907055
   -0.304025096   -3.141592654  -14.560419041   46.777441761   51.008199135
   -0.101341699   -3.141592654  -17.948167720    2.057122377   29.500961945
    0.101341699   -3.141592654  -19.743850096   10.374239528   34.988561550
    0.304025096   -3.141592654  -16.294874902  -52.657060378   29.682041710
    0.506708493   -3.141592654   -2.723688463  -60.683347841   26.626965046
    0.709391890   -3.141592654    6.858163674  -51.089560315   18.855702682
    0.912075287   -3.141592654   20.435249979  -58.469441423   72.553138999
    1.114758684   -3.141592654   19.299966344   65.130321342   86.189532106
    1.317442081   -3.141592654    7.173731716   34.578392507   23.452361382
    1.520125478   -3.141592654   -0.649445200   61.540225455   12.683906982
    1.722808875   -3.141592654  -14.112684415   53.674543519   34.487019464
    1.925492272   -3.141592654  -23.972402929   53.909622269   28.226605122
    2.128175669   -3.141592654  -31.474646617    3.218065380   24.973841438
    2.330859066   -3.141592654  -29.119846828   -4.998620908   28.943914314
    2.533542463   -3.141592654  -27.051651377  -38.981280918   45.841591772
    2.736225860   -3.141592654  -14.242709893  -63.917814643   37.212547409
    2.938909257   -3.141592654   -0.554070283  -96.800581932   53.050654649

   -3.141592654   -2.938909257    8.978213551 -125.057438617   96.471169268
   -2.938909257   -2.938909257   23.633045818   -6.872296416   61.835647426
   -2.736225860   -2.938909257   21.896626489   -4.176062675   79.241453210
   -2.533542463   -2.938909257   24.140718688    0.775779547   54.973859792
   -2.330859066   -2.938909257   21.368394367    9.358005455   32.773205156
   -2.128175669   -2.938909257   24.063320317  -26.455652961   43.219395885
   -1.925492272   -2.938909257   25.281284548   20.797656748   84.564875577
   -1.722808875   -2.938909257   22.537570973  -20.809723984   91.968940820
   -1.520125478   -2.938909257   33.100604900  -45.455063590   82.881575983
   -1.317442081   -2.938909257   28.445917657   80.396185383   93.140003966
   -1.114758684   -2.938909257   15.757763956   24.444165886   56.018618248
   -0.912075287   -2.938909257   10.947145798   50.555205819   92.495328777
   -0.709391890   -2.938909257   -3.912999753   74.695929894  104.503847219
   -0.506708493   -2.938909257  -15.430641702   42.148380555   63.838333171
   -0.304025096   -2.938909257  -21.414975194   16.084772326   22.224606213
   -0.101341699   -2.938909257  -24.081494496   16.552262510   31.534355069
    0.101341699   -2.938909257  -26.424084061   -4.338727412   24.047569379
    0.304025096   -2.938909257  -20.482199534  -51.770449719   17.285126279
    0.506708493   -2.938909257   -7.450100121  -68.219471381   21.228611431
    0.709391890   -2.938909257    3.473063599  -39.468833784   24.529444364
    0.912075287   -2.938909257   11.984077346  -44.799184601    6.155906297
    1.114758684   -2.938909257   14.676973522   32.621601950  -11.779651393
    1.317442081   -2.938909257    3.989076738   48.303173757   25.120475356
    1.520125478   -2.938909257   -4.907077021   58.955540968   26.725439534
    1.722808875   -2.938909257  -20.664575077   76.471573934   32.975003076
    1.925492272   -2.938909257  -31.356404720   36.042506968   48.625595570
    2.128175669   -2.938909257  -36.935296053   12.474395955   33.590989709
    2.330859066   -2.938909257  -36.627390785   -3.937233136   44.703641234
    2.533542463   -2.938909257  -35.127327181  -28.453766057   33.184509535
    2.736225860   -2.938909257  -23.314552079  -68.042200275   55.462423506
    2.938909257   -2.938909257  -11.972327804  -62.821033047   56.831640113

   -3.141592654   -2.736225860   -9.543281683  -80.091137209   73.909963677
   -2.938909257   -2.736225860    6.662548063  -54.109748696   85.874684492
   -2.736225860   -2.736225860   10.255598449   -2.641718894   40.054636165
   -2.533542463   -2.736225860   13.578810303  -21.587681949   52.442491163
   -2.330859066   -2.736225860   14.385468967    9.961696114   42.007982750
   -2.128175669   -2.736225860   13.313252391    0.950223612   52.555273655
   -1.925492272   -2.736225860   11.798440423   11.747027268   41.483938798
   -1.722808875   -2.736225860   11.614269892  -11.166144802   22.251970953
   -1.520125478   -2.736225860   13.743206867   -4.526486912   71.903020788
   -1.317442081   -2.736225860   12.806769050   16.430452369   54.200265519
   -1.114758684   -2.736225860    6.040855662   48.053049213   43.058625338
   -0.912075287   -2.736225860   -4.859316493   57.819733356   50.921102804
   -0.709391890   -2.736225860  -16.408102990   48.286563510   27.342900908
   -0.506708493   -2.736225860  -22.268107605   15.303845439   17.957384359
   -0.304025096   -2.736225860  -26.384443018   25.101780668   27.125121734
   -0.101341699   -2.736225860  -29.195108149    0.626998522   17.355516348
    0.101341699   -2.736225860  -29.167088261   -0.758938192    9.296621804
    0.304025096   -2.736225860  -24.095439004  -56.798155049   14.031958179
    0.506708493   -2.736225860  -11.301038938  -50.070839373   13.572358969
    0.709391890   -2.736225860   -3.116331891  -49.715809740   23.883596946
    0.912075287   -2.736225860   10.056847223  -55.818409177   20.199306744
    1.114758684   -2.736225860    9.199159812   63.684616057   68.469376542
    1.317442081   -2.736225860   -4.409709223   42.832385723   45.386877476
    1.520125478   -2.736225860  -10.425830909   46.597836709   30.967256311
    1.722808875   -2.736225860  -27.790354098  102.237661373   33.180222574
    1.925492272   -2.736225860  -40.984349015   24.716446259   33.645282136
    2.128175669   -2.736225860  -44.295130542   17.380843819   31.526300560
    2.330859066   -2.736225860  -44.988113823  -16.562892156   30.903480882
    2.533542463   -2.736225860  -40.882879881  -16.949661130   25.258287456
    2.736225860   -2.736225860  -34.660772115  -54.119991879   43.946661382
    2.938909257   -2.736225860  -22.117547928  -56.813544851   45.564551955

   -3.141592654   -2.533542463  -20.551476981  -60.648093585   39.328804775
   -2.938909257   -2.533542463   -6.900197959  -60.542500699   52.906408177
   -2.736225860   -2.533542463    0.195996713  -14.629988743   57.850512148
   -2.533542463   -2.533542463    2.900347059  -13.733402196   47.868455862
   -2.330859066   -2.533542463    4.341528630   -0.828399486   50.273855778
   -2.128175669   -2.533542463    4.421101201    0.467713607   35.450798415
   -1.925492272   -2.533542463    4.085930643   -1.972406238   41.516425106
   -1.722808875   -2.533542463    6.086535813  -10.881874041   35.469380578
   -1.520125478   -2.533542463    6.034131538    7.460162217   23.748659562
   -1.317442081   -2.533542463    4.799308434   12.008820470   28.671579257
   -1.114758684   -2.533542463   -2.882816329   60.669754682   44.334712994
   -0.912075287   -2.533542463  -14.431843615   46.535984185   51.798823727
   -0.709391890   -2.533542463  -23.113772230   39.610627598   38.694815952
   -0.506708493   -2.533542463  -28.200150474   10.685131508   34.935558296
   -0.304025096   -2.533542463  -30.553661455   14.841953655   11.740516206
   -0.101341699   -2.533542463  -31.824223841   -3.309676176    9.241632393
    0.101341699   -2.533542463  -31.498674978   -3.062326565   10.376069788
    0.304025096   -2.533542463  -25.173628889  -61.871475260   -0.722103489
    0.506708493   -2.533542463  -13.201799675  -44.611823870   11.166739363
    0.709391890   -2.533542463   -2.006092578  -77.595268169  -21.111140966
    0.912075287   -2.533542463    8.959567068    6.262389840   -8.959780190
    1.114758684   -2.533542463   -3.162169574   71.384896237   36.452290211
    1.317442081   -2.533542463  -10.284313415   14.103530276   13.797254414
    1.520125478   -2.533542463  -18.116349094   66.663841292   39.089813316
    1.722808875   -2.533542463  -32.752837969   68.185785666   16.668445069
    1.925492272   -2.533542463  -43.924747651   37.648869174    4.099452013
    2.128175669   -2.533542463  -47.853688087    7.503614110    6.066786145
    2.330859066   -2.533542463  -48.567857409   -3.942739929    8.557704991
    2.533542463   -2.533542463  -45.137817682  -26.448681584   14.594951152
    2.736225860   -2.533542463  -39.128789255  -34.616588016    8.334417523
    2.938909257   -2.533542463  -30.730023577  -45.337829958   33.596536472

   -3.141592654   -2.330859066  -26.295198017  -45.047640032   17.083449396
   -2.938909257   -2.330859066  -16.069435343  -50.312013223   30.799788863
   -2.736225860   -2.330859066   -7.761457941  -31.171391324   14.920369333
   -2.533542463   -2.330859066   -3.550521777   -9.790848684   13.619353549
   -2.330859066   -2.330859066   -2.263104588   -8.654463639   10.031763480
   -2.128175669   -2.330859066   -0.873948761    2.317446115   15.601055668
   -1.925492272   -2.330859066   -2.189707229   -1.482237948   13.215833573
   -1.722808875   -2.330859066    0.541968189  -12.871408793   17.501583645
   -1.520125478   -2.330859066    0.291295840    7.346800461   26.817891747
   -1.317442081   -2.330859066   -0.877217151   16.617337187   34.426457189
   -1.114758684   -2.330859066  -10.460195014   67.269552833   26.676433919
   -0.912075287   -2.330859066  -20.646491424   29.343409176   -0.743212893
   -0.709391890   -2.330859066  -26.498302100   33.208457379   -5.823585804
   -0.506708493   -2.330859066  -31.201096562    8.310158237   -5.247095471
   -0.304025096   -2.330859066  -31.958561656    4.344982722    3.295166207
   -0.101341699   -2.330859066  -32.486139404   -0.264447809   -3.056962214
    0.101341699   -2.330859066  -31.668906656  -13.941668440  -10.271818358
    0.304025096   -2.330859066  -24.637165684  -48.733483070   -6.541974751
    0.506708493   -2.330859066  -16.094299556  -39.922512687    8.268141760
    0.709391890   -2.330859066   -3.319961741  -79.882149033   35.824531087
    0.912075287   -2.330859066    3.836875049   30.724469937   70.529285779
    1.114758684   -2.330859066   -7.731573693   46.058073971   17.667597481
    1.317442081   -2.330859066  -12.662323393   26.466080252   12.419232152
    1.520125478   -2.330859066  -23.132351833   65.910231998    8.202830898
    1.722808875   -2.330859066  -35.305193733   55.242079597    8.060711990
    1.925492272   -2.330859066  -45.324439038   36.057146433    8.382187503
    2.128175669   -2.330859066  -48.991423134    7.586431111    7.682326320
    2.330859066   -2.330859066  -50.140154609   -1.008982792    8.204898908
    2.533542463   -2.330859066  -47.149954341  -24.691056283    9.068297203
    2.736225860   -2.330859066  -41.689120146  -30.416720048   16.545412561
    2.938909257   -2.330859066  -34.431234282  -38.611633605    8.226744911

   -3.141592654   -2.128175669  -27.962196598  -44.727431805    1.772419392
   -2.938909257   -2.128175669  -17.608636156  -53.705604434   -9.183038243
   -2.736225860   -2.128175669   -8.606951816  -31.894323898   -0.599996158
   -2.533542463   -2.128175669   -3.992254790  -16.846090285   -3.168490374
   -2.330859066   -2.128175669   -1.609760233   -5.280909929   -7.191706994
   -2.128175669   -2.128175669   -1.761274636    4.700806535   -5.162337238
   -1.925492272   -2.128175669   -2.668816138    2.676873209   -2.081829544
   -1.722808875   -2.128175669   -2.524228722   -2.937043534   10.623047158
   -1.520125478   -2.128175669   -3.039008227   12.160990445    7.990219510
   -1.317442081   -2.128175669   -7.368729482   26.261043152   13.092603228
   -1.114758684   -2.128175669  -12.519312966   25.599901703   -8.407658414
   -0.912075287   -2.128175669  -18.598773484   34.302068171   -7.385350901
   -0.709391890   -2.128175669  -25.393045015   29.777617780   -4.778510144
   -0.506708493   -2.128175669  -29.859406436   13.120533863   -7.975404312
   -0.304025096   -2.128175669  -30.893474329   -0.491529455  -16.190831673
   -0.101341699   -2.128175669  -30.377825920   -5.750028910  -19.810097534
    0.101341699   -2.128175669  -27.478690067  -23.808305019  -28.960906168
    0.304025096   -2.128175669  -21.393094509  -34.620055648  -26.246617356
    0.506708493   -2.128175669  -13.672296054  -39.124478765  -28.359785182
    0.709391890   -2.128175669   -7.957132111  -11.999015211   -6.863247058
    0.912075287   -2.128175669   -8.036869959    5.735819338   12.809982960
    1.114758684   -2.128175669   -9.172321673    9.654940156   -9.063800579
    1.317442081   -2.128175669  -13.837926226   36.658134590   -5.031855852
    1.520125478   -2.128175669  -23.105919790   53.830335092   -3.353693469
    1.722808875   -2.128175669  -35.407235479   63.369644962   -6.734535344
    1.925492272   -2.128175669  -45.851782243   34.740877654   -4.072046267
    2.128175669   -2.128175669  -50.157698787   12.589247512    1.601771189
    2.330859066   -2.128175669  -51.483551297   -1.744256356    3.396477016
    2.533542463   -2.128175669  -49.032607105  -20.967431583    5.325809682
    2.736225860   -2.128175669  -43.564177332  -32.679191553    0.463659457
    2.938909257   -2.128175669  -36.148543376  -38.603137777    6.341192860

   -3.141592654   -1.925492272  -26.940598105  -49.165117248  -15.054438325
   -2.938909257   -1.925492272  -15.433088356  -56.424252105  -12.583502119
   -2.736225860   -1.925492272   -6.972263698  -26.595234145  -16.049710356
   -2.533542463   -1.925492272   -3.032921635  -15.394450240   -9.388549776
   -2.330859066   -1.925492272   -0.753410090   -6.010390319   -3.923081381
   -2.128175669   -1.925492272   -0.669721161    4.520678835   -1.088135842
   -1.925492272   -1.925492272   -1.839769450    4.358174672   -6.362230770
   -1.722808875   -1.925492272   -2.194294976    1.576611161   -9.876024640
   -1.520125478   -1.925492272   -3.187525928    6.647553983   -8.678078268
   -1.317442081   -1.925492272   -4.247085893    6.614018373  -29.857503945
   -1.114758684   -1.925492272   -8.075146965   32.803909438  -28.367181299
   -0.912075287   -1.925492272  -15.243528636   30.378504277  -33.714974560
   -0.709391890   -1.925492272  -20.026741468   21.323170603  -49.076686430
   -0.506708493   -1.925492272  -24.405563915   17.607714360  -45.129792688
   -0.304025096   -1.925492272  -25.661001739   -3.808398280  -34.043673924
   -0.101341699   -1.925492272  -24.467316300   -6.933371854  -34.752749674
    0.101341699   -1.925492272  -21.401250053  -26.856171208  -29.759706107
    0.304025096   -1.925492272  -14.397025817  -36.511320925  -40.072791755
    0.506708493   -1.925492272   -8.023658517  -25.801561530  -23.394410675
    0.709391890   -1.925492272   -4.398775494   -7.917670119   -8.727647737
    0.912075287   -1.925492272   -4.424894196    3.845875308  -16.953027440
    1.114758684   -1.925492272   -5.513159316   12.257539338  -17.386835339
    1.317442081   -1.925492272  -11.694386146   48.059750969   -7.705675526
    1.520125478   -1.925492272  -22.529908795   54.111910447   -2.021940840
    1.722808875   -1.925492272  -33.697322297   56.743297662   -6.873231759
    1.925492272   -1.925492272  -44.142364684   41.505956292  -11.411141183
    2.128175669   -1.925492272  -49.934546808   16.591071541   -2.774949930
    2.330859066   -1.925492272  -50.983112853   -5.881747574   -8.903077845
    2.533542463   -1.925492272  -48.330236066  -18.710900797   -9.850059764
    2.736225860   -1.925492272  -42.998623793  -34.936904978   -6.206588107
    2.938909257   -1.925492272  -35.238144412  -37.998245937  -14.866731917

   -3.141592654   -1.722808875  -21.546481530  -50.730433969  -33.420974843
   -2.938909257   -1.722808875  -11.393428897  -46.125726589  -25.075456589
   -2.736225860   -1.722808875   -3.691180536  -29.343797925  -14.908985167
   -2.533542463   -1.722808875    0.479611335  -11.319360226  -22.753653373
   -2.330859066   -1.722808875    0.862477136    5.407086781  -12.855064116
   -2.128175669   -1.722808875   -0.120922524    1.827653402  -13.064503475
   -1.925492272   -1.722808875   -0.382243082    2.704274755   -9.972010454
   -1.722808875   -1.722808875   -0.563001869   -4.199545931  -10.562133691
   -1.520125478   -1.722808875    1.180461758   -9.234689361  -37.183432650
   -1.317442081   -1.722808875    1.863668998    4.758761562  -42.512449709
   -1.114758684   -1.722808875   -1.527621841   27.807296064  -44.626970685
   -0.912075287   -1.722808875   -7.000826291   20.290719958  -43.562531206
   -0.709391890   -1.722808875  -10.832967690   25.101329504  -35.005099172
   -0.506708493   -1.722808875  -16.623071662   21.076984470  -27.168817799
   -0.304025096   -1.722808875  -17.405256329   -6.004023527  -44.977250698
   -0.101341699   -1.722808875  -16.959136248   -2.221839912  -42.514367212
    0.101341699   -1.722808875  -13.433516892  -32.296824108  -53.953677678
    0.304025096   -1.722808875   -7.212396982  -22.345106154  -26.110397340
    0.506708493   -1.722808875   -4.632982379   -3.826037152   -6.154083650
    0.709391890   -1.722808875   -5.377235164    6.575313871    8.940616566
    0.912075287   -1.722808875   -5.035242047   -8.591311177   13.900139207
    1.114758684   -1.722808875   -5.609446533   21.803556378   23.964655322
    1.317442081   -1.722808875  -13.013013122   44.781579519   19.337893513
    1.520125478   -1.722808875  -22.834059600   52.105510975    6.284487955
    1.722808875   -1.722808875  -33.113545584   46.649700192   -0.158298983
    1.925492272   -1.722808875  -42.073388196   42.461277422   -6.986943327
    2.128175669   -1.722808875  -48.424561786   14.083514310  -13.854554455
    2.330859066   -1.722808875  -48.284035931   -8.547602086  -15.573685182
    2.533542463   -1.722808875  -45.899788075  -19.082831272  -15.602236166
    2.736225860   -1.722808875  -39.534354996  -40.739566283  -28.309857211
    2.938909257   -1.722808875  -30.999689714  -42.825863494  -27.611211758

   -3.141592654   -1.520125478  -15.393173911  -44.568441132  -28.965283000
   -2.938909257   -1.520125478   -6.230021958  -42.468141172  -29.591124360
   -2.736225860   -1.520125478    0.807684795  -28.062820332  -33.020627566
   -2.533542463   -1.520125478    5.272893975  -12.478120232  -24.980170888
   -2.330859066   -1.520125478    5.358663171    5.804291836  -32.109004967
   -2.128175669   -1.520125478    5.138665041   -0.612671805  -29.313946590
   -1.925492272   -1.520125478    3.422079975   13.513616448  -25.577184083
   -1.722808875   -1.520125478    4.562841339  -30.519540713  -35.513788142
   -1.520125478   -1.520125478   12.000590170  -28.816499315  -57.808364847
   -1.317442081   -1.520125478   14.369532759    3.459886271  -56.409584670
   -1.114758684   -1.520125478   10.937507704   28.748993923  -62.768031001
   -0.912075287   -1.520125478    4.803637543   28.419422737  -71.628114552
   -0.709391890   -1.520125478   -1.720313517   38.072411250  -65.639848235
   -0.506708493   -1.520125478   -8.048561872   16.186425185  -69.597142681
   -0.304025096   -1.520125478   -8.879971471   -1.393858055  -38.773514268
   -0.101341699   -1.520125478   -7.106268489  -21.442826304  -47.086161572
    0.101341699   -1.520125478   -2.133233168  -13.704241310  -41.964836237
    0.304025096   -1.520125478   -3.663403279   20.203644653  -11.218667749
    0.506708493   -1.520125478   -6.636487993    8.216142886   22.290680740
    0.709391890   -1.520125478   -8.242056085    8.976446811   28.994992547
    0.912075287   -1.520125478  -10.562357136   15.745161785   47.555098787
    1.114758684   -1.520125478  -14.300648821   17.104367558   50.245614695
    1.317442081   -1.520125478  -17.528025894   21.130293551   22.517718446
    1.520125478   -1.520125478  -24.380563003   42.462268429    5.103503708
    1.722808875   -1.520125478  -32.650890990   39.071343938   -6.283916640
    1.925492272   -1.520125478  -40.617973298   35.714869656  -11.980938848
    2.128175669   -1.520125478  -45.002257289    7.436369274  -16.277417160
    2.330859066   -1.520125478  -45.160829789   -4.723022198  -15.613803211
    2.533542463   -1.520125478  -41.856426189  -30.090500877  -20.359730770
    2.736225860   -1.520125478  -33.767347341  -46.006772177  -23.917283404
    2.938909257   -1.520125478  -24.319983001  -45.378500570  -33.216545268

   -3.141592654   -1.317442081   -7.087289294  -48.538787273  -55.348199212
   -2.938909257   -1.317442081    1.870571238  -42.194281242  -44.991966711
   -2.736225860   -1.317442081    8.610761471  -18.675907792  -38.815385686
   -2.533542463   -1.317442081   10.313097365   -5.181573446  -21.730301353
   -2.330859066   -1.317442081   10.906645099    4.114087791  -12.679449281
   -2.128175669   -1.317442081    9.000489062    8.758069432  -12.534742343
   -1.925492272   -1.317442081    7.951141778    2.937815911  -19.374778428
   -1.722808875   -1.317442081    9.921765531  -29.265464845  -16.210726386
   -1.520125478   -1.317442081   16.550844893  -17.098847879   19.017702210
   -1.317442081   -1.317442081   15.481063359   10.628754793   33.532061266
   -1.114758684   -1.317442081   16.510932862  -11.299439634    6.486352988
   -0.912075287   -1.317442081   15.601776164   16.033828399  -25.994123301
   -0.709391890   -1.317442081   13.535394652    8.316395477  -69.473386630
   -0.506708493   -1.317442081    7.807657179   48.055123516  -66.729861414
   -0.304025096   -1.317442081   -0.391913572   21.119262970  -45.080988206
   -0.101341699   -1.317442081   -1.166569585   -6.658119859  -10.703197552
    0.101341699   -1.317442081   -0.027957929    2.634306330   18.455848035
    0.304025096   -1.317442081   -4.606136697   39.958409781   30.383840423
    0.506708493   -1.317442081  -12.394859076   30.266871558   38.336491455
    0.709391890   -1.317442081  -17.232869432   19.602597997   47.894724021
    0.912075287   -1.317442081  -20.119607310    9.774538412   28.462535785
    1.114758684   -1.317442081  -22.155158215    8.911503672   28.146734051
    1.317442081   -1.317442081  -22.469812686   -2.648974763   25.790480666
    1.520125478   -1.317442081  -24.501698388   25.817512161   -0.709034597
    1.722808875   -1.317442081  -30.516716005   28.506384316  -13.904868137
    1.925492272   -1.317442081  -37.012100123   36.519649348  -18.351721926
    2.128175669   -1.317442081  -42.237274406    7.913137097  -13.110413014
    2.330859066   -1.317442081  -41.678524581   -6.665451413  -18.835694590
    2.533542463   -1.317442081  -38.419460641  -32.801532010  -18.567175309
    2.736225860   -1.317442081  -28.919705733  -53.142109792  -28.902774348
    2.938909257   -1.317442081  -18.048625998  -55.697759014  -36.178320401

   -3.141592654   -1.114758684    3.848650400  -30.072930232  -42.287623819
   -2.938909257   -1.114758684    8.908234885  -32.677435160  -24.661274755
   -2.736225860   -1.114758684   15.568857215  -18.194567328  -29.093928109
   -2.533542463   -1.114758684   14.440610255   19.713632266  -24.468996524
   -2.330859066   -1.114758684   11.753218284    3.701121801  -10.500710745
   -2.128175669   -1.114758684   12.178387697   -5.472941215  -15.602093980
   -1.925492272   -1.114758684   13.321300464   -4.403971408  -32.921920749
   -1.722808875   -1.114758684   13.661393793    0.958430509  -21.935597375
   -1.520125478   -1.114758684   13.266644868    0.980906074  -14.078849692
   -1.317442081   -1.114758684   14.115450125   -9.451991373  -33.958812723
   -1.114758684   -1.114758684   16.348920537  -12.035506079  -18.982595028
   -0.912075287   -1.114758684   19.696597727  -20.453829527  -23.278901716
   -0.709391890   -1.114758684   21.856114623    7.795409654   -9.150296257
   -0.506708493   -1.114758684   15.931934432   45.101366349  -17.718529210
   -0.304025096   -1.114758684    6.133728959   46.460093774   -9.835020560
   -0.101341699   -1.114758684   -1.378606636   27.544187546   12.306380542
    0.101341699   -1.114758684   -7.196793805   36.145484925   48.486150009
    0.304025096   -1.114758684  -15.783708358   42.497452631   64.811705049
    0.506708493   -1.114758684  -22.656044080   23.123221871   51.796235817
    0.709391890   -1.114758684  -24.139234764   -7.878621432   21.087436241
    0.912075287   -1.114758684  -23.162472817    9.520866971   17.674279545
    1.114758684   -1.114758684  -27.053915335   14.217904011   15.805889305
    1.317442081   -1.114758684  -26.165219410  -14.831023337    6.856635888
    1.520125478   -1.114758684  -24.957197242    4.244637312    2.781377456
    1.722808875   -1.114758684  -27.410557636   23.186595815  -14.950490723
    1.925492272   -1.114758684  -34.620496745   38.745754211   -8.079364890
    2.128175669   -1.114758684  -38.834483369    1.961902388  -20.758804407
    2.330859066   -1.114758684  -37.736041114  -11.460467835  -19.087386597
    2.533542463   -1.114758684  -32.447078271  -42.007090121  -36.202451392
    2.736225860   -1.114758684  -22.030408518  -60.259060126  -35.027880506
    2.938909257   -1.114758684   -7.510489243  -76.699532938  -60.831866733

   -3.141592654   -0.912075287    9.559676882  -13.711633167  -18.573906985
   -2.938909257   -0.912075287   14.078525580  -35.772185042  -26.271600565
   -2.736225860   -0.912075287   19.643265409   -9.873562587   -8.726986392
   -2.533542463   -0.912075287   19.665880417    3.864591968  -15.333221729
   -2.330859066   -0.912075287   16.802761005   26.360835674  -25.005144238
   -2.128175669   -0.912075287   13.518079821   -7.043285073   -1.444140578
   -1.925492272   -0.912075287   17.190262016  -10.585097638    2.621829222
   -1.722808875   -0.912075287   16.731524514   -1.100465484   -7.233531097
   -1.520125478   -0.912075287   20.763401862  -26.017925432  -34.123809194
   -1.317442081   -0.912075287   21.929667918   10.679066502  -23.386528456
   -1.114758684   -0.912075287   21.356882694   -7.309738151  -18.369493706
   -0.912075287   -0.912075287   21.501379800    9.611085600   10.952361723
   -0.709391890   -0.912075287   19.889511272    3.930785275   15.016341555
   -0.506708493   -0.912075287   15.909284916   45.189672759   18.586566133
   -0.304025096   -0.912075287    3.846789194   59.961102991   24.142980963
   -0.101341699   -0.912075287   -6.921796874   52.421026751   41.296392491
    0.101341699   -0.912075287  -17.856336643   48.789455541   49.448833513
    0.304025096   -0.912075287  -25.076351552   24.809563794   25.446663439
    0.506708493   -0.912075287  -28.394276430    4.784226910    7.068712588
    0.709391890   -0.912075287  -27.058331690  -10.755588790    8.296171188
    0.912075287   -0.912075287  -26.472854527    3.224423335   -0.527729088
    1.114758684   -0.912075287  -26.534038465   -2.689056281  -14.063195391
    1.317442081   -0.912075287  -26.272329588   -1.900248993   -0.256522811
    1.520125478   -0.912075287  -24.448781232  -12.040256872   -6.322284803
    1.722808875   -0.912075287  -25.503132019   26.872071252   -2.794538238
    1.925492272   -0.912075287  -31.844095652   23.793114699  -19.426947330
    2.128175669   -0.912075287  -34.594720750    8.249686445  -17.707517135
    2.330859066   -0.912075287  -34.405439103  -17.362564579  -13.344362898
    2.533542463   -0.912075287  -27.368132091  -46.086734037  -11.105401188
    2.736225860   -0.912075287  -15.705374907  -75.351406190  -27.463635838
    2.938909257   -0.912075287    1.467551126  -74.940961180  -22.200056641

   -3.141592654   -0.709391890   11.322950963  -28.627528160    4.255568515
   -2.938909257   -0.709391890   16.675593532  -23.142439040    4.752150090
   -2.736225860   -0.709391890   19.124442378   -0.026103899   10.154867448
   -2.533542463   -0.709391890   18.212120365    5.199352433   19.672424155
   -2.330859066   -0.709391890   16.965900455    8.360279173   17.412528236
   -2.128175669   -0.709391890   15.310934892    5.987962317  -14.100064560
   -1.925492272   -0.709391890   14.968211931   -4.861898120    5.317508522
   -1.722808875   -0.709391890   18.519100607  -28.974383705  -12.094296170
   -1.520125478   -0.709391890   23.641470293  -14.401525764   -6.859389286
   -1.317442081   -0.709391890   24.800171968   -1.949616566  -13.768471673
   -1.114758684   -0.709391890   24.164786043   12.033578164  -13.632491850
   -0.912075287   -0.709391890   20.841763570   14.275220152  -14.855766787
   -0.709391890   -0.709391890   18.030732676   22.346127746   10.518993683
   -0.506708493   -0.709391890    9.836446741   54.927281724   35.463531882
   -0.304025096   -0.709391890   -2.562700783   67.161879493   44.028247732
   -0.101341699   -0.709391890  -16.482064360   62.304927252   49.217221326
    0.101341699   -0.709391890  -25.282576350   25.980039593   24.344736106
    0.304025096   -0.709391890  -29.103582512   14.012806004   18.934985393
    0.506708493   -0.709391890  -30.424555740   -2.345968961   16.805640606
    0.709391890   -0.709391890  -28.074793759  -20.035627047    5.950130001
    0.912075287   -0.709391890  -24.386482958   -7.184719753    0.006157039
    1.114758684   -0.709391890  -26.199917155   15.526824747   10.505505258
    1.317442081   -0.709391890  -26.149871341  -16.571505422   -5.942064174
    1.520125478   -0.709391890  -23.460141560   -1.518177973   -6.112723356
    1.722808875   -0.709391890  -25.116375594   13.427555062   -5.666380509
    1.925492272   -0.709391890  -28.740962269   22.702300595   -6.555642499
    2.128175669   -0.709391890  -32.627088878    9.851507039   -2.002032545
    2.330859066   -0.709391890  -32.033912817  -15.111872492  -10.156980569
    2.533542463   -0.709391890  -25.588363033  -52.351655318  -10.931738266
    2.736225860   -0.709391890  -11.277228701  -81.058380579  -12.700101676
    2.938909257   -0.709391890    3.310370214  -55.936238693   -1.838093988

   -3.141592654   -0.506708493    9.105015080  -21.281572145   10.713268143
   -2.938909257   -0.506708493   14.049858855  -25.893249787   14.802421059
   -2.736225860   -0.506708493   17.491612276   -5.221050132    4.557100449
   -2.533542463   -0.506708493   16.659793255    9.824141329   -2.494898825
   -2.330859066   -0.506708493   15.317471082   -0.115359588   -3.944515270
   -2.128175669   -0.506708493   16.236248430   -3.981061786    5.988846366
   -1.925492272   -0.506708493   16.510212885   -4.573122151  -12.563739086
   -1.722808875   -0.506708493   20.331982970  -31.162370016   -5.164031898
   -1.520125478   -0.506708493   25.599555639  -12.845175328   -2.713435590
   -1.317442081   -0.506708493   25.588940189    6.751517677   12.433834651
   -1.114758684   -0.506708493   24.651027411    3.502279954   14.627003862
   -0.912075287   -0.506708493   22.043022328   27.417385389   18.222856005
   -0.709391890   -0.506708493   13.534065159   52.605071146   29.154165580
   -0.506708493   -0.506708493    1.309350976   70.138450858   54.444176204
   -0.304025096   -0.506708493  -14.251849346   74.137140332   61.667389461
   -0.101341699   -0.506708493  -24.791114533   28.383448987   25.824110531
    0.101341699   -0.506708493  -28.674135357   17.319325633   10.627641723
    0.304025096   -0.506708493  -31.807525618    9.639066744    5.329632764
    0.506708493   -0.506708493  -32.151526554   -4.902726084   -2.627232932
    0.709391890   -0.506708493  -29.965775833  -16.313068654    7.864956723
    0.912075287   -0.506708493  -26.853467451  -10.056539622    4.229266936
    1.114758684   -0.506708493  -25.760803226   -6.091700759  -20.668232622
    1.317442081   -0.506708493  -22.780820134  -21.571290747  -25.314911079
    1.520125478   -0.506708493  -19.695569031   -1.798401797  -30.569750312
    1.722808875   -0.506708493  -22.819566739   28.815984767  -13.807716872
    1.925492272   -0.506708493  -29.073697404   28.250505916    6.186312095
    2.128175669   -0.506708493  -32.980317369    7.392717825    4.453304294
    2.330859066   -0.506708493  -31.403904340  -21.712533294    7.324998407
    2.533542463   -0.506708493  -24.870027291  -44.382955070   11.067166589
    2.736225860   -0.506708493  -12.133447925  -79.024700268   22.372874919
    2.938909257   -0.506708493    2.559552851  -53.250159328   11.047861152

   -3.141592654   -0.304025096    6.230579525  -20.366631363   27.325275373
   -2.938909257   -0.304025096   10.842339700  -29.804382260   19.094830961
   -2.736225860   -0.304025096   15.443150173   -7.902539805   20.167619426
   -2.533542463   -0.304025096   15.056525027    3.817299530   18.868713003
   -2.330859066   -0.304025096   15.075862757   -1.994087246    9.653642829
   -2.128175669   -0.304025096   15.523642586   -4.160571149   -3.315759595
   -1.925492272   -0.304025096   17.550812307  -16.594566365   -0.313851355
   -1.722808875   -0.304025096   21.557919286  -18.329772627   -5.363245764
   -1.520125478   -0.304025096   23.271001446    1.377047063   15.890385834
   -1.317442081   -0.304025096   22.495413786    4.041370778    9.322261513
   -1.114758684   -0.304025096   20.821513878   14.740745417   15.255066955
   -0.912075287   -0.304025096   16.570898657   29.207525855   25.477509895
   -0.709391890   -0.304025096    6.086272044   79.304580082   57.355296901
   -0.506708493   -0.304025096  -12.179916752   82.722155153   69.360750118
   -0.304025096   -0.304025096  -23.111445490   28.095965786   23.538970065
   -0.101341699   -0.304025096  -27.032412631   16.544938775    6.641842958
    0.101341699   -0.304025096  -30.217212845   13.673573040    5.975315400
    0.304025096   -0.304025096  -32.160503584    4.987157561    0.472727850
    0.506708493   -0.304025096  -32.240287531   -4.780010395    5.184161855
    0.709391890   -0.304025096  -29.362157498  -24.794689967  -12.531360694
    0.912075287   -0.304025096  -23.873912935  -22.050226906  -18.560510275
    1.114758684   -0.304025096  -20.972413943  -13.036984639  -22.712393986
    1.317442081   -0.304025096  -16.606866141  -26.467011716  -37.379505529
    1.520125478   -0.304025096  -14.115653856    9.862145329  -20.832665727
    1.722808875   -0.304025096  -20.605210237   47.416466188   -8.146389119
    1.925492272   -0.304025096  -29.895026994   37.311008649    0.032987707
    2.128175669   -0.304025096  -34.632504467   10.139920723   11.301068869
    2.330859066   -0.304025096  -34.314975754  -13.181067406   15.117306771
    2.533542463   -0.304025096  -29.477519704  -34.777906344   26.075481007
    2.736225860   -0.304025096  -18.868906477  -73.135085874   37.194580568
    2.938909257   -0.304025096   -2.514026644  -71.866365867   43.362214191

   -3.141592654   -0.101341699   -2.110767097  -53.390225266   41.415869305
   -2.938909257   -0.101341699    6.589752321  -31.244480402   20.098288833
   -2.736225860   -0.101341699   11.353642621  -17.399424640    9.435901933
   -2.533542463   -0.101341699   13.633212729   -6.139869863  -11.115127905
   -2.330859066   -0.101341699   15.043217300   -9.715530499  -16.673044478
   -2.128175669   -0.101341699   17.210743251  -10.293625221  -13.347966861
   -1.925492272   -0.101341699   19.336583407  -11.082011574  -19.319536800
   -1.722808875   -0.101341699   21.240548881   -6.356743788    4.812136323
   -1.520125478   -0.101341699   21.757453722    1.967108294    3.167155123
   -1.317442081   -0.101341699   19.910970926   16.045445837   25.244384779
   -1.114758684   -0.101341699   15.900843499   24.791796748   44.181086745
   -0.912075287   -0.101341699    7.027432435   69.751528574   80.156030557
   -0.709391890   -0.101341699  -10.455805738   86.264747480   81.619718735
   -0.506708493   -0.101341699  -22.385926970   30.290083209   26.304721434
   -0.304025096   -0.101341699  -26.399719794   18.346164152   14.915009402
   -0.101341699   -0.101341699  -29.877271888   10.846334246   13.649990601
    0.101341699   -0.101341699  -30.507099001    0.061645650   -5.826399293
    0.304025096   -0.101341699  -31.058402366    2.889092623  -15.062485014
    0.506708493   -0.101341699  -30.151405509  -12.545590956  -31.059763407
    0.709391890   -0.101341699  -26.505422855  -23.654850239  -17.483666895
    0.912075287   -0.101341699  -20.034457519  -39.102858505  -38.826207905
    1.114758684   -0.101341699  -12.150443002  -35.722968775  -71.908527821
    1.317442081   -0.101341699   -6.420573879  -15.813612631  -63.303059231
    1.520125478   -0.101341699   -8.534062869   38.568654350  -40.330241847
    1.722808875   -0.101341699  -19.017245663   54.486083587   -8.172734835
    1.925492272   -0.101341699  -29.216845794   47.046927692   -4.305819481
    2.128175669   -0.101341699  -36.530839343   17.885753050    5.919925537
    2.330859066   -0.101341699  -36.357719737  -12.038473214    8.220647551
    2.533542463   -0.101341699  -33.252747775  -23.004475099   11.129551549
    2.736225860   -0.101341699  -25.184349962  -54.403195650   23.786154237
    2.938909257   -0.101341699  -13.547448826  -57.333429171   49.860977370

   -3.141592654    0.101341699   -5.987388174  -49.772927567   -1.785549309
   -2.938909257    0.101341699    4.062628999  -50.259112604    0.202084908
   -2.736225860    0.101341699   12.351991868  -27.621178029  -11.607306367
   -2.533542463    0.101341699   16.456798360  -17.153926386   -8.664274849
   -2.330859066    0.101341699   19.070055235   -7.621033124  -11.882074485
   -2.128175669    0.101341699   20.897988961  -12.802926039  -16.842653155
   -1.925492272    0.101341699   22.652649306   -0.420279081   -5.449315389
   -1.722808875    0.101341699   22.386259803   -1.003817920  -14.906813902
   -1.520125478    0.101341699   20.843943814   25.059688532    3.499136030
   -1.317442081    0.101341699   13.148598784   41.015846915   34.240053260
   -1.114758684    0.101341699    4.465635997   53.311652168   56.368296465
   -0.912075287    0.101341699   -8.675269848   64.687245813   49.836262061
   -0.709391890    0.101341699  -18.376761206   34.204256764    6.112767573
   -0.506708493    0.101341699  -24.792717994   28.524049292    8.016844768
   -0.304025096    0.101341699  -28.613708841    9.352412673    2.738223781
   -0.101341699    0.101341699  -29.438366710   -0.914194668  -11.262924256
    0.101341699    0.101341699  -28.322560454   -7.977150257  -12.492149804
    0.304025096    0.101341699  -26.556579793  -11.326453917  -23.848294443
    0.506708493    0.101341699  -23.426303856  -18.653022514  -29.578435133
    0.709391890    0.101341699  -17.743362470  -43.895946666  -79.514679165
    0.912075287    0.101341699   -6.297513446  -56.929382029  -73.807433302
    1.114758684    0.101341699    2.154891480  -30.350835547  -47.583215452
    1.317442081    0.101341699    6.897107770   -5.446738798  -58.582015158
    1.520125478    0.101341699   -0.752291700   77.503741257  -24.358622618
    1.722808875    0.101341699  -17.043947374   68.320459351  -12.655710443
    1.925492272    0.101341699  -28.815358690   53.855983951   -1.293591093
    2.128175669    0.101341699  -37.606006466   24.972828388    5.638618142
    2.330859066    0.101341699  -38.471908737  -11.262314474    8.186611329
    2.533542463    0.101341699  -34.731327608  -24.293680398    4.901478093
    2.736225860    0.101341699  -28.317954562  -41.634998216    5.388394731
    2.938909257    0.101341699  -17.440738786  -61.468246871   -8.053127241

   -3.141592654    0.304025096   -3.892895302  -57.098399355  -17.854085044
   -2.938909257    0.304025096    7.393322551  -51.447108358  -28.400150287
   -2.736225860    0.304025096   15.205056584  -24.290006338  -23.267085155
   -2.533542463    0.304025096   18.499683566  -11.624747216  -16.864959753
   -2.330859066    0.304025096   20.310187662   -7.352675404  -10.319504424
   -2.128175669    0.304025096   22.127374250   -9.493871133   -3.816270882
   -1.925492272    0.304025096   23.219012828   -2.524805726  -13.828179563
   -1.722808875    0.304025096   23.973962419    0.250218743    1.872726428
   -1.520125478    0.304025096   18.799811966   54.548745920   26.463544203
   -1.317442081    0.304025096    5.803668743   61.784042407   41.184946713
   -1.114758684    0.304025096   -5.741669929   55.138514817   45.776082530
   -0.912075287    0.304025096  -15.161369317   33.822264455   31.062869678
   -0.709391890    0.304025096  -21.525283371   35.595612032   23.557938907
   -0.506708493    0.304025096  -27.360008848   11.686134085   10.880328818
   -0.304025096    0.304025096  -27.801172168    5.904730627   -6.569260804
   -0.101341699    0.304025096  -29.479675376   -4.073401898    6.465294776
    0.101341699    0.304025096  -24.901539595  -26.016887545  -24.773409346
    0.304025096    0.304025096  -22.254591296  -13.307216862  -24.343091618
    0.506708493    0.304025096  -12.674788799  -80.220533885  -89.909724654
    0.709391890    0.304025096    2.310574195  -47.230056798  -92.972272016
    0.912075287    0.304025096    5.344979318    3.246317532  -63.216471701
    1.114758684    0.304025096    8.022679842  -36.800416556  -31.410544861
    1.317442081    0.304025096   14.023606071    6.189513878   -9.892343855
    1.520125478    0.304025096    1.981597059   91.626320082  -13.828796230
    1.722808875    0.304025096  -13.667897201   60.611001844  -18.766358735
    1.925492272    0.304025096  -27.172882066   73.865181422  -16.551404263
    2.128175669    0.304025096  -37.640181602   18.103028487   -8.671930663
    2.330859066    0.304025096  -37.404070080   -6.985080533  -17.466553041
    2.533542463    0.304025096  -35.203200491  -22.706488675   -2.232259782
    2.736225860    0.304025096  -27.149998645  -52.497149317  -13.638950341
    2.938909257    0.304025096  -15.650521870  -58.702780731   -4.466230049

   -3.141592654    0.506708493    1.643324925  -54.328429005  -32.298185416
   -2.938909257    0.506708493   12.536824687  -60.318075952  -20.787537725
   -2.736225860    0.506708493   21.788984650  -17.256528625  -29.529128698
   -2.533542463    0.506708493   22.071836689   -2.584916070  -14.542183571
   -2.330859066    0.506708493   24.603592180  -16.379959712  -26.549286776
   -2.128175669    0.506708493   28.008738809  -17.728887912  -52.903248551
   -1.925492272    0.506708493   29.469248580   10.450888242  -33.613807763
   -1.722808875    0.506708493   23.635472103   45.351650861    0.857215795
   -1.520125478    0.506708493   11.067889177   73.125239534   33.993007025
   -1.317442081    0.506708493   -1.375157549   45.944695592   22.165952580
   -1.114758684    0.506708493  -10.937899057   51.834946761   -2.083623723
   -0.912075287    0.506708493  -18.020285541   11.998103202  -18.362269693
   -0.709391890    0.506708493  -21.140292457   30.933288043  -24.909658046
   -0.506708493    0.506708493  -26.204517804    4.169635523  -20.592490351
   -0.304025096    0.506708493  -26.077307038    8.841433562  -14.513739591
   -0.101341699    0.506708493  -26.047962383  -25.774954008  -41.471869836
    0.101341699    0.506708493  -19.462763542  -20.440229232  -23.868978726
    0.304025096    0.506708493  -12.401898247  -77.699161419  -79.492003384
    0.506708493    0.506708493    7.078938547  -71.458149110  -76.589465166
    0.709391890    0.506708493   14.794353055  -42.914524463  -46.185571486
    0.912075287    0.506708493   26.869366856  -30.516973108 -129.760312058
    1.114758684    0.506708493   18.430785284   72.537791987  -61.217064771
    1.317442081    0.506708493   13.630314505   -7.020437004    3.349641820
    1.520125478    0.506708493    4.937304495   93.429247304   -3.492297430
    1.722808875    0.506708493  -10.934067866   51.167049190   -5.094997680
    1.925492272    0.506708493  -23.704442871   81.773800722  -11.130352843
    2.128175669    0.506708493  -34.747864717   11.269965336  -15.533227437
    2.330859066    0.506708493  -34.422664840    3.020205948   -7.175064472
    2.533542463    0.506708493  -33.002257877  -29.700924618  -18.830778204
    2.736225860    0.506708493  -24.389136643  -46.800514455  -13.640691475
    2.938909257    0.506708493  -12.361209942  -74.925277114  -34.048638568

   -3.141592654    0.709391890    6.960889573  -53.850499967  -21.866680353
   -2.938909257    0.709391890   18.186770901  -49.925097395  -38.415597657
   -2.736225860    0.709391890   24.521667653  -13.402055262   -6.809090195
   -2.533542463    0.709391890   25.755389011   -4.744078365  -24.201312786
   -2.330859066    0.709391890   29.003476506  -31.139606257  -16.082536290
   -2.128175669    0.709391890   35.472205123  -16.281052522   -4.507043355
   -1.925492272    0.709391890   32.046598108   44.366434086    2.326991307
   -1.722808875    0.709391890   21.231947071   59.579121385   21.848559793
   -1.520125478    0.709391890    7.673281569   70.059083720    8.008922585
   -1.317442081    0.709391890   -3.928008724   39.863617218    8.473576532
   -1.114758684    0.709391890   -9.422083586   19.893159464    4.949814290
   -0.912075287    0.709391890  -13.848084099   26.302917481    2.770618335
   -0.709391890    0.709391890  -19.436568052   23.687692000    8.853242846
   -0.506708493    0.709391890  -22.171419553    4.087728975  -16.466618096
   -0.304025096    0.709391890  -21.530387363  -10.313235138  -25.498299904
   -0.101341699    0.709391890  -18.734477984  -16.037939283  -25.425840584
    0.101341699    0.709391890  -11.702818435  -67.061081053  -71.481815504
    0.304025096    0.709391890    6.751581833  -88.039082042  -90.341251066
    0.506708493    0.709391890   17.089260243  -30.185175555  -42.442465519
    0.709391890    0.709391890   30.156929865  -99.140798754 -102.008739774
    0.912075287    0.709391890   42.692130148   11.053613349  -11.916568032
    1.114758684    0.709391890   28.597988676   91.206156070  -36.312668760
    1.317442081    0.709391890   14.178809853   56.039959161   -4.005511321
    1.520125478    0.709391890    1.947654084   66.353554247   21.939615909
    1.722808875    0.709391890  -11.437807125   63.515794617    6.419673210
    1.925492272    0.709391890  -23.329322346   52.151018391    3.029601828
    2.128175669    0.709391890  -31.645803935   26.551365068  -16.768429257
    2.330859066    0.709391890  -32.930382911  -12.358546306  -13.854897802
    2.533542463    0.709391890  -28.909128431  -25.100059301  -19.180798235
    2.736225860    0.709391890  -20.243670432  -66.323810957  -28.809215015
    2.938909257    0.709391890   -4.887804878  -70.809097076  -29.475566893

   -3.141592654    0.912075287   12.564877121  -68.532964166  -31.964124017
   -2.938909257    0.912075287   25.181055751  -41.986288515  -19.908867892
   -2.736225860    0.912075287   28.228086765    1.167271941  -23.785254232
   -2.533542463    0.912075287   29.452570047  -15.059305552   -7.772702847
   -2.330859066    0.912075287   31.637552413   -2.802430611  -11.950088905
   -2.128175669    0.912075287   33.001277799  -15.506131554   10.371099038
   -1.925492272    0.912075287   33.282680801   32.209759154  -12.480010146
   -1.722808875    0.912075287   19.760601013   80.132402554  -15.210091129
   -1.520125478    0.912075287    6.966084947   50.152897101  -12.476575203
   -1.317442081    0.912075287   -3.668187176   50.968996236  -17.039902986
   -1.114758684    0.912075287  -10.611227477   19.500942346  -14.751501549
   -0.912075287    0.912075287  -14.360545815   17.284394179  -28.174346498
   -0.709391890    0.912075287  -16.027771225    2.382713035  -46.815095646
   -0.506708493    0.912075287  -17.700070319   10.718877211  -30.053642063
   -0.304025096    0.912075287  -16.629735407  -24.170532692  -30.657968395
   -0.101341699    0.912075287   -8.351155407  -62.723346539  -93.474636351
    0.101341699    0.912075287    9.248783381  -91.578882636 -107.114408344
    0.304025096    0.912075287   19.209337233  -11.264562287  -35.112466377
    0.506708493    0.912075287   27.016595519  -84.482379427  -41.050959845
    0.709391890    0.912075287   42.583164008  -29.441958233    6.592387043
    0.912075287    0.912075287   39.377340525   31.654950782   21.854355116
    1.114758684    0.912075287   31.892332346   62.888953338    9.773319980
    1.317442081    0.912075287   13.106803303   95.619870157   14.349794484
    1.520125478    0.912075287   -0.116781980   47.348365271    0.621498670
    1.722808875    0.912075287  -12.409911615   70.015140914    3.920762276
    1.925492272    0.912075287  -23.324419620   35.075803577   -2.392202534
    2.128175669    0.912075287  -28.748042414   18.377159919   -7.247998779
    2.330859066    0.912075287  -29.142258597  -12.949801181  -17.426907619
    2.533542463    0.912075287  -24.954977935  -31.947044334  -20.559843223
    2.736225860    0.912075287  -13.863846661  -73.684556265  -30.717828896
    2.938909257    0.912075287    0.210511615  -59.368313720  -28.311109890

   -3.141592654    1.114758684   16.937817976  -47.112540680   -8.447347438
   -2.938909257    1.114758684   26.050380388  -38.684711585    2.433950405
   -2.736225860    1.114758684   30.235521230   -3.217543749    0.592997715
   -2.533542463    1.114758684   31.532010181  -18.395868773  -18.990515878
   -2.330859066    1.114758684   35.036102704   -2.760840159  -22.924356351
   -2.128175669    1.114758684   33.189609515    7.634059667   -5.938379313
   -1.925492272    1.114758684   32.280774743   16.393526075   22.053302652
   -1.722808875    1.114758684   23.829431874   55.831135168  -12.422100511
   -1.520125478    1.114758684   13.522021334   50.571851617  -34.814118207
   -1.317442081    1.114758684    1.733902282   54.869982861  -28.439200771
   -1.114758684    1.114758684   -3.787079104    4.340551700  -30.086516181
   -0.912075287    1.114758684   -6.085691834   23.363530241  -19.424772387
   -0.709391890    1.114758684   -9.789369864    7.209673207   -7.471115177
   -0.506708493    1.114758684  -10.396238930   -1.802081205  -47.772201598
   -0.304025096    1.114758684   -4.175552792  -68.767022123  -95.247763335
   -0.101341699    1.114758684   13.010406222  -77.254043223  -86.060984305
    0.101341699    1.114758684   21.987890657  -15.726544041  -22.176059586
    0.304025096    1.114758684   24.553066132  -21.065164070  -21.462043971
    0.506708493    1.114758684   30.895139055  -32.326434278   -9.385648230
    0.709391890    1.114758684   34.666518174   -6.549373952   29.072213405
    0.912075287    1.114758684   34.773709508   11.835823689   29.857442630
    1.114758684    1.114758684   25.686645098   76.313774285   37.123575318
    1.317442081    1.114758684   10.503262986   59.764059488    6.314808006
    1.520125478    1.114758684   -0.530656424   61.300602222    3.407241952
    1.722808875    1.114758684  -13.868120441   59.515399212    9.506553995
    1.925492272    1.114758684  -23.290101615   37.316865769    1.035834593
    2.128175669    1.114758684  -28.525414459    8.448297618   -0.539651715
    2.330859066    1.114758684  -26.910914010  -17.875684777   -6.898637348
    2.533542463    1.114758684  -21.370496452  -44.255684892  -12.718545184
    2.736225860    1.114758684   -8.065095475  -78.816208486  -26.115632360
    2.938909257    1.114758684    6.471931208  -60.099386826  -26.964099296

   -3.141592654    1.317442081   18.359182543  -39.788030194  -11.236883614
   -2.938909257    1.317442081   26.935189454  -40.496032371  -11.222464646
   -2.736225860    1.317442081   31.861385238   -7.017151083  -14.794098684
   -2.533542463    1.317442081   34.056848088  -25.297790389    4.157316504
   -2.330859066    1.317442081   38.912393857   -3.184724862   -6.208339140
   -2.128175669    1.317442081   34.341294875   30.334787978   -5.239668712
   -1.925492272    1.317442081   31.121624555   10.162742946  -20.028532114
   -1.722808875    1.317442081   25.472483087   44.281165735  -12.827669079
   -1.520125478    1.317442081   16.638592411   40.221955141   -7.817745287
   -1.317442081    1.317442081    8.042155791   43.725432690  -39.844949184
   -1.114758684    1.317442081    0.775627396   26.279555021  -40.271160233
   -0.912075287    1.317442081   -2.865813114    7.580916325  -55.615906365
   -0.709391890    1.317442081   -1.152501794  -23.499911272  -96.787471827
   -0.506708493    1.317442081    5.698293994  -43.988985063 -106.725803232
   -0.304025096    1.317442081   15.784735733  -47.648591230  -78.037755962
   -0.101341699    1.317442081   22.496179148  -20.047230260  -18.335642143
    0.101341699    1.317442081   25.265861948   -6.949856976  -14.880844026
    0.304025096    1.317442081   26.604966824  -17.756139207    4.347230389
    0.506708493    1.317442081   34.097308301  -40.306522557  -10.829628205
    0.709391890    1.317442081   34.998913681   31.820235000   -4.461890802
    0.912075287    1.317442081   28.086048076   26.043461715   29.884013009
    1.114758684    1.317442081   21.178865694   50.579467484   10.428766467
    1.317442081    1.317442081   10.240806403   49.077531914    1.722517159
    1.520125478    1.317442081   -0.924796959   68.865657346    3.461911258
    1.722808875    1.317442081  -14.690211930   53.480324027   -2.139237045
    1.925492272    1.317442081  -22.665392239   33.910387807   -5.236642665
    2.128175669    1.317442081  -27.780351213    7.097174009   -2.734963337
    2.330859066    1.317442081  -25.587673917  -20.096775138   -5.599705489
    2.533542463    1.317442081  -19.456402431  -50.941158190   -8.034425887
    2.736225860    1.317442081   -4.230549626  -86.070386291  -10.223950133
    2.938909257    1.317442081    9.916823131  -50.371510054   -8.136795925

   -3.141592654    1.520125478   20.711602795  -45.256487864   -7.553011657
   -2.938909257    1.520125478   28.940784646  -34.258452966   -3.981757045
   -2.736225860    1.520125478   32.260880840    2.435721689   10.532626953
   -2.533542463    1.520125478   32.662162806  -18.101326962   -4.948687668
   -2.330859066    1.520125478   36.482254859   -1.826900758   22.226235932
   -2.128175669    1.520125478   33.837844290    9.249255088   10.771677686
   -1.925492272    1.520125478   34.642708792    0.032146754    2.716413210
   -1.722808875    1.520125478   29.061949282   45.565001955  -16.224139335
   -1.520125478    1.520125478   21.993978880   22.575125610  -38.271726975
   -1.317442081    1.520125478   17.496023857   21.450772140  -46.259675647
   -1.114758684    1.520125478   15.416427445   -0.214142137  -75.714297827
   -0.912075287    1.520125478   15.295287967    1.792502613  -72.692837114
   -0.709391890    1.520125478   17.212818968  -24.008185096  -49.337424300
   -0.506708493    1.520125478   22.556636228  -18.879967052  -36.659120804
   -0.304025096    1.520125478   23.404765003    6.031467373   -4.891060774
   -0.101341699    1.520125478   23.141426138   -6.915181121   12.025732292
    0.101341699    1.520125478   24.013423268    5.378129962   29.967532404
    0.304025096    1.520125478   23.410326413  -14.641840882   24.151965356
    0.506708493    1.520125478   29.776665713  -26.735272448   49.718237906
    0.709391890    1.520125478   28.208552597   32.915506762   61.176698487
    0.912075287    1.520125478   23.261377811   14.454575875   19.993975178
    1.114758684    1.520125478   17.734707199   44.002743222   26.020937885
    1.317442081    1.520125478    8.593010046   43.061228708   10.822534737
    1.520125478    1.520125478   -2.576399823   69.267042117    7.676126622
    1.722808875    1.520125478  -15.314682332   48.014887786   12.848445898
    1.925492272    1.520125478  -23.664097460   38.573248639   15.912984743
    2.128175669    1.520125478  -28.015383175   -3.187541071    0.033636718
    2.330859066    1.520125478  -24.663614301  -20.936870053   -5.354172941
    2.533542463    1.520125478  -17.814655586  -56.779996206   -9.901897065
    2.736225860    1.520125478   -2.888361536  -76.659583110   -7.186761332
    2.938909257    1.520125478   10.383381919  -56.397608569    0.875671822

   -3.141592654    1.722808875   21.267875555  -45.468903774    0.767731092
   -2.938909257    1.722808875   28.277879722  -22.971669670    5.483071930
   -2.736225860    1.722808875   31.931231820  -17.354012277  -11.392685770
   -2.533542463    1.722808875   34.908392420   -6.931074483   -2.404021424
   -2.330859066    1.722808875   34.447687825    6.238033965   -7.142654045
   -2.128175669    1.722808875   33.705745693    3.158049811  -17.101864793
   -1.925492272    1.722808875   32.610154357    5.243578726   -0.912139509
   -1.722808875    1.722808875   31.418548628   12.532641143   -8.960067854
   -1.520125478    1.722808875   26.994778949   22.046539039  -14.047065937
   -1.317442081    1.722808875   25.373899664   -0.475355204  -31.654523033
   -1.114758684    1.722808875   23.658046005   14.272032204  -26.182683255
   -0.912075287    1.722808875   24.083212443  -19.932885688  -70.963082312
   -0.709391890    1.722808875   26.531877002    6.225752202  -80.565811974
   -0.506708493    1.722808875   23.804574432   10.081640074   -1.239863141
   -0.304025096    1.722808875   22.461724915    8.535253359    9.001063789
   -0.101341699    1.722808875   20.521743232    8.083977422    2.695238585
    0.101341699    1.722808875   18.335955201   14.109870222   15.630653529
    0.304025096    1.722808875   17.751435903  -13.845414471   28.463411639
    0.506708493    1.722808875   20.353406440    1.518409590   33.843146424
    0.709391890    1.722808875   18.400808517    3.390158921   29.805012321
    0.912075287    1.722808875   19.071961347    5.266736892   22.127244675
    1.114758684    1.722808875   13.982553854   33.179373508    1.492361598
    1.317442081    1.722808875    8.743056513   28.074267887  -14.978457323
    1.520125478    1.722808875   -2.285929721   78.153749565   -7.263802466
    1.722808875    1.722808875  -17.080705463   56.588812703   -7.708975654
    1.925492272    1.722808875  -24.862835413   22.610933931  -14.873994880
    2.128175669    1.722808875  -26.387713709   -6.424350888  -11.984612853
    2.330859066    1.722808875  -23.082605806  -27.061177951   -8.300115695
    2.533542463    1.722808875  -14.190576430  -60.513573814  -25.357450015
    2.736225860    1.722808875   -0.862607109  -64.281275997  -11.065770587
    2.938909257    1.722808875   10.986828803  -54.050116947   -6.675229173

   -3.141592654    1.925492272   20.608097697  -41.171531346    3.044069320
   -2.938909257    1.925492272   29.679904329  -46.676870816  -22.828745419
   -2.736225860    1.925492272   35.661478798   -5.161851884  -31.755729205
   -2.533542463    1.925492272   34.566631069    1.102517638  -13.330700304
   -2.330859066    1.925492272   36.891003701  -14.581656757   -6.192240634
   -2.128175669    1.925492272   37.196923907    9.768104734   -3.028875931
   -1.925492272    1.925492272   35.074875030   10.363355236   -8.772906577
   -1.722808875    1.925492272   32.585431496   10.959317673   -3.385902957
   -1.520125478    1.925492272   31.812484205    1.507635783  -29.855986398
   -1.317442081    1.925492272   29.959158019    7.876752306  -14.926725521
   -1.114758684    1.925492272   36.360839219  -77.096101672  -86.755296036
   -0.912075287    1.925492272   50.745427084  -25.554925769 -121.363967588
   -0.709391890    1.925492272   42.219598891   87.450439486  -19.055075851
   -0.506708493    1.925492272   25.969876637   59.420228751   -9.359269770
   -0.304025096    1.925492272   19.575077713    4.095357129   18.491537675
   -0.101341699    1.925492272   20.644463294    3.207870054   10.877350070
    0.101341699    1.925492272   15.299524604   36.116097747   23.554731286
    0.304025096    1.925492272   12.865585037  -12.503387513   21.269802295
    0.506708493    1.925492272   14.515377464    5.755247999   29.904968072
    0.709391890    1.925492272   13.346374661   -4.776524135   22.877168427
    0.912075287    1.925492272   15.693793205   -9.592022350    5.446731421
    1.114758684    1.925492272   16.128651909    4.334387694   -9.826589474
    1.317442081    1.925492272   11.964157031   44.525660719   -7.768726729
    1.520125478    1.925492272   -1.026380813   70.795634390   -9.375361917
    1.722808875    1.925492272  -12.664068764   43.528189132  -20.865320579
    1.925492272    1.925492272  -20.325758120   34.029574599  -11.591990393
    2.128175669    1.925492272  -25.310797553    9.490972974   -0.368908444
    2.330859066    1.925492272  -22.122236831  -42.303694874   -1.868438403
    2.533542463    1.925492272  -10.527214466  -61.624006319   -3.133438243
    2.736225860    1.925492272    0.619000405  -50.735008063   -0.812328470
    2.938909257    1.925492272   11.278357926  -52.549762547    5.335050679

   -3.141592654    2.128175669   21.995497606  -52.437363329  -18.292905541
   -2.938909257    2.128175669   35.738827356  -83.745583377  -28.073933983
   -2.736225860    2.128175669   48.371898891  -15.042967713  -78.149439330
   -2.533542463    2.128175669   41.476886409   54.594011301  -33.102837128
   -2.330859066    2.128175669   36.299059428   -2.610075593    2.557383892
   -2.128175669    2.128175669   36.261299220   10.181322839   -2.496238131
   -1.925492272    2.128175669   34.658013972    0.958379734    3.759614538
   -1.722808875    2.128175669   34.532262093    2.149876189  -16.428459446
   -1.520125478    2.128175669   34.574591741   -0.555761013   -0.947142279
   -1.317442081    2.128175669   34.462433202  -10.858631652  -35.237321265
   -1.114758684    2.128175669   44.166011676  -71.608721920   21.293863456
   -0.912075287    2.128175669   48.476129479   50.721773393  112.691195320
   -0.709391890    2.128175669   33.671359554   54.647235810   47.336689960
   -0.506708493    2.128175669   27.164395535   36.703457649  -13.634444523
   -0.304025096    2.128175669   17.332359560   35.764829389   -2.331323655
   -0.101341699    2.128175669   15.672450226    3.572436998   23.351696161
    0.101341699    2.128175669    9.996640099   36.923828977   21.646246680
    0.304025096    2.128175669    8.064743610  -12.362129700   24.505420938
    0.506708493    2.128175669    8.703942142    5.813358321   22.862610455
    0.709391890    2.128175669   11.052050645  -31.881960934   -1.651249731
    0.912075287    2.128175669   16.139509764   -6.788549644   -0.397226835
    1.114758684    2.128175669   15.210561209    8.354267780   11.257329347
    1.317442081    2.128175669   12.169011581   27.741563173   -2.354685134
    1.520125478    2.128175669    3.087974645   60.968983327  -24.942607521
    1.722808875    2.128175669  -11.218097507   71.570099612   -5.217885422
    1.925492272    2.128175669  -21.549811082   25.846983953    6.964066175
    2.128175669    2.128175669  -23.686247123    1.257835058  -17.456818931
    2.330859066    2.128175669  -21.273513227  -30.495953136   -7.919168353
    2.533542463    2.128175669  -11.878604577  -54.734833124    6.538014525
    2.736225860    2.128175669   -0.859848934  -55.356227756   11.220323130
    2.938909257    2.128175669   11.060639694  -59.291484612   -8.210763468

   -3.141592654    2.330859066   26.834014282  -39.273321198  -28.558032602
   -2.938909257    2.330859066   38.303651716  -87.729219606    5.677155108
   -2.736225860    2.330859066   52.197619895   -7.789425598   57.655521138
   -2.533542463    2.330859066   41.871415524   63.538489362   19.239295187
   -2.330859066    2.330859066   38.816569311  -18.616737133  -22.766350668
   -2.128175669    2.330859066   38.243140201   26.975290340   -3.654741757
   -1.925492272    2.330859066   35.298116099   -6.640257794   -8.015038665
   -1.722808875    2.330859066   36.853162060   -1.362497628   -4.747142491
   -1.520125478    2.330859066   38.657670713  -21.293423270  -43.603166839
   -1.317442081    2.330859066   41.699885709    1.462633476  -25.432290410
   -1.114758684    2.330859066   39.292692659   14.844915005   -2.265693090
   -0.912075287    2.330859066   35.947207524   17.601483995  -16.884631202
   -0.709391890    2.330859066   34.406048142   -1.784655625  -26.798326961
   -0.506708493    2.330859066   31.036460488   46.373809757   -6.774972555
   -0.304025096    2.330859066   19.814037168   44.696425408  -12.281860159
   -0.101341699    2.330859066   13.273804926   33.864615437   13.094939320
    0.101341699    2.330859066    5.602502859   27.546074552   27.665071772
    0.304025096    2.330859066    4.428137881   -6.266576248   12.829212791
    0.506708493    2.330859066    5.796571874  -14.182618905    7.676189724
    0.709391890    2.330859066   11.646289210  -33.398773039    0.861257137
    0.912075287    2.330859066   15.202206488   -4.487094996   -0.831116669
    1.114758684    2.330859066   16.364007939   -4.543693828  -24.271132150
    1.317442081    2.330859066   13.624670524   32.537489071   -5.736273182
    1.520125478    2.330859066    5.904440082   41.945125256   -7.464536371
    1.722808875    2.330859066   -5.830282476   74.092276067  -41.509156177
    1.925492272    2.330859066  -18.364340931   33.928067424  -29.461983986
    2.128175669    2.330859066  -20.371995626   -0.319158905  -10.484003980
    2.330859066    2.330859066  -19.552153451  -17.736609763   -6.332624189
    2.533542463    2.330859066  -11.437718277  -53.080855847   -7.052459579
    2.736225860    2.330859066   -1.128519493  -54.761969223  -10.816416675
    2.938909257    2.330859066   13.952477776  -86.139806541  -19.338195839

   -3.141592654    2.533542463   34.602282401  -14.199294373  -44.564827502
   -2.938909257    2.533542463   34.795246561  -11.241300563   18.488843536
   -2.736225860    2.533542463   38.532138398  -12.604089149   29.740285204
   -2.533542463    2.533542463   40.215830457  -11.335106166   -3.582984195
   -2.330859066    2.533542463   40.963481651   13.749269166    6.187615603
   -2.128175669    2.533542463   37.588083936    3.007607461   -5.012122046
   -1.925492272    2.533542463   39.209785541   -3.574503559  -34.812135453
   -1.722808875    2.533542463   39.341490753  -15.592435929  -20.924665032
   -1.520125478    2.533542463   46.045808358  -26.836432907  -13.997604468
   -1.317442081    2.533542463   44.349422545   29.497520558   -4.297136278
   -1.114758684    2.533542463   41.942157276   -5.077554079    0.305997798
   -0.912075287    2.533542463   40.469631556   26.321437460    6.330649422
   -0.709391890    2.533542463   33.861460953   33.126540506   22.636322069
   -0.506708493    2.533542463   26.606883519   39.134171791   38.234265739
   -0.304025096    2.533542463   18.209135077   47.433168346   31.627613879
   -0.101341699    2.533542463    6.576536919   58.500346152   46.165598234
    0.101341699    2.533542463   -0.333946034    7.249066635   25.311236164
    0.304025096    2.533542463    0.314783379   -8.623937873   29.747743990
    0.506708493    2.533542463    4.538239494  -33.829109006    6.510327631
    0.709391890    2.533542463   11.303177186  -29.606843361   -1.329798469
    0.912075287    2.533542463   18.525390762  -41.481157957  -23.558671532
    1.114758684    2.533542463   22.102489207   20.285147474  -32.365312706
    1.317442081    2.533542463   14.193345677   33.458114837   -9.027851723
    1.520125478    2.533542463   10.580497682   22.682082732  -36.494190454
    1.722808875    2.533542463   -1.701810555   90.251418771    9.415429362
    1.925492272    2.533542463  -16.111308198   35.447251354   10.028454538
    2.128175669    2.533542463  -18.793952197    7.038756899   -7.727820857
    2.330859066    2.533542463  -19.096271674  -17.364917044    1.285993992
    2.533542463    2.533542463  -10.518340954  -54.659061749   -1.931626164
    2.736225860    2.533542463    0.646985865  -68.065128761    2.806887377
    2.938909257    2.533542463   20.707324906 -113.091027666  -45.794220331

   -3.141592654    2.736225860   38.838219491   17.587214842   16.349866014
   -2.938909257    2.736225860   34.337482625  -10.794469846  -11.182006059
   -2.736225860    2.736225860   40.134725700  -17.190972806   -9.267606597
   -2.533542463    2.736225860   39.523076351    7.091151754   11.787308511
   -2.330859066    2.736225860   39.357001107    0.127109644    1.398861018
   -2.128175669    2.736225860   41.017444877  -24.265253401   -8.572273713
   -1.925492272    2.736225860   44.650174291    9.475449222    1.739111108
   -1.722808875    2.736225860   39.613757952    9.543143545   27.523074114
   -1.520125478    2.736225860   44.049991298  -26.162140746   28.945123184
   -1.317442081    2.736225860   42.033063602   33.886800801   29.603229793
   -1.114758684    2.736225860   38.459037667    1.245865961   18.110717081
   -0.912075287    2.736225860   36.520709657   21.343373008   18.650816480
   -0.709391890    2.736225860   31.269308007   34.168088955   10.037481792
   -0.506708493    2.736225860   20.562281771   64.929445415   23.670310962
   -0.304025096    2.736225860    8.970679948   50.671442918   52.227168251
   -0.101341699    2.736225860   -1.638492818   45.962408809   36.328890105
    0.101341699    2.736225860   -5.561116075   -1.780599828   32.488361503
    0.304025096    2.736225860   -5.100892432   -9.201589868   18.611677680
    0.506708493    2.736225860    3.370521231  -65.896461533    3.812346354
    0.709391890    2.736225860   12.338270369  -21.759670227   -5.431657170
    0.912075287    2.736225860   22.795165289  -90.213879963  -26.447899836
    1.114758684    2.736225860   33.349833188   28.341992925  -74.752758169
    1.317442081    2.736225860   18.557088401   61.980259662  -20.456822296
    1.520125478    2.736225860   12.853276748   36.076681294   28.736270202
    1.722808875    2.736225860   -5.501979239  115.465064119   14.329044608
    1.925492272    2.736225860  -17.925542851    4.428811322    0.529080580
    2.128175669    2.736225860  -18.781600035   21.277178278   14.695751266
    2.330859066    2.736225860  -20.209048728  -27.672687726   11.321701272
    2.533542463    2.736225860  -11.210740054  -37.860446406   13.846952426
    2.736225860    2.736225860   -2.543370317  -81.189815511   22.549991169
    2.938909257    2.736225860   25.000309093 -149.613494611   24.763207106

   -3.141592654    2.938909257   30.641867134  -48.158981016   44.469248233
   -2.938909257    2.938909257   34.482316495  -10.140086458   16.638263438
   -2.736225860    2.938909257   37.210740361   -9.607363859   19.352280611
   -2.533542463    2.938909257   38.233404234   -6.467148369    0.957812787
   -2.330859066    2.938909257   38.375636851   13.771446581   20.849656175
   -2.128175669    2.938909257   35.652046816   -4.900204766   49.339304667
   -1.925492272    2.938909257   39.143762913   -5.451976050   28.279150289
   -1.722808875    2.938909257   35.296430374   21.035220246   -8.279399252
   -1.520125478    2.938909257   36.779693232  -23.123060626   27.787089039
   -1.317442081    2.938909257   37.926714861    9.775242018   -6.875545432
   -1.114758684    2.938909257   36.174043656   11.712908795   16.554558756
   -0.912075287    2.938909257   30.704135684   34.005930111   40.966644341
   -0.709391890    2.938909257   25.789302362   25.545899722   38.216933224
   -0.506708493    2.938909257   13.636964308   90.557578668   47.879390767
   -0.304025096    2.938909257   -2.308095303   53.933684528   61.158497415
   -0.101341699    2.938909257  -10.268697041   30.097265084   46.382289487
    0.101341699    2.938909257  -13.034535764   -4.703861007   35.213828532
    0.304025096    2.938909257   -9.275199090  -35.374896172   30.269042149
    0.506708493    2.938909257    2.000076357  -63.123454153   14.709036403
    0.709391890    2.938909257   11.410897202  -42.946529316   17.765882778
    0.912075287    2.938909257   28.789734919 -118.933535150   -9.475905247
    1.114758684    2.938909257   39.047310750   57.702307425   51.778437907
    1.317442081    2.938909257   15.864463567  109.109903308   46.498055422
    1.520125478    2.938909257    3.489635008   38.639015406   39.791269185
    1.722808875    2.938909257   -7.947003488   67.371422770   19.639431373
    1.925492272    2.938909257  -18.878360201   39.603281699   17.004283808
    2.128175669    2.938909257  -24.935163293   16.326166243   38.519734711
    2.330859066    2.938909257  -23.914446556  -23.808073117   23.543899579
    2.533542463    2.938909257  -17.419038155  -37.751192234   44.720223448
    2.736225860    2.938909257   -7.472228923  -68.177311345   28.271338404
    2.938909257    2.938909257   12.146209357 -116.519598965   77.360500100
