#! FIELDS phi psi b1.bias der_phi der_psi
#! SET min_phi -pi
#! SET max_phi pi
#! SET nbins_phi  31
#! SET periodic_phi true
#! SET min_psi -pi
#! SET max_psi pi
#! SET nbins_psi  31
#! SET periodic_psi true
   -3.141592654   -3.141592654   10.013818182  -54.535392149   16.490433011
   -2.938909257   -3.141592654   17.508953869  -22.158576572   11.977904492
   -2.736225860   -3.141592654   21.055487022  -13.458511851   17.411688973
   -2.533542463   -3.141592654   22.109300946    2.625977589   17.893358833
   -2.330859066   -3.141592654   21.100085269    5.879660639   16.481867773
   -2.128175669   -3.141592654   19.991970461    2.951764803   14.423330626
   -1.925492272   -3.141592654   20.247117730   -2.358958138   13.161798283
   -1.722808875   -3.141592654   19.970586469    1.904810319   15.383580578
   -1.520125478   -3.141592654   21.320503722  -13.614413965    9.568871604
   -1.317442081   -3.141592654   22.433250277    7.941480187   15.167141841
   -1.114758684   -3.141592654   18.990250599   21.621247256   32.757862502
   -0.912075287   -3.141592654   13.525753523   35.457762285   35.152546383
   -0.709391890   -3.141592654    4.337693263   53.629346825   45.985174925
   -0.506708493   -3.141592654   -7.650796867   63.050386254   52.887246573
   -0.304025096   -3.141592654  -19.955776571   54.550333426   55.643850387
   -0.101341699   -3.141592654  -28.280503111   23.274879688   39.551787058
    0.101341699   -3.141592654  -27.681781362  -30.515264797   13.395987323
    0.304025096   -3.141592654  -17.346361120  -64.948544414   -5.345426345
    0.506708493   -3.141592654   -3.852776758  -63.206590443   -4.559324082
    0.709391890   -3.141592654    7.192571722  -45.911239155   -6.924008039
    0.912075287   -3.141592654   14.531834251  -22.094417595   20.185779507
    1.114758684   -3.141592654   14.110462535   25.735968033   34.417132169
    1.317442081   -3.141592654    6.744496571   41.532126911    9.535569537
    1.520125478   -3.141592654   -3.084590471   57.367032121   15.472834229
    1.722808875   -3.141592654  -15.002634578   54.657334875   13.805699888
    1.925492272   -3.141592654  -25.048891564   46.141852228   18.677276609
    2.128175669   -3.141592654  -32.173092276   17.152861099   18.921733943
    2.330859066   -3.141592654  -31.499958294  -19.511614932   24.369899405
    2.533542463   -3.141592654  -25.010693223  -45.753201089   24.483376867
    2.736225860   -3.141592654  -13.911535018  -57.675523305   25.019514191
    2.938909257   -3.141592654   -2.361473036  -59.732576132   19.058662632

   -3.141592654   -2.938909257    4.643877839  -57.094505456   33.451844810
   -2.938909257   -2.938909257   13.300283137  -25.468875083   29.240080559
   -2.736225860   -2.938909257   16.178408600   -8.541288267   25.241372962
   -2.533542463   -2.938909257   17.705731810   -4.937468925   22.481991376
   -2.330859066   -2.938909257   17.480875369    6.297319460   19.516921595
   -2.128175669   -2.938909257   16.428969865    1.644861755   20.362823874
   -1.925492272   -2.938909257   16.314094805    2.359476367   23.668815003
   -1.722808875   -2.938909257   15.875026635   -2.678092376   21.240053329
   -1.520125478   -2.938909257   17.713129186   -9.228256031   27.753972198
   -1.317442081   -2.938909257   16.970954284   16.789943127   35.700346756
   -1.114758684   -2.938909257   12.643779501   24.109240302   30.507692074
   -0.912075287   -2.938909257    5.782886298   47.115359596   44.825298876
   -0.709391890   -2.938909257   -5.785942969   62.813242336   51.977476287
   -0.506708493   -2.938909257  -18.736056853   63.343856873   52.798851435
   -0.304025096   -2.938909257  -29.836476222   40.824340423   36.898167030
   -0.101341699   -2.938909257  -33.790919273   -3.828531157   13.053085089
    0.101341699   -2.938909257  -27.973905517  -51.470785483   -9.357286041
    0.304025096   -2.938909257  -15.301449317  -66.832714544  -13.669908651
    0.506708493   -2.938909257   -2.311769169  -59.981922414  -10.371462656
    0.709391890   -2.938909257    8.021764143  -39.159487399   -2.392550702
    0.912075287   -2.938909257   13.287376491  -13.065283066   -3.941408449
    1.114758684   -2.938909257   12.539118667   23.067588956   -4.514875297
    1.317442081   -2.938909257    4.618887632   49.455869939   12.606554128
    1.520125478   -2.938909257   -6.044346287   55.907849089   12.704754446
    1.722808875   -2.938909257  -17.979127352   59.111160294   15.180244112
    1.925492272   -2.938909257  -28.765870535   45.789212448   15.739366522
    2.128175669   -2.938909257  -35.879699377   21.449307323   16.986620566
    2.330859066   -2.938909257  -36.593079391  -14.143477263   23.053889415
    2.533542463   -2.938909257  -30.627943627  -43.851361346   27.742153454
    2.736225860   -2.938909257  -19.677688655  -59.995893614   29.819060975
    2.938909257   -2.938909257   -7.553751718  -59.800685865   29.694562004

   -3.141592654   -2.736225860   -1.418544654  -51.912809024   24.969542473
   -2.938909257   -2.736225860    7.227180798  -32.498322476   26.416860309
   -2.736225860   -2.736225860   11.830346542  -14.182732284   19.477316852
   -2.533542463   -2.736225860   13.586917961   -3.949195389   18.411969343
   -2.330859066   -2.736225860   13.465561107    4.586103163   18.756120968
   -2.128175669   -2.736225860   12.431772878    3.862404284   18.089198160
   -1.925492272   -2.736225860   12.037183111    0.500466252   17.718480724
   -1.722808875   -2.736225860   12.152981563   -1.213589312   17.274220412
   -1.520125478   -2.736225860   12.005652623    3.853852648   22.700372499
   -1.317442081   -2.736225860   10.477326107   12.006469463   24.776108187
   -1.114758684   -2.736225860    6.070249676   34.056160280   32.594255470
   -0.912075287   -2.736225860   -3.044948502   52.986925812   35.107181361
   -0.709391890   -2.736225860  -14.811067169   62.623470149   33.932436824
   -0.506708493   -2.736225860  -27.091585943   52.479315804   26.922540149
   -0.304025096   -2.736225860  -34.328136364   17.609043626    9.076414880
   -0.101341699   -2.736225860  -33.720596152  -25.483805997  -11.947521997
    0.101341699   -2.736225860  -24.593294660  -58.525357991  -20.993706989
    0.304025096   -2.736225860  -12.255456524  -61.324269059  -15.455095438
    0.506708493   -2.736225860   -0.197837421  -54.177141099   -9.343941966
    0.709391890   -2.736225860    8.429342509  -31.504203830   -2.127616588
    0.912075287   -2.736225860   13.070011047  -11.389181294    6.552710632
    1.114758684   -2.736225860   10.968410837   32.941805393   17.359503152
    1.317442081   -2.736225860    2.043937099   48.806832570   11.373404074
    1.520125478   -2.736225860   -8.575478481   58.135050259   13.253374277
    1.722808875   -2.736225860  -20.890544429   58.833761873   12.932541831
    1.925492272   -2.736225860  -31.451729920   45.561396239   12.235779248
    2.128175669   -2.736225860  -38.929725209   24.933334044   13.355214840
    2.330859066   -2.736225860  -40.476794832  -10.066740670   16.125280915
    2.533542463   -2.736225860  -35.285882591  -39.585441922   18.655202404
    2.736225860   -2.736225860  -25.242441800  -57.049677709   23.993431659
    2.938909257   -2.736225860  -13.087695062  -60.913923803   24.591238779

   -3.141592654   -2.533542463   -6.026075151  -52.866735020   20.556304689
   -2.938909257   -2.533542463    2.955899145  -34.537388212   17.526133258
   -2.736225860   -2.533542463    7.960467389  -16.184469919   17.288861432
   -2.533542463   -2.533542463   10.071366359   -4.941601001   16.565263323
   -2.330859066   -2.533542463    9.941677224    5.136448297   16.905775390
   -2.128175669   -2.533542463    8.899117761    3.423606873   17.038217442
   -1.925492272   -2.533542463    8.518552856    1.214482427   17.576311433
   -1.722808875   -2.533542463    8.401472989   -0.548663684   17.942278714
   -1.520125478   -2.533542463    8.450763558    2.341629325   16.204411024
   -1.317442081   -2.533542463    6.426907675   19.204140711   17.957557374
   -1.114758684   -2.533542463    0.647940878   36.973036661   20.351646996
   -0.912075287   -2.533542463   -8.375799371   52.012115155   21.583978116
   -0.709391890   -2.533542463  -19.903830796   58.237755410   17.619416029
   -0.506708493   -2.533542463  -30.085578390   37.922062491    4.560724979
   -0.304025096   -2.533542463  -34.061238644   -0.474912065  -11.616777869
   -0.101341699   -2.533542463  -29.983348477  -36.910208472  -22.270611755
    0.101341699   -2.533542463  -20.654766978  -52.424821359  -17.354680540
    0.304025096   -2.533542463   -9.326907145  -57.215138215  -13.030801078
    0.506708493   -2.533542463    1.225782074  -44.788470182   -4.135069107
    0.709391890   -2.533542463    8.877799895  -30.480889215   -0.863093293
    0.912075287   -2.533542463   12.196330253    1.993654995    2.215426500
    1.114758684   -2.533542463    8.144233668   33.603280520   10.299828127
    1.317442081   -2.533542463   -0.105558110   47.568863787   10.596866378
    1.520125478   -2.533542463  -11.110655686   59.048421407   10.289818004
    1.722808875   -2.533542463  -23.013599921   57.005563997    7.869828286
    1.925492272   -2.533542463  -33.821357156   47.699568807   10.157794555
    2.128175669   -2.533542463  -41.335365859   24.558320974    9.928249892
    2.330859066   -2.533542463  -43.293351412   -6.253729463   11.250879954
    2.533542463   -2.533542463  -38.760444508  -36.830682382   15.883546414
    2.736225860   -2.533542463  -29.399355166  -53.408767474   17.611742604
    2.938909257   -2.533542463  -17.718238368  -60.076475171   19.996802983

   -3.141592654   -2.330859066   -9.419759759  -51.797458464   13.892170221
   -2.938909257   -2.330859066   -0.415076238  -36.021988330   15.660960368
   -2.736225860   -2.330859066    4.897438932  -16.637619815   14.410093036
   -2.533542463   -2.330859066    6.781221359   -3.259227696   15.547460363
   -2.330859066   -2.330859066    6.672075411    3.185419348   13.929587675
   -2.128175669   -2.330859066    5.921354943    3.532357125   11.467821035
   -1.925492272   -2.330859066    5.436880300    0.792660701   11.842034696
   -1.722808875   -2.330859066    5.534705641   -0.619652943   11.183065894
   -1.520125478   -2.330859066    5.149724500    5.291162691   13.955239680
   -1.317442081   -2.330859066    2.969849252   18.032516028   14.897597102
   -1.114758684   -2.330859066   -2.721900464   37.698266401   12.923036023
   -0.912075287   -2.330859066  -11.559747348   47.714687146    6.379958622
   -0.709391890   -2.330859066  -21.417256420   46.770363420   -3.842464167
   -0.506708493   -2.330859066  -28.806891806   22.298601482  -17.877379796
   -0.304025096   -2.330859066  -29.917899585  -10.470983652  -27.035196766
   -0.101341699   -2.330859066  -25.232761283  -33.796535227  -24.806010158
    0.101341699   -2.330859066  -16.935996379  -46.732067969  -20.063453239
    0.304025096   -2.330859066   -7.016658986  -48.184789838   -9.974119529
    0.506708493   -2.330859066    1.583710379  -36.608521234   -1.236333108
    0.709391890   -2.330859066    8.233309906  -27.532523106    6.045182800
    0.912075287   -2.330859066   10.739180702    6.969960167   11.954587910
    1.114758684   -2.330859066    6.095961198   33.473001027    7.416853343
    1.317442081   -2.330859066   -1.835735531   45.915045048    4.379865401
    1.520125478   -2.330859066  -12.548114802   57.288850234    3.809636163
    1.722808875   -2.330859066  -24.184953954   57.161505003    3.539447982
    1.925492272   -2.330859066  -35.294122378   49.208459067    3.932072938
    2.128175669   -2.330859066  -42.845376199   24.285849166    5.331338228
    2.330859066   -2.330859066  -45.160633872   -2.207737942    8.291731357
    2.533542463   -2.330859066  -41.519003696  -33.293633808   11.327187599
    2.736225860   -2.330859066  -32.532098619  -52.924067389   13.285314540
    2.938909257   -2.330859066  -20.903130846  -59.531896640   12.896588675

   -3.141592654   -2.128175669  -12.157784259  -51.766832594   11.694530527
   -2.938909257   -2.128175669   -3.114625098  -35.897810504   10.221901411
   -2.736225860   -2.128175669    2.176769781  -16.898111811   10.326137332
   -2.533542463   -2.128175669    4.250229412   -5.010612410    8.296052654
   -2.330859066   -2.128175669    4.609154511    0.957327676    6.819175525
   -2.128175669   -2.128175669    4.091903833    3.295393161    7.164798887
   -1.925492272   -2.128175669    3.584284973    1.362263650    6.653292799
   -1.722808875   -2.128175669    3.520452011   -0.323919317    7.494007421
   -1.520125478   -2.128175669    3.252696104    4.851183181    5.489207517
   -1.317442081   -2.128175669    0.946939036   18.218823170    4.229260758
   -1.114758684   -2.128175669   -3.984270641   30.319659255   -0.640346410
   -0.912075287   -2.128175669  -11.285607943   40.306129976   -5.970262943
   -0.709391890   -2.128175669  -19.032068606   32.524740586  -17.811905474
   -0.506708493   -2.128175669  -23.635025105   12.284976915  -30.089034178
   -0.304025096   -2.128175669  -23.869858305  -10.178890796  -32.408783074
   -0.101341699   -2.128175669  -19.783863631  -28.533521664  -28.744307658
    0.101341699   -2.128175669  -12.953164379  -37.665729219  -18.787256770
    0.304025096   -2.128175669   -4.991510706  -39.474749195  -11.145571366
    0.506708493   -2.128175669    2.458056111  -32.722019734   -7.336716237
    0.709391890   -2.128175669    7.743453253  -18.069762815   -3.142450006
    0.912075287   -2.128175669    9.313947552    3.385712143   -0.852233145
    1.114758684   -2.128175669    6.163605005   27.813099187   -5.772446926
    1.317442081   -2.128175669   -1.663469221   47.756188504   -4.698637854
    1.520125478   -2.128175669  -12.387345478   56.291418561   -5.699455611
    1.722808875   -2.128175669  -23.966682544   57.011512065   -6.713743877
    1.925492272   -2.128175669  -35.029228871   50.434392220   -7.175012929
    2.128175669   -2.128175669  -43.456446007   30.193609927   -0.560063456
    2.330859066   -2.128175669  -46.556154561   -0.365231324    3.392185459
    2.533542463   -2.128175669  -43.291251971  -31.223874786    4.913161204
    2.736225860   -2.128175669  -34.584205780  -51.968184997    6.037611630
    2.938909257   -2.128175669  -23.339268444  -56.907179013    9.358206114

   -3.141592654   -1.925492272  -13.102914352  -50.097898100   -2.563740175
   -2.938909257   -1.925492272   -4.262004998  -35.664256078    0.659380347
   -2.736225860   -1.925492272    1.141435834  -18.062891010    0.458966027
   -2.533542463   -1.925492272    3.475265467   -6.183756990   -0.392796283
   -2.330859066   -1.925492272    3.935364963    1.329053879   -1.237573434
   -2.128175669   -1.925492272    3.313335323    3.158078548   -0.956578146
   -1.925492272   -1.925492272    3.031092384    0.106953178   -1.869263832
   -1.722808875   -1.925492272    2.979001116    0.379007955   -1.427535776
   -1.520125478   -1.925492272    2.834074096    2.487620792   -1.797444820
   -1.317442081   -1.925492272    1.125147790   15.444938311   -4.918572732
   -1.114758684   -1.925492272   -3.172191637   25.631079648   -6.607138492
   -0.912075287   -1.925492272   -8.774909969   28.188384567  -21.379793106
   -0.709391890   -1.925492272  -13.898427112   20.987122434  -33.408024788
   -0.506708493   -1.925492272  -16.885997614    7.407777608  -37.332019491
   -0.304025096   -1.925492272  -16.616959934   -9.413005504  -38.739341054
   -0.101341699   -1.925492272  -13.673194737  -18.926664597  -31.709189936
    0.101341699   -1.925492272   -8.733021923  -29.938543776  -24.121422702
    0.304025096   -1.925492272   -2.187822632  -32.550169852  -16.511577620
    0.506708493   -1.925492272    4.090074726  -28.874698933   -8.570172955
    0.709391890   -1.925492272    8.826429913  -15.615181654   -4.512581953
    0.912075287   -1.925492272   10.010837925    3.969180049   -1.956339527
    1.114758684   -1.925492272    6.979795246   26.814586486   -1.521130885
    1.317442081   -1.925492272   -0.616851198   45.986742171   -4.332463750
    1.520125478   -1.925492272  -10.846192181   53.697449333   -7.005059379
    1.722808875   -1.925492272  -21.943854482   54.806034709  -10.535702706
    1.925492272   -1.925492272  -32.877020941   52.533717140  -11.899929192
    2.128175669   -1.925492272  -42.230706342   35.514903868  -10.778631991
    2.330859066   -1.925492272  -46.019460045    1.317312477   -7.700288400
    2.533542463   -1.925492272  -43.097338226  -29.217724586   -6.134199395
    2.736225860   -1.925492272  -34.751058402  -50.482039175   -4.016439611
    2.938909257   -1.925492272  -23.865147279  -54.733112901   -3.642210494

   -3.141592654   -1.722808875  -11.979974080  -48.169344704   -7.499643039
   -2.938909257   -1.722808875   -3.506364257  -34.766087013   -7.497073664
   -2.736225860   -1.722808875    1.925702700  -18.842809891   -8.682462947
   -2.533542463   -1.722808875    4.495968168   -7.786067105   -9.854591008
   -2.330859066   -1.722808875    5.255091369    0.453079708  -10.624136925
   -2.128175669   -1.722808875    4.672756181    3.293919417  -11.513788447
   -1.925492272   -1.722808875    4.289973096    1.456973570   -9.971675409
   -1.722808875   -1.722808875    3.820634348    1.905955382   -8.006699508
   -1.520125478   -1.722808875    3.988521840   -1.893241744   -9.923486941
   -1.317442081   -1.722808875    3.051042843   13.301098128  -15.901541721
   -1.114758684   -1.722808875   -0.483179862   17.386551680  -22.055155924
   -0.912075287   -1.722808875   -3.537037901   14.715073355  -25.670649695
   -0.709391890   -1.722808875   -6.829177301   15.920288985  -31.995169219
   -0.506708493   -1.722808875   -8.936351147    3.839175289  -38.544058792
   -0.304025096   -1.722808875   -8.732046957   -4.698360045  -37.621090747
   -0.101341699   -1.722808875   -7.014478565  -13.047875235  -33.077593799
    0.101341699   -1.722808875   -3.368750454  -22.144554098  -28.031413907
    0.304025096   -1.722808875    1.471453955  -24.434004940  -18.627338726
    0.506708493   -1.722808875    6.090209471  -19.957912486   -9.805299042
    0.709391890   -1.722808875    9.112009031   -9.117294970    1.661840438
    0.912075287   -1.722808875    9.596127490    4.980497500    6.256994921
    1.114758684   -1.722808875    6.676819840   24.741225529    6.507167259
    1.317442081   -1.722808875   -0.373940080   43.438054307    2.758991901
    1.520125478   -1.722808875  -10.077063273   50.139335415   -0.829194691
    1.722808875   -1.722808875  -20.203959206   49.855416288   -7.431002627
    1.925492272   -1.722808875  -30.464462349   50.818692604  -12.618384184
    2.128175669   -1.722808875  -39.722703276   36.537764805  -13.358629519
    2.330859066   -1.722808875  -43.987516272    4.032827155  -12.489204875
    2.533542463   -1.722808875  -41.367433556  -28.651948477  -10.747397420
    2.736225860   -1.722808875  -33.240588013  -48.874813432  -10.820052572
    2.938909257   -1.722808875  -22.555572050  -54.431614977   -9.188121145

   -3.141592654   -1.520125478   -9.572583389  -46.905452080  -16.924548451
   -2.938909257   -1.520125478   -1.178085727  -35.277865684  -16.019535505
   -2.736225860   -1.520125478    4.495295751  -20.298953322  -15.577893179
   -2.533542463   -1.520125478    7.170315817   -7.068816983  -15.294518660
   -2.330859066   -1.520125478    7.759811645    0.480480596  -13.860356885
   -2.128175669   -1.520125478    7.302423172    3.153075542  -12.907356656
   -1.925492272   -1.520125478    6.714902864    2.411382789  -12.848592267
   -1.722808875   -1.520125478    6.503236823   -1.123047400  -16.582821744
   -1.520125478   -1.520125478    7.250378278   -4.939628166  -21.518479432
   -1.317442081   -1.520125478    7.454896410    5.326348472  -23.370477311
   -1.114758684   -1.520125478    5.045906375   16.300353935  -27.806516482
   -0.912075287   -1.520125478    1.778584465   14.685223995  -30.309243698
   -0.709391890   -1.520125478   -0.651110898    8.507090822  -33.585291678
   -0.506708493   -1.520125478   -1.530003619    1.163349259  -35.985279829
   -0.304025096   -1.520125478   -1.643806480   -0.394519706  -32.411529448
   -0.101341699   -1.520125478   -0.537739049  -11.758178612  -30.729435741
    0.101341699   -1.520125478    2.367255770  -13.684008616  -26.058956783
    0.304025096   -1.520125478    4.670565490  -10.476390072  -10.577678067
    0.506708493   -1.520125478    6.785561959   -8.895430398    5.076398042
    0.709391890   -1.520125478    7.755068210   -0.787292306   13.227894968
    0.912075287   -1.520125478    7.218830427    6.774849663   16.032152804
    1.114758684   -1.520125478    4.530751443   20.637783577    9.423698499
    1.317442081   -1.520125478   -1.379870103   37.744619271    4.266668781
    1.520125478   -1.520125478  -10.041870289   44.249709054   -1.383013771
    1.722808875   -1.520125478  -18.582398006   41.614693089   -8.636757419
    1.925492272   -1.520125478  -27.814452387   48.802518483  -12.516894013
    2.128175669   -1.520125478  -36.675571457   33.973344430  -16.496109016
    2.330859066   -1.520125478  -40.687333239    4.949684359  -19.370508964
    2.533542463   -1.520125478  -38.371361281  -27.937622597  -19.013690144
    2.736225860   -1.520125478  -30.206991515  -48.926258191  -18.855109167
    2.938909257   -1.520125478  -19.766359281  -52.301043203  -17.785572512

   -3.141592654   -1.317442081   -5.734993353  -47.723299915  -19.340230199
   -2.938909257   -1.317442081    2.704301939  -34.767961031  -20.087408033
   -2.736225860   -1.317442081    8.079262496  -17.984220286  -19.449738327
   -2.533542463   -1.317442081   10.389270684   -6.279589629  -16.120082866
   -2.330859066   -1.317442081   10.750580471    2.891029245  -14.526172022
   -2.128175669   -1.317442081    9.797641498    4.064852347  -12.662969747
   -1.925492272   -1.317442081    9.390402171    0.814717291  -14.393234967
   -1.722808875   -1.317442081    9.655774125   -5.165059496  -14.836425345
   -1.520125478   -1.317442081   11.163431906   -5.738257162  -14.044744283
   -1.317442081   -1.317442081   10.984754481    5.956627880  -12.515095009
   -1.114758684   -1.317442081    9.765228782    5.721649598  -20.280845951
   -0.912075287   -1.317442081    8.376384361    7.308161157  -30.489546553
   -0.709391890   -1.317442081    7.248526424    4.671316576  -40.074591772
   -0.506708493   -1.317442081    5.783458904    9.380626538  -34.311652773
   -0.304025096   -1.317442081    4.534619407    1.052143089  -28.152028941
   -0.101341699   -1.317442081    4.969287781   -3.288433367  -20.494292830
    0.101341699   -1.317442081    5.438110157   -0.722855952   -1.559341781
    0.304025096   -1.317442081    5.023201544    4.449677080    7.901581319
    0.506708493   -1.317442081    4.189319365    2.816303019   19.818727058
    0.709391890   -1.317442081    3.913020631   -0.585354561   21.825212531
    0.912075287   -1.317442081    4.730397414   -6.126253840    4.781001871
    1.114758684   -1.317442081    4.512880586   13.334996758   -7.803089415
    1.317442081   -1.317442081   -0.952335649   36.942521866   -9.210800859
    1.520125478   -1.317442081   -8.814738341   38.371847407  -11.002484934
    1.722808875   -1.317442081  -16.547867797   39.646616210  -12.514793732
    1.925492272   -1.317442081  -25.307212348   45.381813557  -13.771803705
    2.128175669   -1.317442081  -33.394647906   30.383594660  -15.797237095
    2.330859066   -1.317442081  -36.829799027    2.834347666  -17.824020191
    2.533542463   -1.317442081  -34.201460273  -28.841382620  -20.493329611
    2.736225860   -1.317442081  -26.104867093  -47.250388947  -20.345505627
    2.938909257   -1.317442081  -16.007466029  -51.549785139  -19.007938181

   -3.141592654   -1.114758684   -1.732575466  -44.067333842  -20.058336786
   -2.938909257   -1.114758684    6.242716060  -34.685646624  -14.676848209
   -2.736225860   -1.114758684   11.683471534  -17.380222941  -14.189459667
   -2.533542463   -1.114758684   13.539040455   -2.986184303  -14.624100148
   -2.330859066   -1.114758684   13.423771897    3.425601076  -12.829112114
   -2.128175669   -1.114758684   12.694738146    2.202639904  -15.471932145
   -1.925492272   -1.114758684   12.664411643   -1.295527775  -16.827094849
   -1.722808875   -1.114758684   13.172804516   -3.909349666  -19.883327531
   -1.520125478   -1.114758684   13.975843965   -2.908985502  -18.600153762
   -1.317442081   -1.114758684   14.350616771   -1.501069916  -23.063373728
   -1.114758684   -1.114758684   14.447130153    1.529369177  -26.962845430
   -0.912075287   -1.114758684   13.987219353    1.163155549  -27.949941989
   -0.709391890   -1.114758684   13.766746947    4.427852540  -23.360848911
   -0.506708493   -1.114758684   11.488648593   15.520611745  -20.660496648
   -0.304025096   -1.114758684    8.901334865    9.635679294  -11.980171004
   -0.101341699   -1.114758684    6.549781749   15.056715436    5.609044321
    0.101341699   -1.114758684    3.540089990   12.380007659   18.108981146
    0.304025096   -1.114758684    1.172753669   13.245797422   31.011613466
    0.506708493   -1.114758684   -1.274530751    5.606102917   32.256350727
    0.709391890   -1.114758684    0.453738051  -21.455588430    9.224426055
    0.912075287   -1.114758684    5.174832088  -18.618552562   -6.288274936
    1.114758684   -1.114758684    6.329547229    8.993236316   -9.295770344
    1.317442081   -1.114758684    1.566604147   35.517642520  -12.751925151
    1.520125478   -1.114758684   -6.236232162   37.340119117  -12.517769809
    1.722808875   -1.114758684  -13.512048701   37.642169375  -15.541922085
    1.925492272   -1.114758684  -22.102480578   44.722083040  -16.108731965
    2.128175669   -1.114758684  -29.965818942   29.638873003  -17.772563629
    2.330859066   -1.114758684  -33.340610566    1.934425206  -16.579659490
    2.533542463   -1.114758684  -30.357507400  -30.214945380  -17.284829508
    2.736225860   -1.114758684  -22.198967025  -47.766276894  -17.798716961
    2.938909257   -1.114758684  -11.732869207  -53.192397459  -22.471274050

   -3.141592654   -0.912075287    1.659152423  -40.583640566  -11.531451179
   -2.938909257   -0.912075287    8.913670958  -31.046899464  -11.762876255
   -2.736225860   -0.912075287   13.930595898  -18.019483248   -9.493618927
   -2.533542463   -0.912075287   16.236205460   -4.897077446  -11.486662386
   -2.330859066   -0.912075287   16.261310534    2.803141734  -14.026249911
   -2.128175669   -0.912075287   15.776113079    1.324305364  -14.662924687
   -1.925492272   -0.912075287   15.847145917   -2.711160375  -14.844055841
   -1.722808875   -0.912075287   17.013185775   -7.861476445  -16.658663002
   -1.520125478   -0.912075287   18.398802388   -4.974478660  -19.388260068
   -1.317442081   -0.912075287   19.193553632   -3.596438374  -20.547090156
   -1.114758684   -0.912075287   19.830650629   -1.866866629  -22.946043954
   -0.912075287   -0.912075287   19.523570954    5.789827012  -22.617272686
   -0.709391890   -0.912075287   17.418276314   14.386299767  -13.876145011
   -0.506708493   -0.912075287   13.889746735   20.596707661   -2.875140064
   -0.304025096   -0.912075287    8.956594421   27.643283909   10.372150834
   -0.101341699   -0.912075287    3.183902489   28.116835645   26.761520086
    0.101341699   -0.912075287   -2.322168253   26.401254675   41.587792179
    0.304025096   -0.912075287   -6.984523865   15.659514638   43.957457549
    0.506708493   -0.912075287   -6.649008181  -21.526426013   15.218245399
    0.709391890   -0.912075287    0.279698023  -38.714008719   -4.875663651
    0.912075287   -0.912075287    6.558369683  -21.283206757   -7.085651245
    1.114758684   -0.912075287    8.427366661    5.687286734  -10.026055347
    1.317442081   -0.912075287    3.709895545   37.076976861   -8.825695148
    1.520125478   -0.912075287   -3.931479874   34.567079605  -10.427035962
    1.722808875   -0.912075287  -11.020519724   38.674237495   -8.759390266
    1.925492272   -0.912075287  -19.463366841   41.684363280   -9.623052470
    2.128175669   -0.912075287  -26.990769169   30.548796889   -9.869777428
    2.330859066   -0.912075287  -30.474114852    0.557681092  -11.096852613
    2.533542463   -0.912075287  -27.226704794  -29.989251106  -13.572989024
    2.736225860   -0.912075287  -19.025404419  -50.183617887  -13.769747093
    2.938909257   -0.912075287   -7.956972968  -54.263560672  -13.040953936

   -3.141592654   -0.709391890    3.151313143  -41.975764538   -5.158146684
   -2.938909257   -0.709391890   10.762243725  -31.390582415   -6.109243497
   -2.736225860   -0.709391890   15.562791084  -16.792231317   -5.700414970
   -2.533542463   -0.709391890   17.867833853   -6.025972619   -4.342611205
   -2.330859066   -0.709391890   18.309694244   -0.112545170   -5.569494060
   -2.128175669   -0.709391890   18.367263368   -0.356630581   -9.253385141
   -1.925492272   -0.709391890   18.571494356   -2.922091450  -10.132396623
   -1.722808875   -0.709391890   19.706242568   -6.918246158   -9.029403882
   -1.520125478   -0.709391890   20.946893135   -5.958606259   -8.731771958
   -1.317442081   -0.709391890   22.406371780   -7.480468455  -12.586213002
   -1.114758684   -0.709391890   23.300757982   -0.666908374  -12.132493166
   -0.912075287   -0.709391890   22.585363662    9.016497240   -9.303874504
   -0.709391890   -0.709391890   19.030338083   25.815017392   -0.356757784
   -0.506708493   -0.709391890   12.833488224   34.330973012   13.081164572
   -0.304025096   -0.709391890    4.879780761   44.350075254   31.017516881
   -0.101341699   -0.709391890   -4.385552382   44.222532945   46.824042533
    0.101341699   -0.709391890  -11.972442361   27.318031111   45.503529730
    0.304025096   -0.709391890  -13.742319956  -12.770906779   18.462636744
    0.506708493   -0.709391890   -7.490075048  -43.139523842   -2.352547430
    0.709391890   -0.709391890    1.374105116  -40.443708949   -5.505040636
    0.912075287   -0.709391890    8.019886289  -23.341935245   -7.311645925
    1.114758684   -0.709391890    9.888863321    7.054773092   -5.692609415
    1.317442081   -0.709391890    5.309799773   34.394604745   -6.893518960
    1.520125478   -0.709391890   -2.134416641   36.299659686   -7.379180897
    1.722808875   -0.709391890   -9.629748622   39.510666020   -5.481863155
    1.925492272   -0.709391890  -18.163149457   42.768581743   -2.717233335
    2.128175669   -0.709391890  -25.848748052   29.692337526   -2.276905664
    2.330859066   -0.709391890  -28.824172622   -2.346444138   -4.738795029
    2.533542463   -0.709391890  -25.121902868  -32.110904895   -5.573976912
    2.736225860   -0.709391890  -16.559486290  -50.283697148   -9.249109315
    2.938909257   -0.709391890   -6.080589276  -49.736581436   -6.925406731

   -3.141592654   -0.506708493    3.953332996  -42.252188293   -1.518408098
   -2.938909257   -0.506708493   11.485466203  -31.135199928   -1.255591421
   -2.736225860   -0.506708493   16.324802538  -16.385920703   -2.557272573
   -2.533542463   -0.506708493   18.341455538   -5.015992269   -1.522841714
   -2.330859066   -0.506708493   18.990924986   -2.103255848   -2.449769091
   -2.128175669   -0.506708493   19.227851409   -0.565350397   -0.913782859
   -1.925492272   -0.506708493   19.519883021   -2.906993753   -1.036745713
   -1.722808875   -0.506708493   20.575021553   -8.002175842   -1.475617823
   -1.520125478   -0.506708493   22.648380983  -10.730402898   -6.054617667
   -1.317442081   -0.506708493   24.232173861   -4.832029883   -4.236723805
   -1.114758684   -0.506708493   24.865431232   -0.379020983   -2.405754595
   -0.912075287   -0.506708493   23.169665401   19.400094630    5.971897144
   -0.709391890   -0.506708493   17.253100780   37.204036649   17.808554758
   -0.506708493   -0.506708493    8.170756723   52.880897921   33.797834067
   -0.304025096   -0.506708493   -3.488896430   58.249613598   47.267174247
   -0.101341699   -0.506708493  -13.792961974   39.822274240   39.077793340
    0.101341699   -0.506708493  -18.326645572    2.879366524   16.813668377
    0.304025096   -0.506708493  -15.193396990  -31.165217443    1.014101394
    0.506708493   -0.506708493   -6.828766956  -48.457098837   -4.616374797
    0.709391890   -0.506708493    2.865956083  -43.022077101   -9.060758419
    0.912075287   -0.506708493    9.613546392  -22.511562449   -8.411048221
    1.114758684   -0.506708493   11.292981280    7.973080555   -7.275930560
    1.317442081   -0.506708493    6.740451776   32.619045948   -8.788944455
    1.520125478   -0.506708493   -0.398475597   37.212416630  -10.767155698
    1.722808875   -0.506708493   -8.834995804   46.359239906   -2.405118812
    1.925492272   -0.506708493  -18.467126961   45.829841437    4.853700842
    2.128175669   -0.506708493  -26.238805750   28.025759801    6.723549268
    2.330859066   -0.506708493  -28.979021296   -1.904088469    6.308027644
    2.533542463   -0.506708493  -25.376910189  -33.425817944    6.955414746
    2.736225860   -0.506708493  -16.157067758  -53.573917589    5.888802389
    2.938909257   -0.506708493   -5.394344728  -50.087357209    1.790200138

   -3.141592654   -0.304025096    3.403025691  -44.963126448    6.433063245
   -2.938909257   -0.304025096   11.291642488  -32.789630438    2.728799481
   -2.736225860   -0.304025096   16.433082792  -17.436758889    1.905467838
   -2.533542463   -0.304025096   18.652169846   -6.107355553   -1.398890512
   -2.330859066   -0.304025096   19.420420689   -2.020998088   -1.783688142
   -2.128175669   -0.304025096   19.644640518   -0.841491446   -3.481510029
   -1.925492272   -0.304025096   20.047042128   -3.694384090   -4.673585053
   -1.722808875   -0.304025096   21.260358746   -8.113853466   -5.429300657
   -1.520125478   -0.304025096   23.029808040   -8.326503986   -0.504250539
   -1.317442081   -0.304025096   24.341310519   -3.982329895    1.258072113
   -1.114758684   -0.304025096   24.102476108    8.373509763    9.053848790
   -0.912075287   -0.304025096   20.285608291   29.918706709   19.547772877
   -0.709391890   -0.304025096   12.019206257   51.136408232   32.504826307
   -0.506708493   -0.304025096    0.145841237   62.963029151   39.857796187
   -0.304025096   -0.304025096  -11.730027980   49.797941194   29.975150305
   -0.101341699   -0.304025096  -18.975950776   21.068174194   14.792497389
    0.101341699   -0.304025096  -20.261006137   -8.810285545    6.352973788
    0.304025096   -0.304025096  -15.231149890  -39.895895504   -1.438058237
    0.506708493   -0.304025096   -5.409820942  -52.421429263   -8.394281189
    0.709391890   -0.304025096    4.521051204  -43.185033499   -7.012264015
    0.912075287   -0.304025096   11.255713296  -21.225402544   -7.929695687
    1.114758684   -0.304025096   12.727062712    6.142298606   -9.595186163
    1.317442081   -0.304025096    9.214320651   27.763489365  -14.730202498
    1.520125478   -0.304025096    1.717515730   45.146819578   -8.149594705
    1.722808875   -0.304025096   -8.511405736   54.409990463   -1.014106451
    1.925492272   -0.304025096  -19.583363980   51.800394311    5.205375573
    2.128175669   -0.304025096  -28.023105693   28.520822000    8.400109420
    2.330859066   -0.304025096  -30.629739886   -2.900766774    7.916525121
    2.533542463   -0.304025096  -26.950317287  -32.648236496    7.166136827
    2.736225860   -0.304025096  -18.081245673  -52.369247362   10.571800288
    2.938909257   -0.304025096   -6.872822701  -55.308854279   11.472062976

   -3.141592654   -0.101341699    1.916148284  -51.668416355    6.963202531
   -2.938909257   -0.101341699   10.719390932  -34.707876953    2.417258882
   -2.736225860   -0.101341699   16.163966078  -19.658830479   -1.007300549
   -2.533542463   -0.101341699   18.894690539   -7.944025697   -1.047255051
   -2.330859066   -0.101341699   19.794449589   -2.124924425   -1.872520836
   -2.128175669   -0.101341699   20.193014155   -2.629570716   -2.043981922
   -1.925492272   -0.101341699   20.986571651   -5.029986121   -4.456538207
   -1.722808875   -0.101341699   22.197210726   -7.104727492   -3.612282535
   -1.520125478   -0.101341699   23.707882518   -6.201180380   -4.376067278
   -1.317442081   -0.101341699   23.923587279    5.083304020    4.095180653
   -1.114758684   -0.101341699   21.598455099   18.521920647   15.404500209
   -0.912075287   -0.101341699   15.660300035   41.539330844   26.521585763
   -0.709391890   -0.101341699    5.267911747   57.503020441   30.178402495
   -0.506708493   -0.101341699   -6.323392697   54.626674171   23.515545938
   -0.304025096   -0.101341699  -16.091205413   39.756194783   17.295969417
   -0.101341699   -0.101341699  -21.739609429   14.517042513   14.799020672
    0.101341699   -0.101341699  -21.341433151  -19.558299563    2.661211448
    0.304025096   -0.101341699  -14.247343403  -47.003973358   -7.272153745
    0.506708493   -0.101341699   -3.815541004  -53.108226485   -7.767089238
    0.709391890   -0.101341699    6.371743058  -45.014617972  -13.167723311
    0.912075287   -0.101341699   13.558567701  -24.625608424  -17.342850576
    1.114758684   -0.101341699   15.963768510    2.303513166  -20.038667475
    1.317442081   -0.101341699   12.186652901   34.317394219  -14.318596466
    1.520125478   -0.101341699    3.087415806   52.528574119   -7.220384965
    1.722808875   -0.101341699   -8.410571451   59.881992057    0.041262520
    1.925492272   -0.101341699  -20.360206035   54.777024651    2.177432528
    2.128175669   -0.101341699  -29.266807180   30.525871559    4.584505942
    2.330859066   -0.101341699  -32.153838014   -2.328410969    8.243347843
    2.533542463   -0.101341699  -28.636403794  -30.768319797   10.935220558
    2.736225860   -0.101341699  -20.408931774  -48.820491139   13.439216456
    2.938909257   -0.101341699   -9.443693232  -57.584370866   12.548790283

   -3.141592654    0.101341699    0.742216360  -54.588979635    4.719819035
   -2.938909257    0.101341699   10.303639616  -39.688507722    1.430796543
   -2.736225860    0.101341699   16.507080426  -20.915869666   -0.709408109
   -2.533542463    0.101341699   19.184371792   -7.506841954   -2.618491800
   -2.330859066    0.101341699   20.195035066   -3.615431332   -2.941177104
   -2.128175669    0.101341699   21.039909436   -5.081297009   -6.401685347
   -1.925492272    0.101341699   22.104096518   -5.101568375   -5.983625225
   -1.722808875    0.101341699   23.188311009   -5.433628457   -5.956413854
   -1.520125478    0.101341699   23.768105821    1.382550866    3.661601806
   -1.317442081    0.101341699   22.307449825   13.348233403   11.642424263
   -1.114758684    0.101341699   18.065748327   29.198897677   17.765387898
   -0.912075287    0.101341699   10.572032300   43.841874871   19.360758770
   -0.709391890    0.101341699    0.651847554   52.906980857   16.305201222
   -0.506708493    0.101341699  -10.175987350   52.122868546   16.746971232
   -0.304025096    0.101341699  -19.698543420   38.740118245   17.267831941
   -0.101341699    0.101341699  -24.155994194    2.176538318    6.052259638
    0.101341699    0.101341699  -20.941849370  -30.322716843   -5.086038496
    0.304025096    0.101341699  -12.815571330  -49.255510249   -7.857475310
    0.506708493    0.101341699   -1.461034591  -60.211810258  -18.621018124
    0.709391890    0.101341699   10.373457542  -53.206678231  -27.471191146
    0.912075287    0.101341699   18.399858081  -22.302710420  -27.270742036
    1.114758684    0.101341699   19.395660875    9.534329032  -12.917597384
    1.317442081    0.101341699   14.964871192   36.236125870  -11.474574308
    1.520125478    0.101341699    4.462198240   63.624846955   -3.931230270
    1.722808875    0.101341699   -8.640288925   62.536726501    2.559702068
    1.925492272    0.101341699  -20.676413703   55.481656384    2.153098055
    2.128175669    0.101341699  -30.091490939   34.532958985    3.564256627
    2.330859066    0.101341699  -33.975729882    2.888433650    8.524274606
    2.533542463    0.101341699  -31.244915064  -28.487235229   12.953156132
    2.736225860    0.101341699  -23.186018322  -49.862528878   11.772140834
    2.938909257    0.101341699  -11.480886075  -62.971825904    7.006016206

   -3.141592654    0.304025096    0.163480558  -58.006651259    0.094600247
   -2.938909257    0.304025096   10.444891798  -41.687421976   -3.028484911
   -2.736225860    0.304025096   16.867611358  -22.825942370   -4.857653006
   -2.533542463    0.304025096   20.180499385  -10.305267918   -6.348898875
   -2.330859066    0.304025096   21.373902129   -3.406749447   -8.257874361
   -2.128175669    0.304025096   22.212260752   -4.879540092   -5.263632633
   -1.925492272    0.304025096   23.095872102   -3.881541128   -5.159814966
   -1.722808875    0.304025096   23.753685347   -1.007655224    1.600153814
   -1.520125478    0.304025096   22.673395785   11.945746095    7.754258245
   -1.317442081    0.304025096   19.570128628   17.498030204   13.963608742
   -1.114758684    0.304025096   15.152922191   28.039687584   10.254790827
   -0.912075287    0.304025096    7.890804233   43.407923420   10.409327426
   -0.709391890    0.304025096   -2.226370402   55.119913169   13.181803020
   -0.506708493    0.304025096  -13.435769292   52.355002856   14.538050447
   -0.304025096    0.304025096  -22.144103900   30.067837416    5.925533549
   -0.101341699    0.304025096  -24.491520073   -7.432605210    0.169430517
    0.101341699    0.304025096  -19.793272201  -37.309403954   -9.100338957
    0.304025096    0.304025096   -9.441084497  -64.194384621  -29.720658340
    0.506708493    0.304025096    4.745060027  -70.192207113  -41.801649641
    0.709391890    0.304025096   17.116892941  -48.217872003  -34.063454580
    0.912075287    0.304025096   22.972544665   -8.229666082  -16.800457431
    1.114758684    0.304025096   21.517439667   18.132054783   -7.778266414
    1.317442081    0.304025096   15.899887546   40.627020303    2.766640613
    1.520125478    0.304025096    4.539434174   67.611589990    1.001145819
    1.722808875    0.304025096   -9.185565045   64.342985386    1.311556654
    1.925492272    0.304025096  -21.333719676   55.348794737    3.126342728
    2.128175669    0.304025096  -30.864576275   36.105996956    4.546769526
    2.330859066    0.304025096  -35.259911952    6.339235974    4.118085970
    2.533542463    0.304025096  -33.212456595  -26.641939066    5.482334377
    2.736225860    0.304025096  -24.783958861  -54.524533388    3.979952651
    2.938909257    0.304025096  -12.389066202  -64.198438023    2.180746510

   -3.141592654    0.506708493    0.805399552  -57.784477709   -5.686700614
   -2.938909257    0.506708493   11.131003736  -44.018999256   -2.819093356
   -2.736225860    0.506708493   17.962987797  -22.460950710   -3.030455542
   -2.533542463    0.506708493   21.113990219  -11.485802722   -2.636438421
   -2.330859066    0.506708493   22.838511744   -5.572143515   -5.006412735
   -2.128175669    0.506708493   24.063977197   -7.487316954  -13.313077239
   -1.925492272    0.506708493   24.852994000    2.948629587  -10.332005935
   -1.722808875    0.506708493   23.084282447   11.759849431    3.259203269
   -1.520125478    0.506708493   20.384893389   15.306053370   12.773788386
   -1.317442081    0.506708493   17.354895278   13.598177697    6.684695453
   -1.114758684    0.506708493   13.709457435   27.099573680    4.907067417
   -0.912075287    0.506708493    5.991588175   46.527315179    6.977729953
   -0.709391890    0.506708493   -4.508044861   56.307763419    8.950216279
   -0.506708493    0.506708493  -15.483652542   47.059317459    5.373218920
   -0.304025096    0.506708493  -22.672586845   23.406436171    0.362960661
   -0.101341699    0.506708493  -23.584250746  -19.554494155  -16.287577038
    0.101341699    0.506708493  -14.800168022  -61.230971427  -43.432753067
    0.304025096    0.506708493   -0.822595819  -73.995904311  -50.354466656
    0.506708493    0.506708493   13.281992867  -58.519825309  -35.997878920
    0.709391890    0.506708493   22.234517416  -33.647954208  -17.627798163
    0.912075287    0.506708493   26.779189851   -3.938380979  -25.066876588
    1.114758684    0.506708493   22.558628068   38.218357068   -4.421171754
    1.317442081    0.506708493   14.747521810   39.145499110    5.905588734
    1.520125478    0.506708493    4.347931247   64.543601149    2.843376853
    1.722808875    0.506708493   -9.104621570   63.572891912   -0.104780221
    1.925492272    0.506708493  -21.625392905   60.052771271    0.619667538
    2.128175669    0.506708493  -31.699562800   35.013905877    2.522687814
    2.330859066    0.506708493  -35.723317184    5.476688149    0.592149145
    2.533542463    0.506708493  -33.325285442  -30.183898061   -4.041721148
    2.736225860    0.506708493  -24.435182831  -54.143407888   -8.344315222
    2.938909257    0.506708493  -12.069167351  -66.012303323   -6.362820473

   -3.141592654    0.709391890    2.188751778  -55.436977343   -7.734651784
   -2.938909257    0.709391890   11.853749258  -39.449584849   -5.432154777
   -2.736225860    0.709391890   18.301817776  -24.627079940   -2.861273754
   -2.533542463    0.709391890   21.830916834  -10.587540690   -4.867943111
   -2.330859066    0.709391890   23.591713721  -10.155585943   -3.086009692
   -2.128175669    0.709391890   25.895773823   -8.330823243   -0.240963847
   -1.925492272    0.709391890   25.605471612   10.736243359    4.136921434
   -1.722808875    0.709391890   22.433575096   19.098167619    3.696175749
   -1.520125478    0.709391890   18.604224508   15.340931862    4.668726291
   -1.317442081    0.709391890   16.619431601    8.568221952    2.506518922
   -1.114758684    0.709391890   12.771412021   31.475197422    5.275186179
   -0.912075287    0.709391890    4.630997943   47.017841220    8.636640754
   -0.709391890    0.709391890   -6.021092636   55.690487478    6.010889378
   -0.506708493    0.709391890  -16.098268775   39.809063845    0.578690137
   -0.304025096    0.709391890  -20.875459604    2.686745690  -24.826307517
   -0.101341699    0.709391890  -15.825956676  -49.589545484  -57.667480802
    0.101341699    0.709391890   -3.958151930  -61.687815675  -55.679740845
    0.304025096    0.709391890    8.739221324  -61.499454014  -41.088848490
    0.506708493    0.709391890   18.843624832  -37.059180854  -21.921535326
    0.709391890    0.709391890   26.414767074  -41.677418777  -24.024006705
    0.912075287    0.709391890   31.515902532    7.570919829  -10.234745327
    1.114758684    0.709391890   23.373414270   55.874368282    0.431064441
    1.317442081    0.709391890   13.660028884   43.076545941    6.065934079
    1.520125478    0.709391890    2.947571621   63.011962680    9.292556059
    1.722808875    0.709391890   -9.877503092   61.031502974    7.346252696
    1.925492272    0.709391890  -22.130801399   58.773785025    4.737384939
    2.128175669    0.709391890  -31.930283164   34.234232643    1.066248017
    2.330859066    0.709391890  -35.585878090    1.127816259   -1.757568859
    2.533542463    0.709391890  -31.932459179  -36.474833483   -8.614928558
    2.736225860    0.709391890  -22.149949647  -56.311658642  -10.431486875
    2.938909257    0.709391890   -9.982318998  -62.236535145  -12.059670387

   -3.141592654    0.912075287    3.548758430  -53.019143408   -3.635377132
   -2.938909257    0.912075287   12.906020776  -37.223435006   -2.087146948
   -2.736225860    0.912075287   18.604099734  -21.274373523    3.804054415
   -2.533542463    0.912075287   22.120557416  -12.912207144    4.475055485
   -2.330859066    0.912075287   23.776220253   -4.990325357    2.473686992
   -2.128175669    0.912075287   24.703111289   -3.593898888    6.963526382
   -1.925492272    0.912075287   24.502167377    7.093541927    4.091617487
   -1.722808875    0.912075287   21.667851083   19.868138809    3.977947963
   -1.520125478    0.912075287   17.722244320   14.908547994    4.956010365
   -1.317442081    0.912075287   15.777021649    9.391742946    5.970492625
   -1.114758684    0.912075287   11.562296476   33.796891571    5.681115729
   -0.912075287    0.912075287    3.216288760   45.491324815    1.922168662
   -0.709391890    0.912075287   -6.515228955   48.692229691   -2.634763802
   -0.506708493    0.912075287  -13.914895733   15.909419665  -27.845881997
   -0.304025096    0.912075287  -11.794536339  -32.376596255  -58.685756577
   -0.101341699    0.912075287   -3.478795248  -45.541476765  -57.024054753
    0.101341699    0.912075287    6.305441131  -50.195466551  -45.457122595
    0.304025096    0.912075287   15.603978056  -38.454080589  -25.970211590
    0.506708493    0.912075287   22.305149665  -31.586826249   -8.627362428
    0.709391890    0.912075287   28.414726265  -22.439821327   12.515664193
    0.912075287    0.912075287   28.572192188   22.634669064   32.873834857
    1.114758684    0.912075287   21.166182964   43.738718970   18.730450893
    1.317442081    0.912075287   12.009100707   47.542255477   10.242039788
    1.520125478    0.912075287    1.252526295   59.185281760    8.171700944
    1.722808875    0.912075287  -11.473935674   63.571778024    8.105388395
    1.925492272    0.912075287  -23.435572809   53.012255675    8.302580226
    2.128175669    0.912075287  -32.392315683   32.303987357    3.234755747
    2.330859066    0.912075287  -35.045736745   -7.422423885   -3.152950555
    2.533542463    0.912075287  -30.295412765  -36.377086951   -6.275623979
    2.736225860    0.912075287  -20.703671357  -57.732784004   -5.752896234
    2.938909257    0.912075287   -8.125968340  -62.000837845   -5.272695635

   -3.141592654    1.114758684    3.317617751  -51.221296258    4.327765384
   -2.938909257    1.114758684   12.210914575  -33.116171468    7.338596387
   -2.736225860    1.114758684   16.993537826  -18.193168262    7.472154369
   -2.533542463    1.114758684   20.500953106  -15.296757891    8.463181990
   -2.330859066    1.114758684   22.678736014   -6.746103462    7.242354729
   -2.128175669    1.114758684   23.622244954   -2.303564021    6.625673062
   -1.925492272    1.114758684   23.170195133    7.649174904   11.470689145
   -1.722808875    1.114758684   20.461357518   18.148385994    8.022080893
   -1.520125478    1.114758684   16.831667979   14.715650242    3.754374498
   -1.317442081    1.114758684   14.526553407   11.425866520    5.021758930
   -1.114758684    1.114758684   10.697962181   28.114624103    2.997524770
   -0.912075287    1.114758684    3.346589730   41.857946648   -0.832918747
   -0.709391890    1.114758684   -4.143132158   25.009274859  -23.352338017
   -0.506708493    1.114758684   -5.206079416  -12.877865262  -49.913211499
   -0.304025096    1.114758684   -0.643803908  -29.193765277  -46.375846012
   -0.101341699    1.114758684    6.273841277  -37.756582621  -38.273863016
    0.101341699    1.114758684   13.476419313  -30.713109176  -20.835986410
    0.304025096    1.114758684   18.547972093  -20.107211471   -2.060219159
    0.506708493    1.114758684   21.791827052  -12.082395390   10.096159827
    0.709391890    1.114758684   23.471257105   -3.702256127   23.032647708
    0.912075287    1.114758684   22.551608104   14.468329884   21.962291472
    1.114758684    1.114758684   17.572013379   33.446012073   16.047297314
    1.317442081    1.114758684    9.487245515   45.676088563   14.434807697
    1.520125478    1.114758684   -0.965950200   57.829495667   13.610874933
    1.722808875    1.114758684  -13.615487445   64.229446131   13.538900994
    1.925492272    1.114758684  -25.565764249   50.812354804   11.841550418
    2.128175669    1.114758684  -33.383473881   24.258909690    7.515998431
    2.330859066    1.114758684  -34.750945715  -10.635970692    1.286103722
    2.533542463    1.114758684  -29.655855113  -38.524117351   -0.580754715
    2.736225860    1.114758684  -19.509128400  -58.923927764   -3.940369581
    2.938909257    1.114758684   -7.527572831  -56.247297589   -1.712446621

   -3.141592654    1.317442081    2.458619643  -46.096305487    4.644205433
   -2.938909257    1.317442081   10.724035012  -33.529545374    6.993794613
   -2.736225860    1.317442081   15.793417597  -17.907370181    8.346540313
   -2.533542463    1.317442081   18.774421090  -12.671833851   10.520694658
   -2.330859066    1.317442081   20.866515762   -6.999474440   11.554126365
   -2.128175669    1.317442081   21.393310112    1.289448877   13.641008090
   -1.925492272    1.317442081   20.731550794    5.054150940    8.955069220
   -1.722808875    1.317442081   18.939831989   13.344825791    6.172690771
   -1.520125478    1.317442081   15.985771643   12.651958785    4.060136166
   -1.317442081    1.317442081   14.104737840    9.076660378   -0.671879635
   -1.114758684    1.317442081   10.718554169   25.202613525   -5.482269539
   -0.912075287    1.317442081    5.365714058   22.268846236  -24.835045061
   -0.709391890    1.317442081    2.740713930    3.988336517  -38.212660464
   -0.506708493    1.317442081    3.494495542  -11.385152779  -34.589594400
   -0.304025096    1.317442081    6.996480976  -20.805363571  -29.243520449
   -0.101341699    1.317442081   11.055770008  -18.511738023   -7.261728742
    0.101341699    1.317442081   14.446372999  -14.462783368    7.760165346
    0.304025096    1.317442081   16.936147970  -11.518956512   15.928605621
    0.506708493    1.317442081   19.462568176  -11.634828439   14.685980643
    0.709391890    1.317442081   20.363221113    4.192011736   16.356689139
    0.912075287    1.317442081   18.315088534   14.589148306   23.319564288
    1.114758684    1.317442081   14.026778296   29.486949277   18.178624944
    1.317442081    1.317442081    6.477568505   43.771882969   14.724966302
    1.520125478    1.317442081   -3.843105237   58.797634768   14.610832595
    1.722808875    1.317442081  -16.486032268   61.530760203   13.302939643
    1.925492272    1.317442081  -27.680054257   48.316282108    8.511563149
    2.128175669    1.317442081  -35.214935366   21.591822161    8.094600744
    2.330859066    1.317442081  -35.462368709  -17.027455965    4.431459834
    2.533542463    1.317442081  -29.715207014  -38.518002671    1.226056797
    2.736225860    1.317442081  -19.701429857  -58.684407357    4.206953174
    2.938909257    1.317442081   -7.726596210  -55.400114561    5.337313108

   -3.141592654    1.520125478    1.093090691  -48.181080722    7.220590740
   -2.938909257    1.520125478    9.216773225  -30.301110962    7.181312997
   -2.736225860    1.520125478   13.717400967  -16.432303573    6.495939535
   -2.533542463    1.520125478   16.481026221  -10.966261341    8.891021749
   -2.330859066    1.520125478   18.046043366   -4.692970253   14.388938144
   -2.128175669    1.520125478   18.776117926   -3.387298140   12.235138734
   -1.925492272    1.520125478   19.148507782    1.744306174   10.325868704
   -1.722808875    1.520125478   17.671735949   11.326467065    6.725831407
   -1.520125478    1.520125478   15.678972136    6.668237493   -1.191296455
   -1.317442081    1.520125478   14.629736139    5.616434538   -5.238674665
   -1.114758684    1.520125478   13.111853185    9.063848821  -15.558106197
   -0.912075287    1.520125478   10.891347985   13.115541983  -18.042883994
   -0.709391890    1.520125478    8.535464151    6.234250628  -19.442005264
   -0.506708493    1.520125478    9.101873995   -8.994211549  -19.393441996
   -0.304025096    1.520125478   10.221153441    0.086165704   -0.912662867
   -0.101341699    1.520125478   10.140008491   -2.995039641   11.918884311
    0.101341699    1.520125478   11.321879558   -5.828992880   22.959335195
    0.304025096    1.520125478   12.446501621   -7.865875247   27.806850744
    0.506708493    1.520125478   14.508090927   -8.384695868   33.493295702
    0.709391890    1.520125478   14.662447685    5.120104807   35.096937028
    0.912075287    1.520125478   13.656961714    5.379827957   20.877555397
    1.114758684    1.520125478   10.785583030   26.158366869   15.699070201
    1.317442081    1.520125478    3.406349545   44.284506894   15.413708152
    1.520125478    1.520125478   -6.900257333   57.135458902   14.108373926
    1.722808875    1.520125478  -18.783919039   56.736741397    8.986283964
    1.925492272    1.520125478  -29.181321595   44.997778622    6.396635746
    2.128175669    1.520125478  -36.003187497   18.681843944    0.393837116
    2.330859066    1.520125478  -36.173510839  -15.665844688    2.341664095
    2.533542463    1.520125478  -30.310052108  -41.239638562    3.661502072
    2.736225860    1.520125478  -20.223180106  -54.792390571    0.488000408
    2.938909257    1.520125478   -9.264471896  -52.622167800    5.689404815

   -3.141592654    1.722808875    0.716466238  -43.190487831   -4.307267387
   -2.938909257    1.722808875    8.513446311  -32.911968909   -1.443032278
   -2.736225860    1.722808875   13.604713291  -16.946633900    0.033487195
   -2.533542463    1.722808875   15.601482282   -3.965094150    1.642008290
   -2.330859066    1.722808875   15.995429290   -2.014459847    4.366378949
   -2.128175669    1.722808875   16.579225759   -2.383008908    7.538211856
   -1.925492272    1.722808875   16.709934996    0.078584754    9.447509748
   -1.722808875    1.722808875   16.737082672    0.832935199    1.286387957
   -1.520125478    1.722808875   16.260536172    1.614630635   -5.005086554
   -1.317442081    1.722808875   16.717914307   -3.917015683  -14.626309424
   -1.114758684    1.722808875   16.411034002    7.228827299  -19.282512654
   -0.912075287    1.722808875   15.090260714    3.870285611  -43.650182140
   -0.709391890    1.722808875   13.829699601   11.877548957  -37.134708966
   -0.506708493    1.722808875   10.725826331   14.629182199    1.317872512
   -0.304025096    1.722808875    8.632891535    7.393498183   10.997535096
   -0.101341699    1.722808875    7.101413146    7.819658941   17.940842782
    0.101341699    1.722808875    5.910686555    2.371846521   25.979574968
    0.304025096    1.722808875    6.451016603   -6.738776588   28.964935174
    0.506708493    1.722808875    7.767451364   -4.895647268   29.524418910
    0.709391890    1.722808875    8.722493765   -5.417403852   23.318929466
    0.912075287    1.722808875    9.302316510    2.838454586   22.668271917
    1.114758684    1.722808875    6.953762098   20.201180220   18.501099935
    1.317442081    1.722808875    0.983271113   39.473096092    6.399039752
    1.520125478    1.722808875   -8.693915201   53.424352237    2.733119926
    1.722808875    1.722808875  -19.787478558   54.663963341    0.401201376
    1.925492272    1.722808875  -29.937855025   42.130305184    0.026545104
    2.128175669    1.722808875  -35.907313316   16.113243928   -1.460494126
    2.330859066    1.722808875  -36.240509793  -13.946886909   -2.602908422
    2.533542463    1.722808875  -30.278574117  -42.652084593   -5.284836312
    2.736225860    1.722808875  -20.169274322  -54.607197053   -1.674069785
    2.938909257    1.722808875   -9.031890838  -52.974928397   -6.173937674

   -3.141592654    1.925492272    2.192713002  -46.131374421   -9.469841469
   -2.938909257    1.925492272    9.859734067  -27.469305880  -11.898695557
   -2.736225860    1.925492272   13.927094187  -14.913573061  -13.881184710
   -2.533542463    1.925492272   15.821167258   -3.484153093   -7.068252383
   -2.330859066    1.925492272   16.208251156   -2.094453909   -5.213618472
   -2.128175669    1.925492272   16.210000698    2.731584181   -3.181736089
   -1.925492272    1.925492272   16.176205510   -4.314647450   -2.823398872
   -1.722808875    1.925492272   16.988508694   -1.669230935   -3.340035903
   -1.520125478    1.925492272   17.967842409   -9.913138116  -10.733926075
   -1.317442081    1.925492272   19.243130544    0.058030078   -7.805164205
   -1.114758684    1.925492272   21.493754891  -32.375034837  -26.114322094
   -0.912075287    1.925492272   28.010608454   -5.087327720  -51.435573526
   -0.709391890    1.925492272   19.844313314   66.160810885   -8.236477333
   -0.506708493    1.925492272   10.429887726   22.311982262   -1.345732897
   -0.304025096    1.925492272    6.800002710   20.231470116    7.772715485
   -0.101341699    1.925492272    3.343961228   11.026842518   16.785800410
    0.101341699    1.925492272    1.467132944    8.671185812   20.718475735
    0.304025096    1.925492272    0.895696286   -4.369740266   26.842182571
    0.506708493    1.925492272    2.234326234   -6.894381826   27.035400717
    0.709391890    1.925492272    4.063050955  -11.288132753   22.196393519
    0.912075287    1.925492272    5.759525231   -3.286444328    9.501429700
    1.114758684    1.925492272    5.272091456    9.432831071   -1.051565267
    1.317442081    1.925492272    0.760684319   35.948739936   -2.730013055
    1.520125478    1.925492272   -8.227254298   49.895727956   -6.905458842
    1.722808875    1.925492272  -19.034617855   54.869739643   -7.755483379
    1.925492272    1.925492272  -28.919391874   39.762574891  -10.411448155
    2.128175669    1.925492272  -34.857860552   17.468154433   -9.803675599
    2.330859066    1.925492272  -34.849209624  -18.386834121  -10.946756289
    2.533542463    1.925492272  -28.594677585  -40.096991672   -9.770960998
    2.736225860    1.925492272  -18.898394374  -54.647255930  -11.093188792
    2.938909257    1.925492272   -7.783817659  -52.147653462   -6.889082709

   -3.141592654    2.128175669    4.874886367  -42.317482368  -16.415335988
   -2.938909257    2.128175669   13.260943848  -45.426397289  -19.825657117
   -2.736225860    2.128175669   20.856201514  -15.538812411  -40.780879096
   -2.533542463    2.128175669   18.881247237   19.763824109  -18.897435758
   -2.330859066    2.128175669   17.780176863   -5.358045857  -10.504254754
   -2.128175669    2.128175669   17.544830814    7.377996614  -10.167069202
   -1.925492272    2.128175669   17.397525955   -6.732955955   -9.431276876
   -1.722808875    2.128175669   18.378138683   -2.481714709  -10.291100778
   -1.520125478    2.128175669   19.817381399  -10.116915213   -7.212562062
   -1.317442081    2.128175669   20.586239951   -0.921596624   -9.161364599
   -1.114758684    2.128175669   24.031627155  -32.274524566    2.220834144
   -0.912075287    2.128175669   26.611542821   22.804763120   49.879551303
   -0.709391890    2.128175669   17.579224286   45.857874674   14.952347564
   -0.506708493    2.128175669   11.117516192   25.304738042   -4.127960285
   -0.304025096    2.128175669    5.296739298   28.835499527    6.422566818
   -0.101341699    2.128175669    0.575701344   19.825323617   12.135588955
    0.101341699    2.128175669   -3.213738926   14.536836758   23.096454735
    0.304025096    2.128175669   -4.333530742   -2.262834899   23.163553823
    0.506708493    2.128175669   -2.889140521  -12.772347314   21.102946198
    0.709391890    2.128175669    0.951195109  -22.605007049    7.668264968
    0.912075287    2.128175669    4.875098007  -13.688828110    1.066225333
    1.114758684    2.128175669    5.784433142    6.351752979   -4.678103220
    1.317442081    2.128175669    2.083514297   29.554028383  -11.298623084
    1.520125478    2.128175669   -5.963255975   48.876671889  -14.386693923
    1.722808875    2.128175669  -16.540832935   51.567160580  -16.186665492
    1.925492272    2.128175669  -25.998871367   40.888861948  -16.320510604
    2.128175669    2.128175669  -32.146571147   16.393308630  -15.663746271
    2.330859066    2.128175669  -32.170994334  -15.205176413  -14.330049450
    2.533542463    2.128175669  -26.236815980  -42.488729772  -14.338858059
    2.736225860    2.128175669  -16.225982263  -52.564402040  -14.341970153
    2.938909257    2.128175669   -5.297321938  -55.182870282  -17.136050040

   -3.141592654    2.330859066    8.054923490  -40.711291429  -15.684370838
   -2.938909257    2.330859066   16.581091949  -46.809047699  -10.842355760
   -2.736225860    2.330859066   23.718994197  -11.097674013   12.556946073
   -2.533542463    2.330859066   21.607416034   17.068221460   -7.979903727
   -2.330859066    2.330859066   20.549900664   -2.653452264  -15.814508423
   -2.128175669    2.330859066   20.103254501    6.416813709  -12.941080180
   -1.925492272    2.330859066   19.691357960   -3.040812958  -11.384030616
   -1.722808875    2.330859066   20.337294141   -2.802080325   -7.658014412
   -1.520125478    2.330859066   21.472824295   -8.524163176   -9.970364687
   -1.317442081    2.330859066   23.146234980   -6.926433389  -13.484830791
   -1.114758684    2.330859066   23.763489630    3.664785514   -7.607689447
   -0.912075287    2.330859066   21.254477629   17.797960585  -10.442894227
   -0.709391890    2.330859066   17.719734625   19.322332616  -11.425758562
   -0.506708493    2.330859066   11.795789001   38.537874828   -1.170720076
   -0.304025096    2.330859066    4.160923523   33.441010242    6.215807273
   -0.101341699    2.330859066   -2.207777429   30.321192698   15.698366020
    0.101341699    2.330859066   -7.066334375   14.909403933   17.134463429
    0.304025096    2.330859066   -8.397785317   -1.142724654   18.773222156
    0.506708493    2.330859066   -5.889085507  -24.768319557    8.958300391
    0.709391890    2.330859066    0.367784929  -31.851353041   -1.625564312
    0.912075287    2.330859066    5.956984159  -22.274097144  -12.738605068
    1.114758684    2.330859066    8.346499623    1.990256483  -17.248833203
    1.317442081    2.330859066    4.898844766   30.039012070  -13.518794634
    1.520125478    2.330859066   -3.032411790   46.814258093  -13.793255625
    1.722808875    2.330859066  -13.312084089   52.112635271  -13.777100041
    1.925492272    2.330859066  -23.068211276   41.249343115  -12.324015141
    2.128175669    2.330859066  -29.015999827   16.209506369  -14.060305052
    2.330859066    2.330859066  -29.368598098  -14.140750806  -12.977971217
    2.533542463    2.330859066  -23.062461093  -45.124461483  -15.475004485
    2.736225860    2.330859066  -13.049704793  -51.359471335  -16.378250116
    2.938909257    2.330859066   -1.969342266  -56.668473714  -15.561944618

   -3.141592654    2.533542463   12.614524177  -35.706646276  -28.839882558
   -2.938909257    2.533542463   18.175134484  -23.843410373   -7.563158241
   -2.736225860    2.533542463   22.085857113  -12.060313007   -7.738213300
   -2.533542463    2.533542463   23.330484442   -2.903043289  -10.003931405
   -2.330859066    2.533542463   23.367290599    3.896672941  -10.414556291
   -2.128175669    2.533542463   22.204659549    4.438353798   -8.256585237
   -1.925492272    2.533542463   21.920765854    0.075096677  -11.536338562
   -1.722808875    2.533542463   22.032107293   -3.163376481  -10.199947180
   -1.520125478    2.533542463   23.575873068  -10.310402409   -9.793193293
   -1.317442081    2.533542463   25.383219751   -7.025700407   -8.426762872
   -1.114758684    2.533542463   26.280387295    0.067287779   -9.083765142
   -0.912075287    2.533542463   24.373632220   19.726449998   -2.384364404
   -0.709391890    2.533542463   18.692113939   34.558144249    3.654878501
   -0.506708493    2.533542463   10.888819198   41.593303435   10.433446884
   -0.304025096    2.533542463    2.186914665   43.053927841   14.147953402
   -0.101341699    2.533542463   -5.892902293   35.015835763   21.643644050
    0.101341699    2.533542463  -11.495043609   18.740026599   26.457552239
    0.304025096    2.533542463  -12.421469423  -12.218884700   19.784130603
    0.506708493    2.533542463   -6.738598908  -39.838039110   -0.296392206
    0.709391890    2.533542463    1.829765286  -41.126371415  -11.097713477
    0.912075287    2.533542463    8.715510977  -23.638668356  -12.176281775
    1.114758684    2.533542463   10.567862579    5.179268419   -9.504795729
    1.317442081    2.533542463    7.177913872   27.352841958  -10.730530540
    1.520125478    2.533542463   -0.449661889   47.258414906  -10.600614616
    1.722808875    2.533542463  -11.066583629   53.954542245   -8.488805127
    1.925492272    2.533542463  -20.860111681   40.045583399   -8.559990952
    2.128175669    2.533542463  -26.808335116   17.679974527   -7.170605079
    2.330859066    2.533542463  -27.043179380  -17.885743654   -9.131983032
    2.533542463    2.533542463  -20.187192100  -44.283440704  -12.462120075
    2.736225860    2.533542463  -10.382253553  -54.181279031   -8.445378786
    2.938909257    2.533542463    2.150998048  -64.450405321  -24.494070708

   -3.141592654    2.736225860   16.311444064  -25.475993877    1.293053874
   -2.938909257    2.736225860   19.594075277  -21.316827231   -3.682769412
   -2.736225860    2.736225860   24.331678525  -14.142510166   -2.808411541
   -2.533542463    2.736225860   24.720377248    2.138898303   -1.777388713
   -2.330859066    2.736225860   24.662437902    2.652056883   -2.292812553
   -2.128175669    2.736225860   23.486264656    3.662879471   -2.509580041
   -1.925492272    2.736225860   23.683166896   -0.920472957   -1.939146887
   -1.722808875    2.736225860   23.387405808   -1.023746730    0.528746360
   -1.520125478    2.736225860   24.898909874   -9.641845249   -0.761053524
   -1.317442081    2.736225860   26.074030180   -3.590627728    3.482525021
   -1.114758684    2.736225860   26.357113392    5.229738152    5.136682930
   -0.912075287    2.736225860   23.088785928   23.837064686    6.585921629
   -0.709391890    2.736225860   17.331948496   36.401535794   10.480280819
   -0.506708493    2.736225860    7.847417822   51.984880513   20.153345308
   -0.304025096    2.736225860   -1.945184201   46.174984108   27.769797603
   -0.101341699    2.736225860  -11.398900223   42.462516033   33.160625651
    0.101341699    2.736225860  -16.887672145   10.783391124   26.525434233
    0.304025096    2.736225860  -15.649056171  -26.977734354   11.459272543
    0.506708493    2.736225860   -5.971382923  -58.056199059   -6.338037969
    0.709391890    2.736225860    3.639655820  -38.287013303   -6.160844328
    0.912075287    2.736225860   12.561349623  -47.290538855  -29.491549770
    1.114758684    2.736225860   16.872206803   15.232578950  -51.264017307
    1.317442081    2.736225860    9.331212246   44.321327924   -7.190281904
    1.520125478    2.736225860    0.576095907   47.249937406    1.038929000
    1.722808875    2.736225860  -10.397258968   56.186985487    3.539665956
    1.925492272    2.736225860  -20.344797450   40.392763077    4.081922022
    2.128175669    2.736225860  -26.392978633   17.203197795    4.020025241
    2.330859066    2.736225860  -26.172700931  -21.174282082    1.431910864
    2.533542463    2.736225860  -18.877347122  -44.016262327    2.131362233
    2.736225860    2.736225860   -9.484030096  -54.243203659   -1.189876642
    2.938909257    2.736225860    4.907811636  -79.757478128    4.692824891

   -3.141592654    2.938909257   13.102859941  -46.464711443   19.616806162
   -2.938909257    2.938909257   19.173201608  -20.334087677    6.237345293
   -2.736225860    2.938909257   23.136289338  -15.472613051    8.096613842
   -2.533542463    2.938909257   24.314406900    0.883548974    5.094975965
   -2.330859066    2.938909257   23.950990028    4.034454749    9.875363701
   -2.128175669    2.938909257   22.573578888    5.586479858   10.593871450
   -1.925492272    2.938909257   22.439272371   -0.702436902   10.594412025
   -1.722808875    2.938909257   22.104839752    0.086507704    8.601165397
   -1.520125478    2.938909257   23.443584087   -9.538945781   12.305789119
   -1.317442081    2.938909257   24.418137265   -1.461141960    9.200784916
   -1.114758684    2.938909257   24.464246705    5.533326838   17.134373522
   -0.912075287    2.938909257   20.432915474   32.257694785   26.452129632
   -0.709391890    2.938909257   12.806617232   44.116687963   35.208006805
   -0.506708493    2.938909257    1.903392052   59.619869237   39.498305379
   -0.304025096    2.938909257   -9.372866617   51.835467042   45.579916517
   -0.101341699    2.938909257  -19.328274263   40.536285831   44.319435404
    0.101341699    2.938909257  -22.806181116   -7.313382476   30.863899249
    0.304025096    2.938909257  -17.303183514  -47.466325683    5.029464640
    0.506708493    2.938909257   -4.684750702  -64.470424047   -5.173737193
    0.709391890    2.938909257    5.204841000  -41.946169991  -10.515759488
    0.912075287    2.938909257   17.484982418  -70.775541762   -5.349421404
    1.114758684    2.938909257   22.352157072   39.620142716   17.388321826
    1.317442081    2.938909257    8.922512402   61.652483006   10.022957350
    1.520125478    2.938909257   -0.517738001   47.281058592    9.056256523
    1.722808875    2.938909257  -12.299194169   58.923085777   12.886319026
    1.925492272    2.938909257  -22.009428601   40.166816163   11.270917905
    2.128175669    2.938909257  -28.521322946   17.055389546   15.878242565
    2.330859066    2.938909257  -27.649313120  -21.574422899   13.022102037
    2.533542463    2.938909257  -20.978637244  -44.937289141   16.149408656
    2.736225860    2.938909257  -10.232608514  -55.967684923   10.332940731
    2.938909257    2.938909257    1.320832261  -60.764121045   21.410775797
