#! FIELDS phi psi b1.bias der_phi der_psi
#! SET min_phi -pi
#! SET max_phi pi
#! SET nbins_phi  31
#! SET periodic_phi true
#! SET min_psi -pi
#! SET max_psi pi
#! SET nbins_psi  31
#! SET periodic_psi true
   -3.141592654   -3.141592654    0.120239564   -6.826965594   22.133653167
   -2.938909257   -3.141592654    8.693590952 -104.019910705   -1.995294117
   -2.736225860   -3.141592654   33.597162574  -80.944556202  -30.941191643
   -2.533542463   -3.141592654   31.415992492   64.484303462   76.556254537
   -2.330859066   -3.141592654   25.988311334  -15.600318709   68.479885771
   -2.128175669   -3.141592654   29.329418296  -15.691390789   38.508347447
   -1.925492272   -3.141592654   38.938467509  -70.381227073    0.125141967
   -1.722808875   -3.141592654   42.317592497   51.232193446   -4.850318906
   -1.520125478   -3.141592654   36.300022860  -40.824499713 -107.250034710
   -1.317442081   -3.141592654   47.159575284   11.717852141  -74.516393444
   -1.114758684   -3.141592654   25.573041206  135.448420622   61.549037940
   -0.912075287   -3.141592654   12.480283560   12.388517839   48.208565442
   -0.709391890   -3.141592654    5.234891698   57.764327217   37.884140390
   -0.506708493   -3.141592654    0.018120202   -9.390242421    5.141779727
   -0.304025096   -3.141592654   -0.504153404   22.947276905   27.551176114
   -0.101341699   -3.141592654   -1.989076166  -16.807799237    5.455410357
    0.101341699   -3.141592654   -0.422087118   10.345939633   21.137551544
    0.304025096   -3.141592654    1.027948703  -36.978606563    8.474303777
    0.506708493   -3.141592654    7.318634076  -11.183188622   28.959839762
    0.709391890   -3.141592654   16.629601445 -113.411660449   12.799567522
    0.912075287   -3.141592654   41.702217631  -64.066059286   82.761446480
    1.114758684   -3.141592654   34.570181759   87.992136764   76.518669290
    1.317442081   -3.141592654   21.585549531   49.463405637   29.952077251
    1.520125478   -3.141592654    7.051722031   81.078840446   12.647134866
    1.722808875   -3.141592654   -1.042685516   -0.364042905    5.362353996
    1.925492272   -3.141592654   -2.140465028   21.605973515    3.606835368
    2.128175669   -3.141592654   -4.854148634   -3.347822067    8.415598733
    2.330859066   -3.141592654   -4.654484006    9.400899742    4.333192364
    2.533542463   -3.141592654   -5.509758613   -8.416858134   11.097660409
    2.736225860   -3.141592654   -4.065367067    1.066671961    5.242749474
    2.938909257   -3.141592654   -2.979187746  -18.681610861    8.929748393

   -3.141592654   -2.938909257   -3.698726637    8.636651038   21.645506062
   -2.938909257   -2.938909257    1.134869908  -85.287512311   67.062402906
   -2.736225860   -2.938909257   21.215227983  -55.077793961  138.947594929
   -2.533542463   -2.938909257   17.216200103   54.858665421   56.873722767
   -2.330859066   -2.938909257   14.316826268  -31.692518805   55.373620010
   -2.128175669   -2.938909257   24.899030873  -56.576659573   13.546251929
   -1.925492272   -2.938909257   28.972389777   29.330266206  113.460199475
   -1.722808875   -2.938909257   24.039762179  -32.488023453  164.015025164
   -1.520125478   -2.938909257   40.816031870  -58.733646621  128.966492828
   -1.317442081   -2.938909257   27.382279868  154.445729370  233.561647228
   -1.114758684   -2.938909257    7.708180733   15.843323813   94.950518108
   -0.912075287   -2.938909257    5.520719018   38.323269893   44.125997127
   -0.709391890   -2.938909257   -0.999763461    1.898496815   22.434300784
   -0.506708493   -2.938909257   -0.850360737   20.361737473   20.164098558
   -0.304025096   -2.938909257   -5.315231707   -0.043736588   10.008644716
   -0.101341699   -2.938909257   -3.039283180    0.414776606   14.911209138
    0.101341699   -2.938909257   -4.556343778   -7.919548039   13.367221828
    0.304025096   -2.938909257    0.508551335  -19.291381999    8.530368870
    0.506708493   -2.938909257    1.720526503  -20.310358832    5.850334455
    0.709391890   -2.938909257   16.918303623 -114.957352909   -8.782400089
    0.912075287   -2.938909257   34.825994996  -40.791836134  -19.142099865
    1.114758684   -2.938909257   34.500825263   35.508205965  -38.067424805
    1.317442081   -2.938909257   20.391954780  101.324144751    1.577270523
    1.520125478   -2.938909257    1.470760595   58.999602357   25.810172389
    1.722808875   -2.938909257   -2.399833198    2.056376196   17.699781127
    1.925492272   -2.938909257   -5.858853151   24.242661747   28.615174193
    2.128175669   -2.938909257   -7.060569524   -8.091238118   17.401241844
    2.330859066   -2.938909257   -7.948965692   16.185735817   26.242930334
    2.533542463   -2.938909257   -8.243571036  -15.489410054   16.157763924
    2.736225860   -2.938909257   -7.080130468    8.586147760   24.399574550
    2.938909257   -2.938909257   -6.137524251  -24.264773835   18.447868157

   -3.141592654   -2.736225860   -8.683870699  -11.693663862   20.070420826
   -2.938909257   -2.736225860   -5.336686209  -11.690833686   -4.558692503
   -2.736225860   -2.736225860   -1.932370437  -34.134585085   56.747023837
   -2.533542463   -2.736225860    4.536812318   -6.316205178   67.326262286
   -2.330859066   -2.736225860    3.529509525  -19.016746809   41.109455620
   -2.128175669   -2.736225860   12.918354489  -26.527556371  107.548258929
   -1.925492272   -2.736225860    3.544506870   82.637656454   89.573911029
   -1.722808875   -2.736225860   -0.724253417  -39.642608571   46.247706048
   -1.520125478   -2.736225860    2.739940292   27.579586235  135.630737119
   -1.317442081   -2.736225860   -2.667837852    0.225655698   12.436831010
   -1.114758684   -2.736225860   -0.875617181    1.095381111  -11.257636066
   -0.912075287   -2.736225860   -2.002993794   -0.445913250   12.351565910
   -0.709391890   -2.736225860   -2.808453996   17.724736765    4.540552491
   -0.506708493   -2.736225860   -6.481196276    6.255053530   18.541663568
   -0.304025096   -2.736225860   -6.433733981    3.613104163   11.989215214
   -0.101341699   -2.736225860   -7.519280626   -1.047602310   17.967363102
    0.101341699   -2.736225860   -6.072014012   -7.813421616    7.362196643
    0.304025096   -2.736225860   -3.888636264  -18.492706739   22.019152736
    0.506708493   -2.736225860    1.692162592  -38.482865827   12.327732083
    0.709391890   -2.736225860   15.088907577  -96.716342218   20.575370780
    0.912075287   -2.736225860   33.534275340  -55.771433798   40.805489593
    1.114758684   -2.736225860   32.300738256   60.689836310   63.828973156
    1.317442081   -2.736225860   14.761382467   96.760557838   53.123532814
    1.520125478   -2.736225860   -0.909426811   49.723965690    7.952970205
    1.722808875   -2.736225860   -7.214319088   21.785558900   19.169583594
    1.925492272   -2.736225860  -10.219305618    5.174398705   10.986458147
    2.128175669   -2.736225860  -10.986543597    8.423154714   15.585772688
    2.330859066   -2.736225860  -12.320814402   -1.944430049   12.069012468
    2.533542463   -2.736225860  -11.479856487    1.034337603   13.747407608
    2.736225860   -2.736225860  -11.478686015   -9.091292129   13.579800213
    2.938909257   -2.736225860   -9.198284959   -3.894776216   12.477994420

   -3.141592654   -2.533542463  -10.756111478  -10.450510013    5.853790962
   -2.938909257   -2.533542463   -7.518380401  -15.413055907   32.656449275
   -2.736225860   -2.533542463   -6.242727974   -0.700117380    9.882864882
   -2.533542463   -2.533542463   -4.598921918  -16.038151402   16.431344374
   -2.330859066   -2.533542463   -2.723183064    3.789402098   29.731866126
   -2.128175669   -2.533542463   -4.313695956    1.674741806   32.372537927
   -1.925492272   -2.533542463   -2.737295856   -8.891745882    3.861782978
   -1.722808875   -2.533542463   -2.804829387    4.730762983   10.394403432
   -1.520125478   -2.533542463   -1.840731173  -13.712760896  -25.587409500
   -1.317442081   -2.533542463   -0.050861356    0.269073839   25.031669157
   -1.114758684   -2.533542463   -0.946365537    5.904966834   33.165714524
   -0.912075287   -2.533542463   -3.233000050   17.844423583   17.059570390
   -0.709391890   -2.533542463   -6.341921606    8.268134172   22.432201610
   -0.506708493   -2.533542463   -7.729700281   10.636048113    5.472722068
   -0.304025096   -2.533542463   -9.668153336    1.820138621   10.293361873
   -0.101341699   -2.533542463   -8.822440584   -3.321625642    2.474029272
    0.101341699   -2.533542463   -8.247614772   -9.606846097   10.176706293
    0.304025096   -2.533542463   -5.026887812  -13.096491349   -1.991672323
    0.506708493   -2.533542463   -1.880050090  -39.615180183    8.589184514
    0.709391890   -2.533542463   16.539250600 -123.452068247  -34.115582900
    0.912075287   -2.533542463   31.538694783    5.144970971  -25.108353763
    1.114758684   -2.533542463   18.199806096   92.767137511   59.177068573
    1.317442081   -2.533542463    3.062095820   53.169322835   50.633029751
    1.520125478   -2.533542463   -4.851580522   27.986489312   24.664866124
    1.722808875   -2.533542463   -9.121738131   16.263724866    5.856777381
    1.925492272   -2.533542463  -11.702857215    8.637353217    7.285644613
    2.128175669   -2.533542463  -12.913135412    4.939561040    6.662831426
    2.330859066   -2.533542463  -13.686315255    1.411203884    5.778786364
    2.533542463   -2.533542463  -13.575231491   -1.223435183    7.588311599
    2.736225860   -2.533542463  -13.045931389   -5.299347120    6.187577945
    2.938909257   -2.533542463  -11.825287076   -4.436120385   12.369372887

   -3.141592654   -2.330859066  -12.508011221   -6.493366115    8.521714695
   -2.938909257   -2.330859066  -10.655352164  -10.549920024   -8.725703571
   -2.736225860   -2.330859066   -8.052673441  -15.891923624    3.715484894
   -2.533542463   -2.330859066   -5.817381679   -0.000686788    7.166172878
   -2.330859066   -2.330859066   -7.206122563    3.589836298    3.917333728
   -2.128175669   -2.330859066   -5.953154378   -7.135681716   12.887858500
   -1.925492272   -2.330859066   -7.040470452   11.935718620   27.205459128
   -1.722808875   -2.330859066   -6.883117066  -13.066778418   14.146361579
   -1.520125478   -2.330859066   -5.624047252    6.002143700   41.566513419
   -1.317442081   -2.330859066   -7.048195012    0.780427238    3.445911504
   -1.114758684   -2.330859066   -6.340709851   -2.753520383   -3.677558004
   -0.912075287   -2.330859066   -6.413279533    2.429038798    0.765229823
   -0.709391890   -2.330859066   -7.700635736   11.230108296   -2.992278488
   -0.506708493   -2.330859066   -9.947998468    7.182062821    9.622821470
   -0.304025096   -2.330859066  -10.477439539    0.442975385    5.792265051
   -0.101341699   -2.330859066  -10.561369748   -0.830216279   10.963098390
    0.101341699   -2.330859066   -9.398786505  -11.267050482    4.433982548
    0.304025096   -2.330859066   -6.823847686  -11.980349087   14.390928594
    0.506708493   -2.330859066   -1.939826655  -51.684896670    2.047087975
    0.709391890   -2.330859066   15.995663525 -103.297383261   64.253999868
    0.912075287   -2.330859066   24.881381649   37.733442765  114.035946591
    1.114758684   -2.330859066    7.868946700   89.670975445   44.346222994
    1.317442081   -2.330859066   -3.017696266   24.863894676   10.564319449
    1.520125478   -2.330859066   -7.332363376   21.383596010    1.184112817
    1.722808875   -2.330859066  -10.782458814   12.313159928    7.512606071
    1.925492272   -2.330859066  -12.978394602    9.360151394    3.980827213
    2.128175669   -2.330859066  -14.280376498    4.115882164    5.515389168
    2.330859066   -2.330859066  -14.906287606    1.430183861    4.421907420
    2.533542463   -2.330859066  -14.788983076   -1.542105686    4.697209252
    2.736225860   -2.330859066  -14.366214942   -3.632319824    4.981024231
    2.938909257   -2.330859066  -13.406574849   -4.337399041    3.799755525

   -3.141592654   -2.128175669  -13.217193674   -7.133127088    0.985111818
   -2.938909257   -2.128175669  -10.755864716  -15.704239288   17.730557702
   -2.736225860   -2.128175669   -8.755044417   -2.169937130    7.011746245
   -2.533542463   -2.128175669   -7.961999535  -10.050626983    8.371464612
   -2.330859066   -2.128175669   -6.607860438    4.919632805    6.383538597
   -2.128175669   -2.128175669   -8.942835358    6.422031346   -0.526408587
   -1.925492272   -2.128175669   -7.618551175  -10.974164993  -13.382281993
   -1.722808875   -2.128175669   -7.388281148    5.248328316    0.733912081
   -1.520125478   -2.128175669   -6.865130285  -11.044796797  -17.611255103
   -1.317442081   -2.128175669   -5.073075129   -3.472604409    9.009118783
   -1.114758684   -2.128175669   -4.807071316    0.133434143   12.364910719
   -0.912075287   -2.128175669   -6.240350172   15.192872149   10.146058117
   -0.709391890   -2.128175669   -9.346812046   10.803402969   14.194626286
   -0.506708493   -2.128175669  -10.881402592    7.786587377    4.080823870
   -0.304025096   -2.128175669  -12.344608665    2.901687135    5.434284624
   -0.101341699   -2.128175669  -11.759635523   -5.147221412    3.131494292
    0.101341699   -2.128175669  -10.957555081   -6.238336476    7.872181160
    0.304025096   -2.128175669   -7.671257188  -24.439791137   -0.895835900
    0.506708493   -2.128175669   -3.550856492  -13.335776833   10.414588268
    0.709391890   -2.128175669   -0.145632137  -26.374430631   47.868163300
    0.912075287   -2.128175669    4.944720130   -9.544167800   29.052880756
    1.114758684   -2.128175669    1.387178465   35.631685577   21.490584498
    1.317442081   -2.128175669   -4.610824663   19.798960592   12.824226093
    1.520125478   -2.128175669   -8.271324976   19.398262003    9.886853213
    1.722808875   -2.128175669  -11.664931168   11.970521035    4.060019418
    1.925492272   -2.128175669  -13.679310812    9.439632092    4.099343435
    2.128175669   -2.128175669  -15.043670075    2.999808390    3.555069006
    2.330859066   -2.128175669  -15.471086573    2.576498996    2.757296374
    2.533542463   -2.128175669  -15.650532513   -2.091228579    4.096214711
    2.736225860   -2.128175669  -15.004411055   -2.943495866    3.078280993
    2.938909257   -2.128175669  -14.306442816   -4.559399506    5.651738955

   -3.141592654   -1.925492272  -13.912260489   -6.051726846    4.265790330
   -2.938909257   -1.925492272  -12.308213845  -10.439205449   -9.783153011
   -2.736225860   -1.925492272   -9.702787561  -14.278217116   -1.285669883
   -2.533542463   -1.925492272   -7.787208415   -0.705076742   -8.830344671
   -2.330859066   -1.925492272   -8.810385974    3.174880381   -2.678584843
   -2.128175669   -1.925492272   -7.610699438   -8.951599855    3.647741058
   -1.925492272   -1.925492272   -7.951470776    9.918637461   14.161656091
   -1.722808875   -1.925492272   -8.420193626   -7.090701766    3.581158301
   -1.520125478   -1.925492272   -7.748334327    4.804783228   19.779899052
   -1.317442081   -1.925492272   -8.551315866   -2.091347174   -1.635072192
   -1.114758684   -1.925492272   -7.830810651   -0.666057242   -5.212465286
   -0.912075287   -1.925492272   -7.960781616    0.347629853   -5.452813292
   -0.709391890   -1.925492272   -9.214436863   14.444724063  -11.224579501
   -0.506708493   -1.925492272  -11.853428189    5.300121987    1.659577849
   -0.304025096   -1.925492272  -12.134260117    3.342338582   -1.364206538
   -0.101341699   -1.925492272  -12.777141680   -2.641033114    4.202813120
    0.101341699   -1.925492272  -11.260595208   -6.814695237   -2.867817025
    0.304025096   -1.925492272   -9.984068505  -11.774826125   18.780293886
    0.506708493   -1.925492272   -5.498651604  -29.956984081    4.009003268
    0.709391890   -1.925492272    1.481829567  -36.673751411  -36.403446268
    0.912075287   -1.925492272    5.246334272   12.746446423   18.240852206
    1.114758684   -1.925492272   -2.619374803   44.873285843   16.455275191
    1.317442081   -1.925492272   -7.312043324    6.283113887    6.637725829
    1.520125478   -1.925492272   -9.728489307   19.781244322    3.219755754
    1.722808875   -1.925492272  -12.847513332    8.045252192    4.921332200
    1.925492272   -1.925492272  -14.422941963    9.817167201    2.454352393
    2.128175669   -1.925492272  -15.825983508    2.230487868    2.595738524
    2.330859066   -1.925492272  -16.141153197    2.571631725    2.632276793
    2.533542463   -1.925492272  -16.317652234   -2.092952033    1.970526237
    2.736225860   -1.925492272  -15.747647928   -2.420922541    2.715678581
    2.938909257   -1.925492272  -15.059979066   -5.032648283    1.148519212

   -3.141592654   -1.722808875  -14.167546906   -9.842007185   -0.432008493
   -2.938909257   -1.722808875  -11.810849071  -12.341437645   12.044807105
   -2.736225860   -1.722808875   -9.332269743  -12.209622958    1.494117372
   -2.533542463   -1.722808875   -6.593578112  -14.234482659    2.091355467
   -2.330859066   -1.722808875   -5.422455910    7.946210075  -11.377104877
   -2.128175669   -1.722808875   -8.439813590   10.520773720  -12.642052580
   -1.925492272   -1.722808875   -7.762607373   -9.671320069  -17.486111819
   -1.722808875   -1.722808875   -7.674063307    6.345014106   -8.140451263
   -1.520125478   -1.722808875   -7.306745795  -11.218187738  -19.825383174
   -1.317442081   -1.722808875   -5.482828484   -3.104686019   -4.600266735
   -1.114758684   -1.722808875   -5.188087516   -1.074369037    1.673430896
   -0.912075287   -1.722808875   -6.265972242   13.344801216    0.902021825
   -0.709391890   -1.722808875   -9.216772441   12.134394422    8.650306570
   -0.506708493   -1.722808875  -11.302645898    9.329106138   -4.170997180
   -0.304025096   -1.722808875  -12.458349262    1.417436755   -0.028898121
   -0.101341699   -1.722808875  -12.419257879   -1.624855090   -5.157616680
    0.101341699   -1.722808875  -11.381218780   -7.220160274    3.499497449
    0.304025096   -1.722808875   -9.890577142  -13.565569127  -22.046431429
    0.506708493   -1.722808875   -2.602317342  -54.293811234  -26.868702619
    0.709391890   -1.722808875    4.101186447    5.234645168   15.887211001
    0.912075287   -1.722808875   -1.590770989   28.065957684   13.942469028
    1.114758684   -1.722808875   -4.050444957    6.850666975    1.441693762
    1.317442081   -1.722808875   -7.502074203   22.612977757    2.178715999
    1.520125478   -1.722808875  -10.754483246   10.660769755    7.558329512
    1.722808875   -1.722808875  -13.192022741   12.446924237    0.761960565
    1.925492272   -1.722808875  -14.843253796    4.816553364    2.246239608
    2.128175669   -1.722808875  -15.932142021    5.130495523   -0.054213316
    2.330859066   -1.722808875  -16.362792891    0.176780820    0.457310244
    2.533542463   -1.722808875  -16.512239159    0.083705478    0.481715720
    2.736225860   -1.722808875  -15.900351280   -4.663224524    0.107561173
    2.938909257   -1.722808875  -15.321817884   -2.053479636    2.126922720

   -3.141592654   -1.520125478  -14.312699006   -7.275335108    0.196181372
   -2.938909257   -1.520125478  -12.348786532  -11.916334818  -14.737170222
   -2.736225860   -1.520125478   -9.530158191  -14.754373410   -4.162283776
   -2.533542463   -1.520125478   -7.353877166   -5.777926392   -3.216872691
   -2.330859066   -1.520125478   -6.022522567  -10.352603669   -0.231526269
   -2.128175669   -1.520125478   -4.291004663   -0.949658012   -8.214980050
   -1.925492272   -1.520125478   -5.506754300    6.647777739   -1.096665937
   -1.722808875   -1.520125478   -5.895777048    0.651315930  -10.973375243
   -1.520125478   -1.520125478   -6.617720603    3.729349609    9.970052251
   -1.317442081   -1.520125478   -6.689675586   -0.426237106   -6.368577620
   -1.114758684   -1.520125478   -7.083105351    1.498056792   -6.432497030
   -0.912075287   -1.520125478   -6.803757391    0.255325911   -6.671300886
   -0.709391890   -1.520125478   -8.661721568   14.829968811  -12.348468080
   -0.506708493   -1.520125478  -10.718132948    5.440759206   -1.984739645
   -0.304025096   -1.520125478  -11.974647586    5.945975408   -0.294968614
   -0.101341699   -1.520125478  -11.961232718   -4.700828784   -1.163070829
    0.101341699   -1.520125478  -11.088040550   -7.741427663   -7.008540924
    0.304025096   -1.520125478   -6.405452303  -35.161600961   -0.027623706
    0.506708493   -1.520125478   -1.840913656   -3.028656909   27.401310729
    0.709391890   -1.520125478   -1.934370967   -6.614089757   32.509849307
    0.912075287   -1.520125478   -0.729239833    6.755131477    5.409962489
    1.114758684   -1.520125478   -5.075794214   25.705042267    5.393478414
    1.317442081   -1.520125478   -8.682613405   12.953487099    3.734817672
    1.520125478   -1.520125478  -11.618118560   14.263983133   -0.175804979
    1.722808875   -1.520125478  -13.641442084    7.101852733    1.821126483
    1.925492272   -1.520125478  -15.183667090    7.224858144    0.479613519
    2.128175669   -1.520125478  -16.073762379    2.273117006    0.281777150
    2.330859066   -1.520125478  -16.519343751    1.694336057    0.245059513
    2.533542463   -1.520125478  -16.482912519   -1.696931111   -1.278717743
    2.736225860   -1.520125478  -16.051394108   -2.652653565    0.148870772
    2.938909257   -1.520125478  -15.369045581   -3.921680059   -2.668755637

   -3.141592654   -1.317442081  -13.445518142  -10.193819727   -7.880950422
   -2.938909257   -1.317442081  -10.321624875  -19.193604068    3.523411007
   -2.736225860   -1.317442081   -7.073847418  -10.804131234  -18.409300497
   -2.533542463   -1.317442081   -4.783035618  -15.491897540  -15.726352583
   -2.330859066   -1.317442081   -2.386234473    0.630673967  -21.672611515
   -2.128175669   -1.317442081   -4.665410965    8.824734608  -10.386330479
   -1.925492272   -1.317442081   -2.832757284  -18.733906614  -34.585663974
   -1.722808875   -1.317442081   -2.113089237   12.143561866  -28.160942099
   -1.520125478   -1.317442081   -3.081414361  -10.668415266  -51.189457760
   -1.317442081   -1.317442081   -0.240754578   -6.467561356  -41.864737042
   -1.114758684   -1.317442081   -1.241370781   11.670201774  -33.839154163
   -0.912075287   -1.317442081   -4.074251304   16.438307422  -13.354391697
   -0.709391890   -1.317442081   -7.284713006   13.408916832   -6.889244011
   -0.506708493   -1.317442081   -9.859083724   12.930484255  -11.084214735
   -0.304025096   -1.317442081  -11.426505748   -0.531519908  -13.797124675
   -0.101341699   -1.317442081  -10.564151298   -3.076066522  -11.551281982
    0.101341699   -1.317442081  -10.221871263   -4.038805519    1.067046446
    0.304025096   -1.317442081   -8.753125137   -7.313217166   12.504911627
    0.506708493   -1.317442081   -7.417840474   -9.061509567    8.988591921
    0.709391890   -1.317442081   -4.791601123  -13.227851449   -8.224024393
    0.912075287   -1.317442081   -3.300205629   -1.367418154   -4.114288477
    1.114758684   -1.317442081   -4.288534720   12.674810670  -10.090298092
    1.317442081   -1.317442081   -8.180317217   21.300553847   -4.492501181
    1.520125478   -1.317442081  -11.415675659   10.886440302   -1.396911208
    1.722808875   -1.317442081  -13.415369699    9.364285258   -2.978653827
    1.925492272   -1.317442081  -14.875727014    4.951817157   -3.959783684
    2.128175669   -1.317442081  -15.689805276    3.163522466   -3.623088003
    2.330859066   -1.317442081  -16.041341954    0.551769890   -4.985676340
    2.533542463   -1.317442081  -16.023774050   -1.123942280   -2.751464100
    2.736225860   -1.317442081  -15.476853355   -3.710901058   -5.352385875
    2.938909257   -1.317442081  -14.736093497   -3.935512884   -2.241511965

   -3.141592654   -1.114758684  -11.917700738   -5.588481776   -6.606742576
   -2.938909257   -1.114758684   -9.498175800  -25.893571580  -22.422953380
   -2.736225860   -1.114758684   -3.338985147  -23.641842169  -15.097324454
   -2.533542463   -1.114758684   -0.747230594   -7.259953356  -33.270453482
   -2.330859066   -1.114758684    0.290635093   -2.946594218  -19.159171744
   -2.128175669   -1.114758684    2.481637273  -22.464545263  -41.765866582
   -1.925492272   -1.114758684    6.127336726   -1.917801580  -40.864214918
   -1.722808875   -1.114758684    4.845949058   -0.343171618  -34.938887666
   -1.520125478   -1.114758684    7.293367052  -11.916638603  -36.177209830
   -1.317442081   -1.114758684    7.079567362    9.343978413  -39.029504215
   -1.114758684   -1.114758684    4.472014467   20.212737691  -33.113902947
   -0.912075287   -1.114758684   -0.177750349   15.363454248  -32.034435894
   -0.709391890   -1.114758684   -1.205528156    6.592088645  -48.687462524
   -0.506708493   -1.114758684   -5.081520193   21.891573761  -28.994962968
   -0.304025096   -1.114758684   -6.843374268    1.746752148  -17.761600778
   -0.101341699   -1.114758684   -9.122069166   16.997538704   -0.655498234
    0.101341699   -1.114758684  -10.261356837   -5.584681486   -4.616435299
    0.304025096   -1.114758684   -9.296895329   -3.848557495   -6.184295567
    0.506708493   -1.114758684   -6.671507178  -22.138360681   -3.651313537
    0.709391890   -1.114758684   -2.407195500  -17.425914564   -2.397543780
    0.912075287   -1.114758684    0.127242961   -2.504261382   -6.490793584
    1.114758684   -1.114758684   -3.124398152   29.024746614   -3.311287784
    1.317442081   -1.114758684   -7.561460637   12.609758073   -5.242217686
    1.520125478   -1.114758684  -10.494005832   17.773553369   -6.904642647
    1.722808875   -1.114758684  -12.658527150    2.254587571   -5.637326431
    1.925492272   -1.114758684  -13.667089729   10.009738654   -6.494724958
    2.128175669   -1.114758684  -14.723109239   -1.942986526   -6.431237341
    2.330859066   -1.114758684  -14.888866567    6.301454828   -5.437205305
    2.533542463   -1.114758684  -15.239032423   -6.159526855   -6.015700154
    2.736225860   -1.114758684  -14.415614905    1.999508022   -4.479946435
    2.938909257   -1.114758684  -14.041543032  -10.544581587   -6.373204064

   -3.141592654   -0.912075287  -10.951753502  -22.559692775   -1.285846667
   -2.938909257   -0.912075287   -4.687544796  -25.965101285  -12.340758811
   -2.736225860   -0.912075287   -0.650140821  -28.143674338  -15.796834852
   -2.533542463   -0.912075287    7.649339985  -34.203978890  -28.631372056
   -2.330859066   -0.912075287    7.423129843   24.725517037  -30.049336022
   -2.128175669   -0.912075287    6.571964636  -21.992499506   -2.996046096
   -1.925492272   -0.912075287   10.521908841   -4.256834727   -0.028731863
   -1.722808875   -0.912075287   10.197625899   -4.036454503  -18.083457401
   -1.520125478   -0.912075287   13.433826689  -24.119432446  -33.539781044
   -1.317442081   -0.912075287   17.307776536   -4.326774697  -50.464109457
   -1.114758684   -0.912075287   13.147657606   36.742743534  -42.748099717
   -0.912075287   -0.912075287    8.502055872    5.283685693  -48.814618932
   -0.709391890   -0.912075287    5.618333541   35.978344533  -11.563431478
   -0.506708493   -0.912075287   -3.307950174   35.251322791   14.831919958
   -0.304025096   -0.912075287   -7.096795206   10.731242369   11.982838760
   -0.101341699   -0.912075287   -9.265669728    6.458883843   -0.672174345
    0.101341699   -0.912075287   -8.872541201   -6.576797540   -5.076126755
    0.304025096   -0.912075287   -7.805865176   -5.190464444   -3.927627409
    0.506708493   -0.912075287   -6.005153136  -12.626044430   -8.235796425
    0.709391890   -0.912075287   -2.979438252  -16.138555759   -3.586274812
    0.912075287   -0.912075287   -0.514519776   -5.039887509   -7.298945833
    1.114758684   -0.912075287   -1.412886995   13.561412966  -10.068684260
    1.317442081   -0.912075287   -5.663767979   25.443592935   -8.512033983
    1.520125478   -0.912075287   -9.665925882   11.063420337   -1.098323012
    1.722808875   -0.912075287  -11.226784086    8.395649987   -5.805235099
    1.925492272   -0.912075287  -12.752781796    3.789368535   -2.762354856
    2.128175669   -0.912075287  -13.243973065    4.049149929   -6.174345333
    2.330859066   -0.912075287  -13.924018966   -0.298806700   -4.055038496
    2.533542463   -0.912075287  -13.693321037    1.116948531   -7.047895773
    2.736225860   -0.912075287  -13.602953661   -5.601950296   -3.386227376
    2.938909257   -0.912075287  -12.452402893   -1.514333177   -6.635266640

   -3.141592654   -0.709391890  -11.450923496  -18.997658065    3.436941161
   -2.938909257   -0.709391890   -3.758633999  -42.431153443   -1.821176908
   -2.736225860   -0.709391890    1.936437223  -18.036873817    2.993346109
   -2.533542463   -0.709391890    5.341194062  -11.637897793   39.503490772
   -2.330859066   -0.709391890    5.749810754    1.103253411   32.822155174
   -2.128175669   -0.709391890    6.845674223   -7.640199193    0.601177677
   -1.925492272   -0.709391890    7.711139473   -8.093620236   16.481976795
   -1.722808875   -0.709391890   12.866060440  -38.166453232   -6.741894139
   -1.520125478   -0.709391890   19.283569583  -21.391543521  -13.912100212
   -1.317442081   -0.709391890   21.685103956   -0.066017269   11.004317048
   -1.114758684   -0.709391890   19.379366561   14.920587643  -17.160944700
   -0.912075287   -0.709391890   16.840696186   22.477805851  -17.038889173
   -0.709391890   -0.709391890    5.507877944   80.390526659   13.091491829
   -0.506708493   -0.709391890   -6.285841588   23.429994963    3.682077492
   -0.304025096   -0.709391890   -7.976622294    7.305279334   -1.393951436
   -0.101341699   -0.709391890   -9.176881090   -0.955557055    2.054054000
    0.101341699   -0.709391890   -8.655047344    0.416591440    1.762226079
    0.304025096   -0.709391890   -8.085001583  -10.801822738    3.161364649
    0.506708493   -0.709391890   -5.224501609  -13.861508990    6.863198711
    0.709391890   -0.709391890   -1.338055207  -26.529698597   -0.108160034
    0.912075287   -0.709391890    2.300640811    0.934574284    0.040105621
    1.114758684   -0.709391890   -1.060435961   22.541918326    3.562353032
    1.317442081   -0.709391890   -5.351961539   21.869834150    2.268892346
    1.520125478   -0.709391890   -9.306966424   12.911287714   -1.952804762
    1.722808875   -0.709391890  -10.945147982    7.643829686    1.841988464
    1.925492272   -0.709391890  -12.370950301    3.393399101   -0.155618086
    2.128175669   -0.709391890  -12.820029320    4.422521362    1.596029431
    2.330859066   -0.709391890  -13.518096536   -1.193627831    0.910998937
    2.533542463   -0.709391890  -13.200730446    2.363029877    2.272385652
    2.736225860   -0.709391890  -13.360161939   -6.319755611    1.496615230
    2.938909257   -0.709391890  -11.969111118   -0.001046412    1.590685820

   -3.141592654   -0.506708493  -11.635505557  -18.368744775    0.166251109
   -2.938909257   -0.506708493   -5.914964212  -24.775478864   25.250479544
   -2.736225860   -0.506708493   -3.691698177   -7.348134534   36.797363567
   -2.533542463   -0.506708493    0.314864984  -26.006665500    3.490025081
   -2.330859066   -0.506708493    3.329041897   -6.203431596   -9.402238756
   -2.128175669   -0.506708493    5.665504715  -15.116269875    8.626528944
   -1.925492272   -0.506708493    7.220112620   -5.031998507   -7.350883767
   -1.722808875   -0.506708493   12.114550337  -42.068859961   11.908709481
   -1.520125478   -0.506708493   17.632014919   -0.819788970   28.082209383
   -1.317442081   -0.506708493   16.272016239   -1.692474519   31.205913424
   -1.114758684   -0.506708493   17.278292222    8.811645788   43.271575862
   -0.912075287   -0.506708493    9.662860240   58.061917325   76.300292435
   -0.709391890   -0.506708493   -1.330283079   42.786275704   44.612257685
   -0.506708493   -0.506708493   -6.929214972   14.602942918   11.998197150
   -0.304025096   -0.506708493   -8.942355503    8.582047538    9.997833502
   -0.101341699   -0.506708493  -10.133929336    0.767846507    5.469887938
    0.101341699   -0.506708493   -9.481338182   -4.657924598    6.290608027
    0.304025096   -0.506708493   -8.421876423   -7.070308672    3.051759565
    0.506708493   -0.506708493   -6.559872120  -11.039184616   -0.948217381
    0.709391890   -0.506708493   -3.476891139  -19.828794315    8.627156055
    0.912075287   -0.506708493   -0.022481345   -8.590767279    2.883968113
    1.114758684   -0.506708493   -0.849714068   15.323267898   -2.714290916
    1.317442081   -0.506708493   -5.417564184   26.752733796    0.548063204
    1.520125478   -0.506708493   -9.775876940   12.958436521    5.878460872
    1.722808875   -0.506708493  -11.476487387    7.909746560    3.743487465
    1.925492272   -0.506708493  -12.948719178    4.025877607    4.451311390
    2.128175669   -0.506708493  -13.427595784    3.598817960    3.850535689
    2.330859066   -0.506708493  -14.146815239    0.660556926    3.755133203
    2.533542463   -0.506708493  -14.022520704    0.962723612    4.469996361
    2.736225860   -0.506708493  -13.959267942   -5.119270324    3.182216880
    2.938909257   -0.506708493  -12.760899312   -2.066739754    5.313632304

   -3.141592654   -0.304025096  -12.260899110  -10.156369585    4.689336774
   -2.938909257   -0.304025096   -9.353756378  -17.605133819   -0.686374061
   -2.736225860   -0.304025096   -5.304481093  -23.612853045  -20.112271813
   -2.533542463   -0.304025096    0.073076779  -24.920801495    5.741977001
   -2.330859066   -0.304025096    2.854285828   -2.670919602   19.325722679
   -2.128175669   -0.304025096    3.260852474   -6.615505295   19.284389697
   -1.925492272   -0.304025096    5.934247677  -17.492561477   25.619284787
   -1.722808875   -0.304025096    8.963079069   -8.845199072   22.810160264
   -1.520125478   -0.304025096    9.431158673    0.046731634   46.445276992
   -1.317442081   -0.304025096    9.829713448    1.021533232   38.849042728
   -1.114758684   -0.304025096    6.126988870   35.587598560   50.189289490
   -0.912075287   -0.304025096   -1.178025402   28.808818373   15.014048188
   -0.709391890   -0.304025096   -5.902453071   21.706212960    0.524203686
   -0.506708493   -0.304025096   -9.377588733    8.814331327    2.770734793
   -0.304025096   -0.304025096  -10.070334899    2.758485366    1.177392445
   -0.101341699   -0.304025096  -10.762153778    1.270981193    0.725211496
    0.101341699   -0.304025096  -10.464843604   -2.289432999    1.635026754
    0.304025096   -0.304025096   -9.549405250   -9.372654046    3.052744623
    0.506708493   -0.304025096   -6.793256744  -15.467979262    9.031765389
    0.709391890   -0.304025096   -3.045293781  -23.319631896   -2.791886663
    0.912075287   -0.304025096    0.905844371   -6.398684263    5.895110415
    1.114758684   -0.304025096   -1.623380874   24.737818408    5.328272301
    1.317442081   -0.304025096   -6.343455743   20.768285730    5.356954465
    1.520125478   -0.304025096  -10.399128103   17.282269398   -0.329152549
    1.722808875   -0.304025096  -12.435020794    4.414904508    4.172163859
    1.925492272   -0.304025096  -13.491472486    6.427368952    1.459299300
    2.128175669   -0.304025096  -14.319755380    1.494068113    4.476644560
    2.330859066   -0.304025096  -14.703451683    2.604411539    2.348115017
    2.533542463   -0.304025096  -14.858986536   -1.553210749    3.690980847
    2.736225860   -0.304025096  -14.420415677   -2.366923755    1.708222066
    2.938909257   -0.304025096  -13.696302349   -5.055958935    3.160963401

   -3.141592654   -0.101341699  -12.692755388  -10.876740785   -0.063071609
   -2.938909257   -0.101341699   -8.914724687  -27.647860905    6.914112905
   -2.736225860   -0.101341699   -3.011198325  -23.013790690    9.019382039
   -2.533542463   -0.101341699   -0.646163005   -4.956943432   -0.425164831
   -2.330859066   -0.101341699    0.287500617   -1.103409874   -1.273339755
   -2.128175669   -0.101341699   -1.048487823    8.575772183   12.345016141
   -1.925492272   -0.101341699   -0.308647401  -14.711817229   24.327164366
   -1.722808875   -0.101341699    1.756681667   -1.476006684   40.470140916
   -1.520125478   -0.101341699    1.548724057    0.962577589   28.711778880
   -1.317442081   -0.101341699    0.233241162   13.703048848   44.146896344
   -1.114758684   -0.101341699   -2.189296647    5.950832183   35.946554364
   -0.912075287   -0.101341699   -3.562121378   13.598280111   25.471166095
   -0.709391890   -0.101341699   -7.235847870   16.483270542   15.667710485
   -0.506708493   -0.101341699   -9.432109138    7.752042392    7.045013409
   -0.304025096   -0.101341699  -10.752877453    3.757092576    4.923504800
   -0.101341699   -0.101341699  -10.954287916   -0.196798688    2.235097074
    0.101341699   -0.101341699  -10.531708063   -5.723491716    0.757539022
    0.304025096   -0.101341699   -8.916980461   -7.711968418   -3.438851414
    0.506708493   -0.101341699   -7.312461027  -10.936638557  -11.128149303
    0.709391890   -0.101341699   -4.190857680  -17.753362097    3.910138022
    0.912075287   -0.101341699   -0.907762503  -12.835112087   -8.699893198
    1.114758684   -0.101341699   -0.649881027   14.722665140   -9.803918194
    1.317442081   -0.101341699   -6.066788228   30.346469741   -7.238440883
    1.520125478   -0.101341699  -10.526276884   14.068383112    1.457904501
    1.722808875   -0.101341699  -12.814142389    9.161274659    0.209275240
    1.925492272   -0.101341699  -14.109186889    4.527819755    3.849104878
    2.128175669   -0.101341699  -15.008362900    3.638088207    2.010269991
    2.330859066   -0.101341699  -15.321010757    0.285489834    3.048492868
    2.533542463   -0.101341699  -15.374224018   -0.661097351    1.171787497
    2.736225860   -0.101341699  -14.809830301   -3.932353548    1.947018126
    2.938909257   -0.101341699  -14.085907600   -3.995714814    1.022058304

   -3.141592654    0.101341699  -12.773932695   -5.246557093    0.380328296
   -2.938909257    0.101341699   -9.913512400  -23.015694975   -6.156199676
   -2.736225860    0.101341699   -5.348909145  -19.591317360    2.139075370
   -2.533542463    0.101341699   -1.417999536  -18.527985969    8.011417082
   -2.330859066    0.101341699    0.612499523   -0.352713752    3.557533213
   -2.128175669    0.101341699    0.014111520    4.214846827  -15.158863539
   -1.925492272    0.101341699   -1.532707896   10.291093533  -10.879872268
   -1.722808875    0.101341699   -2.624882940   -0.698872638    1.761170117
   -1.520125478    0.101341699   -2.673519899    3.819453362   13.723476360
   -1.317442081    0.101341699   -3.643054972    5.075491534   -2.163719741
   -1.114758684    0.101341699   -5.380188018   10.847462044  -11.493968146
   -0.912075287    0.101341699   -6.357927082   -0.728142742  -12.175019237
   -0.709391890    0.101341699   -7.846007295   18.685895097  -10.872731731
   -0.506708493    0.101341699  -11.034034120    4.586216933   -0.956349352
   -0.304025096    0.101341699  -10.821734990    0.984025692   -3.505228995
   -0.101341699    0.101341699  -11.289431143   -1.733493075   -0.876696775
    0.101341699    0.101341699  -10.355372722   -3.196238483   -4.481682293
    0.304025096    0.101341699   -9.234022956  -13.429610430   -0.586376066
    0.506708493    0.101341699   -5.458503533  -17.711274431    0.733582780
    0.709391890    0.101341699   -1.824510938  -23.536685196  -18.649700698
    0.912075287    0.101341699    2.695327638   -9.238238986   -4.681451870
    1.114758684    0.101341699    0.423611594   23.287557584  -12.766069437
    1.317442081    0.101341699   -4.186370939   24.417632817  -13.201021538
    1.520125478    0.101341699   -9.840149243   24.945054672   -8.481101305
    1.722808875    0.101341699  -12.476662899    5.391194733   -4.922033730
    1.925492272    0.101341699  -14.171869820    9.758306293   -3.404249011
    2.128175669    0.101341699  -14.990969861   -0.011028701   -2.569698908
    2.330859066    0.101341699  -15.536652357    4.015893726   -0.892409577
    2.533542463    0.101341699  -15.369505239   -4.322777867   -1.215994722
    2.736225860    0.101341699  -15.007466915   -0.516992530   -0.151811047
    2.938909257    0.101341699  -13.961762910   -8.462500616   -2.662131374

   -3.141592654    0.304025096  -12.413692948  -10.522576023   -3.254076030
   -2.938909257    0.304025096   -8.739174178  -20.623049944    3.693616844
   -2.736225860    0.304025096   -5.255998805  -16.015070396    5.135592324
   -2.533542463    0.304025096   -1.565318848  -17.583973741   -7.061411533
   -2.330859066    0.304025096    0.549465895   -4.222735954   -4.959635364
   -2.128175669    0.304025096    1.382723246   -3.876345862    5.200591146
   -1.925492272    0.304025096    0.493474862   15.208941078    3.286339408
   -1.722808875    0.304025096   -3.217453996   14.254170596   10.109457046
   -1.520125478    0.304025096   -4.191575841   -1.813024512    3.847469524
   -1.317442081    0.304025096   -3.743747597   -2.083713872    6.347932641
   -1.114758684    0.304025096   -3.337022593   -0.023766493    9.724811955
   -0.912075287    0.304025096   -4.693553810   13.301168825   13.132015342
   -0.709391890    0.304025096   -7.643603081   13.264271267   10.296623830
   -0.506708493    0.304025096   -9.761634707    7.363912479   -2.530450233
   -0.304025096    0.304025096  -10.499148077    0.718926682   -0.574586358
   -0.101341699    0.304025096  -10.531335343   -1.109384479   -5.203875713
    0.101341699    0.304025096   -9.226273119  -11.780851811   -3.960486229
    0.304025096    0.304025096   -6.798936233  -10.983525148  -16.231092894
    0.506708493    0.304025096   -3.897870514  -19.038952771  -24.785561056
    0.709391890    0.304025096    0.181336554  -21.237071701  -12.279648834
    0.912075287    0.304025096    6.573454731  -42.146908684  -79.116823985
    1.114758684    0.304025096   11.265639152   16.373665706  -90.691350214
    1.317442081    0.304025096    0.125991388   69.036138430  -26.406585279
    1.520125478    0.304025096   -8.316747563   14.855852580   -5.808554965
    1.722808875    0.304025096  -10.945283518   17.205098952   -7.543827956
    1.925492272    0.304025096  -13.434309163    3.811352148   -3.656906787
    2.128175669    0.304025096  -14.145942728    7.043111894   -4.597357534
    2.330859066    0.304025096  -15.148860539   -0.596426251   -3.338322868
    2.533542463    0.304025096  -14.870008200    1.310061226   -3.298398235
    2.736225860    0.304025096  -14.829855741   -5.496650353   -1.711930275
    2.938909257    0.304025096  -13.361772796   -4.592643866   -1.693697258

   -3.141592654    0.506708493  -11.860617524   -9.717787217   -2.947360924
   -2.938909257    0.506708493   -9.065853982  -15.134391044  -10.249622170
   -2.736225860    0.506708493   -6.035207724  -18.411329602   -5.258688241
   -2.533542463    0.506708493   -1.289298499  -21.790075536    6.571259649
   -2.330859066    0.506708493    0.128789481    6.744700661   12.102520642
   -2.128175669    0.506708493   -1.640431851    7.320896939   19.443699169
   -1.925492272    0.506708493   -3.007944655    6.370337951   15.727571120
   -1.722808875    0.506708493   -4.079220521    5.147281924   -7.391530424
   -1.520125478    0.506708493   -4.787408861   -2.098485605   -1.062693523
   -1.317442081    0.506708493   -3.357239845   -3.869181939  -11.879872737
   -1.114758684    0.506708493   -5.177130864   14.845894536  -14.231701831
   -0.912075287    0.506708493   -5.844368909   -5.410777434  -21.116340774
   -0.709391890    0.506708493   -6.985595557   18.165966021  -18.287493253
   -0.506708493    0.506708493   -9.455273691    0.498895380   -8.699533061
   -0.304025096    0.506708493   -9.311798563    3.049621548  -10.748975954
   -0.101341699    0.506708493   -9.252194166   -6.724323318   -8.564404355
    0.101341699    0.506708493   -8.095933133   -3.499898726  -11.816798911
    0.304025096    0.506708493   -5.201528240  -27.497335620   -6.302423293
    0.506708493    0.506708493    0.082997598  -24.258749832   -6.835443092
    0.709391890    0.506708493   12.361859938 -112.706335323 -118.421837002
    0.912075287    0.506708493   35.643505733  -63.054230600 -149.289521721
    1.114758684    0.506708493   27.912510347  115.385596794  -58.422962306
    1.317442081    0.506708493    4.945904995   87.160395364  -23.096757893
    1.520125478    0.506708493   -6.446151184   30.994050683  -12.542191808
    1.722808875    0.506708493   -9.842977750    9.432986174   -5.484473561
    1.925492272    0.506708493  -12.071485800   10.912576277   -9.357076997
    2.128175669    0.506708493  -13.214404094    1.943969178   -5.768866672
    2.330859066    0.506708493  -13.932687005    4.335103687   -7.838153061
    2.533542463    0.506708493  -14.198208703   -0.937494645   -3.900260919
    2.736225860    0.506708493  -14.102341190   -1.108908244   -5.513715905
    2.938909257    0.506708493  -13.258570291   -6.088968433   -1.314799498

   -3.141592654    0.709391890  -10.951204594  -17.390400615   -4.709905286
   -2.938909257    0.709391890   -6.722744608  -16.961152491   -2.570413781
   -2.736225860    0.709391890   -4.242778303  -12.021132515   -4.318897412
   -2.533542463    0.709391890   -1.565144618  -10.499863192   -8.118819852
   -2.330859066    0.709391890   -1.251649921    6.986431075   -7.324275270
   -2.128175669    0.709391890   -2.710896448    1.862355277  -15.029174360
   -1.925492272    0.709391890   -1.796183252   -4.706400509  -17.534845036
   -1.722808875    0.709391890   -2.634231309    9.361755890    0.200150002
   -1.520125478    0.709391890   -3.001411870   -6.090128564  -11.892860695
   -1.317442081    0.709391890   -1.978726328   -3.059996465    0.658357419
   -1.114758684    0.709391890   -0.804035313   -5.906162142   -1.875991910
   -0.912075287    0.709391890   -2.241375377   20.060893534    8.353665514
   -0.709391890    0.709391890   -5.607159544    8.232845651    6.373029757
   -0.506708493    0.709391890   -7.091864579    8.780113139   -5.992034884
   -0.304025096    0.709391890   -7.458748687   -6.012466163   -6.532236532
   -0.101341699    0.709391890   -7.090633174    2.643780634  -11.421686208
    0.101341699    0.709391890   -4.774249161  -27.161721224  -13.659102487
    0.304025096    0.709391890   -1.286770959   -4.528697681  -25.810005358
    0.506708493    0.709391890    8.562705321 -122.943490943 -102.513358033
    0.709391890    0.709391890   40.250210880 -130.416889274 -118.262313194
    0.912075287    0.709391890   49.224119832   25.527560772    1.237146149
    1.114758684    0.709391890   37.385858937   95.045973459  -41.396609804
    1.317442081    0.709391890   11.205015584  134.364907545  -35.558718929
    1.520125478    0.709391890   -4.894186778   24.922660774   -1.559667351
    1.722808875    0.709391890   -8.041450097   19.886015424  -10.961294757
    1.925492272    0.709391890  -10.822461880    2.554909938   -1.932904857
    2.128175669    0.709391890  -11.539141799    9.112225129   -9.650209999
    2.330859066    0.709391890  -12.705067639   -0.920906349   -3.696191296
    2.533542463    0.709391890  -12.821573948    4.725952512   -9.628119945
    2.736225860    0.709391890  -12.977841790   -5.688919479   -4.663555715
    2.938909257    0.709391890  -12.173210093    0.239946856   -8.917892753

   -3.141592654    0.912075287  -10.225966071   -7.484260699   -4.454609823
   -2.938909257    0.912075287   -6.432243774  -20.535785996   -9.128196029
   -2.736225860    0.912075287   -4.003646441  -10.731246591   -4.620263236
   -2.533542463    0.912075287    0.363997886  -26.415660564   -7.892873624
   -2.330859066    0.912075287    2.976615184    1.845497736  -28.738371949
   -2.128175669    0.912075287    1.354341466   12.298420724  -11.512403210
   -1.925492272    0.912075287   -1.712685765   13.582557496   13.301228092
   -1.722808875    0.912075287   -2.677548539   -1.851553387   -5.685998657
   -1.520125478    0.912075287   -2.212428947   -3.983560439    2.969918262
   -1.317442081    0.912075287   -1.024555014   -1.751893950  -10.796000948
   -1.114758684    0.912075287   -2.876701428   13.186022772   -6.000066599
   -0.912075287    0.912075287   -3.259838765   -6.121666549  -23.672896185
   -0.709391890    0.912075287   -4.071966917   15.201319952  -21.255096070
   -0.506708493    0.912075287   -6.207555471    1.453666977  -10.694558052
   -0.304025096    0.912075287   -6.188484282    0.382609781   -5.759272381
   -0.101341699    0.912075287   -4.856100326  -13.160223431  -10.096734700
    0.101341699    0.912075287   -3.704265048    1.024064693   -4.941637435
    0.304025096    0.912075287    2.943430551  -90.839529191  -29.560954834
    0.506708493    0.912075287   31.147675727 -151.158550975  -65.625173855
    0.709391890    0.912075287   50.033567883  -25.757450566   18.440282249
    0.912075287    0.912075287   48.460476547   20.153633886    0.681524976
    1.114758684    0.912075287   40.593176222   79.717008848   19.437347821
    1.317442081    0.912075287   14.601554269  146.379606147   11.118443776
    1.520125478    0.912075287   -4.022687861   28.844213837   -9.642541010
    1.722808875    0.912075287   -6.354079806   17.745122283   -4.646715735
    1.925492272    0.912075287  -10.179748152    6.606516661   -6.450514468
    2.128175669    0.912075287  -10.109367522    4.866115328   -3.112389512
    2.330859066    0.912075287  -11.899373526    2.567166118   -5.341836290
    2.533542463    0.912075287  -11.193158279   -0.116845418   -4.032162885
    2.736225860    0.912075287  -12.041285305   -0.444450312   -5.632042178
    2.938909257    0.912075287  -10.581875594   -5.500865171   -4.497396186

   -3.141592654    1.114758684   -8.760963764  -15.313772408   -6.982746650
   -2.938909257    1.114758684   -5.089879362  -17.466237549    5.364011100
   -2.736225860    1.114758684   -2.182670596  -13.735324404   -8.853659107
   -2.533542463    1.114758684    2.689452851  -36.507704622  -14.026701744
   -2.330859066    1.114758684    8.285461728   -0.697669825  -18.329285626
   -2.128175669    1.114758684    2.215885804   40.724507886   -8.817635492
   -1.925492272    1.114758684   -1.229599436   -3.685997077  -19.461191034
   -1.722808875    1.114758684   -1.525985682    9.780266550   -1.162425274
   -1.520125478    1.114758684   -2.002684926   -8.428011343   -7.213673175
   -1.317442081    1.114758684   -0.538410014   -2.960991883    5.239444779
   -1.114758684    1.114758684    0.941208720  -11.610060621   -1.626759488
   -0.912075287    1.114758684    0.539106967   20.361918154   17.571148613
   -0.709391890    1.114758684   -3.694840276   10.501504638   15.451796792
   -0.506708493    1.114758684   -4.427148271    4.211178142    2.786156741
   -0.304025096    1.114758684   -5.142532548   -2.327103296   -7.703087355
   -0.101341699    1.114758684   -3.591834726  -11.127104503   -4.119389524
    0.101341699    1.114758684    1.660926228  -49.197718036  -49.523911103
    0.304025096    1.114758684   16.055854881  -84.418299076  -81.520635492
    0.506708493    1.114758684   32.965303058  -75.797221729    3.230728032
    0.709391890    1.114758684   43.247939161  -21.153768132   22.091981198
    0.912075287    1.114758684   43.622163281   13.297848679   46.575305730
    1.114758684    1.114758684   33.608140488   98.555423207   32.574840647
    1.317442081    1.114758684    9.004402040  108.620261514   28.986258641
    1.520125478    1.114758684   -2.666509331   18.352618071   -0.007756821
    1.722808875    1.114758684   -6.163549153   21.263792206    2.482384472
    1.925492272    1.114758684   -9.062992227    5.720034648   -2.185601331
    2.128175669    1.114758684  -10.189830578    6.838279120    2.460414691
    2.330859066    1.114758684  -10.867599794   -0.246265421   -3.666532335
    2.533542463    1.114758684  -11.026723442    1.673941120   -0.025909060
    2.736225860    1.114758684  -10.764630753   -3.656445767   -5.664843053
    2.938909257    1.114758684  -10.340357037   -1.571878243    0.092146647

   -3.141592654    1.317442081   -8.444429659   -6.385982815    1.739376001
   -2.938909257    1.317442081   -6.334872220  -21.657302896   -4.006341358
   -2.736225860    1.317442081   -0.979874008  -21.384565619   -3.389913277
   -2.533542463    1.317442081    3.065691074  -29.062309128   12.288426399
   -2.330859066    1.317442081    9.227983943  -12.381133767    6.712148992
   -2.128175669    1.317442081    5.127525137   37.999914913   -7.863635849
   -1.925492272    1.317442081    0.285655638    8.545988486   10.322870838
   -1.722808875    1.317442081   -0.879505240    4.407343112   -8.498136304
   -1.520125478    1.317442081   -0.493693506   -7.379539423   -3.832705469
   -1.317442081    1.317442081    0.435013684    1.718194512  -12.407821266
   -1.114758684    1.317442081   -1.653583877   15.977797397   -8.432067272
   -0.912075287    1.317442081   -2.765665354  -10.507758705  -26.953792951
   -0.709391890    1.317442081   -1.065948966    8.938486032  -39.605585970
   -0.506708493    1.317442081   -4.910734826    8.549872450  -11.130021412
   -0.304025096    1.317442081   -2.202590560  -19.772779388  -18.347831882
   -0.101341699    1.317442081    0.627456042  -23.922739079  -46.078448554
    0.101341699    1.317442081   11.008166696  -62.722357782  -24.358153779
    0.304025096    1.317442081   21.112467315  -51.239479388   40.550322725
    0.506708493    1.317442081   36.845454745  -82.457692370  -11.560931701
    0.709391890    1.317442081   41.328766646   36.896943882   16.822609014
    0.912075287    1.317442081   35.307775747    6.709918054   29.351627658
    1.114758684    1.317442081   28.029398580   91.707943614   29.881106316
    1.317442081    1.317442081    5.934251825   85.087605704    5.560749892
    1.520125478    1.317442081   -2.682936897   20.157002524   -3.486660853
    1.722808875    1.317442081   -6.779397034   15.706795807    1.560015809
    1.925492272    1.317442081   -8.676583845    9.084762183   -3.620512452
    2.128175669    1.317442081  -10.486351201    3.054517407   -0.074917626
    2.330859066    1.317442081  -10.314533309    1.537551753   -2.282988176
    2.533542463    1.317442081  -10.851379747   -1.938619219   -0.373135271
    2.736225860    1.317442081  -10.013954028   -0.442259081   -2.094315630
    2.938909257    1.317442081  -10.109570978   -4.826119169   -1.631299635

   -3.141592654    1.520125478   -8.257064666  -14.642871251   -2.198029153
   -2.938909257    1.520125478   -5.255066094  -17.092830237    3.575503019
   -2.736225860    1.520125478   -1.497236209  -14.978612845    8.144970993
   -2.533542463    1.520125478    1.186552584  -20.102117110   -0.098659334
   -2.330859066    1.520125478    6.541359057  -17.480367922   21.326179800
   -2.128175669    1.520125478    4.067074537   32.688680646    9.488236418
   -1.925492272    1.520125478    0.052786485    1.868135289  -17.803866902
   -1.722808875    1.520125478    0.055767163    4.565805830    1.756121867
   -1.520125478    1.520125478   -0.785511546    0.063339341    2.321593968
   -1.317442081    1.520125478    0.315330642  -13.303968226    4.490721223
   -1.114758684    1.520125478    4.994024117  -24.360814293  -15.193574814
   -0.912075287    1.520125478    4.997260136   26.875252656   -0.270011734
   -0.709391890    1.520125478   -0.949933469   18.909150370   38.625135135
   -0.506708493    1.520125478   -2.464754716   -0.421715404    1.141949023
   -0.304025096    1.520125478    1.158058691  -41.179123473  -17.304827038
   -0.101341699    1.520125478   10.242732557  -26.871910376  -19.286262290
    0.101341699    1.520125478    9.173742387   18.976301274   33.074651729
    0.304025096    1.520125478   13.545741062  -73.525652036    2.662225565
    0.506708493    1.520125478   30.707986057  -59.058448919   49.966928558
    0.709391890    1.520125478   32.147249342   24.622953502   65.506777531
    0.912075287    1.520125478   29.618133223    4.155409149   31.921759460
    1.114758684    1.520125478   21.634761157   83.217644658   28.966615049
    1.317442081    1.520125478    4.249275833   61.753626526   10.667511848
    1.520125478    1.520125478   -2.742983786   22.427602832    8.225396840
    1.722808875    1.520125478   -6.914864999   13.336514670    1.751990712
    1.925492272    1.520125478   -8.446786784    8.918927469    4.012051634
    2.128175669    1.520125478  -10.502320023    4.455099467    1.041225903
    2.330859066    1.520125478  -10.267160739    0.540676188    2.579980263
    2.533542463    1.520125478  -11.055580449    0.209238951    0.712723695
    2.736225860    1.520125478   -9.852982992   -4.862485670    0.902072873
    2.938909257    1.520125478  -10.064575789    0.296558945    0.464043480

   -3.141592654    1.722808875   -8.581466561   -9.359665327    2.959288161
   -2.938909257    1.722808875   -5.886105336  -16.500011898   -6.574068812
   -2.736225860    1.722808875   -2.163495106  -19.468210561   -4.370868229
   -2.533542463    1.722808875    1.011042389   -8.664872517    7.430104595
   -2.330859066    1.722808875    1.490890668   -0.285592000   17.875990730
   -2.128175669    1.722808875    2.253605120   -6.099874955   14.667810384
   -1.925492272    1.722808875    2.905987859    1.592978730    2.144642135
   -1.722808875    1.722808875    1.538805962    8.180913049  -20.555753536
   -1.520125478    1.722808875    2.992375913  -27.847117269  -48.118111042
   -1.317442081    1.722808875    8.281928557   -2.974197973  -79.596218164
   -1.114758684    1.722808875    3.749176074   21.202592871  -36.262941566
   -0.912075287    1.722808875    7.475321593  -43.299669985 -109.803465536
   -0.709391890    1.722808875    8.808123577   39.476673079 -178.583995492
   -0.506708493    1.722808875    1.615091149    3.439425178  -77.404475742
   -0.304025096    1.722808875    5.368735336  -14.512428657  -17.762197020
   -0.101341699    1.722808875    3.520777579   21.082657693   63.736435366
    0.101341699    1.722808875    2.765118585  -22.462701258   23.657445989
    0.304025096    1.722808875   13.027754010  -68.477805756   37.665961571
    0.506708493    1.722808875   22.189072611   -6.167771770   55.049776117
    0.709391890    1.722808875   19.381924923    8.465884404   56.519715509
    0.912075287    1.722808875   21.346494156   -8.243315630   49.190790802
    1.114758684    1.722808875   15.732870507   59.844493934   29.681263751
    1.317442081    1.722808875    3.611941934   48.606300720   -4.716986465
    1.520125478    1.722808875   -3.703083991   25.659743183   -7.748415510
    1.722808875    1.722808875   -7.060628209    9.893512900   -3.974322212
    1.925492272    1.722808875   -9.102059681   10.667630730   -3.152485727
    2.128175669    1.722808875  -10.501849531    2.437621922   -2.521467178
    2.330859066    1.722808875  -10.773638848    1.293723720   -0.164955327
    2.533542463    1.722808875  -10.729744755   -2.127936956   -2.241620768
    2.736225860    1.722808875  -10.252353567   -1.969200509    1.417353078
    2.938909257    1.722808875   -9.776140067   -3.383779093   -2.735819625

   -3.141592654    1.925492272   -7.585843473   -8.224045607  -11.877749304
   -2.938909257    1.925492272   -5.314618853  -19.618214970    9.970344335
   -2.736225860    1.925492272   -1.476930397  -10.000393936   -0.005374208
   -2.533542463    1.925492272   -0.061200803  -11.474767760   -2.243680236
   -2.330859066    1.925492272    1.310092734    7.044431265   -6.353366736
   -2.128175669    1.925492272   -0.177155470   -7.060143693   -4.668751915
   -1.925492272    1.925492272    2.680682586   -5.243613206  -13.143531582
   -1.722808875    1.925492272    3.741352760  -27.290633326    7.843926506
   -1.520125478    1.925492272   13.502599569  -40.801355178  -27.555593076
   -1.317442081    1.925492272   16.573945349  -18.492415703   17.058558364
   -1.114758684    1.925492272   31.240711821 -112.954045514 -166.127248778
   -0.912075287    1.925492272   47.819320371  -27.409677917 -166.507291998
   -0.709391890    1.925492272   42.724674399   69.100490999  -38.237642898
   -0.506708493    1.925492272   23.416923089  105.795001143  -69.124521084
   -0.304025096    1.925492272    5.850572852   64.149770958    8.326537287
   -0.101341699    1.925492272   -2.993150324   18.051544278   -8.645806897
    0.101341699    1.925492272   -0.937519097  -24.308640093   15.644319231
    0.304025096    1.925492272    1.183630755   -1.458366025   40.781955203
    0.506708493    1.925492272    5.006563230  -35.149132661   78.765087584
    0.709391890    1.925492272   10.305520587  -15.084153716   27.175545851
    0.912075287    1.925492272   14.637265505  -24.260295219    1.128858208
    1.114758684    1.925492272   12.892888789   47.412465086   -7.982331956
    1.317442081    1.925492272    3.166684404   29.073816486   13.284322583
    1.520125478    1.925492272   -0.870568571   24.326336087   -8.046879384
    1.722808875    1.925492272   -5.614539733   12.683122382   -4.539824912
    1.925492272    1.925492272   -7.307733102   13.121268792   -8.804932112
    2.128175669    1.925492272   -9.863840547    3.887784428   -1.675057798
    2.330859066    1.925492272   -9.923663805    4.638785601   -6.884595048
    2.533542463    1.925492272  -10.878732177   -2.584862974    2.122515916
    2.736225860    1.925492272   -9.753333631   -1.209882700   -6.701871648
    2.938909257    1.925492272   -9.659400851   -6.660177305    0.981582962

   -3.141592654    2.128175669   -6.122368797  -14.301337694   -0.434313770
   -2.938909257    2.128175669   -4.896255466   -8.544731551  -29.952572835
   -2.736225860    2.128175669   -0.004519966  -28.489966388  -16.373082734
   -2.533542463    2.128175669    1.950494670    5.092411462  -23.011576576
   -2.330859066    2.128175669    1.771025966   -4.221506751  -12.946526785
   -2.128175669    2.128175669    2.856542033   -9.720564873   -5.295274113
   -1.925492272    2.128175669    5.264659314   -4.286077390    0.790587762
   -1.722808875    2.128175669    5.091495671  -12.437959737  -45.201033062
   -1.520125478    2.128175669   12.541499664  -40.179657264    7.479026064
   -1.317442081    2.128175669   17.727669184  -39.840709221  -69.678861185
   -1.114758684    2.128175669   38.075384178 -129.430813830   91.130498552
   -0.912075287    2.128175669   45.391920720   78.780249838  123.359630129
   -0.709391890    2.128175669   24.505231351   72.235796281  103.715403751
   -0.506708493    2.128175669   16.217877754   40.792978284   92.480639658
   -0.304025096    2.128175669    5.797647938   44.415016076   -7.706480831
   -0.101341699    2.128175669    0.003470774   22.067170293   -2.396287993
    0.101341699    2.128175669   -2.830064779   -3.641160981   -0.969242549
    0.304025096    2.128175669    0.538658076  -16.863079396   -9.380423876
    0.506708493    2.128175669    2.709255791  -12.671731283  -36.502071726
    0.709391890    2.128175669    7.999753890  -39.822419404    6.215866238
    0.912075287    2.128175669   17.321372034  -39.392837792   -0.760288591
    1.114758684    2.128175669   16.318731163   55.596305646  -17.595856460
    1.317442081    2.128175669    3.252125902   45.088355877  -33.756932680
    1.520125478    2.128175669   -1.317665984   17.843948161    1.022226015
    1.722808875    2.128175669   -5.588833435   13.416899084   -2.826809450
    1.925492272    2.128175669   -6.596765401    8.222334143   -0.824104433
    2.128175669    2.128175669   -9.247826735    6.134131838   -8.729912856
    2.330859066    2.128175669   -8.563935840   -0.771231054   -5.524924684
    2.533542463    2.128175669   -9.876776684    1.894276495  -14.137215943
    2.736225860    2.128175669   -8.122545289   -7.330614736   -6.950363983
    2.938909257    2.128175669   -8.575972756    0.366525868  -14.627817086

   -3.141592654    2.330859066   -5.624543350  -27.025398770   -7.935892414
   -2.938909257    2.330859066    1.305724849  -12.223702548   -9.070538161
   -2.736225860    2.330859066    2.258060485  -30.633097880   -7.030585587
   -2.533542463    2.330859066   13.656495709  -44.687328547  -87.105096925
   -2.330859066    2.330859066   12.246740479   44.834733180  -75.979663895
   -2.128175669    2.330859066    3.553776197   26.247120469  -37.409682675
   -1.925492272    2.330859066    7.678046341  -68.939476124  -53.855295870
   -1.722808875    2.330859066   18.911682027   -7.124334926  -60.472713906
   -1.520125478    2.330859066   18.186002119  -35.427077705  -44.233573388
   -1.317442081    2.330859066   30.867845793  -31.353326346    2.794391187
   -1.114758684    2.330859066   26.994343809    9.828854260  -33.467503560
   -0.912075287    2.330859066   36.764490846  -46.811438510  -39.903362193
   -0.709391890    2.330859066   25.257478967  127.124282824  -59.394825809
   -0.506708493    2.330859066   10.848627903    8.575209088  -40.981904407
   -0.304025096    2.330859066    5.209880815   59.879574233   16.947614184
   -0.101341699    2.330859066   -1.167393474  -10.576508111    2.282427305
    0.101341699    2.330859066   -0.668463978   20.209916336  -15.262070118
    0.304025096    2.330859066   -0.734313316  -34.454256274    9.364004187
    0.506708493    2.330859066    5.080139663   -3.514090518   13.523374873
    0.709391890    2.330859066    6.661943005  -33.345574885   -5.647628253
    0.912075287    2.330859066   15.955842801  -41.228720459  -20.405244808
    1.114758684    2.330859066   21.878441123  -13.499585066  -44.663969530
    1.317442081    2.330859066   16.029809737   72.159510548  -65.603459750
    1.520125478    2.330859066    2.361121978   40.860285454  -33.910276949
    1.722808875    2.330859066   -2.928680611   24.644595030  -16.929965300
    1.925492272    2.330859066   -5.827576810   -2.300449382   -7.563851005
    2.128175669    2.330859066   -6.278340614   15.817783291  -14.804669551
    2.330859066    2.330859066   -7.800827017  -11.080812953   -3.551171175
    2.533542463    2.330859066   -6.579174953   11.190504897  -12.622433229
    2.736225860    2.330859066   -7.369181170  -17.442699814   -2.350804378
    2.938909257    2.330859066   -4.893268288   10.295509207  -15.709441560

   -3.141592654    2.533542463   -3.529022952  -31.220639177  -12.558670184
   -2.938909257    2.533542463    5.917401829  -31.711091726  -73.652889145
   -2.736225860    2.533542463   10.977046156  -50.591570040  -91.620218734
   -2.533542463    2.533542463   24.878034353  -40.671558899   -0.273123269
   -2.330859066    2.533542463   21.065339800   37.635830067   -8.315789440
   -2.128175669    2.533542463   23.712057046  -48.310500939 -124.948409799
   -1.925492272    2.533542463   27.848944723    9.331118953 -113.407994910
   -1.722808875    2.533542463   26.644757093    4.461002609  -35.046192424
   -1.520125478    2.533542463   21.079207979   37.891003989    4.791711427
   -1.317442081    2.533542463   23.926823244  -74.461856445   -9.485313922
   -1.114758684    2.533542463   38.883695283  -36.816350308  -31.037189409
   -0.912075287    2.533542463   36.270421922   48.570575144   60.511438907
   -0.709391890    2.533542463   24.355683553   59.215748926   57.097680725
   -0.506708493    2.533542463   13.920103467   50.136343729   36.100302825
   -0.304025096    2.533542463    2.401675022   50.723747158    3.115053527
   -0.101341699    2.533542463   -0.146232932  -20.135246317   -7.448638090
    0.101341699    2.533542463    1.422391580   13.600211771   -3.938470482
    0.304025096    2.533542463    1.056356911  -24.431468316  -19.586421829
    0.506708493    2.533542463    7.087668382  -20.752683286  -33.570144326
    0.709391890    2.533542463   13.260784854  -58.248696332  -46.592145155
    0.912075287    2.533542463   28.286907990  -64.484634798  -63.094908860
    1.114758684    2.533542463   32.912950168   19.174894361  -59.998466146
    1.317442081    2.533542463   22.616335416   74.157391940  -10.459988140
    1.520125478    2.533542463    7.787844365   61.862075574   -9.529070627
    1.722808875    2.533542463   -1.404648546   28.562956534   -2.019282081
    1.925492272    2.533542463   -3.409970931   -2.950338889  -15.634352250
    2.128175669    2.533542463   -4.710248952   17.420883747   -4.065192218
    2.330859066    2.533542463   -5.905305329  -10.689523102  -16.119735313
    2.533542463    2.533542463   -5.200423843   11.961475794   -4.671119357
    2.736225860    2.533542463   -5.669962235  -18.943554353  -16.191228797
    2.938909257    2.533542463   -3.053803134    9.714452632   -4.680483426

   -3.141592654    2.736225860    0.911230356  -86.470647442  -30.049518120
   -2.938909257    2.736225860   24.200687416  -89.254936570  -40.609191191
   -2.736225860    2.736225860   27.958415400   30.617522034  -32.052668025
   -2.533542463    2.736225860   23.164427576    3.965252480  -27.915637926
   -2.330859066    2.736225860   27.094858103  -41.087059426  -67.178884417
   -2.128175669    2.736225860   36.830063795  -43.196711043   -1.909458080
   -1.925492272    2.736225860   41.639541301   -0.216279661  -16.222820097
   -1.722808875    2.736225860   34.807208929   64.405378595  -26.305830535
   -1.520125478    2.736225860   25.731195801   -6.273735569  -41.948669045
   -1.317442081    2.736225860   36.037608067  -56.848504941  -35.712878162
   -1.114758684    2.736225860   37.944552737   30.537374671   17.372633746
   -0.912075287    2.736225860   30.748616262   38.873464717  -24.364847950
   -0.709391890    2.736225860   18.796493258   76.400018310   -5.594980165
   -0.506708493    2.736225860    6.127772693   37.040503620   13.665596448
   -0.304025096    2.736225860    2.499779570    7.954128189    1.703463171
   -0.101341699    2.736225860    1.326662735    3.015658298   -6.825677869
    0.101341699    2.736225860    1.598858712   -5.638122894   -0.475024999
    0.304025096    2.736225860    3.431059550  -13.479048658   -4.809863539
    0.506708493    2.736225860    8.604041532  -40.251751060   24.011926118
    0.709391890    2.736225860   18.602668633  -56.204361951   -4.652661698
    0.912075287    2.736225860   34.000843278  -99.019404243  -25.677180666
    1.114758684    2.736225860   48.367120104    2.727012567  -87.877944829
    1.317442081    2.736225860   28.257561100  154.133542691  -43.739040951
    1.520125478    2.736225860    6.037337154   49.945850314   17.195319034
    1.722808875    2.736225860    0.958192874   17.184835672  -18.894750153
    1.925492272    2.736225860   -1.176485077    3.870928025   -1.362902309
    2.128175669    2.736225860   -2.914540904   12.013658605  -11.416514909
    2.330859066    2.736225860   -3.140724730   -7.323468615   -4.524904046
    2.533542463    2.736225860   -3.795907890   11.076501121   -7.080912667
    2.736225860    2.736225860   -2.457102095  -22.287818290   -8.335999181
    2.938909257    2.736225860   -2.356570842   23.790220454   -1.705433776

   -3.141592654    2.938909257    4.269290662  -42.624244616    6.627800691
   -2.938909257    2.938909257   14.576554481  -56.726177520   81.255613999
   -2.736225860    2.938909257   25.999486368  -55.295180906    1.670533147
   -2.533542463    2.938909257   35.974788892  -34.254021030  -50.005136168
   -2.330859066    2.938909257   36.971549089   19.153245118    7.251762183
   -2.128175669    2.938909257   34.774447616  -10.774470472   10.976528041
   -1.925492272    2.938909257   39.612084229  -18.451967808   16.714156002
   -1.722808875    2.938909257   36.283435440   50.060533948  -13.769461962
   -1.520125478    2.938909257   27.261178947   14.639095091   16.664355218
   -1.317442081    2.938909257   31.490550547  -35.362765306    4.918593991
   -1.114758684    2.938909257   34.002281053   11.783589811   27.852295129
   -0.912075287    2.938909257   28.818756602   42.443260254   74.861064574
   -0.709391890    2.938909257   15.297867416   79.754127896   49.946353663
   -0.506708493    2.938909257    4.360047017   21.371119738   22.562688146
   -0.304025096    2.938909257    2.139836636   11.369279905    1.342289241
   -0.101341699    2.938909257    0.813301743   -3.073610720   14.555020187
    0.101341699    2.938909257    1.818043249   -3.054945165    1.217299648
    0.304025096    2.938909257    3.600564562  -16.691560886    7.310237352
    0.506708493    2.938909257    6.849932337  -18.378110385  -17.539178083
    0.709391890    2.938909257   18.726470673 -114.531073401    1.711020330
    0.912075287    2.938909257   46.648929813 -120.067719501  -59.275449054
    1.114758684    2.938909257   54.833146387   48.576710506   57.367699940
    1.317442081    2.938909257   30.869273434  160.167380543   33.007773220
    1.520125478    2.938909257    5.450809590   62.794906139  -14.082746401
    1.722808875    2.938909257    1.837297851    5.669219305   14.237668346
    1.925492272    2.938909257   -2.166726780   19.904282061    3.796619631
    2.128175669    2.938909257   -2.584921297   -5.135639987    9.820599948
    2.330859066    2.938909257   -4.039237482   12.481518669    6.724147175
    2.533542463    2.938909257   -3.625016343  -12.786575703    6.043861344
    2.736225860    2.938909257   -2.973346779    6.600055476    8.086425286
    2.938909257    2.938909257   -2.341388102  -19.560261051    0.517917296
