#! FIELDS phi psi b1.bias der_phi der_psi
#! SET min_phi -pi
#! SET max_phi pi
#! SET nbins_phi  31
#! SET periodic_phi true
#! SET min_psi -pi
#! SET max_psi pi
#! SET nbins_psi  31
#! SET periodic_psi true
   -3.141592654   -3.141592654   19.919751569  -63.765562637   34.666246682
   -2.938909257   -3.141592654   27.201082341  -16.215297682   24.144653619
   -2.736225860   -3.141592654   30.760613314  -16.952347298   33.645196549
   -2.533542463   -3.141592654   31.341697000    9.521626546   35.148358095
   -2.330859066   -3.141592654   29.638006080    5.715259347   35.849981276
   -2.128175669   -3.141592654   28.655651338   -0.012087979   29.884349605
   -1.925492272   -3.141592654   30.507916696  -10.241173686   26.827122791
   -1.722808875   -3.141592654   29.832951822   10.042330948   31.718401514
   -1.520125478   -3.141592654   31.382741554  -23.638919302   12.380671666
   -1.317442081   -3.141592654   32.742186700   21.168587872   20.338004398
   -1.114758684   -3.141592654   26.138890604   30.262465056   51.531523072
   -0.912075287   -3.141592654   20.608546118   32.594618563   46.164679224
   -0.709391890   -3.141592654   11.807103954   51.921773628   61.469399223
   -0.506708493   -3.141592654   -0.182209224   65.930309736   71.057044111
   -0.304025096   -3.141592654  -12.872774499   52.323019694   75.210150893
   -0.101341699   -3.141592654  -20.237278989   20.412480401   54.885791019
    0.101341699   -3.141592654  -20.511227629  -20.329169211   41.249704912
    0.304025096   -3.141592654  -11.930036489  -61.223051540   22.812395038
    0.506708493   -3.141592654    1.666305598  -64.223799895   23.070316975
    0.709391890   -3.141592654   12.501546384  -46.729547087   15.599240163
    0.912075287   -3.141592654   21.527888127  -33.411696404   55.103851644
    1.114758684   -3.141592654   21.100584506   36.994816991   73.522855550
    1.317442081   -3.141592654   12.530387502   36.816203361   30.924655216
    1.520125478   -3.141592654    3.701169138   59.164102686   32.752820722
    1.722808875   -3.141592654   -8.881920168   52.908157604   35.736175045
    1.925492272   -3.141592654  -18.209009365   47.191278306   41.089131602
    2.128175669   -3.141592654  -26.188211857   18.319982879   38.080820758
    2.330859066   -3.141592654  -24.996260916  -20.557994744   47.371644222
    2.533542463   -3.141592654  -18.693741373  -48.003309440   52.054035777
    2.736225860   -3.141592654   -6.418300976  -61.490886450   45.619731303
    2.938909257   -3.141592654    5.349220846  -64.492170263   38.891214268

   -3.141592654   -2.938909257    9.230621177  -72.596126192   67.633703967
   -2.938909257   -2.938909257   19.119428249  -19.262405090   56.757277797
   -2.736225860   -2.938909257   20.644071061   -7.740131606   54.510909078
   -2.533542463   -2.938909257   22.717968592   -6.254174040   45.344686787
   -2.330859066   -2.938909257   22.091801027    8.759352190   38.107929158
   -2.128175669   -2.938909257   21.288551978   -2.755117699   42.530649379
   -1.925492272   -2.938909257   21.601788009    5.081401587   54.959261110
   -1.722808875   -2.938909257   20.572271551   -6.105927056   51.180654036
   -1.520125478   -2.938909257   24.873583615  -21.566413645   58.964688351
   -1.317442081   -2.938909257   23.214533641   36.193387384   69.265659037
   -1.114758684   -2.938909257   16.068442264   26.134943723   49.301743609
   -0.912075287   -2.938909257    9.540524796   48.557028289   69.953357461
   -0.709391890   -2.938909257   -2.999231638   67.563032569   79.921980864
   -0.506708493   -2.938909257  -16.432429439   62.557243882   80.188866328
   -0.304025096   -2.938909257  -25.991823752   28.146499553   48.625147222
   -0.101341699   -2.938909257  -29.337928714    8.528052060   33.949449513
    0.101341699   -2.938909257  -27.310989195  -36.189073647   22.403554501
    0.304025096   -2.938909257  -15.739474685  -67.922161573   15.101061739
    0.506708493   -2.938909257   -2.136488241  -64.696924047   13.259841173
    0.709391890   -2.938909257    8.932657781  -40.538400614   20.425093835
    0.912075287   -2.938909257   14.964142008  -21.704741707   11.967860797
    1.114758684   -2.938909257   15.577555253   23.787285248    1.690078910
    1.317442081   -2.938909257    6.775527080   50.215726784   30.657971465
    1.520125478   -2.938909257   -3.056130245   53.748267368   31.254862409
    1.722808875   -2.938909257  -16.014666701   66.239746520   34.898694174
    1.925492272   -2.938909257  -27.105477471   43.971067273   42.620828035
    2.128175669   -2.938909257  -34.308946515   23.232860475   44.169454363
    2.330859066   -2.938909257  -35.364303916  -10.590302881   52.438050682
    2.533542463   -2.938909257  -30.245744466  -44.277365636   58.224101249
    2.736225860   -2.938909257  -17.602581712  -70.309609390   64.935965089
    2.938909257   -2.938909257   -4.813294100  -60.207020084   59.989788255

   -3.141592654   -2.736225860   -4.105841522  -61.799530566   59.548238279
   -2.938909257   -2.736225860    6.658315463  -39.094658040   57.689812847
   -2.736225860   -2.736225860   11.490407440  -13.511632379   40.257193903
   -2.533542463   -2.736225860   13.801169044   -8.818790064   43.164897541
   -2.330859066   -2.736225860   14.103652369    5.729774824   41.442884779
   -2.128175669   -2.736225860   12.747742387    5.048582824   39.586213170
   -1.925492272   -2.736225860   11.974746527    3.315089539   38.066166272
   -1.722808875   -2.736225860   11.743627724   -1.493191961   37.392593784
   -1.520125478   -2.736225860   11.742940099    4.068883979   54.126478311
   -1.317442081   -2.736225860    9.965968921   13.415446459   52.288492990
   -1.114758684   -2.736225860    5.178467236   37.365059407   56.114309706
   -0.912075287   -2.736225860   -4.931999498   58.549298746   62.007889771
   -0.709391890   -2.736225860  -17.548641396   64.105511303   62.140811721
   -0.506708493   -2.736225860  -28.677674765   38.501826899   39.987931718
   -0.304025096   -2.736225860  -33.059549403   11.688038127   25.767717085
   -0.101341699   -2.736225860  -34.612915003   -2.068124025   19.812936644
    0.101341699   -2.736225860  -29.733114213  -45.533079862    5.495007839
    0.304025096   -2.736225860  -18.057786585  -66.051481550    7.182017948
    0.506708493   -2.736225860   -4.587277173  -59.673301592   12.176643393
    0.709391890   -2.736225860    4.563547359  -35.544641643   17.618349010
    0.912075287   -2.736225860   11.724908428  -28.261718105   22.013592089
    1.114758684   -2.736225860   10.552311442   43.245244137   48.692900066
    1.317442081   -2.736225860   -0.151281138   46.497969519   33.012524835
    1.520125478   -2.736225860   -9.025147382   53.706730361   29.161054176
    1.722808875   -2.736225860  -22.590337521   69.229453478   27.246229185
    1.925492272   -2.736225860  -34.244281361   48.216342409   26.435097731
    2.128175669   -2.736225860  -42.799056903   30.952026909   32.683166602
    2.330859066   -2.736225860  -44.783722740   -9.438787554   35.972536798
    2.533542463   -2.736225860  -40.741154221  -30.623264805   41.853379249
    2.736225860   -2.736225860  -31.055558388  -64.419121398   59.719797954
    2.938909257   -2.736225860  -17.108113696  -67.303955376   59.204820132

   -3.141592654   -2.533542463  -15.007796652  -64.675859924   47.576436993
   -2.938909257   -2.533542463   -3.228524943  -45.913904443   43.038238115
   -2.736225860   -2.533542463    2.751122221  -17.157263269   42.166484504
   -2.533542463   -2.533542463    5.345679269   -7.874584282   38.304633419
   -2.330859066   -2.533542463    5.433290833    4.439839416   40.858899299
   -2.128175669   -2.533542463    4.994715946   -0.092994420   36.693192653
   -1.925492272   -2.533542463    4.647742804    3.316150104   35.190484205
   -1.722808875   -2.533542463    4.368528302   -0.322683646   33.172898038
   -1.520125478   -2.533542463    3.955277884    5.574680162   31.350510947
   -1.317442081   -2.533542463    1.670190180   19.888942393   34.688179150
   -1.114758684   -2.533542463   -4.986497651   44.618280445   42.111731135
   -0.912075287   -2.533542463  -15.707902392   61.256136351   47.934377394
   -0.709391890   -2.533542463  -28.560187267   55.735484980   41.248096079
   -0.506708493   -2.533542463  -35.087397103   11.580620813   25.248737647
   -0.304025096   -2.533542463  -36.981778333   10.570952641   10.939088656
   -0.101341699   -2.533542463  -36.927482769  -17.261170612    0.506922252
    0.101341699   -2.533542463  -30.291227443  -45.892130944   -2.311487555
    0.304025096   -2.533542463  -18.466904727  -66.863484739   -3.082316590
    0.506708493   -2.533542463   -6.527382661  -47.665965385    6.324584256
    0.709391890   -2.533542463    3.154003320  -50.539209034    0.783912864
    0.912075287   -2.533542463    9.129528542    6.716788555    3.826851570
    1.114758684   -2.533542463    1.982587590   44.599493383   25.953437828
    1.317442081   -2.533542463   -5.152738949   32.971706515   16.995640974
    1.520125478   -2.533542463  -14.535823816   57.922074664   22.243823144
    1.722808875   -2.533542463  -26.412853463   57.537591612   11.311771020
    1.925492272   -2.533542463  -37.940058769   53.595798158   11.599513177
    2.128175669   -2.533542463  -46.450901572   28.132816240    7.018804363
    2.330859066   -2.533542463  -49.175063522   -1.253022280   10.132043405
    2.533542463   -2.533542463  -46.443870086  -23.356566442   15.740163690
    2.736225860   -2.533542463  -39.745587908  -45.069769639   27.104564777
    2.938909257   -2.533542463  -28.233218688  -64.518747373   46.315933871

   -3.141592654   -2.330859066  -22.275335089  -57.990312467   22.086140851
   -2.938909257   -2.330859066  -11.157953152  -49.083802032   30.766404691
   -2.736225860   -2.330859066   -3.757746663  -23.245269020   22.456346437
   -2.533542463   -2.330859066   -0.897495645   -6.909006401   21.842320287
   -2.330859066   -2.330859066   -0.507979194    1.240918181   15.446035607
   -2.128175669   -2.330859066   -0.701886005    0.569795071   15.961982055
   -1.925492272   -2.330859066   -0.779479721   -0.832943839   15.884607365
   -1.722808875   -2.330859066   -0.520085860    1.546252256   16.120075531
   -1.520125478   -2.330859066   -2.131141172   11.829717166   23.086828004
   -1.317442081   -2.330859066   -4.690747333   17.750756376   25.147542582
   -1.114758684   -2.330859066  -11.515964879   48.686683867   19.394859144
   -0.912075287   -2.330859066  -21.863071152   49.049504441    4.370014216
   -0.709391890   -2.330859066  -31.298387577   42.175420385  -13.138560095
   -0.506708493   -2.330859066  -36.836657137   10.054621281  -11.817646196
   -0.304025096   -2.330859066  -36.978204826   -4.090924414  -11.070888788
   -0.101341699   -2.330859066  -34.724433288  -21.888407440  -20.753774159
    0.101341699   -2.330859066  -27.741964752  -45.830218349  -22.789800828
    0.304025096   -2.330859066  -17.057028976  -54.582288085  -10.068128874
    0.506708493   -2.330859066   -7.584621736  -40.111862966    3.402244002
    0.709391890   -2.330859066    1.283097768  -45.786237139   17.850536742
    0.912075287   -2.330859066    5.836217802   11.843184841   32.174661414
    1.114758684   -2.330859066   -0.878078817   37.933136633    6.546749936
    1.317442081   -2.330859066   -7.568481642   35.959856868    5.389140911
    1.520125478   -2.330859066  -17.054956660   52.740622010    1.477752878
    1.722808875   -2.330859066  -27.606004559   54.221640826   -0.120292809
    1.925492272   -2.330859066  -39.256679511   54.440543420    0.158096120
    2.128175669   -2.330859066  -47.401986532   26.445079103    2.789516926
    2.330859066   -2.330859066  -50.704953794    4.545734601    6.817031945
    2.533542463   -2.330859066  -48.762822884  -20.604505369   10.252243290
    2.736225860   -2.330859066  -43.523740977  -33.002033552   11.954288772
    2.938909257   -2.330859066  -34.229073987  -57.075656255   13.165746999

   -3.141592654   -2.128175669  -23.920928729  -53.144150946   -5.344566466
   -2.938909257   -2.128175669  -13.905722431  -44.075746923   -3.125973420
   -2.736225860   -2.128175669   -6.708913519  -26.082050553    4.177084446
   -2.533542463   -2.128175669   -3.117719444  -10.809558683    0.028877726
   -2.330859066   -2.128175669   -1.802767079   -2.942453480    0.708159885
   -2.128175669   -2.128175669   -1.765879557    2.226937111   -2.016259463
   -1.925492272   -2.128175669   -2.382302534    2.719869044    1.440928225
   -1.722808875   -2.128175669   -2.725617919    1.768990474    3.316957691
   -1.520125478   -2.128175669   -3.813507217   10.053945597   -4.526326444
   -1.317442081   -2.128175669   -6.747164803   18.555765633   -7.083833120
   -1.114758684   -2.128175669  -11.589565999   30.248651264  -17.432297718
   -0.912075287   -2.128175669  -18.896696768   39.890327922  -23.753475783
   -0.709391890   -2.128175669  -26.618380110   33.391352009  -28.586218563
   -0.506708493   -2.128175669  -31.517739337   13.712132409  -36.285600705
   -0.304025096   -2.128175669  -32.088337495   -7.776733128  -38.292489434
   -0.101341699   -2.128175669  -28.492763516  -27.015349232  -41.417904805
    0.101341699   -2.128175669  -21.827436178  -36.477811640  -33.405962479
    0.304025096   -2.128175669  -14.267141900  -37.883745377  -18.846729458
    0.506708493   -2.128175669   -6.668500750  -35.412960004  -13.225482321
    0.709391890   -2.128175669   -0.874378288  -19.867908783   -2.298803753
    0.912075287   -2.128175669    1.136796911   -0.167425743    2.270759240
    1.114758684   -2.128175669   -0.795117539   19.439593348   -6.611878571
    1.317442081   -2.128175669   -6.644349997   37.238409417  -12.399905392
    1.520125478   -2.128175669  -15.369305143   48.058123885  -15.078910671
    1.722808875   -2.128175669  -26.022504665   56.470729755  -14.420606063
    1.925492272   -2.128175669  -37.462855582   53.440201827  -16.842642360
    2.128175669   -2.128175669  -46.616957490   34.979638337  -11.776812101
    2.330859066   -2.128175669  -51.040671408    7.686534754   -6.528429413
    2.533542463   -2.128175669  -49.821101379  -18.359972755   -4.518908159
    2.736225860   -2.128175669  -44.087222225  -37.729795748   -8.022863958
    2.938909257   -2.128175669  -34.804417200  -52.135539790   -6.088501970

   -3.141592654   -1.925492272  -20.683505303  -51.638020179  -23.407170172
   -2.938909257   -1.925492272  -11.538519041  -38.418177349  -17.186979907
   -2.736225860   -1.925492272   -4.963892520  -25.843110512  -17.811641318
   -2.533542463   -1.925492272   -1.481001908   -8.788491953  -14.227624548
   -2.330859066   -1.925492272   -0.575935519   -2.231960823  -15.092540676
   -2.128175669   -1.925492272   -0.485557065    2.067245249  -11.625151508
   -1.925492272   -1.925492272   -1.116813999    2.143106538  -13.966897970
   -1.722808875   -1.925492272   -1.135448958   -0.181754141  -15.823961355
   -1.520125478   -1.925492272   -1.729041120    5.883256833  -14.224805072
   -1.317442081   -1.925492272   -3.257120427   10.282065794  -21.035989522
   -1.114758684   -1.925492272   -6.895681006   26.668574351  -23.596461199
   -0.912075287   -1.925492272  -13.100935443   30.679497412  -36.387427860
   -0.709391890   -1.925492272  -18.608355911   23.838101794  -50.883540288
   -0.506708493   -1.925492272  -22.423536603   11.180991624  -52.604265135
   -0.304025096   -1.925492272  -22.386203639  -10.696826024  -51.992060614
   -0.101341699   -1.925492272  -19.219155257  -18.153712955  -43.796006100
    0.101341699   -1.925492272  -15.075985839  -23.992205138  -31.503197926
    0.304025096   -1.925492272   -9.438858915  -29.967583757  -25.906331618
    0.506708493   -1.925492272   -3.763724447  -24.907458549  -11.635446122
    0.709391890   -1.925492272    0.559812712  -17.136437042   -4.315341184
    0.912075287   -1.925492272    2.461389505    0.214543384   -1.298779436
    1.114758684   -1.925492272    0.448659870   18.235742635   -2.529340873
    1.317442081   -1.925492272   -4.626588229   32.345793409   -3.823481617
    1.520125478   -1.925492272  -12.746955862   46.623334473   -7.641599267
    1.722808875   -1.925492272  -22.828042317   51.813697995  -15.148251970
    1.925492272   -1.925492272  -33.567748524   53.022765484  -19.842100854
    2.128175669   -1.925492272  -43.212679874   38.561648502  -19.926494802
    2.330859066   -1.925492272  -48.068828360    7.998897357  -20.591015499
    2.533542463   -1.925492272  -46.591055133  -20.719932750  -23.519508031
    2.736225860   -1.925492272  -40.556322525  -37.481103810  -24.375663482
    2.938909257   -1.925492272  -31.501938788  -51.402487852  -25.870797222

   -3.141592654   -1.722808875  -15.532130785  -45.745896623  -27.257308411
   -2.938909257   -1.722808875   -7.135744570  -36.782273588  -25.873810700
   -2.736225860   -1.722808875   -1.004243616  -22.768286913  -21.368875387
   -2.533542463   -1.722808875    2.281441862  -11.143607904  -22.626146165
   -2.330859066   -1.722808875    3.690401303   -1.927787057  -22.537400616
   -2.128175669   -1.722808875    3.155694807    4.952525318  -22.772293045
   -1.925492272   -1.722808875    2.508517865    1.525290276  -20.077113747
   -1.722808875   -1.722808875    2.092390087    2.417479951  -16.699994098
   -1.520125478   -1.722808875    2.055318386   -1.941681635  -24.967806986
   -1.317442081   -1.722808875    1.705918496    8.651021256  -33.639351392
   -1.114758684   -1.722808875   -1.376965482   18.632617469  -36.342951018
   -0.912075287   -1.722808875   -4.991444349   17.437939935  -39.326120914
   -0.709391890   -1.722808875   -8.816420358   19.601207560  -39.914847220
   -0.506708493   -1.722808875  -11.986497003    9.589969252  -46.336858276
   -0.304025096   -1.722808875  -12.707179682   -1.083495380  -42.285814004
   -0.101341699   -1.722808875  -11.756675680   -9.121259708  -32.831118177
    0.101341699   -1.722808875   -8.822659827  -18.688999591  -32.270810039
    0.304025096   -1.722808875   -5.030375450  -17.199501083  -17.056784969
    0.506708493   -1.722808875   -1.958025732  -13.161284147   -6.157381632
    0.709391890   -1.722808875    0.044951498   -5.847562831    8.429831132
    0.912075287   -1.722808875    0.458800554    1.261278950   16.438643104
    1.114758684   -1.722808875   -0.732899358   12.425840308   16.969136259
    1.317442081   -1.722808875   -5.140916777   30.615223939    8.450825055
    1.520125478   -1.722808875  -12.267418774   37.281231157    1.569747353
    1.722808875   -1.722808875  -20.029761420   40.829136217  -12.179010550
    1.925492272   -1.722808875  -29.357800780   50.250267805  -21.273063220
    2.128175669   -1.722808875  -38.792879402   37.642795076  -23.148247414
    2.330859066   -1.722808875  -43.290995179    6.104536035  -26.056597068
    2.533542463   -1.722808875  -41.585713388  -21.719077647  -25.878132970
    2.736225860   -1.722808875  -35.001602592  -41.752572393  -29.709412483
    2.938909257   -1.722808875  -25.432881977  -50.335074005  -31.758641354

   -3.141592654   -1.520125478   -9.338896864  -43.296200100  -32.964615121
   -2.938909257   -1.520125478   -1.526976856  -33.573532126  -29.108696912
   -2.736225860   -1.520125478    4.150947215  -21.935842296  -28.222202079
   -2.533542463   -1.520125478    7.190537503   -8.158280404  -23.748831926
   -2.330859066   -1.520125478    7.864731587   -0.044641320  -20.046209968
   -2.128175669   -1.520125478    7.588428823    2.795953384  -18.435821907
   -1.925492272   -1.520125478    6.741359659    4.509385573  -20.513974581
   -1.722808875   -1.520125478    6.586063877   -4.882145070  -26.005099303
   -1.520125478   -1.520125478    8.677797299  -13.000046378  -36.252300570
   -1.317442081   -1.520125478   10.109447459    2.522233008  -38.309907935
   -1.114758684   -1.520125478    7.602904046   19.240504872  -43.818938633
   -0.912075287   -1.520125478    3.349873583   21.881873268  -45.644027448
   -0.709391890   -1.520125478   -0.849290087   17.214657287  -46.438495042
   -0.506708493   -1.520125478   -3.209925537    8.287307436  -43.753569754
   -0.304025096   -1.520125478   -5.098126001    8.555258036  -33.865504760
   -0.101341699   -1.520125478   -4.940361928  -11.293497475  -32.602736076
    0.101341699   -1.520125478   -2.468316610   -7.023429412  -24.802210566
    0.304025096   -1.520125478   -2.356679332    2.468320970   -6.932495669
    0.506708493   -1.520125478   -2.773332851    2.465255180   17.584940936
    0.709391890   -1.520125478   -3.517094928    4.343834715   28.984283449
    0.912075287   -1.520125478   -4.683102295    8.085147953   38.597462308
    1.114758684   -1.520125478   -6.487525416    8.147281488   35.347507605
    1.317442081   -1.520125478   -8.536564584   15.898320617   25.279880957
    1.520125478   -1.520125478  -13.212549201   26.451182295    7.170786751
    1.722808875   -1.520125478  -18.326240601   26.966015681   -4.233465435
    1.925492272   -1.520125478  -25.783629343   45.864001692  -12.992796941
    2.128175669   -1.520125478  -34.356206046   31.935004743  -19.863057464
    2.330859066   -1.520125478  -37.822258792    3.142956937  -26.848432457
    2.533542463   -1.520125478  -35.756135155  -23.854845687  -31.020469350
    2.736225860   -1.520125478  -28.558258082  -44.571998844  -33.492522515
    2.938909257   -1.520125478  -18.827869703  -49.140036024  -32.971537371

   -3.141592654   -1.317442081   -2.918311086  -43.505737270  -29.890365698
   -2.938909257   -1.317442081    4.595748696  -31.300888016  -29.149890601
   -2.736225860   -1.317442081    9.611430092  -16.442976254  -25.147544445
   -2.533542463   -1.317442081   11.439962365   -4.346221141  -18.377038906
   -2.330859066   -1.317442081   11.697480878    3.255620791  -15.097218361
   -2.128175669   -1.317442081   10.506027812    4.703265378  -12.212061135
   -1.925492272   -1.317442081   10.340806640   -1.120055033  -15.732003746
   -1.722808875   -1.317442081   11.044219414   -9.030208859  -17.530249467
   -1.520125478   -1.317442081   13.717267655  -11.015689622  -10.581209927
   -1.317442081   -1.317442081   14.115501456    3.496439433   -6.985455571
   -1.114758684   -1.317442081   13.686521352    2.964256813  -18.311985911
   -0.912075287   -1.317442081   11.870053232   12.261556441  -32.462885200
   -0.709391890   -1.317442081    9.920662998   10.163417353  -51.845722252
   -0.506708493   -1.317442081    5.857613257   27.815003363  -42.621151307
   -0.304025096   -1.317442081    1.560515528   11.132401492  -31.864438076
   -0.101341699   -1.317442081    0.156208124    5.694226380  -16.088792890
    0.101341699   -1.317442081   -0.858495295    6.524899738    9.738428210
    0.304025096   -1.317442081   -4.095980806   24.722575911   26.053732170
    0.506708493   -1.317442081   -8.411080295   14.345800761   35.161933296
    0.709391890   -1.317442081  -11.284179235   17.040531049   45.396806386
    0.912075287   -1.317442081  -13.749457793    2.572256450   42.847922983
    1.114758684   -1.317442081  -13.446566207    0.382168516   33.841273465
    1.317442081   -1.317442081  -13.942738042    1.071647834   23.004417175
    1.520125478   -1.317442081  -14.373196605    7.915690884    2.614461181
    1.722808875   -1.317442081  -17.601265477   21.823079503   -5.516321540
    1.925492272   -1.317442081  -23.283178146   35.515862856  -13.805433962
    2.128175669   -1.317442081  -30.413124255   26.821227327  -20.039311513
    2.330859066   -1.317442081  -32.610200153   -3.339264056  -24.341176356
    2.533542463   -1.317442081  -29.608069763  -27.268067843  -28.564989781
    2.736225860   -1.317442081  -21.892792225  -45.011112001  -30.692698526
    2.938909257   -1.317442081  -12.462090188  -47.841708178  -29.949963397

   -3.141592654   -1.114758684    2.960429701  -34.959804709  -27.099637819
   -2.938909257   -1.114758684    9.108774428  -29.341791320  -15.200155121
   -2.736225860   -1.114758684   14.089365574  -14.754871866  -16.891547169
   -2.533542463   -1.114758684   14.775547607    3.951077066  -14.236345401
   -2.330859066   -1.114758684   13.856846208    4.357119285   -9.417440455
   -2.128175669   -1.114758684   13.201424090    0.744914966  -14.195229500
   -1.925492272   -1.114758684   13.771619311   -5.239921596  -17.774175844
   -1.722808875   -1.114758684   14.814820443   -4.725410441  -20.273612781
   -1.520125478   -1.114758684   15.864334766   -6.416970098  -19.652486065
   -1.317442081   -1.114758684   17.464082215   -7.648424750  -28.735714729
   -1.114758684   -1.114758684   17.862554017    4.208900449  -26.065681297
   -0.912075287   -1.114758684   17.251922879   -1.912303013  -26.346254325
   -0.709391890   -1.114758684   17.358693815    8.968906283  -19.923442348
   -0.506708493   -1.114758684   12.502164897   33.363763679  -19.531756912
   -0.304025096   -1.114758684    6.431664674   25.331275940  -11.155038329
   -0.101341699   -1.114758684    1.086373711   29.615270425    9.129659842
    0.101341699   -1.114758684   -5.348640854   32.442506302   32.091010423
    0.304025096   -1.114758684  -11.774346857   30.647708348   46.746276666
    0.506708493   -1.114758684  -17.645314280   26.492112617   58.102806833
    0.709391890   -1.114758684  -21.592031219    9.705757373   53.905336720
    0.912075287   -1.114758684  -21.752644125   -4.401295703   39.664472652
    1.114758684   -1.114758684  -20.529608209   -9.997008098   32.192222698
    1.317442081   -1.114758684  -17.088850740  -20.469661545    9.251086217
    1.520125478   -1.114758684  -14.547127669   -1.848326430    0.662527673
    1.722808875   -1.114758684  -15.962396476   14.959758787   -8.272842852
    1.925492272   -1.114758684  -20.774379805   31.026806749   -7.897621096
    2.128175669   -1.114758684  -26.587844481   21.208250701  -15.615532050
    2.330859066   -1.114758684  -28.380648743   -4.374607033  -15.864171648
    2.533542463   -1.114758684  -24.662746583  -31.164485267  -18.615193446
    2.736225860   -1.114758684  -16.675089748  -46.271009569  -19.896139620
    2.938909257   -1.114758684   -6.246213514  -53.498237532  -30.940753731

   -3.141592654   -0.912075287    6.882190584  -24.983261488   -9.132187265
   -2.938909257   -0.912075287   11.759895971  -25.978078169  -11.825372274
   -2.736225860   -0.912075287   16.018296426  -12.312899633   -3.604764090
   -2.533542463   -0.912075287   16.925472025    1.155005384   -6.363451941
   -2.330859066   -0.912075287   16.104372270    5.317527306   -9.874879404
   -2.128175669   -0.912075287   15.690726044   -2.282914400   -9.349545618
   -1.925492272   -0.912075287   16.608453388   -5.571790014   -8.878250907
   -1.722808875   -0.912075287   18.157496721  -10.814232066  -11.084354272
   -1.520125478   -0.912075287   20.784585897  -12.993053013  -18.870482168
   -1.317442081   -0.912075287   22.576962374   -3.778054818  -14.638489987
   -1.114758684   -0.912075287   22.675831800    1.026888907  -16.688259222
   -0.912075287   -0.912075287   22.167308781    6.352548990  -16.605146574
   -0.709391890   -0.912075287   19.220485042   22.822086439   -2.604860642
   -0.506708493   -0.912075287   13.364200241   34.314529293    8.862814791
   -0.304025096   -0.912075287    5.430441468   43.115965194   19.023884240
   -0.101341699   -0.912075287   -3.831531671   48.490756329   37.619730498
    0.101341699   -0.912075287  -14.037789920   49.963906967   55.593858708
    0.304025096   -0.912075287  -23.262029099   40.685530841   65.988429788
    0.506708493   -0.912075287  -29.928943297   20.531250657   53.432956677
    0.709391890   -0.912075287  -30.442335658  -11.625407428   27.439543371
    0.912075287   -0.912075287  -28.038006681   -9.888593030   13.478794542
    1.114758684   -0.912075287  -24.594740073  -27.889556248    8.747062491
    1.317442081   -0.912075287  -18.288919184  -27.209584085    3.536275784
    1.520125478   -0.912075287  -14.653603242   -8.987728102   -0.287693613
    1.722808875   -0.912075287  -15.248877552   16.403371569    1.678349128
    1.925492272   -0.912075287  -20.050487943   25.268376414   -1.852590102
    2.128175669   -0.912075287  -24.514925865   18.659115818   -5.020542907
    2.330859066   -0.912075287  -26.336440553   -5.609081386   -5.254976801
    2.533542463   -0.912075287  -22.170068458  -31.555319717   -7.498732548
    2.736225860   -0.912075287  -13.784923782  -54.144057357   -9.821706049
    2.938909257   -0.912075287   -1.303797961  -58.483249153  -13.917235191

   -3.141592654   -0.709391890    6.795143741  -30.401222574    7.524654023
   -2.938909257   -0.709391890   12.768462316  -25.519942342    4.354245249
   -2.736225860   -0.709391890   16.075155406   -8.889781825    3.575167950
   -2.533542463   -0.709391890   17.227196700   -1.613651347    3.459938325
   -2.330859066   -0.709391890   16.657095306    3.756343270    3.755327814
   -2.128175669   -0.709391890   16.901214724   -4.827307255   -2.236767307
   -1.925492272   -0.709391890   17.725225213   -4.542897831   -2.993117907
   -1.722808875   -0.709391890   19.724970749  -14.367384274   -4.630757139
   -1.520125478   -0.709391890   22.285794326   -9.653146631   -1.325840650
   -1.317442081   -0.709391890   24.017879199   -7.335770197   -3.405464939
   -1.114758684   -0.709391890   24.636347299    1.721622271   -4.007247183
   -0.912075287   -0.709391890   23.367825913   12.647135066    3.416713209
   -0.709391890   -0.709391890   18.407148115   36.369236997   14.892597321
   -0.506708493   -0.709391890    9.738965352   47.167258401   27.969142744
   -0.304025096   -0.709391890   -0.953303374   59.250252277   45.946424419
   -0.101341699   -0.709391890  -14.019003656   68.169868924   64.754281690
    0.101341699   -0.709391890  -27.316571333   57.342140773   68.063348134
    0.304025096   -0.709391890  -35.417848698   22.838642369   43.848836201
    0.506708493   -0.709391890  -37.514759733   -2.844868198   23.370683203
    0.709391890   -0.709391890  -33.545258605  -32.212492823   10.642719854
    0.912075287   -0.709391890  -28.427644863  -12.729199657    3.596325934
    1.114758684   -0.709391890  -25.741463703  -24.527888132    2.161376768
    1.317442081   -0.709391890  -18.519249122  -36.253511241   -3.584762444
    1.520125478   -0.709391890  -14.367401936   -3.863352861   -3.629563541
    1.722808875   -0.709391890  -15.807741413   15.281501706    0.836443812
    1.925492272   -0.709391890  -19.816058625   22.986588626    1.699804600
    2.128175669   -0.709391890  -24.524384549   20.250149026    5.466102173
    2.330859066   -0.709391890  -26.008572213   -8.928395157    2.749569945
    2.533542463   -0.709391890  -21.462464258  -33.083053673    2.676718829
    2.736225860   -0.709391890  -12.439506903  -56.590982750   -1.865030055
    2.938909257   -0.709391890   -0.768165876  -49.595890938    5.810065427

   -3.141592654   -0.506708493    4.706924264  -31.396164756   12.817686408
   -2.938909257   -0.506708493   10.684491919  -25.930852011   13.253704641
   -2.736225860   -0.506708493   14.471092850  -11.371633761   11.018698381
   -2.533542463   -0.506708493   15.630911729   -0.942794162   11.493261077
   -2.330859066   -0.506708493   15.547531550   -0.841332547    6.524504618
   -2.128175669   -0.506708493   16.404001507   -6.143521888    6.816394641
   -1.925492272   -0.506708493   17.479492758   -5.455946663    6.441081641
   -1.722808875   -0.506708493   19.472133925  -14.501182907    6.874121274
   -1.520125478   -0.506708493   22.310862243  -10.475332218    4.760053585
   -1.317442081   -0.506708493   23.551994709   -3.244092547   10.347915223
   -1.114758684   -0.506708493   23.628297108    4.963821865   15.777958803
   -0.912075287   -0.506708493   20.347011655   28.729610561   27.337505908
   -0.709391890   -0.506708493   12.384713303   47.949648761   41.268384792
   -0.506708493   -0.506708493    1.136634820   63.906627466   56.700302478
   -0.304025096   -0.506708493  -13.580946863   78.987171972   75.648567907
   -0.101341699   -0.506708493  -28.699604397   63.361657286   68.266245856
    0.101341699   -0.506708493  -37.591726136   25.054001548   28.009429748
    0.304025096   -0.506708493  -40.476666468    7.039233569   13.114778963
    0.506708493   -0.506708493  -40.321433213  -11.220558460    5.546740832
    0.709391890   -0.506708493  -35.949573698  -28.302648067    8.847101623
    0.912075287   -0.506708493  -30.033092866  -30.577448557   -3.719645625
    1.114758684   -0.506708493  -22.773563011  -40.837152889  -36.781698475
    1.317442081   -0.506708493  -15.060041329  -29.867500346  -33.086739479
    1.520125478   -0.506708493  -12.085528566    1.386061071  -20.073166137
    1.722808875   -0.506708493  -15.085416980   25.362570934   -6.887670701
    1.925492272   -0.506708493  -21.127134153   31.530102158    9.509215804
    2.128175669   -0.506708493  -26.659144753   19.495178481   14.596870763
    2.330859066   -0.506708493  -27.979993668   -6.901599311   17.208216908
    2.533542463   -0.506708493  -23.977138408  -33.427200048   20.867072311
    2.736225860   -0.506708493  -14.250758863  -59.301514096   21.177847719
    2.938909257   -0.506708493   -2.826666791  -47.027210439   15.318785259

   -3.141592654   -0.304025096    0.746397081  -33.251306997   28.453411862
   -2.938909257   -0.304025096    7.296368680  -31.098459105   21.428484243
   -2.736225860   -0.304025096   11.902592808  -12.511289666   14.504979482
   -2.533542463   -0.304025096   13.166354935   -3.097188852   10.951985227
   -2.330859066   -0.304025096   13.829135966   -3.865161265    9.188521005
   -2.128175669   -0.304025096   14.619752036   -3.386713133    9.300179609
   -1.925492272   -0.304025096   15.527072824   -7.754022359    9.800386342
   -1.722808875   -0.304025096   17.927065130  -13.169168346    7.064691361
   -1.520125478   -0.304025096   19.751713116   -4.809192934   16.304852307
   -1.317442081   -0.304025096   20.326902745   -0.212656190   19.252485531
   -1.114758684   -0.304025096   18.888018107   16.243810184   29.038046696
   -0.912075287   -0.304025096   13.386280462   39.152358611   39.810471044
   -0.709391890   -0.304025096    2.716389775   65.360691749   57.066083420
   -0.506708493   -0.304025096  -12.516496522   83.230542662   77.121120546
   -0.304025096   -0.304025096  -28.912335774   68.822521874   67.308180397
   -0.101341699   -0.304025096  -37.679357226   20.319915040   21.743026390
    0.101341699   -0.304025096  -40.610056154   13.943612364   10.651389464
    0.304025096   -0.304025096  -42.412049603   -0.095879153    3.308998534
    0.506708493   -0.304025096  -40.626707145  -16.975900287   -1.850475295
    0.709391890   -0.304025096  -34.169478247  -49.783526897  -32.786621276
    0.912075287   -0.304025096  -22.163837142  -59.681729205  -67.737288193
    1.114758684   -0.304025096  -12.095976937  -39.076653638  -60.576987043
    1.317442081   -0.304025096   -6.714303616  -11.655298801  -41.630018048
    1.520125478   -0.304025096   -7.606440702   18.758604273  -19.520374558
    1.722808875   -0.304025096  -13.766187456   40.993318901   -4.933714417
    1.925492272   -0.304025096  -22.872469390   43.620593527    7.204762852
    2.128175669   -0.304025096  -30.008052230   25.344925888   17.616764194
    2.330859066   -0.304025096  -32.420666099   -3.546050451   23.778045339
    2.533542463   -0.304025096  -28.713102326  -30.967743724   24.087624163
    2.736225860   -0.304025096  -20.009491113  -55.360429571   31.313487111
    2.938909257   -0.304025096   -7.929931104  -55.492524498   35.725851480

   -3.141592654   -0.101341699   -5.680535543  -47.271254343   26.864184991
   -2.938909257   -0.101341699    3.207167875  -38.876228726   12.909183995
   -2.736225860   -0.101341699    9.363635490  -20.429167537    6.431077944
   -2.533542463   -0.101341699   11.760860098   -6.325818866    2.180157473
   -2.330859066   -0.101341699   12.908651990   -4.836414530   -1.499840889
   -2.128175669   -0.101341699   13.525707833   -2.881780639   -1.338005964
   -1.925492272   -0.101341699   14.854680286   -9.510222443   -4.604361712
   -1.722808875   -0.101341699   16.436872576   -5.228722061    6.677513857
   -1.520125478   -0.101341699   17.100825307   -0.106889464   10.824174682
   -1.317442081   -0.101341699   15.595035238   15.180106270   28.175519735
   -1.114758684   -0.101341699   11.363171971   27.918274917   46.100537070
   -0.912075287   -0.101341699    2.767089295   58.978103186   66.791193899
   -0.709391890   -0.101341699  -11.869114051   82.265880556   82.216998729
   -0.506708493   -0.101341699  -28.593632508   73.743313047   71.096519490
   -0.304025096   -0.101341699  -38.307340227   21.962066657   24.278019873
   -0.101341699   -0.101341699  -40.955070064   11.374425545   14.821932347
    0.101341699   -0.101341699  -42.121535358   -3.823984815   -2.465075204
    0.304025096   -0.101341699  -40.786755310   -4.933434764  -17.157339193
    0.506708493   -0.101341699  -37.178095629  -44.606835667  -41.045087437
    0.709391890   -0.101341699  -22.392486305  -85.959741066  -76.704828613
    0.912075287   -0.101341699   -8.052794895  -52.435512836  -65.738549419
    1.114758684   -0.101341699   -0.288920144  -23.653405402  -54.384751182
    1.317442081   -0.101341699    0.745207685   12.143775587  -35.455413851
    1.520125478   -0.101341699   -4.005200310   33.972276991  -19.861058746
    1.722808875   -0.101341699  -13.085441474   53.316774605   -2.458727593
    1.925492272   -0.101341699  -24.064785690   52.404700266    4.079719536
    2.128175669   -0.101341699  -33.338535523   34.705767930   13.647669052
    2.330859066   -0.101341699  -36.614095788   -2.055832814   16.491186764
    2.533542463   -0.101341699  -33.666548201  -25.604814667   24.040015495
    2.736225860   -0.101341699  -26.078245424  -48.157155968   28.168550719
    2.938909257   -0.101341699  -15.649929955  -51.268248951   32.979695653

   -3.141592654    0.101341699   -7.577232089  -55.215913397   -8.065973339
   -2.938909257    0.101341699    3.168053811  -47.551971054  -10.692552932
   -2.736225860    0.101341699    9.966419515  -19.168435296  -10.359475233
   -2.533542463    0.101341699   12.598089369  -10.369711166  -11.324076576
   -2.330859066    0.101341699   14.143792282   -4.576354282   -9.724842767
   -2.128175669    0.101341699   15.242667693   -7.245752204  -11.593430720
   -1.925492272    0.101341699   16.186710838   -0.343667323   -3.279939449
   -1.722808875    0.101341699   16.060605145    0.404099959   -2.187933811
   -1.520125478    0.101341699   14.665508797   17.429404822   13.537957681
   -1.317442081    0.101341699    9.372976226   31.615394100   32.806180571
   -1.114758684    0.101341699    1.442168530   50.497524941   49.457523029
   -0.912075287    0.101341699  -11.389754231   73.475750480   67.333875853
   -0.709391890    0.101341699  -26.844419332   72.987790976   59.627877197
   -0.506708493    0.101341699  -37.636947066   29.181430913   20.189028729
   -0.304025096    0.101341699  -40.923421910   12.100744598    8.742076507
   -0.101341699    0.101341699  -42.334360802   -5.027908688   -3.278005453
    0.101341699    0.101341699  -39.402027251  -14.854600942  -16.145320150
    0.304025096    0.101341699  -36.285095715  -29.190801907  -30.705789364
    0.506708493    0.101341699  -23.930378335  -86.235694775  -80.367226435
    0.709391890    0.101341699   -6.828737553  -73.994788179  -71.708753279
    0.912075287    0.101341699    5.159095937  -42.014695943  -63.065098368
    1.114758684    0.101341699    9.510768720   -4.251449961  -40.954963726
    1.317442081    0.101341699    8.452142365   17.177411384  -36.969910985
    1.520125478    0.101341699    0.449263580   60.334670449  -19.787574549
    1.722808875    0.101341699  -12.417133362   59.858140545   -5.171614037
    1.925492272    0.101341699  -24.325904523   60.157318964   -1.448597094
    2.128175669    0.101341699  -35.054286815   38.339190211    2.967269977
    2.330859066    0.101341699  -39.075552376    4.323492055    7.567056332
    2.533542463    0.101341699  -37.545212709  -20.210745615   11.932010004
    2.736225860    0.101341699  -30.545064845  -48.108024892   11.818825594
    2.938909257    0.101341699  -19.202761869  -59.521848773    1.700838900

   -3.141592654    0.304025096   -4.175918725  -60.109883406  -21.724917971
   -2.938909257    0.304025096    6.447732907  -43.158505684  -19.847870977
   -2.736225860    0.304025096   12.962991426  -22.164428028  -19.670163133
   -2.533542463    0.304025096   16.049417027   -8.680304164  -19.673204635
   -2.330859066    0.304025096   16.743797066   -0.541859304  -15.294529746
   -2.128175669    0.304025096   16.913368428    0.140424694   -7.434789077
   -1.925492272    0.304025096   16.310996150    3.569863345   -5.064801158
   -1.722808875    0.304025096   15.815804296    6.637564539    6.370722566
   -1.520125478    0.304025096   10.913692371   41.583898106   26.219222098
   -1.317442081    0.304025096    1.549377214   47.401997437   44.716101129
   -1.114758684    0.304025096   -9.935014784   69.568750472   64.559072755
   -0.912075287    0.304025096  -24.643023439   66.694764617   59.910008118
   -0.709391890    0.304025096  -35.424301122   39.878623666   22.540959597
   -0.506708493    0.304025096  -40.686872407   12.777853805   13.675869477
   -0.304025096    0.304025096  -42.121964135    4.180173134   -1.853344026
   -0.101341699    0.304025096  -41.437333190  -14.270430738   -2.601368514
    0.101341699    0.304025096  -36.651137760  -32.506406591  -21.178279374
    0.304025096    0.304025096  -25.984728388  -78.153246049  -72.178566484
    0.506708493    0.304025096   -7.648359337  -87.985192811  -78.774689022
    0.709391890    0.304025096    6.811370565  -57.061596761  -62.754404910
    0.912075287    0.304025096   15.451921089  -23.075447285  -39.942331659
    1.114758684    0.304025096   16.255461242    7.147733098  -27.524253215
    1.317442081    0.304025096   13.686117474   26.240137659  -13.405332838
    1.520125478    0.304025096    3.180317158   71.267498512   -9.349982555
    1.722808875    0.304025096  -10.738284314   62.248479883  -10.960799603
    1.925492272    0.304025096  -23.498715030   64.699081100   -6.916151879
    2.128175669    0.304025096  -34.595705851   38.904727527   -7.294708456
    2.330859066    0.304025096  -39.249529899    9.149103370   -6.733093510
    2.533542463    0.304025096  -38.022118607  -23.157264122   -7.711397287
    2.736225860    0.304025096  -29.997755604  -53.830662695  -15.841068349
    2.938909257    0.304025096  -17.342535235  -67.395447326  -17.538905827

   -3.141592654    0.506708493    0.688466271  -56.567764459  -25.124206777
   -2.938909257    0.506708493   10.570641111  -43.444498290  -19.689768029
   -2.736225860    0.506708493   17.396328551  -20.602234645  -20.214580359
   -2.533542463    0.506708493   19.544610820   -4.551618331  -15.330135414
   -2.330859066    0.506708493   19.945363667   -0.419386874  -16.160962111
   -2.128175669    0.506708493   20.441124461   -3.904530343  -27.683998953
   -1.925492272    0.506708493   19.729243940   14.878916388  -22.633038354
   -1.722808875    0.506708493   14.486996109   35.622782298    4.061345826
   -1.520125478    0.506708493    5.178224166   55.247663591   21.795297514
   -1.317442081    0.506708493   -6.906682768   63.985075793   32.561114510
   -1.114758684    0.506708493  -20.932934657   68.295535958   30.289657441
   -0.912075287    0.506708493  -30.547638895   25.184632379   -7.610447561
   -0.709391890    0.506708493  -35.554862854   32.476362612  -14.114482634
   -0.506708493    0.506708493  -40.566016177    5.541768869  -18.956301061
   -0.304025096    0.506708493  -39.655868690   -2.044146955  -18.423200220
   -0.101341699    0.506708493  -38.410693719  -26.805233981  -37.932054807
    0.101341699    0.506708493  -26.602847923  -79.619052181  -75.649125117
    0.304025096    0.506708493   -9.484979583  -88.316311790  -81.964556305
    0.506708493    0.506708493    7.287189254  -67.236814752  -63.680752785
    0.709391890    0.506708493   17.503670395  -43.510087750  -44.063507661
    0.912075287    0.506708493   25.156162915  -17.760820404  -60.920433284
    1.114758684    0.506708493   21.884626184   37.853572815  -29.729723406
    1.317442081    0.506708493   15.115435227   31.966496729   -4.578236823
    1.520125478    0.506708493    4.934445163   67.796101796   -6.868299301
    1.722808875    0.506708493   -8.530366508   61.575066838   -9.424329219
    1.925492272    0.506708493  -21.642031829   66.999081865  -10.476192076
    2.128175669    0.506708493  -32.365753705   34.173956938  -13.277748939
    2.330859066    0.506708493  -36.722684003   10.245210480  -15.820634224
    2.533542463    0.506708493  -34.650771536  -33.044900006  -23.191100530
    2.736225860    0.506708493  -25.339413830  -53.779593016  -27.137750605
    2.938909257    0.506708493  -12.727938978  -70.235231573  -26.367273732

   -3.141592654    0.709391890    5.340905878  -55.916835205  -20.362393549
   -2.938909257    0.709391890   14.693259716  -37.145086537  -22.236926525
   -2.736225860    0.709391890   20.690516814  -21.517477940  -15.040231458
   -2.533542463    0.709391890   23.045077834   -2.561702991  -18.887427834
   -2.330859066    0.709391890   23.398292803   -5.748236182  -16.950109083
   -2.128175669    0.709391890   25.057763099   -3.459041931  -10.345713657
   -1.925492272    0.709391890   22.232526202   31.500641356   -2.072099123
   -1.722808875    0.709391890   14.176671650   44.116963640   -1.409895846
   -1.520125478    0.709391890    3.865664166   61.346501729   -5.331680236
   -1.317442081    0.709391890  -10.480042600   73.218412771    2.105821921
   -1.114758684    0.709391890  -22.155240937   37.588422453   -6.266982465
   -0.912075287    0.709391890  -27.732888804   26.743638075   -1.815030589
   -0.709391890    0.709391890  -33.653049320   24.614841140   -4.810125544
   -0.506708493    0.709391890  -35.899485355    0.649296022  -20.318625383
   -0.304025096    0.709391890  -34.758463203  -17.866577008  -37.177761919
   -0.101341699    0.709391890  -25.848731641  -68.061094025  -76.907125052
    0.101341699    0.709391890  -10.674728953  -76.602658006  -73.799676855
    0.304025096    0.709391890    5.254091035  -77.038569454  -62.415055842
    0.506708493    0.709391890   17.461430180  -43.410424534  -40.788147656
    0.709391890    0.709391890   27.378962440  -60.843950689  -54.226282384
    0.912075287    0.709391890   36.027727039   -0.817400202  -29.279270650
    1.114758684    0.709391890   27.200915682   65.577015950  -16.885720957
    1.317442081    0.709391890   16.333095419   43.792203022   -7.759255180
    1.520125478    0.709391890    5.751499430   62.565194454   -3.223575681
    1.722808875    0.709391890   -7.068818168   61.255869922   -5.524207010
    1.925492272    0.709391890  -19.537222728   60.831405676   -9.850607317
    2.128175669    0.709391890  -29.763304931   35.719645475  -11.969324724
    2.330859066    0.709391890  -33.519664143    0.911302200  -15.620778573
    2.533542463    0.709391890  -29.831727143  -36.321546022  -22.585272829
    2.736225860    0.709391890  -20.079394137  -56.877082594  -22.842524184
    2.938909257    0.709391890   -7.414385962  -66.243670564  -24.710858828

   -3.141592654    0.912075287    9.172901478  -56.512093069  -17.010717697
   -2.938909257    0.912075287   18.930130376  -35.973593527  -15.695625421
   -2.736225860    0.912075287   23.726619248  -15.078665120  -11.460045825
   -2.533542463    0.912075287   26.014147226   -6.617182976   -8.789106600
   -2.330859066    0.912075287   26.094795004    3.798292106   -9.261818249
   -2.128175669    0.912075287   25.504467699    2.812730687   -2.084299602
   -1.925492272    0.912075287   23.148165356   24.428099910   -9.391457807
   -1.722808875    0.912075287   15.905118993   43.557573259  -15.383534021
   -1.520125478    0.912075287    5.788842509   58.485848248  -14.442931674
   -1.317442081    0.912075287   -7.730344589   69.946098304  -27.121496709
   -1.114758684    0.912075287  -19.992713924   47.163673326  -23.802088460
   -0.912075287    0.912075287  -26.698270070   20.599545942  -30.326533456
   -0.709391890    0.912075287  -29.300827963    7.452467707  -45.062602668
   -0.506708493    0.912075287  -29.331161249  -12.485979709  -56.611526745
   -0.304025096    0.912075287  -22.512693336  -53.086758932  -78.888225886
   -0.101341699    0.912075287  -10.170783133  -64.726029828  -76.062585093
    0.101341699    0.912075287    3.595276882  -69.405928586  -67.251322738
    0.304025096    0.912075287   15.737053083  -47.080168280  -40.418620044
    0.506708493    0.912075287   24.630495950  -47.962074217  -25.791399559
    0.709391890    0.912075287   34.163881016  -34.325183043    0.781992331
    0.912075287    0.912075287   35.270163668   21.957811166   25.647847385
    1.114758684    0.912075287   27.806128004   46.261591188    7.419568081
    1.317442081    0.912075287   17.719067503   51.658149838   -3.023673967
    1.520125478    0.912075287    6.725863792   58.909164136   -4.433872770
    1.722808875    0.912075287   -6.127169420   64.299679602   -3.444486660
    1.925492272    0.912075287  -18.060298703   53.248824094   -3.548699389
    2.128175669    0.912075287  -27.440089394   34.920276689  -10.743094497
    2.330859066    0.912075287  -30.227399004   -7.974426830  -16.754827099
    2.533542463    0.912075287  -25.594251303  -35.136540184  -19.214202441
    2.736225860    0.912075287  -15.891021733  -60.015160169  -20.738320202
    2.938909257    0.912075287   -2.944048177  -63.120041732  -19.418299643

   -3.141592654    1.114758684   11.750014308  -52.188678998   -8.569608531
   -2.938909257    1.114758684   20.564029390  -31.382707738   -3.054389044
   -2.736225860    1.114758684   24.932845439  -15.480060296   -4.287756268
   -2.533542463    1.114758684   27.366619442   -7.369806285   -6.350530141
   -2.330859066    1.114758684   27.812177353    1.756901864   -9.023101954
   -2.128175669    1.114758684   26.918643450    7.676269308   -7.865522045
   -1.925492272    1.114758684   24.277587488   19.439960921    0.315618626
   -1.722808875    1.114758684   18.700667980   35.728455096   -9.252182302
   -1.520125478    1.114758684    9.977327333   50.108731663  -23.380369479
   -1.317442081    1.114758684   -1.250597809   57.041327856  -34.076683540
   -1.114758684    1.114758684  -10.787516406   33.272825180  -58.397234323
   -0.912075287    1.114758684  -15.474306156   16.971019193  -61.521456493
   -0.709391890    1.114758684  -17.424392086   -2.121896316  -65.792896098
   -0.506708493    1.114758684  -14.035872961  -28.528489102  -80.506024867
   -0.304025096    1.114758684   -6.593356540  -46.016727810  -73.345985046
   -0.101341699    1.114758684    4.388322440  -57.260912620  -63.216896664
    0.101341699    1.114758684   14.340876809  -39.392271684  -34.374476112
    0.304025096    1.114758684   21.299231451  -31.568374715  -14.293363887
    0.506708493    1.114758684   26.968968451  -22.802997004   -2.505884070
    0.709391890    1.114758684   30.313823902  -10.175545901   15.073269006
    0.912075287    1.114758684   30.638258636    9.326001239   16.025769682
    1.114758684    1.114758684   25.853011921   37.110025654   10.996662937
    1.317442081    1.114758684   16.965607127   47.132941316    8.474195177
    1.520125478    1.114758684    6.711842401   56.679756885    3.860606545
    1.722808875    1.114758684   -6.007736865   64.809696838    2.573921924
    1.925492272    1.114758684  -17.854784444   50.140678823   -0.855320398
    2.128175669    1.114758684  -25.731731069   24.758203292   -5.828105810
    2.330859066    1.114758684  -27.070955052  -10.632863048  -13.514667368
    2.533542463    1.114758684  -22.112211995  -38.404463130  -15.607689844
    2.736225860    1.114758684  -11.555334326  -62.049518579  -19.556596967
    2.938909257    1.114758684    0.756596746  -56.577481902  -17.901941787

   -3.141592654    1.317442081   13.168972593  -41.438778815   -5.695895612
   -2.938909257    1.317442081   21.195083204  -35.352446231   -3.379362829
   -2.736225860    1.317442081   26.079196185  -12.592923241   -3.146527076
   -2.533542463    1.317442081   27.929550664   -9.401330227    2.520584267
   -2.330859066    1.317442081   29.248946270    0.633276049   -2.680566602
   -2.128175669    1.317442081   27.611449385   11.767709326   -0.447571954
   -1.925492272    1.317442081   25.106852352   15.142315177  -12.393490467
   -1.722808875    1.317442081   20.730196534   27.573359758  -14.453073264
   -1.520125478    1.317442081   14.217318088   36.659980611  -20.888617026
   -1.317442081    1.317442081    6.488050301   36.281173055  -43.078446091
   -1.114758684    1.317442081    0.290992806   25.016724826  -53.153837143
   -0.912075287    1.317442081   -3.239844370    7.054639278  -71.158721133
   -0.709391890    1.317442081   -2.418647188  -12.020349696  -79.964852989
   -0.506708493    1.317442081    0.933486382  -22.959791251  -70.317547097
   -0.304025096    1.317442081    7.214396427  -35.478783553  -60.342436568
   -0.101341699    1.317442081   13.659579617  -27.373584744  -26.911220927
    0.101341699    1.317442081   18.561904750  -20.156412877  -11.226159197
    0.304025096    1.317442081   22.120676200  -19.881546075    3.644671259
    0.506708493    1.317442081   27.695978482  -29.255343223   -1.276114407
    0.709391890    1.317442081   30.267009022    6.246882715    1.144116220
    0.912075287    1.317442081   27.644415928   14.410192030   15.911013444
    1.114758684    1.317442081   23.390300356   31.716745326   11.032028753
    1.317442081    1.317442081   15.556684550   41.710366003    4.569454707
    1.520125478    1.317442081    5.904190729   57.084317264    3.762944203
    1.722808875    1.317442081   -6.596642618   59.524105776    0.857032715
    1.925492272    1.317442081  -17.140174970   46.038347174   -5.448723240
    2.128175669    1.317442081  -24.601386220   21.727941709   -7.050314230
    2.330859066    1.317442081  -24.775808530  -17.041600145   -9.752852927
    2.533542463    1.317442081  -19.105062239  -38.985846988  -13.116670908
    2.736225860    1.317442081   -8.578188025  -62.428259703  -11.223913066
    2.938909257    1.317442081    3.786595641  -54.221079307   -8.970823131

   -3.141592654    1.520125478   13.862124831  -44.915833602   -2.112168195
   -2.938909257    1.520125478   21.703063475  -29.897105611   -1.709792282
   -2.736225860    1.520125478   25.607502891  -10.476905995    3.131433054
   -2.533542463    1.520125478   27.413277871   -9.595037366   -1.173666917
   -2.330859066    1.520125478   28.732631727   -0.079430174    5.580226341
   -2.128175669    1.520125478   27.849185926    4.284407693   -1.983271005
   -1.925492272    1.520125478   27.283340283    6.156106869   -2.586884891
   -1.722808875    1.520125478   23.959716624   24.137480670  -13.719425340
   -1.520125478    1.520125478   19.366978269   19.959292504  -27.437615637
   -1.317442081    1.520125478   15.182912724   21.015855188  -40.552060597
   -1.114758684    1.520125478   12.259446567    5.935527087  -59.682421262
   -0.912075287    1.520125478   11.492013883    5.741048214  -53.783692722
   -0.709391890    1.520125478   10.658488209   -3.572450750  -44.273431518
   -0.506708493    1.520125478   13.466251106  -17.976223234  -44.042794280
   -0.304025096    1.520125478   15.371556216   -0.977290054  -18.084695664
   -0.101341699    1.520125478   16.153370818  -10.691544259   -1.886712855
    0.101341699    1.520125478   18.581692980   -8.717709599   12.011238420
    0.304025096    1.520125478   20.450505664  -15.730366759   12.712724076
    0.506708493    1.520125478   24.775801945  -18.572027541   29.540499024
    0.709391890    1.520125478   25.729660749    5.866203389   34.828132236
    0.912075287    1.520125478   24.722298357    4.122923423   11.810584044
    1.114758684    1.520125478   21.868156757   27.457493689    6.800160424
    1.317442081    1.520125478   14.535266907   41.533295961    5.901721805
    1.520125478    1.520125478    5.001204443   53.317811402    4.537298785
    1.722808875    1.520125478   -6.168935557   53.576521385   -2.974064198
    1.925492272    1.520125478  -16.178318367   44.218638292   -3.649066542
    2.128175669    1.520125478  -22.766901335   17.137261127   -9.723062184
    2.330859066    1.520125478  -22.959378290  -13.639176432   -7.980656060
    2.533542463    1.520125478  -17.224309284  -43.672713365   -6.632362195
    2.736225860    1.520125478   -6.391631424  -57.185313014   -9.632958431
    2.938909257    1.520125478    4.341277360  -48.760739139   -0.840426988

   -3.141592654    1.722808875   14.729915823  -42.091298221   -6.382216988
   -2.938909257    1.722808875   21.930535657  -26.805784969   -0.888457658
   -2.736225860    1.722808875   25.824702804  -13.992077189   -1.994076272
   -2.533542463    1.722808875   27.796665985   -4.448090190    1.350299847
   -2.330859066    1.722808875   28.109923867   -1.590240724   -0.963830210
   -2.128175669    1.722808875   28.416950752    1.719564754   -4.133303458
   -1.925492272    1.722808875   27.242463258    6.315880703   -4.148375838
   -1.722808875    1.722808875   26.386072678    5.547492791  -12.679773698
   -1.520125478    1.722808875   24.289826558   11.142183197  -23.134728711
   -1.317442081    1.722808875   23.371719716    0.625117101  -40.110231293
   -1.114758684    1.722808875   21.972943996   12.745528257  -40.705308492
   -0.912075287    1.722808875   20.548118154   -1.503833581  -68.709331184
   -0.709391890    1.722808875   20.621919719    6.805985421  -66.561715024
   -0.506708493    1.722808875   18.259550615   10.787905802  -13.211049828
   -0.304025096    1.722808875   17.062912661    3.512232711   -6.214104392
   -0.101341699    1.722808875   16.059581755    5.594633555    0.741735195
    0.101341699    1.722808875   15.612343022   -2.754581295   11.307320445
    0.304025096    1.722808875   17.149540087  -10.585754338   18.360291235
    0.506708493    1.722808875   19.110756446   -8.508796438   20.256871610
    0.709391890    1.722808875   21.035353692  -10.308822024   11.916928371
    0.912075287    1.722808875   22.154904472    2.300422172   14.555973444
    1.114758684    1.722808875   19.889983200   19.439840065    9.117270489
    1.317442081    1.722808875   13.994774899   39.549677231   -2.131665675
    1.520125478    1.722808875    4.510487986   50.943959771   -0.106989827
    1.722808875    1.722808875   -5.952152558   51.508478221   -0.938267465
    1.925492272    1.722808875  -15.471332616   39.188445440   -4.140851664
    2.128175669    1.722808875  -21.127345538   16.214352466   -6.542268961
    2.330859066    1.722808875  -21.509957739  -14.483788288   -7.495318444
    2.533542463    1.722808875  -15.272434507  -44.297805229  -13.666422180
    2.736225860    1.722808875   -4.983394192  -54.022929318   -5.990068418
    2.938909257    1.722808875    5.561653159  -48.547897854   -9.938625153

   -3.141592654    1.925492272   16.099729762  -39.481679736   -8.652438999
   -2.938909257    1.925492272   23.318363722  -30.450959562  -17.806181186
   -2.736225860    1.925492272   27.604999723  -10.148468046  -29.633823192
   -2.533542463    1.925492272   28.029730383    0.735648217  -12.291964615
   -2.330859066    1.925492272   28.853377772   -7.082143959   -4.716800567
   -2.128175669    1.925492272   29.212615692    3.731454996   -2.295159400
   -1.925492272    1.925492272   28.920972945   -2.281654193   -6.917975428
   -1.722808875    1.925492272   28.952938960    2.616442534  -10.863871690
   -1.520125478    1.925492272   29.412465590   -7.423478692  -23.531672806
   -1.317442081    1.925492272   29.463650511    7.677964103  -16.472071187
   -1.114758684    1.925492272   31.800957165  -43.125139190  -51.282177107
   -0.912075287    1.925492272   40.899043676  -12.857499609  -85.733421317
   -0.709391890    1.925492272   32.365536268   74.429174286  -23.500735410
   -0.506708493    1.925492272   21.581351938   25.408227431  -16.802484171
   -0.304025096    1.925492272   18.147784734   16.107207857   -1.234548792
   -0.101341699    1.925492272   15.522367530    8.702180426    6.234339974
    0.101341699    1.925492272   13.647789346    9.430474361   13.121423033
    0.304025096    1.925492272   13.370459608   -8.046095123   19.457985665
    0.506708493    1.925492272   15.479822537  -10.075462719   20.666436577
    0.709391890    1.925492272   17.877953735  -13.919141337   20.150356312
    0.912075287    1.925492272   19.959241655   -4.306022276    4.156541574
    1.114758684    1.925492272   19.626992249    8.935605342   -3.935973729
    1.317442081    1.925492272   14.845516906   39.439609252   -4.434006321
    1.520125478    1.925492272    5.364898633   48.900882526  -10.041342738
    1.722808875    1.925492272   -4.570663424   49.857469672  -13.256532987
    1.925492272    1.925492272  -13.978332656   39.244075590  -11.898778506
    2.128175669    1.925492272  -19.633551672   15.238273712   -9.789857469
    2.330859066    1.925492272  -19.290286763  -19.679411145  -14.702571752
    2.533542463    1.925492272  -12.635153347  -42.020178059   -9.882681192
    2.736225860    1.925492272   -3.084120008  -51.346210661  -12.253536800
    2.938909257    1.925492272    7.287456452  -48.211145997   -8.089295742

   -3.141592654    2.128175669   19.212167708  -38.305254016  -20.955042729
   -2.938909257    2.128175669   29.064149251  -64.548197159  -30.807421425
   -2.736225860    2.128175669   39.350461463  -11.575576924  -63.956855970
   -2.533542463    2.128175669   33.333227189   43.334156061  -30.168089646
   -2.330859066    2.128175669   30.165000341   -6.176199423  -10.934606061
   -2.128175669    2.128175669   29.967388028    9.230818210   -9.043692142
   -1.925492272    2.128175669   29.870515729   -9.382828031   -7.032377533
   -1.722808875    2.128175669   31.143573268   -2.133783517  -12.540335178
   -1.520125478    2.128175669   32.317085649   -7.024777794   -8.460482997
   -1.317442081    2.128175669   32.162627671    1.178594425  -18.562334682
   -1.114758684    2.128175669   37.042689870  -45.530881289    3.359839827
   -0.912075287    2.128175669   40.656011516   28.964285097   66.507532810
   -0.709391890    2.128175669   30.108825790   48.325049501   19.328205391
   -0.506708493    2.128175669   23.900360469   24.983816128   -9.076002171
   -0.304025096    2.128175669   17.779764507   28.613969154    1.253679175
   -0.101341699    2.128175669   13.788962824   15.857436283    8.848825896
    0.101341699    2.128175669   10.144822755   15.431722120   17.389167408
    0.304025096    2.128175669    9.291547388   -5.312747458   18.939204197
    0.506708493    2.128175669   11.085382330  -13.105440439   18.118213635
    0.709391890    2.128175669   15.298609366  -26.634577201    2.617507465
    0.912075287    2.128175669   19.825324285  -13.331608396   -0.010168334
    1.114758684    2.128175669   20.075868651    9.872028008   -3.865031397
    1.317442081    2.128175669   16.283255782   27.766266858  -12.212495337
    1.520125478    2.128175669    8.492860803   48.001363312  -17.485878174
    1.722808875    2.128175669   -1.643922359   48.588461016  -13.299608410
    1.925492272    2.128175669  -10.875282440   41.408717753  -16.297529783
    2.128175669    2.128175669  -16.716147284   12.244899178  -18.895209812
    2.330859066    2.128175669  -16.196511455  -14.432954587  -14.055611884
    2.533542463    2.128175669  -10.727801821  -40.927603166  -12.327765604
    2.736225860    2.128175669   -0.728842811  -52.965878530  -11.513537221
    2.938909257    2.128175669   10.048187551  -52.413275176  -18.591644546

   -3.141592654    2.330859066   23.339696611  -35.634516845  -20.965768104
   -2.938909257    2.330859066   32.467040654  -62.355208029   -2.162953336
   -2.736225860    2.330859066   42.421378884  -10.097943110   34.958233391
   -2.533542463    2.330859066   36.573493587   40.076354991   -2.882767143
   -2.330859066    2.330859066   33.782872386   -5.209638087  -21.958351656
   -2.128175669    2.330859066   33.068018374   12.419827615  -17.461863288
   -1.925492272    2.330859066   32.326381940   -7.078879783  -14.921665459
   -1.722808875    2.330859066   33.594612557   -3.426059395   -9.935002630
   -1.520125478    2.330859066   35.218155169  -13.000247965  -20.045779486
   -1.317442081    2.330859066   36.878381733   -0.772477136  -20.928281212
   -1.114758684    2.330859066   36.318672969    5.854879748  -11.211194492
   -0.912075287    2.330859066   33.739862586   17.938945921  -16.336149452
   -0.709391890    2.330859066   30.750187243   12.632017216  -15.892841494
   -0.506708493    2.330859066   25.893403892   38.082057747   -5.549336981
   -0.304025096    2.330859066   17.878582819   33.869630784    1.021127114
   -0.101341699    2.330859066   11.874520274   28.797315701   12.401614398
    0.101341699    2.330859066    7.061005560   14.236103481   15.988179727
    0.304025096    2.330859066    6.105065081   -2.795229893   14.556135120
    0.506708493    2.330859066    8.828947276  -26.410474241    5.704364200
    0.709391890    2.330859066   15.440397443  -31.968919689   -1.574111668
    0.912075287    2.330859066   20.657520791  -20.364954464  -11.300983752
    1.114758684    2.330859066   22.992775722    1.781894133  -20.098319804
    1.317442081    2.330859066   19.384894230   30.924233913  -14.406325172
    1.520125478    2.330859066   11.523560712   46.069421447  -13.878423509
    1.722808875    2.330859066    1.199627468   52.280713525  -16.442545639
    1.925492272    2.330859066   -7.941499879   34.960259425  -13.204349933
    2.128175669    2.330859066  -12.813809384   14.413849601  -16.200578348
    2.330859066    2.330859066  -13.547488305  -11.013933669  -12.978316639
    2.533542463    2.330859066   -7.404733371  -45.799480796  -17.742131030
    2.736225860    2.330859066    2.384057411  -49.027384971  -18.305332666
    2.938909257    2.330859066   13.550505639  -59.382157173  -16.800951524

   -3.141592654    2.533542463   29.549695807  -26.068216291  -38.319891772
   -2.938909257    2.533542463   32.594106448  -16.085027001   -4.740844683
   -2.736225860    2.533542463   36.271325907  -13.106601704    2.115727159
   -2.533542463    2.533542463   37.339111593   -1.567945862   -7.678149380
   -2.330859066    2.533542463   37.230124934    5.179064862   -9.727182911
   -2.128175669    2.533542463   35.819191868    3.849442173  -10.205868867
   -1.925492272    2.533542463   35.819097243    0.306094461  -20.011196822
   -1.722808875    2.533542463   35.742470732   -5.034524295  -12.432939463
   -1.520125478    2.533542463   38.347317909  -14.353753153   -8.200926535
   -1.317442081    2.533542463   39.592794873   -0.174021711   -8.026437937
   -1.114758684    2.533542463   39.790019327    0.318852511   -8.355964280
   -0.912075287    2.533542463   37.460573278   23.884795956    3.094189966
   -0.709391890    2.533542463   31.499301540   31.823916475    7.292730093
   -0.506708493    2.533542463   24.468506375   38.617721416   17.004353381
   -0.304025096    2.533542463   16.129135700   41.968418392   17.381167612
   -0.101341699    2.533542463    8.167524428   34.577102629   24.146938274
    0.101341699    2.533542463    2.853261454   16.523789765   25.178660238
    0.304025096    2.533542463    2.238945774  -12.904960875   23.692839157
    0.506708493    2.533542463    8.003178358  -39.724126571    3.803769976
    0.709391890    2.533542463   16.349110526  -39.972633361   -6.762250755
    0.912075287    2.533542463   23.431561404  -26.062810628  -11.696387148
    1.114758684    2.533542463   25.287372804    8.156234507   -8.780873058
    1.317442081    2.533542463   21.472893975   26.352744493   -8.144336287
    1.520125478    2.533542463   14.543053278   43.535567141  -12.146928732
    1.722808875    2.533542463    4.179958533   54.921951876   -7.986338698
    1.925492272    2.533542463   -5.701248719   38.495826611   -5.700589757
    2.128175669    2.533542463  -11.053287680   15.449195032   -0.976104997
    2.330859066    2.533542463  -11.437777161  -15.550333071   -4.636178972
    2.533542463    2.533542463   -4.753367366  -44.259967215   -6.437619711
    2.736225860    2.533542463    4.847310049  -54.172319620   -2.547802607
    2.938909257    2.533542463   18.636967894  -74.923476941  -31.827331132

   -3.141592654    2.736225860   33.480210119  -11.210420226   12.269668524
   -2.938909257    2.736225860   33.492930883  -13.079873250    2.167648058
   -2.736225860    2.736225860   38.215281107  -15.454354960    0.790911784
   -2.533542463    2.736225860   38.141964582    4.970791090    3.664229942
   -2.330859066    2.736225860   38.002444509    2.238877099    1.625426134
   -2.128175669    2.736225860   37.101116535   -0.767592144    1.278706474
   -1.925492272    2.736225860   38.270815275   -1.183333889    3.944578780
   -1.722808875    2.736225860   36.900664718    4.082592171    6.508420576
   -1.520125478    2.736225860   38.754841147  -14.255401848    6.185051364
   -1.317442081    2.736225860   39.517627835    4.506015086   13.248602044
   -1.114758684    2.736225860   38.478355032    8.505406793   13.712332061
   -0.912075287    2.736225860   34.897872263   23.571610165   10.865556059
   -0.709391890    2.736225860   29.701462024   32.983377174   14.803516694
   -0.506708493    2.736225860   20.267275490   53.635917774   26.948801072
   -0.304025096    2.736225860   10.742549540   42.177213931   35.990902438
   -0.101341699    2.736225860    1.814957758   41.321596448   40.344337915
    0.101341699    2.736225860   -3.253188512    8.880735835   36.431749054
    0.304025096    2.736225860   -2.473751956  -21.971141247   21.223703620
    0.506708493    2.736225860    7.031010270  -61.272206035    5.611407564
    0.709391890    2.736225860   16.733038742  -35.814221758    4.774798956
    0.912075287    2.736225860   26.510532130  -60.256124025  -24.014967118
    1.114758684    2.736225860   32.563411178   18.893415799  -60.779478207
    1.317442081    2.736225860   22.786322575   52.990505168   -0.241173590
    1.520125478    2.736225860   14.189538162   42.183799535   16.761482414
    1.722808875    2.736225860    3.250584090   59.754168287   16.627898284
    1.925492272    2.736225860   -6.844943820   37.636598354   16.622019832
    2.128175669    2.736225860  -12.469330350   17.370589942   16.523841963
    2.330859066    2.736225860  -12.459322507  -20.578504682   14.351431508
    2.533542463    2.736225860   -5.337896832  -41.743147498   13.035280307
    2.736225860    2.736225860    3.953107255  -60.149573179    8.717918780
    2.938909257    2.736225860   21.420383279  -97.967315910   16.666656292

   -3.141592654    2.938909257   26.522554708  -44.944680309   39.596718635
   -2.938909257    2.938909257   31.090732098  -13.536300762   17.673372008
   -2.736225860    2.938909257   34.952867125  -18.008612643   19.070665212
   -2.533542463    2.938909257   36.147184157    2.042308745   14.674327775
   -2.330859066    2.938909257   35.808956701    3.950417424   21.874336372
   -2.128175669    2.938909257   34.229689063    5.449409009   24.707952028
   -1.925492272    2.938909257   34.649074914   -3.047867638   22.122963385
   -1.722808875    2.938909257   33.924700833    4.019905525   16.447599603
   -1.520125478    2.938909257   35.004268439   -9.535550815   25.720275960
   -1.317442081    2.938909257   35.386265477    3.374223549   17.820631622
   -1.114758684    2.938909257   34.878882104    6.683702459   28.371895858
   -0.912075287    2.938909257   30.399323482   34.448641964   42.022757079
   -0.709391890    2.938909257   22.948390572   41.505004739   49.491728708
   -0.506708493    2.938909257   12.124943075   60.474108847   52.292008356
   -0.304025096    2.938909257    1.244020134   47.875209001   58.954402980
   -0.101341699    2.938909257   -8.373360093   40.811723140   58.078533867
    0.101341699    2.938909257  -11.711856446   -7.732549264   44.449433876
    0.304025096    2.938909257   -6.911555055  -42.123012572   24.281996924
    0.506708493    2.938909257    5.490960927  -66.189786058   11.962832579
    0.709391890    2.938909257   15.091630082  -40.701501498    9.985049437
    0.912075287    2.938909257   29.964961789  -96.391437957    8.634975136
    1.114758684    2.938909257   37.430291616   50.415535473   42.408701387
    1.317442081    2.938909257   19.536377532   79.311742125   31.838942729
    1.520125478    2.938909257    9.487805263   42.343406700   25.585066136
    1.722808875    2.938909257   -1.833117298   58.557544617   31.827182566
    1.925492272    2.938909257  -11.387977907   40.307004047   26.923516825
    2.128175669    2.938909257  -18.209929451   17.815654308   38.120095546
    2.330859066    2.938909257  -16.984042758  -24.200655224   30.653492845
    2.533542463    2.938909257  -10.036914465  -45.577096751   32.968605670
    2.736225860    2.938909257    0.868062582  -57.293052896   24.928468385
    2.938909257    2.938909257   13.431636966  -70.103437284   46.724411733
