#! FIELDS phi psi b1.bias der_phi der_psi
#! SET min_phi -pi
#! SET max_phi pi
#! SET nbins_phi  31
#! SET periodic_phi true
#! SET min_psi -pi
#! SET max_psi pi
#! SET nbins_psi  31
#! SET periodic_psi true
   -3.141592654   -3.141592654   31.509496280  -93.389109980   34.964289896
   -2.938909257   -3.141592654   37.331464312    6.701221623   21.836964219
   -2.736225860   -3.141592654   40.576669139  -28.422810713   15.429938351
   -2.533542463   -3.141592654   38.678196011   46.978466449   43.919245787
   -2.330859066   -3.141592654   30.119535278   26.194543450   50.254132777
   -2.128175669   -3.141592654   27.813273647  -10.949728137   11.445388747
   -1.925492272   -3.141592654   36.186568749  -47.958600283    5.826926250
   -1.722808875   -3.141592654   35.183727894   51.141155405   19.704297745
   -1.520125478   -3.141592654   31.601761695  -35.803298684  -87.110161467
   -1.317442081   -3.141592654   36.432650379   31.032066897  -28.370038070
   -1.114758684   -3.141592654   22.354676608   64.522573253   62.505076798
   -0.912075287   -3.141592654   16.861915917   10.134238825   26.490330889
   -0.709391890   -3.141592654   10.266863033   56.135837659   71.258618153
   -0.506708493   -3.141592654   -3.162733341   70.571199067   63.212492527
   -0.304025096   -3.141592654  -14.707015484   31.234376654   37.373245306
   -0.101341699   -3.141592654  -15.436117001   -9.558786192   22.853653645
    0.101341699   -3.141592654  -15.979913322   11.397948612   27.466312739
    0.304025096   -3.141592654  -13.612267997  -45.507383892   17.977806884
    0.506708493   -3.141592654   -1.197475632  -59.130028860    6.202041695
    0.709391890   -3.141592654   10.373949969  -72.268222964    9.195292767
    0.912075287   -3.141592654   27.764514994  -66.009602131   78.418501733
    1.114758684   -3.141592654   25.112703263   82.435870533   86.936861648
    1.317442081   -3.141592654    9.381054183   51.967660168   39.473513478
    1.520125478   -3.141592654   -1.713591149   72.810226768   40.633447130
    1.722808875   -3.141592654  -14.209552588   30.340626902   28.660274363
    1.925492272   -3.141592654  -17.754002683   25.342070379    8.942299485
    2.128175669   -3.141592654  -22.171066881   -1.856169825   21.030560857
    2.330859066   -3.141592654  -18.837669270   -9.206612560   16.495893479
    2.533542463   -3.141592654  -17.855886104  -23.136779335   31.362687202
    2.736225860   -3.141592654   -7.744418393  -60.644287148   28.170453011
    2.938909257   -3.141592654    7.119308814 -105.098661940   79.918992248

   -3.141592654   -2.938909257   17.062185034 -146.261045207  103.468324161
   -2.938909257   -2.938909257   31.157121837   12.803381910   51.814118545
   -2.736225860   -2.938909257   26.240757330    4.769921037   99.325315278
   -2.533542463   -2.938909257   26.948304648    9.033069260   61.417539851
   -2.330859066   -2.938909257   22.547317989   15.543357058   27.698127975
   -2.128175669   -2.938909257   24.869243857  -27.716341724   35.315935191
   -1.925492272   -2.938909257   25.210041253   33.483294677   95.528200333
   -1.722808875   -2.938909257   19.968890513  -15.705542458   96.589567506
   -1.520125478   -2.938909257   30.293825570  -39.536829584  109.580436339
   -1.317442081   -2.938909257   22.632536877   96.280396817  110.479537212
   -1.114758684   -2.938909257    9.047851626   19.990709647   57.769134428
   -0.912075287   -2.938909257    4.682358982   51.114894577   94.895185408
   -0.709391890   -2.938909257   -9.055723251   60.127811459   87.103110989
   -0.506708493   -2.938909257  -16.802605479   24.353830935   55.777083733
   -0.304025096   -2.938909257  -20.176917732    6.699113012   17.178390290
   -0.101341699   -2.938909257  -20.727108844    4.601668210   26.406271353
    0.101341699   -2.938909257  -21.390082393   -5.711543860   20.441367131
    0.304025096   -2.938909257  -16.468922766  -43.881431025   18.013069253
    0.506708493   -2.938909257   -4.210355500  -70.689101198   13.854813109
    0.709391890   -2.938909257    8.655913146  -53.445924362   16.824324336
    0.912075287   -2.938909257   18.932287830  -46.003542692    1.887054698
    1.114758684   -2.938909257   21.268324317   37.662320159  -16.164383852
    1.317442081   -2.938909257    5.420066831   99.868980954   23.266322668
    1.520125478   -2.938909257  -12.591152229   67.329672490   56.900270783
    1.722808875   -2.938909257  -20.090878758   13.301091785   42.505570697
    1.925492272   -2.938909257  -23.687939848   27.849809017   52.000989375
    2.128175669   -2.938909257  -26.764289439   -7.777257302   29.304722647
    2.330859066   -2.938909257  -24.806381933    3.128248469   42.307726192
    2.533542463   -2.938909257  -23.875029847  -33.715580291   26.814624733
    2.736225860   -2.938909257  -14.050900587  -35.211892231   42.304979300
    2.938909257   -2.938909257   -8.224395599  -62.285539539   51.162836063

   -3.141592654   -2.736225860   -3.805975323  -84.902251001   86.140739282
   -2.938909257   -2.736225860   13.325890430  -44.667810568  111.090808659
   -2.736225860   -2.736225860   13.193193490   10.851519145   32.208859764
   -2.533542463   -2.736225860   15.978390681  -21.320448307   46.093486155
   -2.330859066   -2.736225860   15.869923651   15.465906673   42.214227664
   -2.128175669   -2.736225860   12.851101981   19.052313658   67.948503226
   -1.925492272   -2.736225860    8.125257253   15.037038703   55.571410475
   -1.722808875   -2.736225860    8.387228798   -5.828971991   21.121135000
   -1.520125478   -2.736225860    8.875390245   -9.739933613   56.000430416
   -1.317442081   -2.736225860   10.839802832   17.267297638   29.889394953
   -1.114758684   -2.736225860   -2.122176820   82.354773483   59.593955426
   -0.912075287   -2.736225860  -11.251103749   15.152449617   44.079695255
   -0.709391890   -2.736225860  -17.308450512   44.477893829   11.743321610
   -0.506708493   -2.736225860  -21.984633151   -1.007648587    7.097556458
   -0.304025096   -2.736225860  -23.301683678   19.227091172   17.668922548
   -0.101341699   -2.736225860  -24.648885184  -10.827508746   13.180637652
    0.101341699   -2.736225860  -23.699394777    5.414756020    7.416027059
    0.304025096   -2.736225860  -20.308956449  -50.746033656   12.295845774
    0.506708493   -2.736225860   -8.276320340  -50.695581509   35.786256913
    0.709391890   -2.736225860    2.313619974  -68.764218076   29.466807716
    0.912075287   -2.736225860   17.137832803  -51.713612162   24.243484447
    1.114758684   -2.736225860   15.489508672   69.031090726   74.168533237
    1.317442081   -2.736225860   -4.552829080  104.295374728   62.382203246
    1.520125478   -2.736225860  -20.434101618   54.652415572   21.008177917
    1.722808875   -2.736225860  -30.263421986   40.983753825   37.908893662
    1.925492272   -2.736225860  -33.520915750   -6.532156996   29.920538229
    2.128175669   -2.736225860  -33.394873079   10.308824563   29.041524319
    2.330859066   -2.736225860  -32.932296727  -21.808618249   29.091732338
    2.533542463   -2.736225860  -28.960952318   -9.791223326   24.277760324
    2.736225860   -2.736225860  -23.969119720  -50.022885221   41.811865842
    2.938909257   -2.736225860  -13.921088168  -35.203597345   25.710593308

   -3.141592654   -2.533542463  -15.332600609  -40.283023349   31.634484940
   -2.938909257   -2.533542463   -5.038527736  -55.227485317   59.133027468
   -2.736225860   -2.533542463    3.998682830  -28.518014463   63.616987840
   -2.533542463   -2.533542463    6.128506267    3.544048136   57.673075352
   -2.330859066   -2.533542463    4.802646199    6.978788322   64.254122374
   -2.128175669   -2.533542463    2.783087140   13.109657414   31.706822947
   -1.925492272   -2.533542463    1.233734190   -1.806610218   24.007373582
   -1.722808875   -2.533542463    2.515994368   -4.787629582   46.601156690
   -1.520125478   -2.533542463    1.693310016   15.330951750   47.688533041
   -1.317442081   -2.533542463   -4.822147920   47.255271018  106.701990636
   -1.114758684   -2.533542463  -13.391061116   26.945312937   38.495992343
   -0.912075287   -2.533542463  -16.853650645   19.057012955   23.994158580
   -0.709391890   -2.533542463  -22.416461907   27.703918338   33.202643980
   -0.506708493   -2.533542463  -25.749301946    7.663552229   26.575294316
   -0.304025096   -2.533542463  -26.836474293    2.401820628   12.090310476
   -0.101341699   -2.533542463  -26.748227431   -0.681946156    6.037397601
    0.101341699   -2.533542463  -25.925057963  -13.667910021   11.621989699
    0.304025096   -2.533542463  -21.334013076  -23.300648888    2.812686135
    0.506708493   -2.533542463  -15.855764763  -49.242165271   19.640835326
    0.709391890   -2.533542463    3.075578303 -118.653413740  -27.027048475
    0.912075287   -2.533542463   16.444347557   13.822784207  -18.007144569
    1.114758684   -2.533542463    1.753161108   97.131895466   46.802181906
    1.317442081   -2.533542463  -13.828716643   54.597321016   27.643469741
    1.520125478   -2.533542463  -23.329696646   45.312840306    9.696098236
    1.722808875   -2.533542463  -31.910353826   33.848270236   -8.724142391
    1.925492272   -2.533542463  -35.785036183    7.181583088    1.974866446
    2.128175669   -2.533542463  -36.787410386    3.740706332    6.252355231
    2.330859066   -2.533542463  -36.095793739  -11.885844364    7.136080612
    2.533542463   -2.533542463  -33.030484160  -16.775485005   13.735525410
    2.736225860   -2.533542463  -28.300185790  -31.488656950    8.692302914
    2.938909257   -2.533542463  -21.731565283  -29.306901056   38.021109668

   -3.141592654   -2.330859066  -20.011750282  -28.476758037   20.431688362
   -2.938909257   -2.330859066  -12.577080620  -42.789141210   22.984541380
   -2.736225860   -2.330859066   -6.001005928  -16.008745978   25.403145358
   -2.533542463   -2.330859066   -5.136153226    1.196665707   37.091540551
   -2.330859066   -2.330859066   -4.960633546   -4.945213476   16.962699925
   -2.128175669   -2.330859066   -3.008776244   -9.995281692   25.610654790
   -1.925492272   -2.330859066   -3.408687604   14.232884149   19.207317316
   -1.722808875   -2.330859066   -5.871054478    5.264911861   21.933167141
   -1.520125478   -2.330859066   -7.963611116   23.628211926   21.645754550
   -1.317442081   -2.330859066  -13.834467081   22.268384179  -23.995508999
   -1.114758684   -2.330859066  -15.960110518    7.785542454   -4.933991163
   -0.912075287   -2.330859066  -19.559059786   24.854379297   -2.808983405
   -0.709391890   -2.330859066  -24.057989614   18.767954047  -16.081119789
   -0.506708493   -2.330859066  -27.279637943   10.267273384  -12.062039904
   -0.304025096   -2.330859066  -27.337072155   -6.655715622   -4.532268463
   -0.101341699   -2.330859066  -26.733625597    1.754397117   -3.907306674
    0.101341699   -2.330859066  -25.961797294  -14.862123623  -13.451390147
    0.304025096   -2.330859066  -21.236310893  -26.602365725   -7.868409178
    0.506708493   -2.330859066  -14.191695978  -54.910816361  -23.168181682
    0.709391890   -2.330859066    2.881815073  -95.863278407   36.006251427
    0.912075287   -2.330859066   11.217166851   36.155326810   86.601561521
    1.114758684   -2.330859066   -5.752986580   91.603408451   28.970976936
    1.317442081   -2.330859066  -17.128724096   29.499834038    0.807650585
    1.520125478   -2.330859066  -24.254447308   44.324977263   -0.464375387
    1.722808875   -2.330859066  -32.063598384   27.540020931    7.424602428
    1.925492272   -2.330859066  -36.132864537   14.653475113    1.027392835
    2.128175669   -2.330859066  -37.723554919    1.457911948    5.539516420
    2.330859066   -2.330859066  -37.463492308   -4.389463904    7.657833237
    2.533542463   -2.330859066  -35.175773134  -17.806111371   10.836575907
    2.736225860   -2.330859066  -31.070631278  -22.636033548   17.814715465
    2.938909257   -2.330859066  -25.634140465  -29.314509720    7.769402019

   -3.141592654   -2.128175669  -22.993679502  -32.547037457    4.257143580
   -2.938909257   -2.128175669  -14.578921665  -41.407969055   -4.499677217
   -2.736225860   -2.128175669   -9.261183892  -13.226289538   11.732666513
   -2.533542463   -2.128175669   -6.220528451  -19.672597619  -16.366981214
   -2.330859066   -2.128175669   -3.306408367   -3.455719436  -14.690854809
   -2.128175669   -2.128175669   -4.130885565    5.594395582  -16.799286901
   -1.925492272   -2.128175669   -4.810909820    3.892586710   -7.011422806
   -1.722808875   -2.128175669   -6.199900024    7.133665440  -11.018997656
   -1.520125478   -2.128175669   -6.822458641    1.242757923  -15.437619757
   -1.317442081   -2.128175669   -8.735727149   20.425658920   -7.943580117
   -1.114758684   -2.128175669  -13.843016926   23.852514873  -19.341252897
   -0.912075287   -2.128175669  -17.537076422   15.889697636  -13.525486550
   -0.709391890   -2.128175669  -21.738741424   24.953445587   -2.664969260
   -0.506708493   -2.128175669  -25.728027756   10.055876079   -0.285206023
   -0.304025096   -2.128175669  -26.118776184   -2.180929937   -7.954344937
   -0.101341699   -2.128175669  -25.349334248   -7.863492883  -12.969255748
    0.101341699   -2.128175669  -22.437363578  -18.554197262  -14.714342745
    0.304025096   -2.128175669  -18.291094257  -26.542987326  -20.115176899
    0.506708493   -2.128175669   -9.806871082  -53.595897396  -25.729320844
    0.709391890   -2.128175669   -1.945338797  -11.805324437  -10.815515094
    0.912075287   -2.128175669   -3.776645063   15.672735887   13.949568564
    1.114758684   -2.128175669   -5.757044904   11.223228944  -33.012434164
    1.317442081   -2.128175669  -11.832199208   48.271508299  -47.644391197
    1.520125478   -2.128175669  -22.289321889   48.989692443  -22.776675558
    1.722808875   -2.128175669  -31.248516123   38.471336619  -15.471883700
    1.925492272   -2.128175669  -36.741431214   15.085887519    5.993699512
    2.128175669   -2.128175669  -38.728429984    7.495430397    2.739906217
    2.330859066   -2.128175669  -39.256762406   -4.611144393    8.794491386
    2.533542463   -2.128175669  -37.231276367  -13.525791442    5.692107727
    2.736225860   -2.128175669  -33.368888900  -25.880466684    4.082849141
    2.938909257   -2.128175669  -27.946757174  -23.380573992   10.682296161

   -3.141592654   -1.925492272  -21.889289396  -43.645995142  -10.600304858
   -2.938909257   -1.925492272  -12.206393625  -35.364834783  -13.618972475
   -2.736225860   -1.925492272   -8.088378571  -19.132935560  -26.179683793
   -2.533542463   -1.925492272   -2.955762674  -19.838880501  -14.744917965
   -2.330859066   -1.925492272   -2.186326710    2.639706738   -5.177031279
   -2.128175669   -1.925492272   -1.252014271   -5.382711985    0.202677980
   -1.925492272   -1.925492272   -2.583303259   13.075319647   -7.715212467
   -1.722808875   -1.925492272   -3.315181976   -4.216405375  -16.373043607
   -1.520125478   -1.925492272   -3.612257145    7.939012367  -22.523792724
   -1.317442081   -1.925492272   -4.803580700    3.657769334  -41.537174685
   -1.114758684   -1.925492272   -7.150616604   22.419850659  -41.383363963
   -0.912075287   -1.925492272  -12.888656664   30.690996762  -32.838028623
   -0.709391890   -1.925492272  -18.836502745   25.925620477  -33.805195654
   -0.506708493   -1.925492272  -22.521322865    9.791148095  -37.586556030
   -0.304025096   -1.925492272  -22.865779200   -5.971922335  -27.265415307
   -0.101341699   -1.925492272  -21.240650056   -6.062106429  -24.347313465
    0.101341699   -1.925492272  -19.435164545  -21.059615289  -24.840291240
    0.304025096   -1.925492272  -11.169347634  -52.702629673  -52.884421148
    0.506708493   -1.925492272   -2.103011683  -33.629282727  -41.255259871
    0.709391890   -1.925492272    2.713435830  -12.131737059   -9.169268296
    0.912075287   -1.925492272    2.833325347    4.233107826  -36.357424722
    1.114758684   -1.925492272    2.541806266    6.721070340  -32.537849588
    1.317442081   -1.925492272   -4.047160034   56.631823308  -17.359898748
    1.520125478   -1.925492272  -16.148820911   57.957664108  -27.116047095
    1.722808875   -1.925492272  -28.580653461   61.596564538   -9.086718577
    1.925492272   -1.925492272  -36.773163895   15.543499767  -11.104869890
    2.128175669   -1.925492272  -38.729547922   11.908426871   -2.548819450
    2.330859066   -1.925492272  -39.654486634   -9.088774092   -7.810395453
    2.533542463   -1.925492272  -36.991310287  -10.742586380   -5.865921731
    2.736225860   -1.925492272  -33.568240164  -28.962182290   -3.702828995
    2.938909257   -1.925492272  -27.528648926  -22.798981215  -11.427455058

   -3.141592654   -1.722808875  -19.275335596  -43.833671271  -17.811602415
   -2.938909257   -1.722808875   -9.445136499  -46.076038752  -16.690453544
   -2.736225860   -1.722808875   -2.379504150  -23.583373606  -22.462167216
   -2.533542463   -1.722808875    0.876168123   -9.423427288  -22.478320937
   -2.330859066   -1.722808875    1.034798774    8.083798584  -21.225319371
   -2.128175669   -1.722808875   -0.989555444    6.676405911  -19.750924936
   -1.925492272   -1.722808875   -0.907206553   -5.740765793  -18.547572653
   -1.722808875   -1.722808875    0.718415514  -10.380075822  -25.663095130
   -1.520125478   -1.722808875    3.301400203  -13.922219010  -47.968873726
   -1.317442081   -1.722808875    5.290322606   -1.328104112  -57.369060207
   -1.114758684   -1.722808875    2.217896369   31.052636724  -59.336989383
   -0.912075287   -1.722808875   -4.402166070   26.599841690  -58.227521752
   -0.709391890   -1.722808875   -8.944283926   24.540975020  -60.042623858
   -0.506708493   -1.722808875  -14.046048090   17.525008361  -39.688443371
   -0.304025096   -1.722808875  -14.943882955   -1.966662346  -47.652127165
   -0.101341699   -1.722808875  -14.755316024   -6.566070224  -47.372090875
    0.101341699   -1.722808875   -9.317906974  -44.233582352  -71.852113476
    0.304025096   -1.722808875   -1.073492559  -29.007878905  -32.763699310
    0.506708493   -1.722808875    1.793060157   -0.295492030    5.229333608
    0.709391890   -1.722808875    0.715605945    1.263709287   13.754693264
    0.912075287   -1.722808875    3.733390242  -23.590499327   17.812661313
    1.114758684   -1.722808875    4.082730604   27.499597562   20.809760497
    1.317442081   -1.722808875   -4.261730094   44.359069619   11.413628055
    1.520125478   -1.722808875  -14.103131538   57.555117016    3.589495139
    1.722808875   -1.722808875  -25.903700603   49.319700148  -17.967349884
    1.925492272   -1.722808875  -33.238766658   27.675324932  -16.338956343
    2.128175669   -1.722808875  -37.341521704    8.642299155  -12.181551053
    2.330859066   -1.722808875  -36.881882768   -7.162823240  -14.322701301
    2.533542463   -1.722808875  -35.358366949  -12.253002535  -11.074314301
    2.736225860   -1.722808875  -30.849351801  -28.262764169  -19.689876682
    2.938909257   -1.722808875  -25.763370576  -23.167033228   -7.173176016

   -3.141592654   -1.520125478  -13.782585709  -47.919947940  -37.403061302
   -2.938909257   -1.520125478   -4.036142938  -44.687371190  -38.378623827
   -2.736225860   -1.520125478    2.901944937  -23.422769810  -36.441035684
   -2.533542463   -1.520125478    5.985896805   -6.511391014  -30.244830019
   -2.330859066   -1.520125478    5.686729235    4.164452909  -30.928721672
   -2.128175669   -1.520125478    6.206538153   -5.791794835  -33.410813635
   -1.925492272   -1.520125478    5.439847289   10.199568259  -33.122175935
   -1.722808875   -1.520125478    7.440261475  -37.843650023  -37.373466543
   -1.520125478   -1.520125478   16.717931820  -36.196740681  -71.773267855
   -1.317442081   -1.520125478   19.696174460    2.249918024  -66.098124639
   -1.114758684   -1.520125478   17.151669259   22.025632919  -68.904064921
   -0.912075287   -1.520125478   11.863418945   27.637568994  -85.689732590
   -0.709391890   -1.520125478    5.150146583   40.750247189  -77.436847906
   -0.506708493   -1.520125478   -2.603903219   27.565612256  -82.730404789
   -0.304025096   -1.520125478   -5.344136210    1.865096931  -45.387206644
   -0.101341699   -1.520125478   -2.517967045  -32.567353325  -57.773333548
    0.101341699   -1.520125478    4.372691801  -18.535437930  -48.132148858
    0.304025096   -1.520125478    2.673808437   24.970049728  -13.927396469
    0.506708493   -1.520125478   -1.097941630    9.467424089   17.412015282
    0.709391890   -1.520125478   -2.148589167    2.628180435   26.049915219
    0.912075287   -1.520125478   -2.788144074    6.382180674   48.244657631
    1.114758684   -1.520125478   -4.698033458    9.330055649   52.005601107
    1.317442081   -1.520125478   -7.147789433   22.133664446   18.164329711
    1.520125478   -1.520125478  -14.732764349   46.106711905   -0.189387633
    1.722808875   -1.520125478  -23.235301780   38.403155628   -5.681535124
    1.925492272   -1.520125478  -30.864148126   32.234062748  -11.083206926
    2.128175669   -1.520125478  -34.261783134    3.665484312  -14.903360052
    2.330859066   -1.520125478  -34.667673085    0.593238790   -9.662237886
    2.533542463   -1.520125478  -32.726340273  -20.494222305  -12.270654876
    2.736225860   -1.520125478  -28.165085677  -22.027962916   -6.814226610
    2.938909257   -1.520125478  -22.575870598  -36.373663920  -25.638368830

   -3.141592654   -1.317442081   -3.666437954  -49.294921178  -60.907983201
   -2.938909257   -1.317442081    4.965105523  -40.108748183  -43.482964927
   -2.736225860   -1.317442081   11.147639469  -14.737718896  -37.904892613
   -2.533542463   -1.317442081   12.229670864   -3.889865199  -24.062405192
   -2.330859066   -1.317442081   12.393655816    8.560309273  -20.077505743
   -2.128175669   -1.317442081    9.788519811    7.827592138  -12.682698655
   -1.925492272   -1.317442081    9.981094862   -5.719794289  -19.200380996
   -1.722808875   -1.317442081   13.636962060  -38.231074640  -20.608899089
   -1.520125478   -1.317442081   22.255244611  -25.335834835   24.735509708
   -1.317442081   -1.317442081   21.783650385   11.620162255   37.835723071
   -1.114758684   -1.317442081   22.943026979  -14.570206638    5.480133864
   -0.912075287   -1.317442081   22.699196311   13.853322154  -24.424716178
   -0.709391890   -1.317442081   21.064250229    5.963376941  -73.341865077
   -0.506708493   -1.317442081   15.068049177   55.612138154  -70.109533229
   -0.304025096   -1.317442081    4.409894200   33.096261668  -51.419498005
   -0.101341699   -1.317442081    3.160499008  -15.244607220    0.820994217
    0.101341699   -1.317442081    6.786082858   -7.082660946   25.501741488
    0.304025096   -1.317442081    2.290581530   47.117712877   34.666415037
    0.506708493   -1.317442081   -6.501727961   28.784180459   40.035127586
    0.709391890   -1.317442081   -9.737860958    8.559054806   34.727906479
    0.912075287   -1.317442081  -10.803524259    3.278773691   14.828765540
    1.114758684   -1.317442081  -11.814127410    5.249736689   19.510898568
    1.317442081   -1.317442081  -11.903864233   -0.790093518   26.307012071
    1.520125478   -1.317442081  -14.882800435   32.906109547    3.880244361
    1.722808875   -1.317442081  -22.283347846   32.434581465   -8.278431446
    1.925492272   -1.317442081  -28.205745060   28.126005226  -12.536762954
    2.128175669   -1.317442081  -32.203818617    7.358942623   -6.451206745
    2.330859066   -1.317442081  -32.260695759   -2.696854935  -13.668990720
    2.533542463   -1.317442081  -30.390419789  -19.245679093  -15.077278643
    2.736225860   -1.317442081  -24.860570247  -33.977415931  -31.999479116
    2.938909257   -1.317442081  -15.483497318  -59.422784465  -46.971766764

   -3.141592654   -1.114758684    7.652397561  -27.101056808  -40.831679958
   -2.938909257   -1.114758684   11.779284675  -28.777077674  -25.570241911
   -2.736225860   -1.114758684   17.778712255  -14.530767007  -28.829521454
   -2.533542463   -1.114758684   16.050421277   21.278039490  -23.747136707
   -2.330859066   -1.114758684   13.074421801    4.712510448   -6.095369041
   -2.128175669   -1.114758684   14.209072292  -13.602890399  -23.259881646
   -1.925492272   -1.114758684   16.357625302   -3.180507971  -38.108220765
   -1.722808875   -1.114758684   16.484376168   -3.370082497  -11.518876900
   -1.520125478   -1.114758684   17.752871726   -6.204463070  -11.020094831
   -1.317442081   -1.114758684   19.422803143  -13.419831266  -33.348867951
   -1.114758684   -1.114758684   22.932241287  -19.055303511  -12.012609540
   -0.912075287   -1.114758684   27.461567898  -24.877364953  -19.626888854
   -0.709391890   -1.114758684   29.645213230   12.750740962    1.092676586
   -0.506708493   -1.114758684   22.792294655   46.932647387  -12.777339653
   -0.304025096   -1.114758684   11.589384522   63.951298958   -3.738836980
   -0.101341699   -1.114758684    0.292183405   35.111691995   25.189572228
    0.101341699   -1.114758684   -3.620956605   19.783349722   64.247189073
    0.304025096   -1.114758684  -10.514507474   38.414915536   66.516164382
    0.506708493   -1.114758684  -15.018692329    5.455512165   32.304377260
    0.709391890   -1.114758684  -13.964800641  -14.245159204   14.573495656
    0.912075287   -1.114758684  -11.775552544    3.844959240   13.616902246
    1.114758684   -1.114758684  -15.659509841   19.633549471   16.179104306
    1.317442081   -1.114758684  -15.786508141  -10.707236627    7.927260478
    1.520125478   -1.114758684  -16.011804317   13.481704408    4.841340793
    1.722808875   -1.114758684  -19.305417748   21.191556771  -19.455788270
    1.925492272   -1.114758684  -26.096180917   38.753484548  -10.297994158
    2.128175669   -1.114758684  -30.210214422    0.216000414  -16.009426321
    2.330859066   -1.114758684  -29.367510910   -5.742446555  -14.681162115
    2.533542463   -1.114758684  -25.521132959  -34.788264551  -29.268786337
    2.736225860   -1.114758684  -16.934379892  -49.664893829  -36.824062935
    2.938909257   -1.114758684   -3.696172680  -76.244615593  -60.055267364

   -3.141592654   -0.912075287   12.332411025  -13.974402148  -11.330241808
   -2.938909257   -0.912075287   16.628754840  -32.952173743  -20.636496351
   -2.736225860   -0.912075287   21.652781601   -8.690910243   -5.024384865
   -2.533542463   -0.912075287   21.675883861    4.031461840  -15.065961654
   -2.330859066   -0.912075287   18.622513964   26.885704221  -29.729436772
   -2.128175669   -0.912075287   15.693968208  -10.824004060    5.797125608
   -1.925492272   -0.912075287   19.999909919  -11.132057519    8.549057874
   -1.722808875   -0.912075287   18.975550867    1.964130086  -11.140125603
   -1.520125478   -0.912075287   23.980982472  -38.259180888  -23.379315131
   -1.317442081   -0.912075287   26.443139827   15.610367224  -11.543781305
   -1.114758684   -0.912075287   24.331209973   -5.732650361   -0.192924016
   -0.912075287   -0.912075287   25.298526261    7.082866719   34.830759192
   -0.709391890   -0.912075287   23.857266182   -2.357658547   31.755737253
   -0.506708493   -0.912075287   21.449694291   49.824293967   31.444884716
   -0.304025096   -0.912075287    4.116715153   91.742862307   65.365871189
   -0.101341699   -0.912075287   -7.415736876   29.317775356   45.597481352
    0.101341699   -0.912075287  -13.894996848   35.269827292   32.104431559
    0.304025096   -0.912075287  -17.933684059    3.266319662   13.662811123
    0.506708493   -0.912075287  -18.327883215    2.874034728    8.565646641
    0.709391890   -0.912075287  -16.869634601  -17.502089431    7.795789503
    0.912075287   -0.912075287  -14.767387756    1.764997391   -2.045693872
    1.114758684   -0.912075287  -15.355621593   -0.964261203  -14.517596601
    1.317442081   -0.912075287  -15.829783841    8.117865693   -1.228148637
    1.520125478   -0.912075287  -16.152478609   -8.470221863   -2.869705778
    1.722808875   -0.912075287  -16.620039386   25.413935778    0.339264934
    1.925492272   -0.912075287  -23.978629430   29.407588113   -8.193500553
    2.128175669   -0.912075287  -26.522514938    4.551809375  -14.418432328
    2.330859066   -0.912075287  -26.905159910   -8.854990562   -7.616424611
    2.533542463   -0.912075287  -21.388943683  -40.245066053   -8.081457778
    2.736225860   -0.912075287  -11.244243544  -65.978775788  -22.246609066
    2.938909257   -0.912075287    4.435191883  -71.187397341  -17.269068198

   -3.141592654   -0.709391890   13.101668688  -28.164807378    6.812863585
   -2.938909257   -0.709391890   18.060758333  -20.944165611    8.346276282
   -2.736225860   -0.709391890   20.170781977    2.110097802   14.113738576
   -2.533542463   -0.709391890   18.819798666    5.914442254   28.898898504
   -2.330859066   -0.709391890   17.493716020   10.899586108   31.751515240
   -2.128175669   -0.709391890   15.102501163    6.588669411   -1.919598286
   -1.925492272   -0.709391890   15.797480072  -11.842713043   20.086501457
   -1.722808875   -0.709391890   19.935211671  -29.679970334    1.144739276
   -1.520125478   -0.709391890   25.655319955  -17.753963404   -7.389846224
   -1.317442081   -0.709391890   26.726853280    0.149794618   -3.845936998
   -1.114758684   -0.709391890   26.148093601   12.614598453  -12.620596993
   -0.912075287   -0.709391890   21.384260572   22.825313655    4.352517559
   -0.709391890   -0.709391890   19.143464164   12.956504730   35.076357435
   -0.506708493   -0.709391890    8.790033623   89.250499824   86.841456717
   -0.304025096   -0.709391890   -8.399269619   58.783180739   49.786508625
   -0.101341699   -0.709391890  -14.888347553   18.668917105   26.903370177
    0.101341699   -0.709391890  -18.755657889   17.323358520   22.697305020
    0.304025096   -0.709391890  -21.096234205    6.712610284   18.683026219
    0.506708493   -0.709391890  -21.270480739   -8.422129305   17.740975834
    0.709391890   -0.709391890  -17.066830596  -29.085406806    4.273857555
    0.912075287   -0.709391890  -12.837518969   -4.914810663    4.400904504
    1.114758684   -0.709391890  -14.980401843   17.255761419   11.091115694
    1.317442081   -0.709391890  -16.379147879   -4.293539981    3.203248779
    1.520125478   -0.709391890  -15.879952785    5.953329822    0.824772050
    1.722808875   -0.709391890  -18.904475916   20.428818091    9.205040901
    1.925492272   -0.709391890  -23.172261029   19.781189334   -0.601602144
    2.128175669   -0.709391890  -25.949869981    6.497832830    7.325509975
    2.330859066   -0.709391890  -25.986137697   -7.602962426   -3.873436079
    2.533542463   -0.709391890  -20.739771192  -48.560847468   -3.776223239
    2.736225860   -0.709391890   -7.594008838  -72.009396156   -9.522882798
    2.938909257   -0.709391890    5.309308951  -51.439792426    3.315414207

   -3.141592654   -0.506708493   10.045798951  -21.979580871   16.735063862
   -2.938909257   -0.506708493   14.907891702  -24.257130000   17.894298865
   -2.736225860   -0.506708493   17.753757852   -1.381135717    9.173049783
   -2.533542463   -0.506708493   16.335559035   11.574164311   -0.375624360
   -2.330859066   -0.506708493   14.533042187    2.950104805   -5.374478742
   -2.128175669   -0.506708493   14.925139111   -1.722600116    6.137422117
   -1.925492272   -0.506708493   14.722695888   -4.416416768   -7.392918657
   -1.722808875   -0.506708493   20.043150933  -43.659907091   -2.998286703
   -1.520125478   -0.506708493   25.985055896   -3.753460838   21.862180879
   -1.317442081   -0.506708493   24.073922998    9.747062964   41.718369245
   -1.114758684   -0.506708493   22.108393160   19.395200915   54.688299506
   -0.912075287   -0.506708493   15.145504407   43.143555063   61.016407684
   -0.709391890   -0.506708493    5.433354186   57.552111198   81.971688624
   -0.506708493   -0.506708493   -7.875793287   62.586653708   63.149625321
   -0.304025096   -0.506708493  -16.218392152   21.980751046   29.609292370
   -0.101341699   -0.506708493  -20.002550799   18.801518201   23.949228502
    0.101341699   -0.506708493  -22.800767190    7.039224692   13.229214940
    0.304025096   -0.506708493  -23.676022952    3.001555869    7.838319232
    0.506708493   -0.506708493  -23.199571486   -9.927172268    2.402076898
    0.709391890   -0.506708493  -19.949140567  -19.974839002   14.242635733
    0.912075287   -0.506708493  -15.951226563  -16.325214719    4.160063239
    1.114758684   -0.506708493  -14.691484781    4.024694555  -16.760077735
    1.317442081   -0.506708493  -15.614139047   -0.804655528  -11.249152195
    1.520125478   -0.506708493  -14.449693522   -4.017299473  -21.120635894
    1.722808875   -0.506708493  -16.681041982   27.787051497  -24.181044004
    1.925492272   -0.506708493  -23.761257325   33.477765905    6.495933993
    2.128175669   -0.506708493  -27.632513565    2.942990005    6.050344862
    2.330859066   -0.506708493  -25.802572141  -17.919281673    6.397154648
    2.533542463   -0.506708493  -20.418557703  -38.448203256    7.573927655
    2.736225860   -0.506708493   -9.266119963  -68.637732439   26.357569394
    2.938909257   -0.506708493    3.648360745  -48.779774974   14.167445062

   -3.141592654   -0.304025096    6.479475992  -21.163380269   27.323771390
   -2.938909257   -0.304025096   11.070369839  -28.136057193   21.498701944
   -2.736225860   -0.304025096   15.031096118   -3.535255219   21.629544433
   -2.533542463   -0.304025096   13.836032934    6.239592909   23.923122921
   -2.330859066   -0.304025096   13.522755980    1.364372857   20.102577953
   -2.128175669   -0.304025096   12.585639620    2.797173185   17.213385753
   -1.925492272   -0.304025096   14.656749624  -22.244201106   18.478951416
   -1.722808875   -0.304025096   18.194992001   -3.865883891   28.320337212
   -1.520125478   -0.304025096   16.427514121   12.537563615   52.133791068
   -1.317442081   -0.304025096   15.428989295    0.485991880   21.367413429
   -1.114758684   -0.304025096   13.085178787   27.648569087   20.049596473
   -0.912075287   -0.304025096    4.657367200   51.777098995   36.346354408
   -0.709391890   -0.304025096   -6.567193494   54.886998719   41.370024935
   -0.506708493   -0.304025096  -15.708841385   33.148674168   23.922601352
   -0.304025096   -0.304025096  -20.700823386   18.652945992   16.532680199
   -0.101341699   -0.304025096  -23.400525964    7.935694375   11.087009677
    0.101341699   -0.304025096  -24.664794731    6.281228810    9.264560386
    0.304025096   -0.304025096  -25.515090168   -0.015540468    7.888327057
    0.506708493   -0.304025096  -24.472979497  -10.726742638    9.506995369
    0.709391890   -0.304025096  -20.191215309  -32.390333925   -5.338917525
    0.912075287   -0.304025096  -13.873462402  -19.802479451   -4.256415537
    1.114758684   -0.304025096  -13.043992555    2.834750653    1.708239712
    1.317442081   -0.304025096  -11.176059608  -22.069494555  -38.087474291
    1.520125478   -0.304025096   -8.041851132    4.192336968  -34.495818511
    1.722808875   -0.304025096  -14.652676426   53.740398792    7.246715741
    1.925492272   -0.304025096  -24.702760047   35.667191151   -0.047513008
    2.128175669   -0.304025096  -28.710916062    8.077593422    6.988726451
    2.330859066   -0.304025096  -28.638375507   -9.949864387   16.054796664
    2.533542463   -0.304025096  -24.767057509  -27.352886300   29.179404807
    2.736225860   -0.304025096  -16.327367019  -60.638855726   36.929934788
    2.938909257   -0.304025096   -1.959000366  -66.377200450   46.176721272

   -3.141592654   -0.101341699   -2.452137161  -55.854362533   50.105954704
   -2.938909257   -0.101341699    6.127038439  -27.225193270   25.873622538
   -2.736225860   -0.101341699   10.125942538  -14.554156671   17.967896334
   -2.533542463   -0.101341699   11.791602561   -3.056066819   -7.669963449
   -2.330859066   -0.101341699   12.071625793    3.037265716  -14.871646013
   -2.128175669   -0.101341699    9.368280777   17.944886286    5.054781932
   -1.925492272   -0.101341699    9.253829995  -19.106435204   15.534697998
   -1.722808875   -0.101341699   12.314020368    0.053567946    8.273202893
   -1.520125478   -0.101341699   11.779031166   -8.760463826  -10.363709877
   -1.317442081   -0.101341699   14.646127649    0.346778050    5.394449630
   -1.114758684   -0.101341699    6.936320612   67.681416684   59.532902647
   -0.912075287   -0.101341699   -6.347179099   53.962378619   71.966824138
   -0.709391890   -0.101341699  -15.142752296   35.886473981   34.361519895
   -0.506708493   -0.101341699  -20.865362665   19.916899259   23.993967985
   -0.304025096   -0.101341699  -23.950708458   13.046171334   15.270326000
   -0.101341699   -0.101341699  -26.094876664    5.920318980   13.563854760
    0.101341699   -0.101341699  -26.148309361   -3.179650086    1.293939178
    0.304025096   -0.101341699  -25.608551808   -2.772247831   -4.784253909
    0.506708493   -0.101341699  -24.108306798  -13.421113429  -15.309565401
    0.709391890   -0.101341699  -20.214566511  -24.914849971   -1.184767463
    0.912075287   -0.101341699  -14.063585533  -34.215118668  -20.184318210
    1.114758684   -0.101341699   -6.906583767  -37.418300723  -75.685113413
    1.317442081   -0.101341699    0.666779238  -27.745446912  -71.129756842
    1.520125478   -0.101341699   -1.412927735   53.643167751  -34.088909657
    1.722808875   -0.101341699  -15.622484846   65.269102636   -4.527854163
    1.925492272   -0.101341699  -24.964574612   33.808901752    8.864470330
    2.128175669   -0.101341699  -30.666620113   17.288623591   11.168737344
    2.330859066   -0.101341699  -31.062914837   -7.635249958   11.088467954
    2.533542463   -0.101341699  -29.128441708  -15.705620264   12.058176978
    2.736225860   -0.101341699  -22.918188721  -42.906687804   27.639096354
    2.938909257   -0.101341699  -13.599855259  -49.334988617   53.494602608

   -3.141592654    0.101341699   -8.140147706  -52.401221426    2.688044099
   -2.938909257    0.101341699    2.146342304  -46.579750580    6.902793587
   -2.736225860    0.101341699    9.378851560  -24.563274923   -6.697023326
   -2.533542463    0.101341699   13.505464381  -18.436000997   -5.012498233
   -2.330859066    0.101341699   15.560270315    3.153096038   -9.198433987
   -2.128175669    0.101341699   12.790860464   15.673575261  -33.535265712
   -1.925492272    0.101341699   12.635477696  -17.032580836  -40.812932588
   -1.722808875    0.101341699   17.673681186  -22.498162462  -45.269908983
   -1.520125478    0.101341699   18.223759067   21.074160176  -36.205032216
   -1.317442081    0.101341699    9.307542255   63.609966487   45.491194672
   -1.114758684    0.101341699   -4.720797464   63.431141353   28.503799941
   -0.912075287    0.101341699  -12.885747820   18.750309092  -17.682389258
   -0.709391890    0.101341699  -16.670209547   27.628806758   -5.989239885
   -0.506708493    0.101341699  -22.920812041   24.983012078   -0.580897852
   -0.304025096    0.101341699  -25.909086521    8.822260284    3.597169448
   -0.101341699    0.101341699  -26.962980709   -1.424159825   -2.639334040
    0.101341699    0.101341699  -25.563694980   -7.318618526   -2.575817694
    0.304025096    0.101341699  -24.469729569   -8.293984113   -8.674995336
    0.506708493    0.101341699  -21.136639710  -21.932165313  -10.020813418
    0.709391890    0.101341699  -15.533707185  -40.205448985  -44.272818445
    0.912075287    0.101341699   -3.418639569  -71.431503412  -57.925792085
    1.114758684    0.101341699    8.422809349  -39.738895548  -41.708401569
    1.317442081    0.101341699   12.907176493   -0.904337958  -43.050180533
    1.520125478    0.101341699    4.828040486   84.341726769  -18.670642762
    1.722808875    0.101341699  -15.527902616   92.676986145   12.107146054
    1.925492272    0.101341699  -27.888930327   33.786338574   10.949990799
    2.128175669    0.101341699  -32.737657912   17.392599195    7.656923948
    2.330859066    0.101341699  -34.022303550   -6.515497288   13.319619310
    2.533542463    0.101341699  -31.215838049  -16.983848419   11.206432971
    2.736225860    0.101341699  -27.056209366  -28.361029700   10.996440562
    2.938909257    0.101341699  -18.791773906  -50.703497899    0.859492601

   -3.141592654    0.304025096   -7.113760075  -59.458611792   -2.933960447
   -2.938909257    0.304025096    4.514808329  -51.324157369  -24.760093670
   -2.736225860    0.304025096   12.110101848  -24.231299818  -24.891115368
   -2.533542463    0.304025096   16.067314293  -16.698714248  -22.470083706
   -2.330859066    0.304025096   18.228499456   -5.501559958  -26.720912080
   -2.128175669    0.304025096   19.898872089  -11.078506262  -37.314632883
   -1.925492272    0.304025096   21.272630555   -4.169481565  -43.186952954
   -1.722808875    0.304025096   23.571150103  -11.557538404  -10.795106474
   -1.520125478    0.304025096   17.505355724   82.693043844   49.923877345
   -1.317442081    0.304025096   -1.233982352   66.560732949   46.138929958
   -1.114758684    0.304025096   -6.734469822   10.806316723   14.766292541
   -0.912075287    0.304025096  -12.259512991   39.383732048   35.960312384
   -0.709391890    0.304025096  -19.254524742   28.998617690   22.257081918
   -0.506708493    0.304025096  -24.326958474   17.594115422   14.914191087
   -0.304025096    0.304025096  -26.298831635    7.739712002    1.303088941
   -0.101341699    0.304025096  -27.813780176   -0.456275051   10.252040748
    0.101341699    0.304025096  -24.953949818  -19.850391401   -7.802390068
    0.304025096    0.304025096  -22.144850702  -12.753621619   -9.079852883
    0.506708493    0.304025096  -16.847326083  -40.567321873  -39.887067442
    0.709391890    0.304025096   -6.458733539  -60.863706955  -39.969948363
    0.912075287    0.304025096    5.227081518  -42.810125694  -55.587740119
    1.114758684    0.304025096   10.993060608  -29.551691631  -15.006934941
    1.317442081    0.304025096   18.094755851  -13.454143175   -8.674869100
    1.520125478    0.304025096    5.529826382  129.594402666    2.031039030
    1.722808875    0.304025096  -18.593021000   76.203606408    6.273505811
    1.925492272    0.304025096  -27.093697280   29.586391227  -15.509175658
    2.128175669    0.304025096  -32.921067236   19.536736710   -6.637053021
    2.330859066    0.304025096  -34.044112349   -2.945336010  -11.784089306
    2.533542463    0.304025096  -32.604626996  -14.308789543   -0.803229745
    2.736225860    0.304025096  -27.539130376  -34.823056929   -2.297952779
    2.938909257    0.304025096  -18.677134308  -52.293078393    3.588213963

   -3.141592654    0.506708493   -7.239447571  -64.351741594   -2.014999151
   -2.938909257    0.506708493    8.959193992  -83.583989955  -18.719993288
   -2.736225860    0.506708493   19.239617071  -14.026105725  -33.736286128
   -2.533542463    0.506708493   20.589866017  -13.863885790  -21.363145068
   -2.330859066    0.506708493   25.042742758  -25.122026200  -31.711656476
   -2.128175669    0.506708493   29.807340476  -17.413273384  -56.576521387
   -1.925492272    0.506708493   30.106517570   13.073966239  -34.369837715
   -1.722808875    0.506708493   24.636862922   51.377772607    0.407197843
   -1.520125478    0.506708493    7.191526736  100.707592276   24.902621093
   -1.317442081    0.506708493   -4.836558295   16.609728688   -6.522376272
   -1.114758684    0.506708493   -9.949894162   47.770573024   -2.020639554
   -0.912075287    0.506708493  -17.002958633    5.873455899  -19.343677468
   -0.709391890    0.506708493  -18.715273538   31.080745772  -19.981742737
   -0.506708493    0.506708493  -25.085093506   10.824281761  -11.267642047
   -0.304025096    0.506708493  -25.852142238   14.531733382   -6.265508401
   -0.101341699    0.506708493  -27.605086250  -16.579669294  -15.324313129
    0.101341699    0.506708493  -22.625013779  -10.263231125  -10.075370544
    0.304025096    0.506708493  -20.097962562  -41.598866624  -23.466286310
    0.506708493    0.506708493   -7.567770525  -54.719192878  -42.345058209
    0.709391890    0.506708493    4.486828966  -97.220340347  -82.938986359
    0.912075287    0.506708493   26.839483229  -60.235910948 -130.884018218
    1.114758684    0.506708493   19.921746872   73.958935171  -59.121841431
    1.317442081    0.506708493   16.714575965  -19.685982504   16.257257316
    1.520125478    0.506708493    6.386441985  129.091719553   -3.611648845
    1.722808875    0.506708493  -16.980133277   64.135900213  -15.508120059
    1.925492272    0.506708493  -24.302133556   34.425028822   -8.651778552
    2.128175669    0.506708493  -30.966591532   18.661017547   -9.373194611
    2.330859066    0.506708493  -32.159578388    1.129226623   -2.958526614
    2.533542463    0.506708493  -31.518526105  -11.355156256   -6.242884221
    2.736225860    0.506708493  -27.255881146  -31.296025358   -1.784453239
    2.938909257    0.506708493  -18.488453014  -51.936279593   -8.867897650

   -3.141592654    0.709391890   -3.919478840  -94.994611215  -32.481683885
   -2.938909257    0.709391890   15.117501840  -68.829801954  -45.114471279
   -2.736225860    0.709391890   22.875759491  -21.223743938  -10.747687913
   -2.533542463    0.709391890   26.292614255  -11.931772067  -30.965631981
   -2.330859066    0.709391890   30.256692074  -35.389809804  -20.105947347
   -2.128175669    0.709391890   37.174778857  -11.956233286   -5.309641504
   -1.925492272    0.709391890   32.442909903   46.765291967    1.729185714
   -1.722808875    0.709391890   21.379527988   67.159467861   28.328407592
   -1.520125478    0.709391890    5.144127974   78.600342317   17.680145011
   -1.317442081    0.709391890   -4.823848764   20.939360845   10.982345927
   -1.114758684    0.709391890   -8.022299489   19.155640430    5.997692524
   -0.912075287    0.709391890  -12.903382945   27.899055185   12.056013110
   -0.709391890    0.709391890  -19.046053242   29.515487094   17.910813364
   -0.506708493    0.709391890  -23.242715157   11.199965834   -1.087656718
   -0.304025096    0.709391890  -24.587749461    4.132131698   -4.692327759
   -0.101341699    0.709391890  -24.680152189   -5.947182015   -7.997352503
    0.101341699    0.709391890  -20.609420659  -36.780200728  -17.348328908
    0.304025096    0.709391890  -10.872304906  -54.306582605  -53.992771756
    0.506708493    0.709391890    2.762613970  -91.766288947  -71.098471381
    0.709391890    0.709391890   26.804756620 -125.354021150 -114.128587321
    0.912075287    0.709391890   41.409903747    0.836247107   -3.202117672
    1.114758684    0.709391890   29.444140490   89.346890433  -33.233976221
    1.317442081    0.709391890   14.884293038   49.372119693    0.421893583
    1.520125478    0.709391890    3.614270706   78.373484340   28.486086347
    1.722808875    0.709391890  -14.492820455   76.318605164   -7.545595923
    1.925492272    0.709391890  -23.166205084   23.006221858   -4.682291460
    2.128175669    0.709391890  -29.245474722   31.537214571   -9.432627286
    2.330859066    0.709391890  -31.292014136   -8.860129393  -10.171482589
    2.533542463    0.709391890  -30.195572905   -2.033777105   -8.451007223
    2.736225860    0.709391890  -25.870552981  -43.335497555  -11.436708383
    2.938909257    0.709391890  -16.900751310  -41.447874635   -1.978453153

   -3.141592654    0.912075287    3.644396426 -123.824635647  -31.340870247
   -2.938909257    0.912075287   22.878080127  -51.665179946  -16.674031549
   -2.736225860    0.912075287   27.244121162   -6.515780294  -25.086991121
   -2.533542463    0.912075287   29.320871927  -16.214894606   -0.457905488
   -2.330859066    0.912075287   32.462753557   -9.842628956   -4.376537402
   -2.128175669    0.912075287   34.004832097  -11.039764143   21.459895202
   -1.925492272    0.912075287   34.095732124   31.082234420  -11.421407329
   -1.722808875    0.912075287   18.176790708  106.334675086   -4.374881391
   -1.520125478    0.912075287    1.912131744   45.198674858   -9.812733175
   -1.317442081    0.912075287   -4.655556558   31.574990771  -16.595369310
   -1.114758684    0.912075287  -10.884141985   25.749433516   -4.765037610
   -0.912075287    0.912075287  -14.830880427   13.408023206  -27.442943058
   -0.709391890    0.912075287  -17.045745383   14.464265048  -35.410799887
   -0.506708493    0.912075287  -21.665751288   23.337019782  -20.536218755
   -0.304025096    0.912075287  -23.329320925   -3.933994957  -10.212048518
   -0.101341699    0.912075287  -22.111892573  -14.210322133  -24.279297362
    0.101341699    0.912075287  -14.237944717  -57.278302964  -40.970559657
    0.304025096    0.912075287   -3.132676389  -60.522630728  -28.789102784
    0.506708493    0.912075287   17.759656220 -140.333531933  -53.733657783
    0.709391890    0.912075287   38.735391421  -36.686971497    9.400080595
    0.912075287    0.912075287   37.991579833   14.020829875   15.447444233
    1.114758684    0.912075287   32.479750272   62.646471855   10.832187159
    1.317442081    0.912075287   13.658205606   95.403522356   16.598924977
    1.520125478    0.912075287   -1.169157279   62.591060717   12.568918583
    1.722808875    0.912075287  -14.396090356   58.197607234    7.284602685
    1.925492272    0.912075287  -22.242452846   26.526124110   -3.264122715
    2.128175669    0.912075287  -27.395949963   19.507461048   -5.558759912
    2.330859066    0.912075287  -28.917604156    0.754511106   -8.082935178
    2.533542463    0.912075287  -28.467650548  -11.544079342   -6.412585236
    2.736225860    0.912075287  -23.646104218  -28.496664830   -9.178308065
    2.938909257    0.912075287  -16.476530590  -58.687523011   -8.178144630

   -3.141592654    1.114758684    6.509323606 -102.520742083   -0.850870382
   -2.938909257    1.114758684   21.975892870  -50.679555439   10.911155123
   -2.736225860    1.114758684   28.319004526  -14.653157869    9.497666074
   -2.533542463    1.114758684   31.416825763  -24.405686656  -22.906257451
   -2.330859066    1.114758684   35.385629587    0.273364052  -26.737857302
   -2.128175669    1.114758684   32.321523049   12.381988855   -4.083760416
   -1.925492272    1.114758684   31.141653179   18.048166552   36.807137450
   -1.722808875    1.114758684   21.051246452   69.801952871  -14.747366863
   -1.520125478    1.114758684    7.846357405   61.168463818  -19.188550004
   -1.317442081    1.114758684   -3.637584328   40.453556464   12.917752794
   -1.114758684    1.114758684   -6.104329383   -2.902446732  -12.670322183
   -0.912075287    1.114758684   -9.061396640   32.333710707   10.572344605
   -0.709391890    1.114758684  -14.789672545   19.097403339   15.202738668
   -0.506708493    1.114758684  -18.285684809   16.820426997   -4.973462963
   -0.304025096    1.114758684  -19.826034075   -5.531254266  -26.291888296
   -0.101341699    1.114758684  -15.458578827  -38.372802470  -37.912288958
    0.101341699    1.114758684   -5.705568867  -50.402108462  -42.897564621
    0.304025096    1.114758684    5.444243396  -70.801783730  -50.580825181
    0.506708493    1.114758684   22.734756971  -78.865800425  -13.729971454
    0.709391890    1.114758684   31.275470057  -14.841259506   27.676870100
    0.912075287    1.114758684   34.123335263   -4.514908895   30.967614416
    1.114758684    1.114758684   25.811605055   82.680596693   39.392550710
    1.317442081    1.114758684   10.628269677   54.475615874    4.013077319
    1.520125478    1.114758684   -1.699227528   78.786043641   -5.574362121
    1.722808875    1.114758684  -16.003499667   45.202276435    2.025004353
    1.925492272    1.114758684  -22.139658018   29.571367061    0.540285113
    2.128175669    1.114758684  -27.304002365   11.940418811    1.260400467
    2.330859066    1.114758684  -28.096536365    3.806566280   -3.962305144
    2.533542463    1.114758684  -27.273014064  -19.867989503   -7.612916588
    2.736225860    1.114758684  -21.936397111  -24.709145777   -8.168724336
    2.938909257    1.114758684  -13.665430048  -73.773276636  -14.256489301

   -3.141592654    1.317442081    6.584411544  -99.084041504   -1.815192469
   -2.938909257    1.317442081   22.754437149  -55.855896756  -15.985150598
   -2.736225860    1.317442081   29.406880773  -14.917036029  -20.220771760
   -2.533542463    1.317442081   33.486369949  -34.334032013    9.633801856
   -2.330859066    1.317442081   39.377220871   -2.255629078   -2.698798098
   -2.128175669    1.317442081   32.951327408   45.215439526    4.226710087
   -1.925492272    1.317442081   28.138436342    6.442689243  -17.736756591
   -1.722808875    1.317442081   22.878959884   58.721568653   -4.145720896
   -1.520125478    1.317442081    6.905830578   78.644294296    3.884830857
   -1.317442081    1.317442081   -3.055031751   21.300544267  -33.373879349
   -1.114758684    1.317442081   -7.159555585   28.285991721  -11.489642694
   -0.912075287    1.317442081  -11.611502346    4.671101426  -37.646970828
   -0.709391890    1.317442081  -11.505337459    9.978903453  -58.419635409
   -0.506708493    1.317442081  -15.138873319    8.076718927  -42.384804630
   -0.304025096    1.317442081  -12.028717678  -27.987004977  -48.520109329
   -0.101341699    1.317442081   -6.505855740  -32.356593370  -48.241343236
    0.101341699    1.317442081    1.753573188  -40.536835856  -22.555594341
    0.304025096    1.317442081   10.351735648  -60.728048244    7.762445464
    0.506708493    1.317442081   27.032837869  -76.002163831  -15.297332037
    0.709391890    1.317442081   31.342876153   24.721454803   -4.001504764
    0.912075287    1.317442081   26.981023089   11.882997536   31.342948933
    1.114758684    1.317442081   21.176845558   49.891879272    9.023954134
    1.317442081    1.317442081   11.639054080   39.536027150   -5.342995080
    1.520125478    1.317442081    0.195385564   79.362760032   -8.247572328
    1.722808875    1.317442081  -14.270662221   47.363129776  -14.881227028
    1.925492272    1.317442081  -21.265960212   34.266231077   -8.615249536
    2.128175669    1.317442081  -26.776051077    9.967149306   -5.403321812
    2.330859066    1.317442081  -26.718850489   -0.386142605   -7.396283679
    2.533542463    1.317442081  -25.782656762  -17.810351243   -4.779805066
    2.736225860    1.317442081  -20.183570156  -29.834406472  -10.343175639
    2.938909257    1.317442081  -11.789760608  -66.240698484   -6.858616822

   -3.141592654    1.520125478    6.815445238  -91.800995787   -1.261515776
   -2.938909257    1.520125478   24.285333415  -67.370997049    8.084485895
   -2.736225860    1.520125478   30.112534362    3.867655294   18.728610770
   -2.533542463    1.520125478   31.396818960  -30.578360616    4.298947805
   -2.330859066    1.520125478   36.391186266    6.597818836   30.516188823
   -2.128175669    1.520125478   30.586417248   21.301300116   15.141168661
   -1.925492272    1.520125478   31.159999885   -2.776655542    9.354173952
   -1.722808875    1.520125478   23.552128221   69.922633605   -6.586725967
   -1.520125478    1.520125478   11.239611529   41.675428947  -31.229938050
   -1.317442081    1.520125478    5.285466686   19.741651961  -32.927028769
   -1.114758684    1.520125478    3.780966824   -1.248564716  -63.055278578
   -0.912075287    1.520125478    2.238820933   20.355136038  -41.949892785
   -0.709391890    1.520125478   -2.079969718   14.142835490  -21.298440961
   -0.506708493    1.520125478   -3.086048248   -0.077682634  -58.399344497
   -0.304025096    1.520125478   -2.544358006   -8.893909921  -40.464290069
   -0.101341699    1.520125478    1.303876527  -23.244561380  -28.391312004
    0.101341699    1.520125478    3.295535617    2.032357580   -4.835998500
    0.304025096    1.520125478    7.929955419  -64.942888016    2.067330491
    0.506708493    1.520125478   23.930005205  -55.534554533   39.181309913
    0.709391890    1.520125478   24.503817831   27.678116128   64.214224947
    0.912075287    1.520125478   22.237493364   -2.463153450   17.532959561
    1.114758684    1.520125478   19.013383844   36.832604997   14.500632091
    1.317442081    1.520125478   11.554344553   34.869673160    1.145086460
    1.520125478    1.520125478    0.890539719   72.346600574   -3.698480306
    1.722808875    1.520125478  -12.503112163   49.469742315    0.295373851
    1.925492272    1.520125478  -20.885793132   38.673705117    7.727380166
    2.128175669    1.520125478  -25.945564380    5.821359351   -3.467238583
    2.330859066    1.520125478  -25.809271749    0.674866399   -2.380746639
    2.533542463    1.520125478  -24.479350721  -22.105459026  -12.129494641
    2.736225860    1.520125478  -17.804969373  -36.228371316  -10.103112127
    2.938909257    1.520125478   -9.046963070  -58.737331922  -21.294759529

   -3.141592654    1.722808875    7.652611689  -71.618009028   -5.930001665
   -2.938909257    1.722808875   21.619735095  -55.468587679    3.408802809
   -2.736225860    1.722808875   27.983855893  -11.070402657  -10.661783347
   -2.533542463    1.722808875   28.210752842    5.901716106   29.233240979
   -2.330859066    1.722808875   26.977798089    2.908633469   52.610044166
   -2.128175669    1.722808875   26.398690095    6.164182451   31.909955499
   -1.925492272    1.722808875   25.921558498   -6.933674582   25.098809820
   -1.722808875    1.722808875   25.757581818   26.421103836   -6.820109836
   -1.520125478    1.722808875   15.684707821   48.255067495  -24.099107543
   -1.317442081    1.722808875   12.341102228   -2.778564023  -44.770782673
   -1.114758684    1.722808875    9.759441343   25.249040563  -26.749335068
   -0.912075287    1.722808875    8.578937303  -17.462315274  -94.619929948
   -0.709391890    1.722808875   11.096557502    5.679004667 -135.315208893
   -0.506708493    1.722808875    7.161887982   23.961133984  -51.709830743
   -0.304025096    1.722808875    4.474325033   -4.853441552  -29.820007827
   -0.101341699    1.722808875    8.785340650  -21.151366768  -48.276615965
    0.101341699    1.722808875    7.247680685   26.071408247  -27.441333969
    0.304025096    1.722808875    8.715337350  -48.411064417   -1.958498143
    0.506708493    1.722808875   16.628513855   -3.036862196   29.544277826
    0.709391890    1.722808875   14.132477408   -2.324418573   27.515155664
    0.912075287    1.722808875   18.740603359  -18.868257762   19.052363264
    1.114758684    1.722808875   16.969643756   24.231328898    0.937870682
    1.317442081    1.722808875   13.026619787   22.447721858  -14.757934594
    1.520125478    1.722808875    2.963763104   76.389744937  -11.188711455
    1.722808875    1.722808875  -12.632747231   63.831104377   -7.372118850
    1.925492272    1.722808875  -21.195002884   24.366339007  -15.138999755
    2.128175669    1.722808875  -24.603111691   11.502192259   -8.972115099
    2.330859066    1.722808875  -25.054878402   -8.944993876   -5.850496057
    2.533542463    1.722808875  -22.059014801  -17.395117422   -3.656505033
    2.736225860    1.722808875  -16.732375116  -41.175108454   -3.862777240
    2.938909257    1.722808875   -5.674878798  -61.887537890   -4.355063408

   -3.141592654    1.925492272    9.705910437  -89.633343952  -21.556894708
   -2.938909257    1.925492272   26.599362277  -65.116450925  -47.230879395
   -2.736225860    1.925492272   33.042290338    3.088648150  -38.576503160
   -2.533542463    1.925492272   28.487317332   28.886175694  -51.388208274
   -2.330859066    1.925492272   23.374740037   24.742517283  -26.887853852
   -2.128175669    1.925492272   19.629757562    1.415867905   14.177979530
   -1.925492272    1.925492272   22.980093931  -18.928477015    7.390183583
   -1.722808875    1.925492272   23.223323356    8.653223522   25.894060580
   -1.520125478    1.925492272   22.737773001    3.771163546  -29.578059169
   -1.317442081    1.925492272   19.248121271   13.144104488  -15.095595853
   -1.114758684    1.925492272   27.681788708  -94.831644641 -124.288112924
   -0.912075287    1.925492272   42.989863745  -19.190326061 -146.777261079
   -0.709391890    1.925492272   34.651233889   80.673582310  -28.490579779
   -0.506708493    1.925492272   16.665091476   83.672284450  -28.819653524
   -0.304025096    1.925492272    8.538261015  -14.657554654   -8.509793020
   -0.101341699    1.925492272   14.775878843  -10.902581186    3.772894220
    0.101341699    1.925492272    9.498029393   37.506337136    7.094189730
    0.304025096    1.925492272    8.367769362  -21.423939207    4.453841499
    0.506708493    1.925492272   10.859678758    4.241904884   24.603263046
    0.709391890    1.925492272   10.725930889  -15.051069420   12.933509562
    0.912075287    1.925492272   16.102856874  -26.163039663   -0.933614102
    1.114758684    1.925492272   18.617421340    0.277514662  -11.519319291
    1.317442081    1.925492272   15.849945545   33.244827992  -10.177080228
    1.520125478    1.925492272    3.907976346   75.584856090   -6.408182674
    1.722808875    1.925492272   -8.761733365   43.252718361  -23.182983578
    1.925492272    1.925492272  -16.673689629   42.350650272  -13.176535983
    2.128175669    1.925492272  -23.432751516   13.966647075   -2.613796256
    2.330859066    1.925492272  -23.573954357   -1.375510308   -8.386999666
    2.533542463    1.925492272  -22.643131241  -19.461562874   -2.853312339
    2.736225860    1.925492272  -14.621505587  -49.229282138  -16.105935048
    2.938909257    1.925492272   -5.035853808  -52.508241779  -19.809469392

   -3.141592654    2.128175669   18.041466953  -64.335711649  -53.189627930
   -2.938909257    2.128175669   35.091580656  -94.214460468  -26.872391898
   -2.736225860    2.128175669   47.142743453   -9.127949333  -90.904363066
   -2.533542463    2.128175669   40.767356636   54.771651237  -29.164844339
   -2.330859066    2.128175669   30.538405706   38.618540528  -17.603855647
   -2.128175669    2.128175669   26.170391793    8.227788786  -64.759507174
   -1.925492272    2.128175669   23.739991663   20.460082757  -16.379937537
   -1.722808875    2.128175669   21.171871442   -7.299103755  -10.946176539
   -1.520125478    2.128175669   24.672110524   -7.963985440   -3.229482303
   -1.317442081    2.128175669   23.939798968  -11.769163691  -39.543194931
   -1.114758684    2.128175669   36.391061774  -86.819267293   55.416206290
   -0.912075287    2.128175669   40.913894779   59.092489876  118.833344297
   -0.709391890    2.128175669   25.651774870   50.062427421   47.852860524
   -0.506708493    2.128175669   19.670289466   37.975493189  -17.742971552
   -0.304025096    2.128175669   10.165152112   27.118117143  -16.422049120
   -0.101341699    2.128175669   11.473691788  -12.136679532    6.800518922
    0.101341699    2.128175669    7.431114901   36.424340777   10.689051267
    0.304025096    2.128175669    5.772846434  -17.849906894   21.666263032
    0.506708493    2.128175669    7.512977120    4.116864927   16.469904812
    0.709391890    2.128175669   10.246663349  -39.668807595  -11.998656726
    0.912075287    2.128175669   18.249546769  -21.984402938   -7.512582259
    1.114758684    2.128175669   19.193721601    2.681586306    4.579120437
    1.317442081    2.128175669   17.590368504   20.701482603   -9.899851885
    1.520125478    2.128175669    8.991228999   62.535978465  -36.390875503
    1.722808875    2.128175669   -5.576269087   72.710746924  -13.741553360
    1.925492272    2.128175669  -17.049547490   37.181914041    1.320969034
    2.128175669    2.128175669  -21.767008231   12.022049365  -17.480581920
    2.330859066    2.128175669  -21.437791296  -14.661846886  -13.634363813
    2.533542463    2.128175669  -18.069111832  -16.412770705  -34.461206562
    2.736225860    2.128175669  -11.125259402  -62.717731372  -21.680128632
    2.938909257    2.128175669    4.959236984  -77.739766792  -63.098841277

   -3.141592654    2.330859066   27.213529481  -35.275513149  -38.857340628
   -2.938909257    2.330859066   38.000665908  -91.432707489   -5.374085848
   -2.736225860    2.330859066   53.917696320  -10.108495421   51.709214741
   -2.533542463    2.330859066   37.963751249  111.819771220   26.954329604
   -2.330859066    2.330859066   30.259371143  -31.851029291    1.915531191
   -2.128175669    2.330859066   33.629824542   23.614626447    5.856162300
   -1.925492272    2.330859066   26.672419652   24.154974337   -9.008872722
   -1.722808875    2.330859066   23.978037393    5.851621475  -10.219137003
   -1.520125478    2.330859066   26.028177830  -21.652336553    6.094266743
   -1.317442081    2.330859066   26.440348987   20.099651940   31.792706102
   -1.114758684    2.330859066   25.517317964  -22.711350377   -2.762550078
   -0.912075287    2.330859066   29.165455084    4.798081834  -21.488147397
   -0.709391890    2.330859066   27.004789744    1.781682797  -28.869668063
   -0.506708493    2.330859066   24.454655496   40.247423292  -10.181848122
   -0.304025096    2.330859066   15.098502158   28.092949975  -21.105767035
   -0.101341699    2.330859066   11.456564880   31.462194147   15.492483263
    0.101341699    2.330859066    2.661060813   30.867603314   38.408921361
    0.304025096    2.330859066    1.350548476   -0.344662448   20.618585977
    0.506708493    2.330859066    1.832709717  -25.236657646   29.064479412
    0.709391890    2.330859066   13.227505965  -59.965295466   -7.447957539
    0.912075287    2.330859066   18.128112465   -0.456744772   -4.287750565
    1.114758684    2.330859066   20.538273007  -18.440034465  -24.351517188
    1.317442081    2.330859066   19.496485409   28.850669958   -3.944312809
    1.520125478    2.330859066   12.897825377   37.531344041   -3.475155304
    1.722808875    2.330859066    0.339706817   83.263039320  -41.220248394
    1.925492272    2.330859066  -13.309235357   38.177626878  -27.720890210
    2.128175669    2.330859066  -17.361413742   12.549659598  -20.317706189
    2.330859066    2.330859066  -18.197180038  -10.579792458  -16.283942177
    2.533542463    2.330859066  -13.156907490  -34.569593825  -13.776984728
    2.736225860    2.330859066   -3.652667089  -66.630809562  -48.821887473
    2.938909257    2.330859066   14.062568511  -93.907897652  -32.133421925

   -3.141592654    2.533542463   37.464675905  -12.618168782  -60.277083338
   -2.938909257    2.533542463   36.493194772   -0.659731483   19.820980368
   -2.736225860    2.533542463   38.671085399   -7.764627066   41.621560964
   -2.533542463    2.533542463   36.893183966   21.509191041   -6.356381858
   -2.330859066    2.533542463   32.455405767   17.081809968  -16.189357358
   -2.128175669    2.533542463   31.545175485   -7.558818213  -13.742501612
   -1.925492272    2.533542463   32.417891767    7.977533642  -57.739325352
   -1.722808875    2.533542463   27.808495654   32.881200950  -30.556358763
   -1.520125478    2.533542463   21.118143155   24.889992003   17.331468451
   -1.317442081    2.533542463   22.772730399  -46.543622960  -31.565565303
   -1.114758684    2.533542463   33.475233089  -32.053403091  -27.588238169
   -0.912075287    2.533542463   32.475946966   27.979645655   14.944658530
   -0.709391890    2.533542463   26.807730603   29.111018649   19.936284463
   -0.506708493    2.533542463   20.181786521   30.490312020   37.828521856
   -0.304025096    2.533542463   14.362849340   39.097469608   30.766923613
   -0.101341699    2.533542463    2.462658164   62.855492075   55.828102593
    0.101341699    2.533542463   -4.125619549    3.444607223   18.383699219
    0.304025096    2.533542463   -3.996174332   -2.599125027   30.527711921
    0.506708493    2.533542463    1.094860808  -50.807509397  -16.167173858
    0.709391890    2.533542463   11.914296205  -46.957387869   16.032649773
    0.912075287    2.533542463   22.038239836  -54.963846241  -22.271001533
    1.114758684    2.533542463   27.555881541   18.172728323  -42.035864137
    1.317442081    2.533542463   19.180251231   33.642623611   -2.444500796
    1.520125478    2.533542463   17.005051702   13.495096706  -41.052931319
    1.722808875    2.533542463    4.532587457  101.227354491   10.961863328
    1.925492272    2.533542463  -11.796973175   38.530765683   13.035133088
    2.128175669    2.533542463  -14.229288332    6.013699316  -12.442548341
    2.330859066    2.533542463  -15.606524359   -5.646309784   -8.768091458
    2.533542463    2.533542463   -9.243522781  -50.552116515  -26.759613353
    2.736225860    2.533542463    3.288126947  -80.360149891   -9.410374130
    2.938909257    2.533542463   24.278736432 -109.315724646  -65.966260711

   -3.141592654    2.736225860   43.968501937   36.328845616   11.649832148
   -2.938909257    2.736225860   34.554990194    5.584239567  -12.651880539
   -2.736225860    2.736225860   40.093510017  -19.689685776  -17.200011537
   -2.533542463    2.736225860   37.108007715   26.713885114   -4.294631138
   -2.330859066    2.736225860   35.904636541   -8.653885308  -21.344614572
   -2.128175669    2.736225860   38.217608095  -20.204290343  -23.034751405
   -1.925492272    2.736225860   42.409361656    3.682577235   -9.654879278
   -1.722808875    2.736225860   31.283439495   83.844788969    6.089295307
   -1.520125478    2.736225860   23.000654646  -15.652711273   -9.492192108
   -1.317442081    2.736225860   29.884128114  -25.971558783   11.086603606
   -1.114758684    2.736225860   30.916728287    7.703926022   27.688839528
   -0.912075287    2.736225860   28.967553316   12.498433434   10.278813246
   -0.709391890    2.736225860   24.170145394   38.097226771   13.490826780
   -0.506708493    2.736225860   14.695503503   48.398661812   20.807080135
   -0.304025096    2.736225860    4.902965238   53.328104249   54.541863309
   -0.101341699    2.736225860   -5.246426245   31.331131472   23.527460261
    0.101341699    2.736225860   -6.268246142   -4.300999290   13.758573322
    0.304025096    2.736225860   -7.453980014   -0.768998692    0.815181361
    0.506708493    2.736225860    0.806780212  -66.922586758   24.606693667
    0.709391890    2.736225860    9.822612942  -29.377678367   -1.441814041
    0.912075287    2.736225860   25.638659484 -127.656810519  -29.299493324
    1.114758684    2.736225860   39.885243057   35.421414416  -75.873758527
    1.317442081    2.736225860   23.184996442   58.167085046  -26.851645515
    1.520125478    2.736225860   20.164533625   29.560363196   33.846611550
    1.722808875    2.736225860   -0.857573540  137.277406093   28.116088053
    1.925492272    2.736225860  -14.274277988   -8.233616189    6.388100181
    2.128175669    2.736225860  -12.778477470   18.141641203    3.471023311
    2.330859066    2.736225860  -14.738829609  -23.971133629    1.325576224
    2.533542463    2.736225860   -6.271397892  -34.948142971    7.385223055
    2.736225860    2.736225860    1.876792143  -81.423329314   13.244232683
    2.938909257    2.736225860   30.598840131 -158.304303004   21.761489889

   -3.141592654    2.938909257   36.839833490  -41.135772483   35.182714161
   -2.938909257    2.938909257   39.102574285    4.699346445  -13.340169365
   -2.736225860    2.938909257   39.348258619   -9.037386769    3.406027573
   -2.533542463    2.938909257   40.855937355    0.001522742  -20.001500329
   -2.330859066    2.938909257   38.257420077   23.938704264   13.467019477
   -2.128175669    2.938909257   34.503796297    1.714348179   46.975216583
   -1.925492272    2.938909257   37.170172273   -9.292740838   28.238879124
   -1.722808875    2.938909257   31.061817897   66.832526196  -23.250280838
   -1.520125478    2.938909257   19.814214332   19.031216376    6.337930661
   -1.317442081    2.938909257   24.197060226  -43.285425708  -17.350545802
   -1.114758684    2.938909257   28.934962557    7.065116501    3.627027427
   -0.912075287    2.938909257   23.584729577   30.435216966   43.474850487
   -0.709391890    2.938909257   18.883205088   27.045795190   31.561631982
   -0.506708493    2.938909257    7.781312954   78.412390319   47.359098197
   -0.304025096    2.938909257   -5.767687643   42.346310788   49.168894560
   -0.101341699    2.938909257  -10.457420260   11.429420526   28.168186338
    0.101341699    2.938909257  -10.795275158   -8.163710468   25.874731596
    0.304025096    2.938909257   -8.616796304  -13.280140398   20.619858463
    0.506708493    2.938909257   -2.551091018  -51.372014716   -4.408550817
    0.709391890    2.938909257   11.453513432  -88.499760856   -4.947669886
    0.912075287    2.938909257   34.824427660 -126.457431536  -29.752349060
    1.114758684    2.938909257   45.513795530   55.406291425   54.079479834
    1.317442081    2.938909257   21.467879744  120.625972322   52.817313984
    1.520125478    2.938909257    7.266954113   45.162503262   63.133616215
    1.722808875    2.938909257   -6.708907817   81.434794832   36.472647889
    1.925492272    2.938909257  -15.983560823    7.551645445   11.781401261
    2.128175669    2.938909257  -16.669682030    8.454430982   30.381486929
    2.330859066    2.938909257  -16.266251059  -18.786773352   11.626238440
    2.533542463    2.938909257  -11.335526570  -26.046334703   33.231734869
    2.736225860    2.938909257   -1.648057966  -82.228095376   25.949063841
    2.938909257    2.938909257   20.275266541 -114.001965557   58.703910959
