#! FIELDS phi psi b1.bias der_phi der_psi
#! SET min_phi -pi
#! SET max_phi pi
#! SET nbins_phi  31
#! SET periodic_phi true
#! SET min_psi -pi
#! SET max_psi pi
#! SET nbins_psi  31
#! SET periodic_psi true
   -3.141592654   -3.141592654   20.613175382  -72.712087779   37.476944049
   -2.938909257   -3.141592654   26.971885465   -5.716118703   20.005548319
   -2.736225860   -3.141592654   30.232929794  -22.380997472   30.296248392
   -2.533542463   -3.141592654   30.790924962   16.177434643   37.041475741
   -2.330859066   -3.141592654   28.005963616    7.489082620   39.808341860
   -2.128175669   -3.141592654   27.239802073   -5.033476339   29.593493917
   -1.925492272   -3.141592654   31.226461521  -22.055555680   24.700316763
   -1.722808875   -3.141592654   30.954034599   16.935086592   31.199779702
   -1.520125478   -3.141592654   32.136728326  -30.209224689    0.975741334
   -1.317442081   -3.141592654   33.976000030   30.606704039   17.650397289
   -1.114758684   -3.141592654   24.330300268   40.380469472   55.231048921
   -0.912075287   -3.141592654   19.305015778   23.227879447   43.057703840
   -0.709391890   -3.141592654   11.188267442   55.740856642   65.181468888
   -0.506708493   -3.141592654   -2.007006688   71.601340525   73.217566500
   -0.304025096   -3.141592654  -15.233535018   50.399339351   68.018379372
   -0.101341699   -3.141592654  -21.355085542   14.225920512   42.742505719
    0.101341699   -3.141592654  -22.368706578   -6.850098250   36.462845257
    0.304025096   -3.141592654  -15.914239949  -59.756560691   28.658337202
    0.506708493   -3.141592654   -1.805992264  -63.699721534   25.275195649
    0.709391890   -3.141592654    8.558715180  -50.964120521   17.677655245
    0.912075287   -3.141592654   20.599385882  -49.342678631   63.432694578
    1.114758684   -3.141592654   20.082283199   50.854578930   81.169821405
    1.317442081   -3.141592654    9.867081116   35.231348203   28.772570037
    1.520125478   -3.141592654    1.423794201   61.012397728   24.641506180
    1.722808875   -3.141592654  -11.371469324   50.937325690   36.947603621
    1.925492272   -3.141592654  -20.821261445   52.306594162   39.043414347
    2.128175669   -3.141592654  -29.130243950   12.777602161   36.427537250
    2.330859066   -3.141592654  -26.919077553  -19.403559189   41.283346013
    2.533542463   -3.141592654  -21.239184152  -48.905795189   54.787224217
    2.736225860   -3.141592654   -8.390133478  -60.926978376   45.532052445
    2.938909257   -3.141592654    3.322330980  -71.946987675   40.814449152

   -3.141592654   -2.938909257    8.324992830  -85.718092274   78.688174154
   -2.938909257   -2.938909257   19.673720366  -14.740925680   60.434664691
   -2.736225860   -2.938909257   19.114653722    0.366702838   64.224596425
   -2.533542463   -2.938909257   21.117268082   -9.812271616   50.662638811
   -2.330859066   -2.938909257   20.543859936   10.879967338   35.104478110
   -2.128175669   -2.938909257   20.037526550   -7.984720387   42.008148872
   -1.925492272   -2.938909257   20.701882581    9.378047133   69.648411751
   -1.722808875   -2.938909257   19.107710292  -11.422860728   69.209076420
   -1.520125478   -2.938909257   25.902343844  -31.940947215   71.677454980
   -1.317442081   -2.938909257   23.235003330   53.870732955   80.418740833
   -1.114758684   -2.938909257   13.404725784   29.014020118   51.168993096
   -0.912075287   -2.938909257    7.595785350   44.271567170   75.930861626
   -0.709391890   -2.938909257   -4.836905464   69.137592338   82.504491202
   -0.506708493   -2.938909257  -18.111134292   58.161110297   72.178221343
   -0.304025096   -2.938909257  -26.109337778   18.828330497   35.326074857
   -0.101341699   -2.938909257  -28.464360566   11.335556516   28.466390368
    0.101341699   -2.938909257  -28.923591183  -17.444084566   22.893952357
    0.304025096   -2.938909257  -20.065216177  -65.137697221   12.946182797
    0.506708493   -2.938909257   -5.346963418  -71.599776296   10.773491274
    0.709391890   -2.938909257    5.879688677  -38.973267939   13.910432099
    0.912075287   -2.938909257   13.211410822  -34.884330526    7.576903045
    1.114758684   -2.938909257   15.156175301   27.372551777   -8.253184644
    1.317442081   -2.938909257    5.416647667   49.978456522   25.661372152
    1.520125478   -2.938909257   -4.022262152   55.815008948   26.637229900
    1.722808875   -2.938909257  -18.343701381   72.761039214   32.939010912
    1.925492272   -2.938909257  -29.713236507   41.624970344   46.005207745
    2.128175669   -2.938909257  -36.053514614   16.687769176   37.345822528
    2.330859066   -2.938909257  -36.146623042   -9.576671255   48.624765566
    2.533542463   -2.938909257  -32.203925900  -39.366948571   49.236613577
    2.736225860   -2.938909257  -19.284082265  -74.001597920   62.767241465
    2.938909257   -2.938909257   -6.744769605  -56.879230985   58.929546501

   -3.141592654   -2.736225860   -6.385515053  -62.723301412   59.730821219
   -2.938909257   -2.736225860    4.908821833  -40.304736547   68.856226073
   -2.736225860   -2.736225860    9.351827243  -10.486262077   37.117982555
   -2.533542463   -2.736225860   11.514926197  -10.410078129   45.355079773
   -2.330859066   -2.736225860   12.369100809    2.602909505   47.074984675
   -2.128175669   -2.736225860   11.176435722    7.896559590   44.722976242
   -1.925492272   -2.736225860    9.380126191    8.073124115   38.187470657
   -1.722808875   -2.736225860    8.871747372   -3.371559260   33.493817530
   -1.520125478   -2.736225860    9.661353078   -1.061825001   63.020768703
   -1.317442081   -2.736225860    8.521480922   13.851341989   53.996121379
   -1.114758684   -2.736225860    3.229986935   39.279788399   49.713281489
   -0.912075287   -2.736225860   -6.709989058   55.894287181   56.139635927
   -0.709391890   -2.736225860  -18.457858421   56.812362838   54.291941822
   -0.506708493   -2.736225860  -27.668993827   30.105775902   28.189750303
   -0.304025096   -2.736225860  -31.399355417   12.256933913   23.221120151
   -0.101341699   -2.736225860  -33.272080046    2.426469790   18.579730897
    0.101341699   -2.736225860  -30.861897260  -27.618167363    0.337413273
    0.304025096   -2.736225860  -21.568012124  -64.603050078    0.316949331
    0.506708493   -2.736225860   -7.284427018  -63.734974532    7.190184953
    0.709391890   -2.736225860    2.392326877  -40.746937424   12.600190840
    0.912075287   -2.736225860   11.798992721  -40.633120646   12.826670671
    1.114758684   -2.736225860   10.839525405   54.520677993   54.033968262
    1.317442081   -2.736225860   -1.841138816   46.599237221   37.510473632
    1.520125478   -2.736225860   -9.393335639   50.433673280   28.910238158
    1.722808875   -2.736225860  -24.895864851   85.523752473   28.781517324
    1.925492272   -2.736225860  -37.617592518   40.283106795   27.417362815
    2.128175669   -2.736225860  -44.048674823   23.281854071   33.465721882
    2.330859066   -2.736225860  -45.047731546  -13.222576967   33.489584995
    2.533542463   -2.736225860  -40.825658067  -27.237513089   35.820826882
    2.736225860   -2.736225860  -32.111652785  -60.506897282   55.086542696
    2.938909257   -2.736225860  -18.859742387  -63.180855247   57.683539425

   -3.141592654   -2.533542463  -16.667570250  -61.461377723   45.218429606
   -2.938909257   -2.533542463   -5.571823239  -44.364783953   41.361691865
   -2.736225860   -2.533542463    0.553581093  -17.926360455   46.808035408
   -2.533542463   -2.533542463    2.791299607   -4.780243175   38.082480019
   -2.330859066   -2.533542463    2.568993597    4.552950613   43.314313460
   -2.128175669   -2.533542463    2.118126019   -0.453177141   40.480346931
   -1.925492272   -2.533542463    2.206766925   -0.042595775   36.902721803
   -1.722808875   -2.533542463    2.286556233   -0.179228110   32.070522315
   -1.520125478   -2.533542463    2.040182768    2.288668161   25.781563857
   -1.317442081   -2.533542463    0.640447569   16.829542424   30.289804748
   -1.114758684   -2.533542463   -6.220895513   48.721229562   41.223068753
   -0.912075287   -2.533542463  -17.299758131   58.016295463   51.706989160
   -0.709391890   -2.533542463  -28.421208848   44.535456958   37.990333403
   -0.506708493   -2.533542463  -33.398556632    8.792830811   27.023741759
   -0.304025096   -2.533542463  -35.170252559   10.098284826    8.994238785
   -0.101341699   -2.533542463  -35.255202163  -12.677075272   -0.238566693
    0.101341699   -2.533542463  -30.568419070  -34.784383928   -4.416836935
    0.304025096   -2.533542463  -19.694386944  -68.660873946  -15.995569911
    0.506708493   -2.533542463   -7.433402060  -47.291236396   -2.967414403
    0.709391890   -2.533542463    2.919741804  -60.306747822  -10.236408510
    0.912075287   -2.533542463   10.600135007    7.247567046   -1.383848976
    1.114758684   -2.533542463    1.275181268   57.627471235   24.958804549
    1.317442081   -2.533542463   -6.394563508   26.992364895    7.961240560
    1.520125478   -2.533542463  -15.315394080   62.676726648   24.012497713
    1.722808875   -2.533542463  -28.692857103   63.756591937    8.584285410
    1.925492272   -2.533542463  -40.536370851   50.022633570    5.095751387
    2.128175669   -2.533542463  -47.410478517   17.835479601    2.963948905
    2.330859066   -2.533542463  -48.856199304   -2.606616997    7.614584025
    2.533542463   -2.533542463  -46.082066470  -24.040907828   15.250665600
    2.736225860   -2.533542463  -39.639039494  -40.241587517   21.682025359
    2.938909257   -2.533542463  -29.312691653  -60.176897712   41.823659022

   -3.141592654   -2.330859066  -24.171044394  -54.567077688   24.764151180
   -2.938909257   -2.330859066  -13.584779059  -46.604270361   31.929238153
   -2.736225860   -2.330859066   -6.324962633  -25.112960130   20.142356989
   -2.533542463   -2.330859066   -3.032035738   -7.496212666   18.852613504
   -2.330859066   -2.330859066   -2.792126379    1.951668946    8.431637088
   -2.128175669   -2.330859066   -3.169747388    2.809209591   10.770447182
   -1.925492272   -2.330859066   -3.609115870   -2.162529867   15.335829264
   -1.722808875   -2.330859066   -2.349230196   -4.047619939   13.889523079
   -1.520125478   -2.330859066   -3.359173895    9.760520894   21.917467794
   -1.317442081   -2.330859066   -5.190891716   14.984582165   26.899867595
   -1.114758684   -2.330859066  -12.652606201   55.973730996   20.215829020
   -0.912075287   -2.330859066  -23.339896552   42.480648433   -1.010650859
   -0.709391890   -2.330859066  -30.804064240   33.460515820  -11.185238926
   -0.506708493   -2.330859066  -35.194654051    6.246767442  -11.129063040
   -0.304025096   -2.330859066  -34.921612157   -3.142415020   -8.035093427
   -0.101341699   -2.330859066  -33.616517367  -14.680793081  -14.926727684
    0.101341699   -2.330859066  -27.804585024  -43.195938398  -23.671835690
    0.304025096   -2.330859066  -17.072306230  -55.560827993   -8.333104950
    0.506708493   -2.330859066   -7.774619322  -39.128390472    4.526817442
    0.709391890   -2.330859066    1.951428108  -54.762056071   19.758815640
    0.912075287   -2.330859066    7.475043138   14.968110473   37.309207407
    1.114758684   -2.330859066   -0.589056341   42.701883284    2.479784880
    1.317442081   -2.330859066   -7.330549180   35.147930199    3.260979962
    1.520125478   -2.330859066  -17.474353357   59.123675690   -2.323833212
    1.722808875   -2.330859066  -29.127908622   57.795097382   -3.614528203
    1.925492272   -2.330859066  -40.974119779   51.899872068   -1.722341628
    2.128175669   -2.330859066  -47.834380735   18.202506604    2.727788830
    2.330859066   -2.330859066  -50.093050720    3.318857838    6.246191895
    2.533542463   -2.330859066  -48.153900864  -20.944538624    8.820744617
    2.736225860   -2.330859066  -42.943257304  -30.515792289   13.159429446
    2.938909257   -2.330859066  -34.886489825  -48.904155223   14.999981452

   -3.141592654   -2.128175669  -25.940683385  -52.119070257   -6.218240149
   -2.938909257   -2.128175669  -16.102333754  -42.961789246   -5.033141531
   -2.736225860   -2.128175669   -9.087453477  -26.200368674    5.832758474
   -2.533542463   -2.128175669   -4.968999613  -15.623449248    0.727912684
   -2.330859066   -2.128175669   -2.941891323   -3.135981753   -0.712332098
   -2.128175669   -2.128175669   -3.520346556    6.436229794   -4.138100063
   -1.925492272   -2.128175669   -4.564182240    2.595618630   -2.592494977
   -1.722808875   -2.128175669   -4.608254924   -0.874547107    6.878511173
   -1.520125478   -2.128175669   -5.132896479    8.459916432   -2.177603742
   -1.317442081   -2.128175669   -8.287634330   21.316027058   -2.755795718
   -1.114758684   -2.128175669  -13.292899780   28.347122101  -15.493978717
   -0.912075287   -2.128175669  -20.046065313   37.495854394  -20.295720099
   -0.709391890   -2.128175669  -27.276396614   30.004801998  -23.060616586
   -0.506708493   -2.128175669  -31.317974772    9.894008266  -25.117165568
   -0.304025096   -2.128175669  -31.632094799   -6.610444288  -29.247723102
   -0.101341699   -2.128175669  -28.298899516  -26.623636688  -40.024090440
    0.101341699   -2.128175669  -21.678103580  -35.198411135  -34.333391790
    0.304025096   -2.128175669  -14.594707222  -36.140800340  -21.270189123
    0.506708493   -2.128175669   -6.722266421  -39.062919833  -16.889714071
    0.709391890   -2.128175669   -0.463850183  -20.059915953   -3.820192955
    0.912075287   -2.128175669    1.560412049   -1.084905397    4.300718102
    1.114758684   -2.128175669   -0.254078807   20.311459320   -7.935345020
    1.317442081   -2.128175669   -6.487949483   39.107506333  -13.006213817
    1.520125478   -2.128175669  -15.574855755   50.784305871  -13.331735292
    1.722808875   -2.128175669  -27.068444526   60.781457301  -15.671439984
    1.925492272   -2.128175669  -38.774112865   51.080586789  -19.594155518
    2.128175669   -2.128175669  -46.998407288   29.656502826  -13.364579254
    2.330859066   -2.128175669  -50.636355154    5.534727145   -3.148609951
    2.533542463   -2.128175669  -49.282266998  -17.403996931   -1.856948827
    2.736225860   -2.128175669  -44.254213184  -31.707037708   -3.050124627
    2.938909257   -2.128175669  -36.261157375  -46.998849701   -2.797405418

   -3.141592654   -1.925492272  -22.658481608  -49.657871482  -23.535447459
   -2.938909257   -1.925492272  -13.589281393  -38.650103466  -18.556568345
   -2.736225860   -1.925492272   -7.189465446  -24.712269839  -22.064833556
   -2.533542463   -1.925492272   -3.537220232  -11.104745624  -14.243138055
   -2.330859066   -1.925492272   -2.375035237   -2.485010824   -9.622199423
   -2.128175669   -1.925492272   -2.029444954    0.063637719   -9.985088875
   -1.925492272   -1.925492272   -2.818531778    6.375331849  -14.365289924
   -1.722808875   -1.925492272   -3.554989344    0.121992187  -16.300314429
   -1.520125478   -1.925492272   -3.628131056    2.460867819  -12.472856885
   -1.317442081   -1.925492272   -4.634292043    8.189978510  -24.458451528
   -1.114758684   -1.925492272   -8.066719858   27.531706669  -27.920758120
   -0.912075287   -1.925492272  -14.533448425   30.288032613  -38.589996822
   -0.709391890   -1.925492272  -19.436732068   20.360107647  -52.419760972
   -0.506708493   -1.925492272  -23.102780268   12.129956817  -56.020953772
   -0.304025096   -1.925492272  -22.740572064  -15.108664356  -52.976566676
   -0.101341699   -1.925492272  -18.955720784  -18.112492389  -43.736041226
    0.101341699   -1.925492272  -15.003777852  -24.492754646  -29.396757746
    0.304025096   -1.925492272   -8.878946185  -32.501542111  -29.186208860
    0.506708493   -1.925492272   -3.020349685  -25.051825677  -14.625575583
    0.709391890   -1.925492272    1.474766346  -18.203791486   -6.401213385
    0.912075287   -1.925492272    3.463578131   -0.249292057   -5.036389488
    1.114758684   -1.925492272    1.736314339   17.052681056   -6.571436619
    1.317442081   -1.925492272   -3.794894278   37.954137409   -7.779940092
    1.520125478   -1.925492272  -13.023090674   50.665050763   -9.896611819
    1.722808875   -1.925492272  -23.751666028   54.386759106  -15.793724525
    1.925492272   -1.925492272  -34.481306070   49.805217743  -20.523034281
    2.128175669   -1.925492272  -43.502789292   37.787241278  -17.612007073
    2.330859066   -1.925492272  -48.516204856    8.268191731  -17.935730050
    2.533542463   -1.925492272  -46.911185836  -20.390393571  -18.938458767
    2.736225860   -1.925492272  -41.432026777  -33.664363771  -23.170601740
    2.938909257   -1.925492272  -32.952639068  -49.055769618  -27.934721968

   -3.141592654   -1.722808875  -17.177802512  -48.103495928  -29.234983360
   -2.938909257   -1.722808875   -8.570789581  -34.674305855  -27.609806351
   -2.736225860   -1.722808875   -2.872380653  -22.520974759  -18.446085816
   -2.533542463   -1.722808875    0.361514842   -8.997852557  -22.454862613
   -2.330859066   -1.722808875    1.163250077   -0.134156640  -21.033119423
   -2.128175669   -1.722808875    0.784366901    2.446634863  -19.610135616
   -1.925492272   -1.722808875    0.630401447   -0.122177316  -18.854530709
   -1.722808875   -1.722808875    0.246220593    3.062806043  -20.317121472
   -1.520125478   -1.722808875    0.486412500   -5.788347018  -30.689910892
   -1.317442081   -1.722808875    0.817690345    7.598902027  -37.729696483
   -1.114758684   -1.722808875   -2.473844143   20.301504537  -35.403008738
   -0.912075287   -1.722808875   -6.237495921   17.236526282  -39.044931259
   -0.709391890   -1.722808875   -9.825601983   17.501876644  -37.842700923
   -0.506708493   -1.722808875  -12.496128232    6.863086235  -40.896344403
   -0.304025096   -1.722808875  -12.623932307   -3.403436028  -43.804313572
   -0.101341699   -1.722808875  -11.759031276   -6.461540512  -32.102489908
    0.101341699   -1.722808875   -8.863288549  -22.546628363  -36.655519218
    0.304025096   -1.722808875   -4.106870007  -20.182606647  -19.062473300
    0.506708493   -1.722808875   -0.841710219  -13.694931347   -6.636247147
    0.709391890   -1.722808875    1.254629097   -5.283737603    7.570526953
    0.912075287   -1.722808875    1.575194467   -0.001859437   17.282215350
    1.114758684   -1.722808875    0.803470165   11.978408816   18.106925787
    1.317442081   -1.722808875   -4.183131917   35.212464314   11.263272574
    1.520125478   -1.722808875  -12.096400480   40.639908766    1.018222131
    1.722808875   -1.722808875  -20.447863137   42.694318423  -16.780246727
    1.925492272   -1.722808875  -30.081794843   52.490974031  -23.071444816
    2.128175669   -1.722808875  -39.826189500   36.235269552  -20.166538520
    2.330859066   -1.722808875  -43.624026673    4.245258214  -27.771496258
    2.533542463   -1.722808875  -42.462824301  -17.512304104  -24.781006958
    2.736225860   -1.722808875  -35.963799894  -43.488678961  -28.393719458
    2.938909257   -1.722808875  -26.761793032  -45.590905672  -30.712967321

   -3.141592654   -1.520125478  -11.137519036  -43.218904550  -30.456811860
   -2.938909257   -1.520125478   -3.420211215  -31.499816859  -26.247018098
   -2.736225860   -1.520125478    1.828711613  -21.380506172  -30.256555149
   -2.533542463   -1.520125478    4.934816934   -7.638257583  -22.078956985
   -2.330859066   -1.520125478    5.338751128    0.140241299  -21.700239970
   -2.128175669   -1.520125478    5.507595334    0.038694720  -22.049566361
   -1.925492272   -1.520125478    4.814078376    4.457475590  -21.023983847
   -1.722808875   -1.520125478    5.352894674  -11.933671447  -28.084805546
   -1.520125478   -1.520125478    8.960901262  -19.200834513  -45.528088641
   -1.317442081   -1.520125478   10.961716088    3.886851344  -45.935445243
   -1.114758684   -1.520125478    7.603143863   23.439712006  -53.122291596
   -0.912075287   -1.520125478    3.298405411   19.952708674  -57.425017055
   -0.709391890   -1.520125478   -1.407239356   24.244431123  -53.862500930
   -0.506708493   -1.520125478   -4.461487983    4.893654210  -48.226979517
   -0.304025096   -1.520125478   -5.175232243    4.495801991  -31.169561350
   -0.101341699   -1.520125478   -4.404009626  -16.654517685  -37.670187330
    0.101341699   -1.520125478   -0.546493615  -10.807569235  -34.474915494
    0.304025096   -1.520125478   -0.996044252    8.266465010   -7.971697743
    0.506708493   -1.520125478   -1.739333382    0.315688998   17.294106784
    0.709391890   -1.520125478   -2.314981225    5.566781341   29.512093636
    0.912075287   -1.520125478   -3.556760853    6.918243716   39.035734625
    1.114758684   -1.520125478   -5.378424982   10.844122148   38.534805192
    1.317442081   -1.520125478   -8.191038680   18.852220600   26.666647300
    1.520125478   -1.520125478  -12.954011907   24.802234550    5.059582181
    1.722808875   -1.520125478  -17.827443958   27.976288060   -6.842301407
    1.925492272   -1.520125478  -26.232593942   52.707206688  -13.379157818
    2.128175669   -1.520125478  -35.479721233   30.227097709  -21.893682774
    2.330859066   -1.520125478  -38.382488818    2.869277845  -23.752125559
    2.533542463   -1.520125478  -37.021362615  -19.426209701  -27.830678869
    2.736225860   -1.520125478  -30.025721862  -46.194185108  -31.590597863
    2.938909257   -1.520125478  -20.294372715  -46.940724768  -33.183836817

   -3.141592654   -1.317442081   -4.495546583  -43.213504374  -35.305982876
   -2.938909257   -1.317442081    3.247839813  -33.278766880  -35.593537026
   -2.736225860   -1.317442081    8.227006507  -13.079309308  -29.355172990
   -2.533542463   -1.317442081    9.241817020   -2.141447226  -20.046912409
   -2.330859066   -1.317442081    9.634217838    1.285923307  -16.671845953
   -2.128175669   -1.317442081    8.647844182    4.518465125  -12.087652533
   -1.925492272   -1.317442081    8.496601276   -1.499801884  -16.372880803
   -1.722808875   -1.317442081    9.843140981  -16.037741446  -16.153833556
   -1.520125478   -1.317442081   13.944415879  -14.101171805    0.234951504
   -1.317442081   -1.317442081   13.856833341    7.432987721    8.877704985
   -1.114758684   -1.317442081   13.729906268   -3.157511854   -8.254704405
   -0.912075287   -1.317442081   12.885917297    9.894938462  -27.922668345
   -0.709391890   -1.317442081   11.347857473    8.483924075  -61.259308887
   -0.506708493   -1.317442081    6.784011348   35.024553560  -52.930073042
   -0.304025096   -1.317442081    1.328430929   11.214281060  -34.925217593
   -0.101341699   -1.317442081    1.144358245   -2.753202874  -13.666791602
    0.101341699   -1.317442081    0.975463871    7.231928271   18.951364416
    0.304025096   -1.317442081   -2.669872414   25.900363361   25.350581138
    0.506708493   -1.317442081   -6.953921906   14.222765700   33.429971664
    0.709391890   -1.317442081  -10.111402648   19.278928365   45.227106697
    0.912075287   -1.317442081  -12.912108593    4.069954018   42.492298554
    1.114758684   -1.317442081  -13.083441203    2.698507525   36.688611627
    1.317442081   -1.317442081  -13.491393398   -1.968058561   22.010787777
    1.520125478   -1.317442081  -13.528757972    8.576461844    1.306226881
    1.722808875   -1.317442081  -17.257797306   24.947572149   -2.564080552
    1.925492272   -1.317442081  -23.490835077   37.440597994  -16.575048644
    2.128175669   -1.317442081  -30.678374109   26.088497707  -25.713329431
    2.330859066   -1.317442081  -33.213316079    1.513482448  -27.723481347
    2.533542463   -1.317442081  -31.124716578  -25.601315338  -31.141718964
    2.736225860   -1.317442081  -23.187596603  -46.713713190  -33.232528857
    2.938909257   -1.317442081  -13.789010444  -46.278587951  -31.521223125

   -3.141592654   -1.114758684    2.470856628  -31.877236560  -30.744699627
   -2.938909257   -1.114758684    8.408261679  -30.649466271  -15.019183842
   -2.736225860   -1.114758684   13.363565450  -11.553660988  -20.546122495
   -2.533542463   -1.114758684   13.098241081    7.866649115  -18.721153473
   -2.330859066   -1.114758684   12.049950734    2.231465420  -12.485499980
   -2.128175669   -1.114758684   11.795427614    0.066884431  -17.408095697
   -1.925492272   -1.114758684   12.371098515   -5.829619563  -21.405888016
   -1.722808875   -1.114758684   13.660709696   -5.116858498  -23.273427448
   -1.520125478   -1.114758684   14.343774619   -3.663629837  -20.875229121
   -1.317442081   -1.114758684   15.776392446   -8.620922916  -35.300757223
   -1.114758684   -1.114758684   16.465104214    1.535768356  -27.422269034
   -0.912075287   -1.114758684   17.280748294  -13.032174781  -25.780620096
   -0.709391890   -1.114758684   19.254817498    4.814319705  -13.357628917
   -0.506708493   -1.114758684   14.128221193   38.189877672  -18.297967904
   -0.304025096   -1.114758684    7.031585848   29.820297547  -12.476252831
   -0.101341699   -1.114758684    1.179537496   29.480875807   12.138293328
    0.101341699   -1.114758684   -4.681187736   27.613083329   30.981487842
    0.304025096   -1.114758684  -10.268987665   28.879641382   47.515371805
    0.506708493   -1.114758684  -16.387795633   28.619920620   58.667106199
    0.709391890   -1.114758684  -19.959871637    4.201650841   47.366479060
    0.912075287   -1.114758684  -19.722334587    0.275611620   30.104259476
    1.114758684   -1.114758684  -20.061404079   -4.122149199   27.783606469
    1.317442081   -1.114758684  -16.693202427  -23.286091948   10.129197556
    1.520125478   -1.114758684  -13.999527781   -0.090353403    2.705523509
    1.722808875   -1.114758684  -15.838472962   16.288433685  -10.067601766
    1.925492272   -1.114758684  -20.585550904   29.216040882   -7.519683904
    2.128175669   -1.114758684  -26.106356670   21.357086528  -16.174753597
    2.330859066   -1.114758684  -28.320398594   -1.218754016  -17.330993826
    2.533542463   -1.114758684  -25.268220103  -27.739069930  -22.058408590
    2.736225860   -1.114758684  -17.676332187  -47.242067499  -20.659463608
    2.938909257   -1.114758684   -6.591620817  -56.415551532  -39.268406608

   -3.141592654   -0.912075287    7.201880021  -17.095569549  -14.372904745
   -2.938909257   -0.912075287   11.348280476  -27.031655387  -15.538363134
   -2.736225860   -0.912075287   15.780626927  -11.198909078   -2.709596518
   -2.533542463   -0.912075287   16.400515228    1.534492044  -10.143763008
   -2.330859066   -0.912075287   15.401733616    8.251727977  -14.706110328
   -2.128175669   -0.912075287   14.344406515   -1.680399453   -8.006963207
   -1.925492272   -0.912075287   15.881106943   -9.695131270  -11.226497775
   -1.722808875   -0.912075287   17.796712548  -11.694827248  -13.881535135
   -1.520125478   -0.912075287   20.990553990  -16.146795482  -26.563593288
   -1.317442081   -0.912075287   22.523495482    1.261756267  -16.508709817
   -1.114758684   -0.912075287   22.138887043   -0.591675415  -18.527380952
   -0.912075287   -0.912075287   21.914509486    6.714397894  -11.459990362
   -0.709391890   -0.912075287   19.374257437   16.425391434    1.898762348
   -0.506708493   -0.912075287   14.564103984   35.139063182   12.531794056
   -0.304025096   -0.912075287    5.481253452   48.157442613   21.908205390
   -0.101341699   -0.912075287   -3.526480013   43.216292275   34.770546253
    0.101341699   -0.912075287  -12.985424263   47.847554460   56.312312839
    0.304025096   -0.912075287  -21.540691700   35.921138768   60.319547564
    0.506708493   -0.912075287  -27.186252122   15.347928682   39.493678040
    0.709391890   -0.912075287  -26.706521793  -14.971660753   17.414469321
    0.912075287   -0.912075287  -24.475842006   -4.708562133    8.452179726
    1.114758684   -0.912075287  -22.616190924  -18.570881688    0.082191253
    1.317442081   -0.912075287  -17.796443905  -24.093419528    1.600300461
    1.520125478   -0.912075287  -13.862525192  -12.158439152   -4.146304708
    1.722808875   -0.912075287  -14.598765946   20.634703509   -0.179789077
    1.925492272   -0.912075287  -19.934596138   24.801337628   -4.126483063
    2.128175669   -0.912075287  -24.116939809   17.985568859   -5.527086378
    2.330859066   -0.912075287  -26.079344002   -3.579940791   -7.129466091
    2.533542463   -0.912075287  -22.654863547  -27.381607544   -7.364781976
    2.736225860   -0.912075287  -14.133427421  -61.149001324  -15.917298545
    2.938909257   -0.912075287   -0.111503231  -61.490319798  -18.045606590

   -3.141592654   -0.709391890    7.699913383  -26.540315710    8.760728642
   -2.938909257   -0.709391890   12.799397084  -21.258707233    4.885311262
   -2.736225860   -0.709391890   15.271392834   -5.353074519    5.179312092
   -2.533542463   -0.709391890   16.306822792   -4.158678455    8.551311986
   -2.330859066   -0.709391890   16.028511530    5.316801394    5.620828291
   -2.128175669   -0.709391890   15.948311213   -5.933966519   -7.054938056
   -1.925492272   -0.709391890   17.330421307   -6.273744563   -4.465309137
   -1.722808875   -0.709391890   19.481156811  -16.407807432   -4.371802397
   -1.520125478   -0.709391890   22.587541410  -10.000009441    1.255406045
   -1.317442081   -0.709391890   23.712523413   -3.894746097   -5.031492932
   -1.114758684   -0.709391890   24.135937066    1.718449344   -5.608586655
   -0.912075287   -0.709391890   22.846564424   10.970981801   -2.713670934
   -0.709391890   -0.709391890   18.694644575   32.993241647   14.140267005
   -0.506708493   -0.709391890    9.967775397   48.819580657   31.107280523
   -0.304025096   -0.709391890   -0.565313504   57.610236571   42.345759358
   -0.101341699   -0.709391890  -13.709099989   68.295638010   66.050185527
    0.101341699   -0.709391890  -25.781950648   45.844912492   57.735642042
    0.304025096   -0.709391890  -31.745180164   14.961246003   33.818855777
    0.506708493   -0.709391890  -32.762356636   -5.011274784   20.383165136
    0.709391890   -0.709391890  -29.099465042  -29.367613496   11.600441885
    0.912075287   -0.709391890  -24.053001905  -12.425807747    1.338857572
    1.114758684   -0.709391890  -22.925530751  -10.610090770    4.267981138
    1.317442081   -0.709391890  -17.466235951  -35.992055599   -7.212837296
    1.520125478   -0.709391890  -12.985037273   -3.031071964   -4.905429666
    1.722808875   -0.709391890  -14.821445230   15.660720496   -1.855389318
    1.925492272   -0.709391890  -18.825103367   24.593692336   -1.521671503
    2.128175669   -0.709391890  -23.864584277   19.931066991    4.904272980
    2.330859066   -0.709391890  -25.298043870   -6.622099434    1.446914135
    2.533542463   -0.709391890  -21.392496408  -32.533108742   -2.127322036
    2.736225860   -0.709391890  -11.612174057  -62.017291954   -5.521526845
    2.938909257   -0.709391890    0.599449684  -49.285103284    5.450170328

   -3.141592654   -0.506708493    5.230943314  -22.131422052   12.548648516
   -2.938909257   -0.506708493   10.436718798  -26.830697813   14.525065837
   -2.736225860   -0.506708493   13.984429197   -7.111754771    8.533348717
   -2.533542463   -0.506708493   14.695550392   -2.860699577    6.107637116
   -2.330859066   -0.506708493   15.219383881   -2.256928620    2.875724769
   -2.128175669   -0.506708493   16.060907730   -6.487530262    6.255316051
   -1.925492272   -0.506708493   17.472376476   -7.129413911    4.473362876
   -1.722808875   -0.506708493   19.548483253  -14.634301027    3.929794188
   -1.520125478   -0.506708493   22.758853814  -13.344813466    2.750709516
   -1.317442081   -0.506708493   24.017488298    0.321250240    9.324266620
   -1.114758684   -0.506708493   23.447152508    4.868492470   16.795716641
   -0.912075287   -0.506708493   20.643231902   27.639223663   31.501842814
   -0.709391890   -0.506708493   12.250576059   50.022201301   42.077328292
   -0.506708493   -0.506708493    1.483625166   59.568166506   55.467470767
   -0.304025096   -0.506708493  -13.179707538   80.940841299   76.660612120
   -0.101341699   -0.506708493  -27.131177540   48.529902692   52.776656799
    0.101341699   -0.506708493  -33.177411846   17.300377581   17.148229601
    0.304025096   -0.506708493  -35.631840743    6.905027499   11.011855858
    0.506708493   -0.506708493  -35.398046577  -10.864574705    4.043787710
    0.709391890   -0.506708493  -31.237368623  -26.922060354    6.360597379
    0.912075287   -0.506708493  -26.248167363  -21.436013120    4.341805718
    1.114758684   -0.506708493  -20.864951275  -35.504921468  -33.637620637
    1.317442081   -0.506708493  -13.306327913  -30.382515593  -34.604190863
    1.520125478   -0.506708493  -10.582625212    2.791606581  -19.954285683
    1.722808875   -0.506708493  -13.578114948   25.577310614   -7.348558591
    1.925492272   -0.506708493  -20.175393081   35.516351549   10.798654467
    2.128175669   -0.506708493  -26.096392577   19.318155451   14.634502813
    2.330859066   -0.506708493  -27.325979624   -7.100302769   18.303424433
    2.533542463   -0.506708493  -23.363751024  -33.083465792   21.128890729
    2.736225860   -0.506708493  -13.274540973  -64.317312683   22.900997832
    2.938909257   -0.506708493   -0.927796501  -46.900179463   12.440261566

   -3.141592654   -0.304025096    1.361778959  -26.139350087   31.017114761
   -2.938909257   -0.304025096    6.789945201  -28.006532882   22.459426518
   -2.736225860   -0.304025096   11.265012902  -14.273707088   17.956756258
   -2.533542463   -0.304025096   12.974875127   -3.763878796   11.767863860
   -2.330859066   -0.304025096   13.294736561   -1.836394021   15.170399036
   -2.128175669   -0.304025096   14.248275604   -6.137097184   10.404692734
   -1.925492272   -0.304025096   15.438144800   -7.763999742   13.402463863
   -1.722808875   -0.304025096   17.991413913  -14.663000526   11.632205439
   -1.520125478   -0.304025096   19.843181559   -3.487600084   20.761399995
   -1.317442081   -0.304025096   20.257858403    0.033839304   21.507986958
   -1.114758684   -0.304025096   18.380654754   20.251811683   28.289143340
   -0.912075287   -0.304025096   12.711454535   34.938731466   37.451586653
   -0.709391890   -0.304025096    2.968554387   64.526260878   57.861954882
   -0.506708493   -0.304025096  -12.644024222   82.453893714   79.674475516
   -0.304025096   -0.304025096  -26.994930005   51.874520527   51.275954828
   -0.101341699   -0.304025096  -33.075480114   13.971089327   14.124516396
    0.101341699   -0.304025096  -35.679085715   14.203792847   12.346740017
    0.304025096   -0.304025096  -37.409898181   -0.765356197    3.492094902
    0.506708493   -0.304025096  -35.673950648  -14.904008708    1.176592984
    0.709391890   -0.304025096  -30.397746511  -40.421339818  -20.403239526
    0.912075287   -0.304025096  -20.078786144  -55.077165107  -61.766870120
    1.114758684   -0.304025096  -10.259774940  -38.527533240  -60.767088042
    1.317442081   -0.304025096   -5.398798595   -8.457633016  -37.754275424
    1.520125478   -0.304025096   -6.454872358   17.679863844  -17.102033873
    1.722808875   -0.304025096  -12.551132193   41.513034910   -4.149019787
    1.925492272   -0.304025096  -21.622157663   43.070798202    3.984869002
    2.128175669   -0.304025096  -29.028837425   28.405194533   14.155616253
    2.330859066   -0.304025096  -31.771661110   -3.872788334   21.942481593
    2.533542463   -0.304025096  -28.223680395  -28.129579995   23.393389646
    2.736225860   -0.304025096  -19.698502438  -58.885292419   35.260667506
    2.938909257   -0.304025096   -6.599651346  -57.810573989   44.636949093

   -3.141592654   -0.101341699   -5.999064270  -48.321513518   29.437513090
   -2.938909257   -0.101341699    2.802133328  -35.898769570   11.043115732
   -2.736225860   -0.101341699    8.338324141  -19.838354430    5.704565171
   -2.533542463   -0.101341699   11.020707679   -6.710548528    4.359268554
   -2.330859066   -0.101341699   11.697305352   -2.588795099   -3.632847105
   -2.128175669   -0.101341699   12.625938598   -6.364008925    0.679051092
   -1.925492272   -0.101341699   14.052670263   -7.280021865   -4.198332752
   -1.722808875   -0.101341699   15.494946020   -7.142525837    7.844886007
   -1.520125478   -0.101341699   16.772105731   -3.108159069    9.729678068
   -1.317442081   -0.101341699   15.553860865   15.666554702   28.668940973
   -1.114758684   -0.101341699   11.296222893   25.843078691   45.705150066
   -0.912075287   -0.101341699    3.106823033   61.024060085   67.972477711
   -0.709391890   -0.101341699  -12.730455838   85.214976662   84.075843355
   -0.506708493   -0.101341699  -27.229704700   52.066754228   54.025533110
   -0.304025096   -0.101341699  -33.815901772   17.200551268   19.816700215
   -0.101341699   -0.101341699  -36.292385872    9.805585981   16.097571941
    0.101341699   -0.101341699  -37.109874787   -3.754851523   -3.673556693
    0.304025096   -0.101341699  -35.872560158   -4.684167645  -16.809784490
    0.506708493   -0.101341699  -33.275814486  -32.881865241  -34.122023727
    0.709391890   -0.101341699  -20.817448261  -80.428762140  -71.303873897
    0.912075287   -0.101341699   -6.311744404  -54.865758049  -67.324972141
    1.114758684   -0.101341699    1.280042791  -21.153913180  -52.670527012
    1.317442081   -0.101341699    2.100761207   12.214974266  -40.171801266
    1.520125478   -0.101341699   -2.659798912   33.448159849  -24.646404248
    1.722808875   -0.101341699  -11.517481328   52.677678742   -4.454545695
    1.925492272   -0.101341699  -22.564134503   52.766366644    4.887081415
    2.128175669   -0.101341699  -31.783315384   34.581507436   11.966123996
    2.330859066   -0.101341699  -35.225248018   -0.621760722   12.405641561
    2.533542463   -0.101341699  -32.758639480  -21.645041824   21.648536376
    2.736225860   -0.101341699  -26.114618917  -44.294435874   26.761741801
    2.938909257   -0.101341699  -16.056570046  -50.926995516   37.308315190

   -3.141592654    0.101341699   -7.403964225  -56.853256308  -12.577687449
   -2.938909257    0.101341699    3.150965972  -44.315317511  -12.620714244
   -2.736225860    0.101341699    9.076841390  -15.050499785   -9.132696018
   -2.533542463    0.101341699   11.594151433  -13.634975540  -10.389155331
   -2.330859066    0.101341699   13.713838209   -4.861022245  -12.103827272
   -2.128175669    0.101341699   14.691768158   -7.864821488  -14.702746363
   -1.925492272    0.101341699   15.956457330   -1.472972114   -6.170064145
   -1.722808875    0.101341699   16.104300920   -2.249227158  -10.111216907
   -1.520125478    0.101341699   14.943288385   20.308737924    9.291572374
   -1.317442081    0.101341699    8.651151184   34.873072629   36.667736905
   -1.114758684    0.101341699    0.620687223   51.219113801   55.711714199
   -0.912075287    0.101341699  -12.373042563   69.418924039   69.362647143
   -0.709391890    0.101341699  -25.033546353   54.015981375   37.578631713
   -0.506708493    0.101341699  -33.443626846   25.843603564   14.892200478
   -0.304025096    0.101341699  -36.336219850    9.027243752    7.568002545
   -0.101341699    0.101341699  -37.379620079   -4.214645196   -3.915643756
    0.101341699    0.101341699  -34.643116824  -14.937892119  -13.620646915
    0.304025096    0.101341699  -32.072234287  -20.808799444  -21.158019938
    0.506708493    0.101341699  -22.203094933  -74.819223163  -66.917361513
    0.709391890    0.101341699   -5.786837918  -78.010895161  -69.184041720
    0.912075287    0.101341699    6.911436215  -41.530362720  -59.180607954
    1.114758684    0.101341699   10.790445359   -4.239231887  -38.696801533
    1.317442081    0.101341699   10.665998311   11.560734902  -38.462582877
    1.520125478    0.101341699    2.596748076   65.893699900  -20.586086066
    1.722808875    0.101341699  -11.091159846   60.610155261   -2.322175943
    1.925492272    0.101341699  -22.938042192   60.016083514   -1.422977410
    2.128175669    0.101341699  -33.494087542   36.522792233    4.639469831
    2.330859066    0.101341699  -37.390758691    5.608211878    8.555535607
    2.533542463    0.101341699  -36.211385738  -18.439151774    9.540015731
    2.736225860    0.101341699  -29.950570828  -42.334230523    8.443734838
    2.938909257    0.101341699  -19.421590535  -59.281830636   -2.147250194

   -3.141592654    0.304025096   -3.689462089  -60.850446247  -21.187885186
   -2.938909257    0.304025096    6.835542717  -39.096111812  -21.159277653
   -2.736225860    0.304025096   11.866466001  -15.903664837  -22.084988808
   -2.533542463    0.304025096   15.242129180  -15.633418072  -22.972059003
   -2.330859066    0.304025096   16.544856993    1.868616337  -17.093586026
   -2.128175669    0.304025096   16.295488638   -0.784138713   -6.546530517
   -1.925492272    0.304025096   16.367680503   -1.376109240   -8.626611734
   -1.722808875    0.304025096   17.072616815    1.816905153    1.841121894
   -1.520125478    0.304025096   11.752464565   50.399522920   26.917818572
   -1.317442081    0.304025096    0.626808556   53.403481458   43.246844951
   -1.114758684    0.304025096  -11.401554978   67.243867582   60.917839562
   -0.912075287    0.304025096  -23.509639273   45.247275747   43.052223036
   -0.709391890    0.304025096  -31.230341749   36.224964819   22.034139476
   -0.506708493    0.304025096  -36.486766070    9.972271049   13.925712082
   -0.304025096    0.304025096  -37.256478114    5.417711962   -0.177363019
   -0.101341699    0.304025096  -37.225937873  -14.308044477    2.076110825
    0.101341699    0.304025096  -32.386020152  -25.618564256  -15.744662835
    0.304025096    0.304025096  -24.846008678  -62.523980330  -56.025462626
    0.506708493    0.304025096   -7.427079015  -91.638668380  -79.370550127
    0.709391890    0.304025096    7.429896439  -56.589755847  -61.494448119
    0.912075287    0.304025096   16.084327760  -23.552322540  -37.692252814
    1.114758684    0.304025096   17.027523128    4.106622880  -26.985709721
    1.317442081    0.304025096   15.803872749   19.777686385  -12.133932500
    1.520125478    0.304025096    5.158409237   77.496416559   -8.940878682
    1.722808875    0.304025096   -9.455362662   61.652187135  -12.764671803
    1.925492272    0.304025096  -22.210530728   66.705996258   -6.126120129
    2.128175669    0.304025096  -33.520183148   37.350662073   -4.870412667
    2.330859066    0.304025096  -37.577680732    6.364689224   -8.184284485
    2.533542463    0.304025096  -36.180738875  -21.543461910   -8.921336973
    2.736225860    0.304025096  -28.910710339  -49.329414675  -17.426958903
    2.938909257    0.304025096  -16.824716300  -66.300776206  -21.110885925

   -3.141592654    0.506708493    1.413584753  -53.822687067  -27.985882767
   -2.938909257    0.506708493   11.055186572  -43.589915449  -20.999764098
   -2.736225860    0.506708493   17.702424179  -17.894340837  -28.214310667
   -2.533542463    0.506708493   19.320359498   -3.943201974  -16.716538404
   -2.330859066    0.506708493   20.219833705   -4.704279565  -17.697772040
   -2.128175669    0.506708493   21.495633007   -7.524653425  -44.062534455
   -1.925492272    0.506708493   21.723132644    9.922373238  -34.156513479
   -1.722808875    0.506708493   16.602076940   41.298997861    2.015760551
   -1.520125478    0.506708493    5.458155212   63.508880767   22.798531276
   -1.317442081    0.506708493   -6.993146625   59.537819814   24.884865329
   -1.114758684    0.506708493  -19.459507380   58.386895946    8.622292131
   -0.912075287    0.506708493  -27.018505130   16.710449790  -14.332014835
   -0.709391890    0.506708493  -31.203921090   32.088098614  -17.022526229
   -0.506708493    0.506708493  -36.214654462    5.552489999  -18.094613017
   -0.304025096    0.506708493  -35.534518362   -0.132783761  -16.000526723
   -0.101341699    0.506708493  -34.737120146  -22.096778006  -32.311062316
    0.101341699    0.506708493  -25.361954816  -62.478575436  -53.184089639
    0.304025096    0.506708493  -10.196416627  -89.737745313  -79.645086564
    0.506708493    0.506708493    7.353736566  -67.325992806  -56.291761158
    0.709391890    0.506708493   17.477494781  -48.793919039  -39.511686731
    0.912075287    0.506708493   27.087696424  -23.877949168  -72.585195374
    1.114758684    0.506708493   23.153083824   44.216595132  -32.929429925
    1.317442081    0.506708493   16.729114169   24.790672698   -0.569248536
    1.520125478    0.506708493    6.768491684   73.425810172   -3.889135907
    1.722808875    0.506708493   -7.374039255   60.222201485   -5.978170212
    1.925492272    0.506708493  -20.432552763   70.633213465   -9.637580722
    2.128175669    0.506708493  -31.770232818   32.793316587  -10.701034225
    2.330859066    0.506708493  -35.234145750    6.786197834  -10.812155388
    2.533542463    0.506708493  -33.270943980  -30.442015254  -18.290347916
    2.736225860    0.506708493  -24.131809343  -54.649398336  -26.653269855
    2.938909257    0.506708493  -11.477472727  -68.859777965  -29.110392873

   -3.141592654    0.709391890    6.493277154  -55.293476135  -21.618426343
   -2.938909257    0.709391890   16.008041434  -38.108877615  -27.434042412
   -2.736225860    0.709391890   21.823862753  -18.611588284  -16.782726005
   -2.533542463    0.709391890   23.305898240    1.909679421  -23.686806871
   -2.330859066    0.709391890   23.891817457  -15.120025017  -18.846770602
   -2.128175669    0.709391890   28.157243345  -12.879822008   -9.386552378
   -1.925492272    0.709391890   25.014657422   40.802291117    0.636593782
   -1.722808875    0.709391890   15.708254123   45.679880790    3.821009668
   -1.520125478    0.709391890    5.017419345   64.407929752  -12.363011618
   -1.317442081    0.709391890   -8.879319106   63.135875893   -3.295978122
   -1.114758684    0.709391890  -18.180496116   29.934928676   -4.344807478
   -0.912075287    0.709391890  -23.484838214   28.378852543   -1.301507626
   -0.709391890    0.709391890  -29.536143196   25.195255905    0.181578284
   -0.506708493    0.709391890  -32.107765176    2.203533515  -17.147143828
   -0.304025096    0.709391890  -31.492800596  -10.647653577  -24.763052332
   -0.101341699    0.709391890  -25.737007394  -48.100796791  -51.613009938
    0.101341699    0.709391890  -12.683032655  -78.876189790  -70.202213967
    0.304025096    0.709391890    4.411097935  -78.744405523  -62.017635666
    0.506708493    0.709391890   15.909386363  -41.599976186  -39.359278584
    0.709391890    0.709391890   27.829626615  -79.662098872  -65.224272139
    0.912075287    0.709391890   38.993926680   -1.441999803  -25.508102790
    1.114758684    0.709391890   28.764227159   73.724305994  -17.856750619
    1.317442081    0.709391890   17.253443054   43.434918098   -5.786444939
    1.520125478    0.709391890    6.556496806   64.527920077    1.939383625
    1.722808875    0.709391890   -6.554943136   61.473895585   -3.173630257
    1.925492272    0.709391890  -19.025143646   61.549354946   -4.480205905
    2.128175669    0.709391890  -29.531363567   36.744257207  -11.836354188
    2.330859066    0.709391890  -33.125416089   -1.314024086  -13.404036826
    2.533542463    0.709391890  -29.082438342  -37.346764469  -22.424788093
    2.736225860    0.709391890  -18.985627928  -59.593578728  -22.930125150
    2.938909257    0.709391890   -5.977303602  -65.761602636  -24.663062386

   -3.141592654    0.912075287   10.770214684  -56.407328940  -20.112372076
   -2.938909257    0.912075287   20.694539338  -37.690271122  -15.296029081
   -2.736225860    0.912075287   25.570684353  -13.086465655  -15.056464367
   -2.533542463    0.912075287   27.248203833   -4.236019300  -11.545535494
   -2.330859066    0.912075287   27.226091148    2.366904447  -13.089827506
   -2.128175669    0.912075287   27.581718425   -4.770446183    1.276661135
   -1.925492272    0.912075287   25.996399330   27.977680165  -13.810763271
   -1.722808875    0.912075287   17.401863327   47.068422200  -20.141884554
   -1.520125478    0.912075287    7.814172000   54.778541202  -16.437613713
   -1.317442081    0.912075287   -5.938995928   72.465268450  -26.601081303
   -1.114758684    0.912075287  -17.429483990   38.730478560  -19.488952660
   -0.912075287    0.912075287  -23.173510345   20.159164054  -25.946333144
   -0.709391890    0.912075287  -25.682376332    7.439022167  -42.704708596
   -0.506708493    0.912075287  -27.218077566    3.636930854  -38.549034893
   -0.304025096    0.912075287  -23.929667089  -39.350054982  -53.409468174
   -0.101341699    0.912075287  -12.663444110  -68.300737281  -80.998065437
    0.101341699    0.912075287    2.870674713  -77.839697941  -76.941144228
    0.304025096    0.912075287   14.868658462  -39.664137743  -39.849160181
    0.506708493    0.912075287   23.939997119  -60.735167016  -28.592389536
    0.709391890    0.912075287   36.094643030  -39.407836606    4.900341649
    0.912075287    0.912075287   36.890830884   23.778848681   31.520985796
    1.114758684    0.912075287   29.498825296   48.027686659    9.951939223
    1.317442081    0.912075287   18.126742594   58.553045589    1.136883683
    1.520125478    0.912075287    6.735766758   57.791073932   -0.831324678
    1.722808875    0.912075287   -6.278985524   66.610260138    0.329771035
    1.925492272    0.912075287  -18.238152467   50.734784656   -2.969465795
    2.128175669    0.912075287  -27.015490948   32.511201997  -11.454278060
    2.330859066    0.912075287  -29.541059756   -8.239751528  -18.770061691
    2.533542463    0.912075287  -24.839114164  -36.435740239  -17.448533672
    2.736225860    0.912075287  -14.631526181  -62.815345753  -21.803604293
    2.938909257    0.912075287   -1.345427297  -63.650313462  -20.899199054

   -3.141592654    1.114758684   13.613071465  -51.147330776   -7.077887637
   -2.938909257    1.114758684   22.308232341  -31.556489473   -3.118104592
   -2.736225860    1.114758684   26.375372806  -12.199758623    2.072521676
   -2.533542463    1.114758684   28.775581201  -11.738285680   -6.251126548
   -2.330859066    1.114758684   29.878687830    2.734360230  -14.452348778
   -2.128175669    1.114758684   28.833815950    3.994225773   -7.323349560
   -1.925492272    1.114758684   27.178791014   18.985193422    6.329009860
   -1.722808875    1.114758684   20.720289316   39.192260982   -7.931224723
   -1.520125478    1.114758684   12.389055368   46.864104047  -24.144337091
   -1.317442081    1.114758684    0.868194624   60.699388153  -36.124200032
   -1.114758684    1.114758684   -8.601475880   30.046463736  -53.977494910
   -0.912075287    1.114758684  -13.287951553   21.128424633  -49.999318180
   -0.709391890    1.114758684  -16.742809915    9.413983890  -41.175630309
   -0.506708493    1.114758684  -16.513369588  -13.181645283  -64.398959874
   -0.304025096    1.114758684   -9.707405864  -56.955333215  -84.061900405
   -0.101341699    1.114758684    4.307250188  -68.492937755  -72.992170505
    0.101341699    1.114758684   14.379853013  -31.399720656  -32.218731510
    0.304025096    1.114758684   19.820215144  -28.454767117   -9.846943136
    0.506708493    1.114758684   25.882917008  -27.352691127   -1.906196728
    0.709391890    1.114758684   30.057060181  -14.237189551   22.696785178
    0.912075287    1.114758684   31.160523708    7.523685981   22.754239522
    1.114758684    1.114758684   25.977079159   40.986744066   20.070373726
    1.317442081    1.114758684   16.691211435   47.693420799    9.329609855
    1.520125478    1.114758684    6.179101129   57.729960753    4.039942257
    1.722808875    1.114758684   -6.216872397   61.864016945   -0.841663667
    1.925492272    1.114758684  -17.973495591   51.238923570   -1.098234198
    2.128175669    1.114758684  -25.424240588   20.025741963   -4.533084843
    2.330859066    1.114758684  -26.579355954   -6.885852332  -10.580146213
    2.533542463    1.114758684  -21.902269797  -42.447175039  -14.008572045
    2.736225860    1.114758684  -10.126900374  -66.528061199  -20.048938928
    2.938909257    1.114758684    2.597510616  -57.543661119  -18.967475339

   -3.141592654    1.317442081   14.459521486  -37.940085794   -3.332542513
   -2.938909257    1.317442081   22.661480255  -37.845462735   -1.533038480
   -2.736225860    1.317442081   26.975117148   -6.011431734   -4.884796350
   -2.533542463    1.317442081   28.942096905  -19.246921915    6.425557120
   -2.330859066    1.317442081   32.004564387   -0.332310396   -2.195264012
   -2.128175669    1.317442081   29.482699014   15.312449418   -1.165631596
   -1.925492272    1.317442081   27.183957856   12.984562667  -14.350739233
   -1.722808875    1.317442081   22.621833586   29.794975297  -16.568776658
   -1.520125478    1.317442081   16.161795324   34.685322484  -17.459664933
   -1.317442081    1.317442081    8.415316540   39.058898672  -40.168739795
   -1.114758684    1.317442081    1.401497675   29.677964557  -52.646679161
   -0.912075287    1.317442081   -3.312186590   14.574176392  -67.415260426
   -0.709391890    1.317442081   -4.092534504   -5.998930953  -88.090126365
   -0.506708493    1.317442081   -0.657307980  -29.881686744  -89.990951948
   -0.304025096    1.317442081    7.220347022  -41.117344151  -71.478503520
   -0.101341699    1.317442081   14.071948087  -26.347859124  -24.509856542
    0.101341699    1.317442081   17.967734423  -11.299807810   -8.983745941
    0.304025096    1.317442081   20.425512202  -22.830088457    0.717543999
    0.506708493    1.317442081   27.920086293  -38.139285400   -9.206648755
    0.709391890    1.317442081   30.321986138   14.249285928   -2.754314376
    0.912075287    1.317442081   26.756854721   13.613840618   21.124627418
    1.114758684    1.317442081   22.952217963   30.439610758    9.020729590
    1.317442081    1.317442081   15.158987756   41.689956793    7.472110910
    1.520125478    1.317442081    5.635113571   55.662980893    3.788061103
    1.722808875    1.317442081   -6.505932935   58.366331136    3.479248960
    1.925492272    1.317442081  -17.161546999   47.433229045   -5.868628389
    2.128175669    1.317442081  -24.652082133   20.916987887   -4.131977607
    2.330859066    1.317442081  -24.836062224  -16.318397528   -7.007001960
    2.533542463    1.317442081  -18.947419132  -42.657602554  -12.257546850
    2.736225860    1.317442081   -7.298299991  -68.791500863   -8.969901709
    2.938909257    1.317442081    5.849576458  -53.701856389   -9.224566054

   -3.141592654    1.520125478   15.183177385  -43.638195451   -4.166730200
   -2.938909257    1.520125478   23.181814373  -30.658962338   -2.324764053
   -2.736225860    1.520125478   26.413902237   -4.715326153    6.866042634
   -2.533542463    1.520125478   28.234616511  -16.763734915   -5.381325676
   -2.330859066    1.520125478   30.732399548   -0.153606522   10.186082838
   -2.128175669    1.520125478   29.503917093    2.672177361    1.271842610
   -1.925492272    1.520125478   29.890340622    3.092980305   -0.922317210
   -1.722808875    1.520125478   26.217202351   27.657718766  -13.182392031
   -1.520125478    1.520125478   21.311440188   20.767997417  -29.955579508
   -1.317442081    1.520125478   16.885668313   21.022332696  -41.492564804
   -1.114758684    1.520125478   14.174109415    6.801913958  -61.663812972
   -0.912075287    1.520125478   12.399732155   11.644221183  -60.063422911
   -0.709391890    1.520125478   11.407252689   -7.013613565  -49.226774147
   -0.506708493    1.520125478   14.582718486  -16.775399190  -45.700108431
   -0.304025096    1.520125478   15.847093150    3.568876658  -14.637983589
   -0.101341699    1.520125478   15.644056256   -6.695566774    4.553799437
    0.101341699    1.520125478   17.577193118   -6.708190500   14.846152246
    0.304025096    1.520125478   19.176229246  -17.409024707   13.951019284
    0.506708493    1.520125478   24.541621309  -22.909389374   40.457431903
    0.709391890    1.520125478   24.833706019   14.235578410   45.701387045
    0.912075287    1.520125478   23.253620091    0.024208882   13.541579737
    1.114758684    1.520125478   21.051063719   28.428868366   13.317826518
    1.317442081    1.520125478   13.351011819   41.152544396    7.249126758
    1.520125478    1.520125478    4.209765576   51.710891512    6.745173918
    1.722808875    1.520125478   -6.699227106   51.855673966   -2.550104516
    1.925492272    1.520125478  -16.611430636   46.019389203    0.827434214
    2.128175669    1.520125478  -23.567691705   17.084052321   -6.845383923
    2.330859066    1.520125478  -23.499169214  -14.560602578   -7.500357143
    2.533542463    1.520125478  -17.553814881  -46.685070146   -4.953362064
    2.736225860    1.520125478   -5.528557260  -64.200701979   -9.296218736
    2.938909257    1.520125478    6.015308455  -48.852041210    2.399671467

   -3.141592654    1.722808875   16.022581627  -42.684313574   -2.035442865
   -2.938909257    1.722808875   22.898554257  -23.540028700    3.359648900
   -2.736225860    1.722808875   26.674088931  -17.485311469   -8.230974808
   -2.533542463    1.722808875   29.533442679   -6.785008528    0.857982279
   -2.330859066    1.722808875   29.745907969   -0.385134924   -2.170540431
   -2.128175669    1.722808875   30.133443606    0.617004573   -9.836598468
   -1.925492272    1.722808875   29.040487149    5.963942487   -2.439472072
   -1.722808875    1.722808875   28.403068356    4.559209773  -12.262997458
   -1.520125478    1.722808875   26.307785060   11.352014981  -21.408372766
   -1.317442081    1.722808875   25.361794982    2.034677284  -41.820234792
   -1.114758684    1.722808875   23.283265730   15.973053060  -38.956710175
   -0.912075287    1.722808875   21.852091117   -3.204215998  -71.761392988
   -0.709391890    1.722808875   21.716168170   10.399196199  -72.852213291
   -0.506708493    1.722808875   18.772309596   13.009099972  -10.683405756
   -0.304025096    1.722808875   16.640340842   10.263372383   -1.157916531
   -0.101341699    1.722808875   14.761932594    6.607339215   -0.584139017
    0.101341699    1.722808875   14.041106520    0.161482667   12.689960784
    0.304025096    1.722808875   15.275574535  -11.774117348   20.528284835
    0.506708493    1.722808875   17.334915875   -6.365058725   21.659765629
    0.709391890    1.722808875   18.856515671  -10.968005612   12.138958548
    0.912075287    1.722808875   20.388862717    1.173593476   15.183268863
    1.114758684    1.722808875   18.359495244   15.920522139    7.102392265
    1.317442081    1.722808875   13.452707511   36.349692097   -6.804604973
    1.520125478    1.722808875    4.046176023   50.846194232   -3.274068075
    1.722808875    1.722808875   -6.132597090   51.270416303   -2.368568942
    1.925492272    1.722808875  -16.333427899   43.547649232   -6.592606756
    2.128175669    1.722808875  -21.923601751   11.813806409   -8.584001692
    2.330859066    1.722808875  -21.679784321  -15.291633822   -9.052657115
    2.533542463    1.722808875  -15.045708225  -48.875029058  -19.612866076
    2.736225860    1.722808875   -3.794099809  -56.662869507   -7.732139895
    2.938909257    1.722808875    6.771563694  -47.841539217   -8.002528706

   -3.141592654    1.925492272   15.865673639  -40.190366292   -0.826390616
   -2.938909257    1.925492272   24.286682223  -39.417704646  -21.911397806
   -2.736225860    1.925492272   29.533670168   -9.017299600  -31.347618509
   -2.533542463    1.925492272   29.353361428    2.000010311  -12.482173820
   -2.330859066    1.925492272   30.805053883  -12.814447189   -4.387508697
   -2.128175669    1.925492272   31.790899004    4.574459292   -0.918921720
   -1.925492272    1.925492272   30.942213700    0.481186992   -7.151129551
   -1.722808875    1.925492272   30.701211916    2.744314446   -7.700409417
   -1.520125478    1.925492272   31.401655921   -9.887677336  -25.016794400
   -1.317442081    1.925492272   31.831363387    7.309957047  -17.529360932
   -1.114758684    1.925492272   34.293934289  -45.721763598  -59.512751190
   -0.912075287    1.925492272   44.127447692  -14.766471213  -95.245213841
   -0.709391890    1.925492272   34.861538525   83.373355799  -22.455843707
   -0.506708493    1.925492272   21.692495208   38.051493267  -13.740187897
   -0.304025096    1.925492272   16.753418478   15.771389480    1.968395468
   -0.101341699    1.925492272   14.956661149    6.701022438    4.829873810
    0.101341699    1.925492272   12.096160370   17.278821160   13.167856598
    0.304025096    1.925492272   11.369921776  -10.897451454   20.280141787
    0.506708493    1.925492272   13.653670148   -7.763264221   22.835830296
    0.709391890    1.925492272   15.819400945  -15.405448740   21.131617594
    0.912075287    1.925492272   18.251052659   -5.377228820    3.884199533
    1.114758684    1.925492272   18.485434556    3.778200299   -1.723853667
    1.317442081    1.925492272   14.456470330   39.071972321   -1.687440975
    1.520125478    1.925492272    4.796828538   48.769675447   -6.603815292
    1.722808875    1.925492272   -4.810788200   47.950635529  -12.050766793
    1.925492272    1.925492272  -14.019510008   39.604849636  -13.820164148
    2.128175669    1.925492272  -20.297574079   20.321534029   -8.212651303
    2.330859066    1.925492272  -20.159789412  -25.229034781   -7.119194742
    2.533542463    1.925492272  -11.882193400  -47.693666097   -6.771919090
    2.736225860    1.925492272   -2.304283097  -48.198423696   -5.979007890
    2.938909257    1.925492272    7.491264082  -45.402629810   -0.013279136

   -3.141592654    2.128175669   18.194511768  -44.082445897  -20.944586325
   -2.938909257    2.128175669   30.442920572  -78.123539670  -29.460076282
   -2.736225860    2.128175669   42.230099217  -11.945364687  -73.788177868
   -2.533542463    2.128175669   35.307878072   50.737032944  -31.192876329
   -2.330859066    2.128175669   31.195144428   -6.844085511   -3.713877340
   -2.128175669    2.128175669   31.774661428    6.397050316   -6.718645780
   -1.925492272    2.128175669   31.330994190   -5.500763289   -3.385178621
   -1.722808875    2.128175669   32.455145718   -4.713722750  -12.637680914
   -1.520125478    2.128175669   34.261639444   -9.498978426   -6.454279325
   -1.317442081    2.128175669   34.280358891    1.552263010  -15.707777828
   -1.114758684    2.128175669   39.429167725  -49.315710127   11.474738591
   -0.912075287    2.128175669   43.253821847   34.395813804   79.806192926
   -0.709391890    2.128175669   30.771899827   56.656558972   27.895094043
   -0.506708493    2.128175669   23.734881840   28.664179392  -11.333651522
   -0.304025096    2.128175669   16.347550029   33.448906464   -0.914056813
   -0.101341699    2.128175669   12.550561096   13.349887632   13.867611804
    0.101341699    2.128175669    8.092791612   23.308959130   21.699024490
    0.304025096    2.128175669    6.844623259   -8.805720489   20.888841103
    0.506708493    2.128175669    8.685194742   -9.428423395   19.283904571
    0.709391890    2.128175669   12.902048918  -31.507472511    3.606710566
    0.912075287    2.128175669   17.832361921  -10.180305337    3.025861746
    1.114758684    2.128175669   17.867569718    5.088156302    0.938732546
    1.317442081    2.128175669   15.293938696   25.000672770   -9.140094803
    1.520125478    2.128175669    7.478869828   47.909531826  -16.134826535
    1.722808875    2.128175669   -2.361064756   47.149433818   -9.319316829
    1.925492272    2.128175669  -11.423982972   41.277152284  -11.520718826
    2.128175669    2.128175669  -17.935638010   19.153791758  -16.036036579
    2.330859066    2.128175669  -18.153005768  -17.520214434  -12.876945317
    2.533542463    2.128175669  -11.480903889  -44.786673118   -3.374949282
    2.736225860    2.128175669   -1.533701212  -51.255106302   -4.395524529
    2.938909257    2.128175669    8.988273756  -50.580864480  -16.626149123

   -3.141592654    2.330859066   22.812930689  -35.904870238  -26.044246492
   -2.938909257    2.330859066   33.342790075  -76.784713160    2.354429662
   -2.736225860    2.330859066   45.417208142   -8.959698241   52.354108655
   -2.533542463    2.330859066   37.247110725   52.951349219    7.363569999
   -2.330859066    2.330859066   34.042080289  -11.847165161  -22.613037467
   -2.128175669    2.330859066   34.199700268   12.826669182   -9.359085449
   -1.925492272    2.330859066   33.149783354   -6.623666502  -11.289855311
   -1.722808875    2.330859066   34.685099442   -6.383864182   -5.848721042
   -1.520125478    2.330859066   37.079313132  -15.972531325  -21.528181109
   -1.317442081    2.330859066   38.571346740    3.066033260  -19.937001500
   -1.114758684    2.330859066   37.418946842    7.495144712   -8.380038186
   -0.912075287    2.330859066   34.311557194   21.366235762  -12.194272735
   -0.709391890    2.330859066   31.154719588   10.681912383  -17.308676853
   -0.506708493    2.330859066   26.206439835   42.956011647   -4.671167308
   -0.304025096    2.330859066   16.947922219   38.615476151   -1.031053767
   -0.101341699    2.330859066   10.133115674   33.926571313   13.635295013
    0.101341699    2.330859066    4.362006325   15.742982619   17.044315097
    0.304025096    2.330859066    3.880529603   -6.108726288   11.392148483
    0.506708493    2.330859066    6.635300824  -24.155342437    4.252403911
    0.709391890    2.330859066   12.960717305  -31.774034922   -0.631074973
    0.912075287    2.330859066   18.114481421  -19.680963849  -10.082757818
    1.114758684    2.330859066   20.471113461    0.361792799  -20.953502994
    1.317442081    2.330859066   17.306400565   28.682499886   -6.860632309
    1.520125478    2.330859066    9.795902222   44.511231302   -9.655501865
    1.722808875    2.330859066   -0.114779572   50.069915679  -16.437852920
    1.925492272    2.330859066   -9.102099783   36.119237478  -11.976373328
    2.128175669    2.330859066  -14.391019391   16.459867540  -15.514217431
    2.330859066    2.330859066  -15.393219080  -10.341380088  -12.931161602
    2.533542463    2.330859066   -9.245864019  -46.580057120  -17.065104019
    2.736225860    2.330859066    0.886027671  -51.920377379  -18.682404707
    2.938909257    2.330859066   12.825898313  -62.795540041  -20.429935394

   -3.141592654    2.533542463   30.562598493  -18.756761137  -46.348945968
   -2.938909257    2.533542463   31.189148700   -5.939551248   10.866761226
   -2.736225860    2.533542463   34.238989858  -16.175465025   19.043222005
   -2.533542463    2.533542463   36.743251012  -10.735467356   -4.638271474
   -2.330859066    2.533542463   37.386450646    8.961765756   -4.992724935
   -2.128175669    2.533542463   35.213298321    2.170162634   -7.503168667
   -1.925492272    2.533542463   36.207448760   -2.287867085  -21.527122218
   -1.722808875    2.533542463   36.103015610   -7.530634662  -11.602965583
   -1.520125478    2.533542463   40.180200069  -20.648097825   -5.365970685
   -1.317442081    2.533542463   41.020513938    7.013350227   -5.284252179
   -1.114758684    2.533542463   40.353653235    1.876634818   -4.755997548
   -0.912075287    2.533542463   37.518400475   26.717399022    5.592776990
   -0.709391890    2.533542463   31.392470777   31.855055079   12.031518098
   -0.506708493    2.533542463   23.943118326   41.633141209   21.901117579
   -0.304025096    2.533542463   15.134364252   45.626191741   21.325824000
   -0.101341699    2.533542463    5.713854080   41.984740562   29.466829563
    0.101341699    2.533542463    0.271998085   11.867682740   24.191371711
    0.304025096    2.533542463    0.059766190  -11.476134126   27.595646735
    0.506708493    2.533542463    5.690278109  -39.742933711    5.923585674
    0.709391890    2.533542463   13.426719165  -35.487282782   -4.615751717
    0.912075287    2.533542463   20.960860864  -34.778679540  -12.641884141
    1.114758684    2.533542463   23.440812862   14.602462311  -15.941731608
    1.317442081    2.533542463   18.388207761   24.572917210   -8.483621332
    1.520125478    2.533542463   13.166130624   35.499956202  -19.507350990
    1.722808875    2.533542463    3.046562703   57.806895990   -6.663173048
    1.925492272    2.533542463   -7.100478256   38.516214586   -4.147574232
    2.128175669    2.533542463  -12.778542309   18.771639828    0.395547481
    2.330859066    2.533542463  -13.580993763  -16.405823887   -2.828911937
    2.533542463    2.533542463   -6.214193326  -47.962431197   -8.396373536
    2.736225860    2.533542463    3.732590614  -55.908760179   -4.385786535
    2.938909257    2.533542463   18.925372037  -85.640320151  -38.335183820

   -3.141592654    2.736225860   35.083029208    4.088305708   15.091933517
   -2.938909257    2.736225860   31.021647604   -1.343374119   -6.415765535
   -2.736225860    2.736225860   36.321413162  -24.140498429   -8.246418792
   -2.533542463    2.736225860   36.647194601    7.020964307    8.434268876
   -2.330859066    2.736225860   36.988708213   -4.021310093    4.322022190
   -2.128175669    2.736225860   37.237455040   -5.781784679   -2.091730066
   -1.925492272    2.736225860   39.101944468   -0.460299666    5.227936856
   -1.722808875    2.736225860   36.939101437    5.925349052   11.451372016
   -1.520125478    2.736225860   39.659751490  -19.432373574   12.358895556
   -1.317442081    2.736225860   39.880618313   12.092063848   19.953097132
   -1.114758684    2.736225860   38.261023343    7.254628339   17.879759211
   -0.912075287    2.736225860   34.357029853   27.719714244   15.529651440
   -0.709391890    2.736225860   28.934113342   31.714304511   16.926864100
   -0.506708493    2.736225860   18.949736441   60.446729402   30.492651653
   -0.304025096    2.736225860    8.308528407   45.783934578   43.800521301
   -0.101341699    2.736225860   -1.394625370   43.894556499   41.657465267
    0.101341699    2.736225860   -6.016304907    4.752107930   39.172311850
    0.304025096    2.736225860   -5.488059909  -17.838069733   22.731549795
    0.506708493    2.736225860    4.560736619  -68.720348731    4.572890088
    0.709391890    2.736225860   14.052277876  -27.104255988    0.659083036
    0.912075287    2.736225860   24.389804688  -78.370604875  -28.295901002
    1.114758684    2.736225860   32.907266486   24.095572536  -72.274527186
    1.317442081    2.736225860   20.772626122   57.061707220   -6.951982977
    1.520125478    2.736225860   13.252843678   38.467193778   24.029369586
    1.722808875    2.736225860    1.235691468   66.685366242   21.125741072
    1.925492272    2.736225860   -8.681283661   33.130819636   19.713479419
    2.128175669    2.736225860  -14.540514421   22.738105305   18.079414965
    2.330859066    2.736225860  -14.857067147  -23.841505009   15.519284813
    2.533542463    2.736225860   -6.891049512  -44.722524882   15.065990831
    2.736225860    2.736225860    2.860530535  -64.456395778   10.338921804
    2.938909257    2.736225860   22.520048326 -112.638077576   18.450243775

   -3.141592654    2.938909257   27.375633935  -44.325639029   41.393637778
   -2.938909257    2.938909257   30.662056712   -6.088765003   13.789464324
   -2.736225860    2.938909257   33.691904434  -16.410753168   19.015683264
   -2.533542463    2.938909257   34.824139519    0.664542043    8.354995173
   -2.330859066    2.938909257   34.904867331    2.541421249   22.012467067
   -2.128175669    2.938909257   33.571714966    2.794766858   32.493058662
   -1.925492272    2.938909257   34.682338775   -4.499185924   23.490857308
   -1.722808875    2.938909257   33.474922853    7.649675587   11.093729289
   -1.520125478    2.938909257   34.603578218  -13.071518081   28.969128143
   -1.317442081    2.938909257   35.286873636    5.760029857   13.295164534
   -1.114758684    2.938909257   33.719096264   12.857415067   32.531647476
   -0.912075287    2.938909257   28.664330934   32.421580397   45.397413252
   -0.709391890    2.938909257   22.100869562   38.904668832   47.154038728
   -0.506708493    2.938909257   10.361658353   70.363276461   52.300256052
   -0.304025096    2.938909257   -1.933183262   49.526881509   58.036765033
   -0.101341699    2.938909257  -11.316406700   39.405704367   53.455459449
    0.101341699    2.938909257  -14.668661971   -6.796928818   41.537068181
    0.304025096    2.938909257   -9.890794713  -43.503932437   25.656384095
    0.506708493    2.938909257    2.937059624  -67.410564823   15.645251423
    0.709391890    2.938909257   12.512664847  -42.229520596   15.746825676
    0.912075287    2.938909257   29.314365929 -112.405376084    1.970475178
    1.114758684    2.938909257   38.544805716   55.386883122   48.689014794
    1.317442081    2.938909257   17.683689575   94.968195775   37.385271763
    1.520125478    2.938909257    6.538082127   38.845643908   30.896669449
    1.722808875    2.938909257   -4.133113909   58.539944520   31.604142226
    1.925492272    2.938909257  -13.970408972   40.930968951   29.920416202
    2.128175669    2.938909257  -20.711562386   17.819328964   41.465641831
    2.330859066    2.938909257  -19.587181731  -24.989806242   30.427062865
    2.533542463    2.938909257  -11.942541251  -49.727333399   34.932126395
    2.736225860    2.938909257   -0.753573447  -57.443698440   27.906387478
    2.938909257    2.938909257   12.851356840  -80.477905422   58.057288885
