#! FIELDS phi psi b1.bias der_phi der_psi
#! SET min_phi -pi
#! SET max_phi pi
#! SET nbins_phi  31
#! SET periodic_phi true
#! SET min_psi -pi
#! SET max_psi pi
#! SET nbins_psi  31
#! SET periodic_psi true
   -3.141592654   -3.141592654    9.593224266  -52.816465715   16.356500320
   -2.938909257   -3.141592654   17.422042747  -25.826317113   13.871358736
   -2.736225860   -3.141592654   21.378218076  -14.032325659   16.864477958
   -2.533542463   -3.141592654   22.787615452   -0.488446766   16.442636626
   -2.330859066   -3.141592654   22.316731449    4.102491543   16.472872543
   -2.128175669   -3.141592654   21.403085217    3.299147995   14.006679761
   -1.925492272   -3.141592654   21.327429678   -1.115272026   13.396290733
   -1.722808875   -3.141592654   21.391410769   -1.200845197   14.453196868
   -1.520125478   -3.141592654   22.613306673   -9.210944597   11.202715608
   -1.317442081   -3.141592654   23.248876661    6.192952582   15.581563476
   -1.114758684   -3.141592654   20.317334911   21.129058582   27.785388964
   -0.912075287   -3.141592654   14.527533532   37.349697407   31.997653337
   -0.709391890   -3.141592654    5.108561469   54.636857828   42.298709062
   -0.506708493   -3.141592654   -6.958911758   61.999743240   47.789423524
   -0.304025096   -3.141592654  -18.966129383   54.209934598   50.443851240
   -0.101341699   -3.141592654  -27.524359693   24.402180855   38.670722662
    0.101341699   -3.141592654  -26.776795820  -32.258246630    9.396476254
    0.304025096   -3.141592654  -16.462266835  -62.533081467   -7.477621624
    0.506708493   -3.141592654   -3.554470322  -61.105253510   -7.074460228
    0.709391890   -3.141592654    7.249050910  -44.525247427   -7.410615904
    0.912075287   -3.141592654   14.086932697  -19.750147010   13.812593466
    1.114758684   -3.141592654   13.822792303   22.055503878   26.722524563
    1.317442081   -3.141592654    7.006914304   41.180544011    9.994067177
    1.520125478   -3.141592654   -2.906859414   57.154759797   15.228856165
    1.722808875   -3.141592654  -14.722607999   54.661529358   14.385995506
    1.925492272   -3.141592654  -24.688309632   44.513552117   18.093550720
    2.128175669   -3.141592654  -31.563390275   17.861407929   17.285413695
    2.330859066   -3.141592654  -31.259551359  -18.408323611   22.612818233
    2.533542463   -3.141592654  -24.769638031  -45.376552948   23.078922437
    2.736225860   -3.141592654  -13.917410281  -57.012723581   23.439021094
    2.938909257   -3.141592654   -2.327788285  -59.089168460   17.395605232

   -3.141592654   -2.938909257    4.890715855  -53.470979256   28.367713480
   -2.938909257   -2.938909257   13.420569905  -28.813264879   25.300863595
   -2.736225860   -2.938909257   17.209878948  -11.900783354   21.171376593
   -2.533542463   -2.938909257   18.899376319   -4.258160029   19.878195714
   -2.330859066   -2.938909257   18.766727989    4.434334706   18.236467883
   -2.128175669   -2.938909257   17.971227394    1.975359157   19.045940201
   -1.925492272   -2.938909257   17.777871357    1.035665642   20.155295534
   -1.722808875   -2.938909257   17.848443297   -3.813508779   18.282453058
   -1.520125478   -2.938909257   19.193077655   -5.535690930   23.378859694
   -1.317442081   -2.938909257   18.526188903   12.748442216   29.209001646
   -1.114758684   -2.938909257   14.645758262   25.308308574   28.990496620
   -0.912075287   -2.938909257    7.393562294   47.846283875   40.816986602
   -0.709391890   -2.938909257   -4.023809048   61.345827906   46.118746050
   -0.506708493   -2.938909257  -16.722585340   63.156645941   46.972560132
   -0.304025096   -2.938909257  -28.375755486   45.795730283   38.065093835
   -0.101341699   -2.938909257  -32.804939338   -5.654891447   11.556079772
    0.101341699   -2.938909257  -26.457129462  -52.033846922  -10.750553191
    0.304025096   -2.938909257  -14.186208620  -64.112266138  -14.030714109
    0.506708493   -2.938909257   -1.620236304  -57.841579675  -11.131154187
    0.709391890   -2.938909257    8.252946583  -37.483489029   -3.396549288
    0.912075287   -2.938909257   13.260906766  -11.430117249   -2.190595447
    1.114758684   -2.938909257   12.255620570   22.655700249   -0.809314532
    1.317442081   -2.938909257    4.733871672   47.606771421   12.125914771
    1.520125478   -2.938909257   -5.902297210   56.529848705   13.174991693
    1.722808875   -2.938909257  -17.749448318   57.891055806   14.929369948
    1.925492272   -2.938909257  -28.308974522   44.564723233   15.792298357
    2.128175669   -2.938909257  -35.138340693   20.554490226   17.595739061
    2.330859066   -2.938909257  -35.916179725  -13.240722696   22.173815408
    2.533542463   -2.938909257  -30.030008445  -43.708963302   26.186956598
    2.736225860   -2.938909257  -19.129543459  -60.196681270   26.671344403
    2.938909257   -2.938909257   -6.845237663  -59.954242985   26.248367672

   -3.141592654   -2.736225860   -0.611642035  -50.860711444   24.802815074
   -2.938909257   -2.736225860    8.076926709  -34.194215391   24.903748580
   -2.736225860   -2.736225860   13.131183172  -16.081905963   20.462281735
   -2.533542463   -2.736225860   15.032756355   -3.843707986   18.708528621
   -2.330859066   -2.736225860   15.016549856    3.129108705   18.094006390
   -2.128175669   -2.736225860   14.285437305    2.901000219   16.737607717
   -1.925492272   -2.736225860   14.023082150   -0.287635629   16.371868104
   -1.722808875   -2.736225860   14.322066900   -1.957416105   17.529762344
   -1.520125478   -2.736225860   14.328643684    2.870278605   21.002306333
   -1.317442081   -2.736225860   12.920707704   12.262912687   23.763002873
   -1.114758684   -2.736225860    8.408755843   34.108421755   30.508724855
   -0.912075287   -2.736225860   -0.623818674   52.683346528   32.821713589
   -0.709391890   -2.736225860  -12.353515449   62.294487229   33.937598027
   -0.506708493   -2.736225860  -24.868142346   56.531449209   30.240939761
   -0.304025096   -2.736225860  -33.253699783   21.969623305   10.090478906
   -0.101341699   -2.736225860  -32.594412622  -28.832197007  -11.562497690
    0.101341699   -2.736225860  -23.173589963  -57.279662159  -19.216600055
    0.304025096   -2.736225860  -11.261460534  -59.115078429  -13.951168301
    0.506708493   -2.736225860    0.330056985  -52.098269649   -7.578450692
    0.709391890   -2.736225860    8.718216578  -30.432351415   -1.244383597
    0.912075287   -2.736225860   12.748452209   -7.195860716    7.440866133
    1.114758684   -2.736225860   10.461553475   29.654324184   16.436166949
    1.317442081   -2.736225860    2.246704404   47.594875086   12.290823208
    1.520125478   -2.736225860   -8.471371287   58.241079645   13.103565828
    1.722808875   -2.736225860  -20.528705718   57.437119154   12.293753194
    1.925492272   -2.736225860  -31.018107145   45.537552600   11.865871814
    2.128175669   -2.736225860  -38.370307384   24.165353218   13.629452804
    2.330859066   -2.736225860  -39.869257174  -10.153890360   16.195649461
    2.533542463   -2.736225860  -34.531169035  -40.791686544   18.367356406
    2.736225860   -2.736225860  -24.284246218  -57.742906703   23.299216613
    2.938909257   -2.736225860  -12.078092697  -60.513436626   24.445508041

   -3.141592654   -2.533542463   -5.214924401  -51.472396936   19.909832218
   -2.938909257   -2.533542463    3.716054646  -35.674828761   18.471361504
   -2.736225860   -2.533542463    9.006744728  -17.150751634   18.309736422
   -2.533542463   -2.533542463   11.272037132   -6.211444373   17.926615556
   -2.330859066   -2.533542463   11.564578351    2.791314952   16.483102713
   -2.128175669   -2.533542463   10.905105712    1.859880237   17.163006963
   -1.925492272   -2.533542463   10.782503098    0.538205916   16.078617241
   -1.722808875   -2.533542463   10.671770747   -0.387297310   17.012869335
   -1.520125478   -2.533542463   10.747893135    2.148563815   16.430759655
   -1.317442081   -2.533542463    8.754996898   18.692953880   18.545438439
   -1.114758684   -2.533542463    3.176858482   36.147589929   20.860859186
   -0.912075287   -2.533542463   -5.888653181   52.876066355   21.848661766
   -0.709391890   -2.533542463  -17.589658915   59.567556547   17.323478238
   -0.506708493   -2.533542463  -28.355758363   41.886762676    4.246383004
   -0.304025096   -2.533542463  -32.905479149    0.688756982  -12.861656863
   -0.101341699   -2.533542463  -28.879555133  -37.067642369  -23.126364608
    0.101341699   -2.533542463  -19.542838092  -51.833748872  -16.450265489
    0.304025096   -2.533542463   -8.631587852  -54.235783023  -11.877153936
    0.506708493   -2.533542463    1.545042198  -44.073059898   -4.083366516
    0.709391890   -2.533542463    8.775700583  -26.335887908    1.325491889
    0.912075287   -2.533542463   11.407477478    2.554700917    5.325135860
    1.114758684   -2.533542463    7.790466168   30.673181947    9.330566780
    1.317442081   -2.533542463   -0.165711106   47.150421489   11.013849302
    1.520125478   -2.533542463  -11.015861198   57.890896601   10.767514404
    1.722808875   -2.533542463  -22.682174815   55.787020003    8.746359022
    1.925492272   -2.533542463  -33.234139483   46.677410113    9.584410746
    2.128175669   -2.533542463  -40.649084727   24.366329745    9.273442870
    2.330859066   -2.533542463  -42.539597174   -6.638162017   10.965829497
    2.533542463   -2.533542463  -37.963951441  -37.019026706   15.835724923
    2.736225860   -2.533542463  -28.482326174  -54.360293108   18.420491180
    2.938909257   -2.533542463  -16.685565825  -59.837289189   20.197676325

   -3.141592654   -2.330859066   -8.492985468  -50.810880162   13.646285033
   -2.938909257   -2.330859066    0.392575304  -36.430135160   14.509382952
   -2.736225860   -2.330859066    5.854740007  -17.194154523   14.111058386
   -2.533542463   -2.330859066    7.959581767   -5.444831407   14.297875281
   -2.330859066   -2.330859066    8.291878931    2.044697069   14.588100720
   -2.128175669   -2.330859066    7.702192690    1.732172406   12.841952233
   -1.925492272   -2.330859066    7.762482787   -1.091607893   12.915917686
   -1.722808875   -2.330859066    7.798934005    0.553863143   11.905521695
   -1.520125478   -2.330859066    7.475843024    4.029735398   14.384173315
   -1.317442081   -2.330859066    5.354717641   18.501757760   14.248925386
   -1.114758684   -2.330859066   -0.268959007   36.679395028   12.659505861
   -0.912075287   -2.330859066   -9.070354935   48.445598350    6.768249520
   -0.709391890   -2.330859066  -19.051304561   47.395169664   -2.720812184
   -0.506708493   -2.330859066  -26.864417738   25.808342969  -17.564368450
   -0.304025096   -2.330859066  -28.527903369   -9.315380986  -27.604315068
   -0.101341699   -2.330859066  -23.963155748  -32.856637430  -24.351074884
    0.101341699   -2.330859066  -16.016495894  -44.394768094  -18.485881541
    0.304025096   -2.330859066   -6.595036721  -46.182828107   -8.174123134
    0.506708493   -2.330859066    1.832758068  -36.096122165    0.261883639
    0.709391890   -2.330859066    7.922662950  -22.656292704    6.234542482
    0.912075287   -2.330859066    9.874357331    5.702283581    9.851620186
    1.114758684   -2.330859066    5.883832819   30.959268731    8.820110375
    1.317442081   -2.330859066   -2.008909906   46.723853532    6.720394910
    1.520125478   -2.330859066  -12.691651761   56.441773187    6.013820653
    1.722808875   -2.330859066  -24.124988292   55.643004226    5.761607019
    1.925492272   -2.330859066  -34.803003280   47.274943620    5.730737289
    2.128175669   -2.330859066  -42.252818181   24.806527435    6.468185643
    2.330859066   -2.330859066  -44.522764694   -3.503475643    8.353733903
    2.533542463   -2.330859066  -40.627464231  -33.753170969    9.843502014
    2.736225860   -2.330859066  -31.705482896  -52.533605783   12.695584609
    2.938909257   -2.330859066  -19.983954485  -60.478495071   12.888185880

   -3.141592654   -2.128175669  -11.059753209  -51.206316918   10.084660462
   -2.938909257   -2.128175669   -2.042481391  -35.967464344    8.808736012
   -2.736225860   -2.128175669    3.321302000  -17.961924931    9.100918692
   -2.533542463   -2.128175669    5.712252728   -6.331211510    7.594242413
   -2.330859066   -2.128175669    6.174642788    0.662758856    6.418475280
   -2.128175669   -2.128175669    5.885797708    1.511623879    5.924519379
   -1.925492272   -2.128175669    5.699109719    0.175629593    7.213404173
   -1.722808875   -2.128175669    5.743034049   -0.035745847    7.400672148
   -1.520125478   -2.128175669    5.388848693    4.569037482    6.060257814
   -1.317442081   -2.128175669    3.346395759   16.859963576    4.903362876
   -1.114758684   -2.128175669   -1.590164144   31.268179392    0.624894713
   -0.912075287   -2.128175669   -8.976615707   40.435903842   -5.076340088
   -0.709391890   -2.128175669  -17.021895897   35.432851223  -16.349186646
   -0.506708493   -2.128175669  -22.165959579   14.131210045  -26.722334603
   -0.304025096   -2.128175669  -22.755550697   -8.037465834  -28.675469560
   -0.101341699   -2.128175669  -19.095998233  -26.866289948  -23.759716817
    0.101341699   -2.128175669  -12.577868666  -35.864664401  -14.988496805
    0.304025096   -2.128175669   -5.023036695  -37.523419374   -8.100867033
    0.506708493   -2.128175669    2.059779814  -30.986720046   -2.647531757
    0.709391890   -2.128175669    7.033608646  -16.764919686    1.603975595
    0.912075287   -2.128175669    8.340445290    4.679647963    3.641224126
    1.114758684   -2.128175669    5.042554281   27.754888241   -0.297344427
    1.317442081   -2.128175669   -2.684637026   47.162663330   -0.221360852
    1.520125478   -2.128175669  -13.315789589   55.928386811   -0.445431514
    1.722808875   -2.128175669  -24.774206876   55.773229428   -0.596115945
    1.925492272   -2.128175669  -35.322539929   46.859515146   -1.114703854
    2.128175669   -2.128175669  -43.092881562   27.595249230    1.343627505
    2.330859066   -2.128175669  -45.652080683   -3.272379700    2.259150894
    2.533542463   -2.128175669  -42.018310057  -31.299483661    3.961617690
    2.736225860   -2.128175669  -33.442847819  -51.673362567    4.601491835
    2.938909257   -2.128175669  -22.141978078  -57.009369270    7.683321132

   -3.141592654   -1.925492272  -11.849025390  -50.187799021   -1.714301546
   -2.938909257   -1.925492272   -2.996388072  -35.768281673    0.850792173
   -2.736225860   -1.925492272    2.418138764  -18.076495278    0.932766429
   -2.533542463   -1.925492272    4.762148372   -6.288008387    1.946384755
   -2.330859066   -1.925492272    5.324620657    0.145405370    1.969011158
   -2.128175669   -1.925492272    5.019283247    1.836010433    2.234052735
   -1.925492272   -1.925492272    4.866782777   -0.376735751    1.181748303
   -1.722808875   -1.925492272    5.026981713   -0.762575989    0.457579777
   -1.520125478   -1.925492272    4.909795983    3.049039529   -0.818743140
   -1.317442081   -1.925492272    3.250403992   14.316588528   -2.916682413
   -1.114758684   -1.925492272   -0.945172849   26.327713121   -6.676983022
   -0.912075287   -1.925492272   -6.843212403   30.074496074  -17.554931272
   -0.709391890   -1.925492272  -12.493217587   24.420868263  -27.487832217
   -0.506708493   -1.925492272  -16.218628862   10.972505888  -32.159049440
   -0.304025096   -1.925492272  -16.690402733   -5.759583701  -31.220368883
   -0.101341699   -1.925492272  -14.251274078  -17.937733778  -24.384442449
    0.101341699   -1.925492272   -9.459257528  -28.560386771  -16.642395095
    0.304025096   -1.925492272   -3.334599085  -30.352218334   -8.373178398
    0.506708493   -1.925492272    2.525919396  -26.724174983   -2.028933295
    0.709391890   -1.925492272    6.896856005  -14.731632209    0.894327086
    0.912075287   -1.925492272    8.110721738    3.287037230    0.366497867
    1.114758684   -1.925492272    5.215857043   26.102884730   -0.127197137
    1.317442081   -1.925492272   -2.303156064   46.338097382   -1.900469797
    1.520125478   -1.925492272  -12.727539465   54.704674912   -3.814814355
    1.722808875   -1.925492272  -23.900910449   54.545895947   -6.296066645
    1.925492272   -1.925492272  -34.522957548   49.041603270   -5.912631449
    2.128175669   -1.925492272  -42.760822578   28.993564708   -4.394605821
    2.330859066   -1.925492272  -45.464010035   -2.435343914   -3.594879117
    2.533542463   -1.925492272  -42.076916502  -30.198563113   -3.495865588
    2.736225860   -1.925492272  -33.690120790  -50.447225229   -2.153854100
    2.938909257   -1.925492272  -22.708505122  -55.549627253   -1.809547991

   -3.141592654   -1.722808875  -11.034781895  -48.511876511   -6.391160647
   -2.938909257   -1.722808875   -2.554900645  -34.413353490   -5.417707748
   -2.736225860   -1.722808875    2.755929577  -18.197147270   -5.213294004
   -2.533542463   -1.722808875    5.184815251   -6.865852925   -6.780975561
   -2.330859066   -1.722808875    5.793147031    0.446869705   -7.036720564
   -2.128175669   -1.722808875    5.402256636    2.010993168   -6.475691124
   -1.925492272   -1.722808875    5.254475561   -0.229032667   -5.431858739
   -1.722808875   -1.722808875    5.346633767   -0.833949652   -4.448499955
   -1.520125478   -1.722808875    5.541836840    0.183454727   -5.855594069
   -1.317442081   -1.722808875    4.512654000   11.005925457  -10.857423255
   -1.114758684   -1.722808875    1.385640385   18.231280324  -16.665283176
   -0.912075287   -1.722808875   -2.558752407   20.692972133  -21.711009955
   -0.709391890   -1.722808875   -6.746322748   18.929895256  -27.440496617
   -0.506708493   -1.722808875   -9.594307571    8.705140481  -31.380628073
   -0.304025096   -1.722808875  -10.413969393   -0.462679333  -30.092673348
   -0.101341699   -1.722808875   -9.220058759  -11.682929121  -24.887475551
    0.101341699   -1.722808875   -5.882665457  -20.226484118  -19.258441836
    0.304025096   -1.722808875   -1.343267501  -23.860367669  -11.990834814
    0.506708493   -1.722808875    3.307445439  -20.539769668   -5.242653872
    0.709391890   -1.722808875    6.588550343  -11.401282650    2.593057426
    0.912075287   -1.722808875    7.599116646    2.924248448    5.711778870
    1.114758684   -1.722808875    4.863562012   24.531077265    4.022461490
    1.317442081   -1.722808875   -2.162075420   43.710257666   -0.330606741
    1.520125478   -1.722808875  -12.152265658   52.568417715   -2.127771526
    1.722808875   -1.722808875  -22.747168691   51.431703515   -5.438348731
    1.925492272   -1.722808875  -32.985018557   48.643741960   -9.497913000
    2.128175669   -1.722808875  -41.362732277   30.446808538   -9.409339021
    2.330859066   -1.722808875  -44.326585029   -1.960849451   -7.888568045
    2.533542463   -1.722808875  -40.821460380  -31.084788139   -8.467157202
    2.736225860   -1.722808875  -32.495132321  -49.095159198   -9.722300044
    2.938909257   -1.722808875  -21.722194030  -55.097264497   -8.172402437

   -3.141592654   -1.520125478   -8.719248470  -46.754531255  -16.332958896
   -2.938909257   -1.520125478   -0.526473736  -33.605378271  -14.692795359
   -2.736225860   -1.520125478    4.739321458  -18.489145850  -13.658814832
   -2.533542463   -1.520125478    7.270491388   -7.164861449  -12.461919662
   -2.330859066   -1.520125478    7.782817429    1.408436452  -11.418919454
   -2.128175669   -1.520125478    7.268864552    2.344183148  -10.535299391
   -1.925492272   -1.520125478    6.986808523    0.575468695  -10.650524254
   -1.722808875   -1.520125478    7.099592358   -2.004115023  -12.036104349
   -1.520125478   -1.520125478    7.718029447   -3.139350499  -15.525026704
   -1.317442081   -1.520125478    7.700283765    5.169827157  -18.124405053
   -1.114758684   -1.520125478    5.429309817   15.716714466  -21.689012674
   -0.912075287   -1.520125478    2.115990496   16.254960159  -26.415474062
   -0.709391890   -1.520125478   -1.184997188   15.469794833  -29.276512900
   -0.506708493   -1.520125478   -3.497660968    6.969942370  -30.474346373
   -0.304025096   -1.520125478   -4.508369250    3.391484410  -28.317357994
   -0.101341699   -1.520125478   -4.073260784   -9.453149504  -26.528459597
    0.101341699   -1.520125478   -1.383415016  -13.521403483  -22.867052360
    0.304025096   -1.520125478    1.025122884  -11.809040700   -8.556681753
    0.506708493   -1.520125478    3.536893277  -11.360094894    5.526611137
    0.709391890   -1.520125478    5.264598002   -6.272738986   11.389225855
    0.912075287   -1.520125478    5.995080139    0.983815936    7.729847029
    1.114758684   -1.520125478    4.128773074   18.218767758    0.059768431
    1.317442081   -1.520125478   -1.709047471   40.185919139   -4.872824810
    1.520125478   -1.520125478  -11.481751631   51.716969074   -5.565853289
    1.722808875   -1.520125478  -21.349226442   46.137908699   -8.507733880
    1.925492272   -1.520125478  -30.874845708   47.188482161  -10.505277414
    2.128175669   -1.520125478  -39.040421470   29.589331606  -12.976555395
    2.330859066   -1.520125478  -42.043980826   -0.989601494  -14.743517144
    2.533542463   -1.520125478  -38.482969647  -32.945978899  -15.178293057
    2.736225860   -1.520125478  -29.810714494  -49.726524071  -16.422723072
    2.938909257   -1.520125478  -19.117642266  -54.086091683  -17.014854312

   -3.141592654   -1.317442081   -5.144008012  -46.138073116  -17.968731318
   -2.938909257   -1.317442081    2.950525097  -33.179283701  -18.126454750
   -2.736225860   -1.317442081    7.975863254  -16.249112808  -17.829620910
   -2.533542463   -1.317442081   10.039514129   -5.580152212  -15.191566229
   -2.330859066   -1.317442081   10.341564418    2.586336825  -13.986207296
   -2.128175669   -1.317442081    9.590369764    2.749088220  -13.203542113
   -1.925492272   -1.317442081    9.409437831   -0.227745756  -13.993380337
   -1.722808875   -1.317442081    9.803642378   -4.696937897  -14.859890460
   -1.520125478   -1.317442081   10.979642537   -4.176319694  -14.850885508
   -1.317442081   -1.317442081   10.917451257    3.802160827  -14.345306436
   -1.114758684   -1.317442081    9.842892003    7.350244165  -22.045332061
   -0.912075287   -1.317442081    7.719178336   12.549839845  -26.323998603
   -0.709391890   -1.317442081    5.340611976   10.913470920  -33.502546341
   -0.506708493   -1.317442081    2.947012113   12.437796183  -31.372825657
   -0.304025096   -1.317442081    1.055699893    4.535273722  -26.015319404
   -0.101341699   -1.317442081    0.991706406   -2.235644545  -19.512439407
    0.101341699   -1.317442081    1.390089299   -0.931862667   -1.404496768
    0.304025096   -1.317442081    1.262506797    1.917666271    7.243464550
    0.506708493   -1.317442081    1.047773739   -1.600455060   17.797380304
    0.709391890   -1.317442081    2.525521295  -13.028130901   12.805364335
    0.912075287   -1.317442081    5.339676354  -10.532740321   -1.539443600
    1.114758684   -1.317442081    5.342076557   12.515285488   -9.994059184
    1.317442081   -1.317442081   -0.014898427   39.744829585  -11.870517958
    1.520125478   -1.317442081   -9.630210711   50.546059101  -12.523999022
    1.722808875   -1.317442081  -19.312189588   45.410400900  -12.139475719
    1.925492272   -1.317442081  -28.585780420   45.251324235  -13.321150311
    2.128175669   -1.317442081  -36.240379917   26.641044885  -14.722592200
    2.330859066   -1.317442081  -38.691723362   -3.086608831  -17.080814231
    2.533542463   -1.317442081  -34.853021761  -33.880341148  -19.308481251
    2.736225860   -1.317442081  -26.042087303  -49.957714389  -20.114906094
    2.938909257   -1.317442081  -15.412874672  -53.449698124  -18.880927096

   -3.141592654   -1.114758684   -1.206223038  -44.366947220  -20.720084440
   -2.938909257   -1.114758684    6.546500433  -32.427529911  -17.243406766
   -2.736225860   -1.114758684   11.577828277  -16.069535924  -16.337674750
   -2.533542463   -1.114758684   13.336577760   -3.242852134  -16.328102363
   -2.330859066   -1.114758684   13.342288338    2.791124728  -15.344388740
   -2.128175669   -1.114758684   12.700561097    1.827979873  -16.690155104
   -1.925492272   -1.114758684   12.773857010   -1.852017069  -18.060885535
   -1.722808875   -1.114758684   13.376319199   -4.291241303  -19.827645108
   -1.520125478   -1.114758684   14.206395389   -2.725544643  -19.206110568
   -1.317442081   -1.114758684   14.580442485   -1.919885590  -22.687805463
   -1.114758684   -1.114758684   14.582093576    4.241084219  -24.715928453
   -0.912075287   -1.114758684   12.947782050    8.906285579  -27.034000218
   -0.709391890   -1.114758684   11.360855729    9.494301052  -24.080749003
   -0.506708493   -1.114758684    8.326468476   18.300656055  -20.359975180
   -0.304025096   -1.114758684    5.243525825   11.991582414  -12.518113156
   -0.101341699   -1.114758684    2.535528769   15.474353601    4.332055536
    0.101341699   -1.114758684   -0.249704296   10.685167835   15.560694908
    0.304025096   -1.114758684   -2.288560885   10.245530810   28.030449170
    0.506708493   -1.114758684   -3.143600604   -6.832900266   21.000980732
    0.709391890   -1.114758684    0.930426340  -29.188078604    2.157571106
    0.912075287   -1.114758684    6.230690571  -18.258380184   -6.458962479
    1.114758684   -1.114758684    7.375246657    7.962266012  -10.143351227
    1.317442081   -1.114758684    2.675946091   38.192172430  -12.891368360
    1.520125478   -1.114758684   -6.852959746   50.491791259  -13.514365359
    1.722808875   -1.114758684  -16.399627516   44.157668578  -15.162698257
    1.925492272   -1.114758684  -25.445519670   44.600884122  -16.141773626
    2.128175669   -1.114758684  -33.060218516   26.563570801  -16.205985985
    2.330859066   -1.114758684  -35.361714764   -4.737071549  -15.849752893
    2.533542463   -1.114758684  -31.061022156  -36.228683239  -17.868098424
    2.736225860   -1.114758684  -21.970510625  -50.335606472  -19.226036196
    2.938909257   -1.114758684  -11.320194005  -53.450145261  -21.212476627

   -3.141592654   -0.912075287    2.442280605  -42.296483991  -13.605383249
   -2.938909257   -0.912075287    9.761306326  -30.153510263  -13.804289729
   -2.736225860   -0.912075287   14.435339621  -15.587132455  -12.444379007
   -2.533542463   -0.912075287   16.352689135   -4.420538317  -13.295021593
   -2.330859066   -0.912075287   16.531075377    1.860009501  -15.554502201
   -2.128175669   -0.912075287   16.095861430    1.287520548  -16.645091477
   -1.925492272   -0.912075287   16.222379447   -2.725842373  -15.799742630
   -1.722808875   -0.912075287   17.204428817   -6.387297914  -16.791082909
   -1.520125478   -0.912075287   18.390805945   -4.671922353  -18.703851454
   -1.317442081   -0.912075287   19.167492915   -3.151841919  -19.799728526
   -1.114758684   -0.912075287   19.375495429    2.170770113  -20.871911517
   -0.912075287   -0.912075287   18.098814587   10.440894338  -20.623334237
   -0.709391890   -0.912075287   15.159741586   18.216021823  -14.586846398
   -0.506708493   -0.912075287   10.960326023   23.063036709   -5.371515045
   -0.304025096   -0.912075287    5.657653643   29.024216203    7.549138991
   -0.101341699   -0.912075287   -0.182430463   27.146594411   22.265450771
    0.101341699   -0.912075287   -5.382805749   24.282691205   35.894645543
    0.304025096   -0.912075287   -8.819713120    4.270377129   30.067343593
    0.506708493   -0.912075287   -5.984426285  -30.220644640    5.122028590
    0.709391890   -0.912075287    1.422753727  -37.694431342   -5.380420329
    0.912075287   -0.912075287    7.765964783  -22.150471114   -8.011530567
    1.114758684   -0.912075287    9.519254910    6.433703930   -9.858889688
    1.317442081   -0.912075287    4.910035115   37.957693854   -9.793066706
    1.520125478   -0.912075287   -4.430941721   49.263445190  -10.272229837
    1.722808875   -0.912075287  -13.850826023   43.834077167   -9.738816971
    1.925492272   -0.912075287  -22.635886466   42.508352010  -11.059939675
    2.128175669   -0.912075287  -30.048310786   26.994325122  -12.454098783
    2.330859066   -0.912075287  -32.315707031   -6.437739694  -13.584416506
    2.533542463   -0.912075287  -27.638657259  -37.030939244  -15.404507019
    2.736225860   -0.912075287  -18.472132130  -51.498523938  -15.208248536
    2.938909257   -0.912075287   -7.476971945  -54.326409694  -15.239458512

   -3.141592654   -0.709391890    4.560117005  -42.838270219   -8.659803131
   -2.938909257   -0.709391890   12.069363245  -30.488427266   -9.206323462
   -2.736225860   -0.709391890   16.667897207  -15.240820729   -9.048343937
   -2.533542463   -0.709391890   18.668702729   -5.433904598   -9.214304149
   -2.330859066   -0.709391890   19.165754863   -0.377839755   -9.732294017
   -2.128175669   -0.709391890   19.137434003    0.367860693  -11.890374055
   -1.925492272   -0.709391890   19.182168356   -1.782485616  -12.510859015
   -1.722808875   -0.709391890   20.075904551   -6.281835906  -11.454312512
   -1.520125478   -0.709391890   21.298585954   -5.674030408  -11.669757919
   -1.317442081   -0.709391890   22.487411006   -5.287174434  -13.913668966
   -1.114758684   -0.709391890   22.787931964    3.232007484  -13.272792279
   -0.912075287   -0.709391890   21.215005493   12.623219453  -11.659523687
   -0.709391890   -0.709391890   17.186690088   27.619628378   -3.515661133
   -0.506708493   -0.709391890   10.516910489   36.667302129    9.726174582
   -0.304025096   -0.709391890    2.404340965   43.525191384   25.088730225
   -0.101341699   -0.709391890   -6.490102683   41.071489682   37.086082394
    0.101341699   -0.709391890  -12.827602088   17.964451786   29.935359745
    0.304025096   -0.709391890  -12.681319570  -19.789160452    8.463294574
    0.506708493   -0.709391890   -5.999405705  -41.403511663   -1.844858149
    0.709391890   -0.709391890    2.593394035  -40.748874285   -6.255203486
    0.912075287   -0.709391890    9.350242573  -22.987486791   -8.100813627
    1.114758684   -0.709391890   11.198231662    5.588291031   -8.024628376
    1.317442081   -0.709391890    6.777416442   37.704785798   -7.951350049
    1.520125478   -0.709391890   -2.657615165   49.731679476   -7.710752458
    1.722808875   -0.709391890  -12.092124787   44.052075576   -7.980681527
    1.925492272   -0.709391890  -21.032765414   43.210618488   -4.500725287
    2.128175669   -0.709391890  -28.309678686   24.978928079   -4.523262404
    2.330859066   -0.709391890  -30.136269056   -8.211415868   -7.490088293
    2.533542463   -0.709391890  -25.202544623  -38.055474277   -7.753718414
    2.736225860   -0.709391890  -15.880377031  -51.557537889   -9.449095726
    2.938909257   -0.709391890   -5.141967440  -52.179279279   -8.314469600

   -3.141592654   -0.506708493    5.828891363  -44.684119748   -2.562191956
   -2.938909257   -0.506708493   13.435463468  -30.068789089   -3.745328482
   -2.736225860   -0.506708493   18.081240951  -15.935046644   -5.360805117
   -2.533542463   -0.506708493   20.102455464   -5.233073703   -5.499513562
   -2.330859066   -0.506708493   20.713456878   -1.407764118   -6.469853701
   -2.128175669   -0.506708493   20.787736931    0.059720663   -5.875388081
   -1.925492272   -0.506708493   21.007158594   -2.597857060   -6.282716616
   -1.722808875   -0.506708493   21.876903041   -6.233482750   -7.047572334
   -1.520125478   -0.506708493   23.493037008   -8.575612694   -8.818564797
   -1.317442081   -0.506708493   24.748251474   -3.156322398   -7.667108958
   -1.114758684   -0.506708493   24.768630815    3.773629273   -5.410422360
   -0.912075287   -0.506708493   22.369640287   21.689215666    2.799662346
   -0.709391890   -0.506708493   16.069427110   39.037240031   13.929766561
   -0.506708493   -0.506708493    6.878464453   51.224546197   25.933981762
   -0.304025096   -0.506708493   -3.994393945   52.751939899   33.560373350
   -0.101341699   -0.506708493  -13.038583535   33.390096854   23.905867496
    0.101341699   -0.506708493  -16.629705033    0.905142801   11.215780863
    0.304025096   -0.506708493  -13.519535264  -30.062404777    1.962399903
    0.506708493   -0.506708493   -5.364091183  -47.408161375   -5.909294232
    0.709391890   -0.506708493    4.206307168  -43.343201444   -9.385015099
    0.912075287   -0.506708493   11.146116976  -23.399042725   -8.989135744
    1.114758684   -0.506708493   12.933905193    7.580475673   -7.488913991
    1.317442081   -0.506708493    8.068225663   37.922033234   -6.061307843
    1.520125478   -0.506708493   -0.955141044   48.013378663   -9.493224622
    1.722808875   -0.506708493  -10.838481461   49.351531318   -4.246917227
    1.925492272   -0.506708493  -20.688607811   45.695811897   -0.015303877
    2.128175669   -0.506708493  -27.980451880   22.909984204    0.169955269
    2.330859066   -0.506708493  -29.354240515   -9.148294058   -0.256253609
    2.533542463   -0.506708493  -24.562743322  -37.136428915    0.944388226
    2.736225860   -0.506708493  -15.123145202  -52.930677191    2.181331556
    2.938909257   -0.506708493   -4.216263209  -52.984467685   -0.307121060

   -3.141592654   -0.304025096    5.550218338  -45.890825572    4.206450424
   -2.938909257   -0.304025096   13.613158986  -33.479551174    1.037776882
   -2.736225860   -0.304025096   18.834971958  -17.623568757   -1.787172287
   -2.533542463   -0.304025096   21.068468409   -6.001027944   -3.970949871
   -2.330859066   -0.304025096   21.789681568   -1.805837178   -3.726925215
   -2.128175669   -0.304025096   21.971293507   -0.449845563   -5.137820757
   -1.925492272   -0.304025096   22.233205911   -2.806287311   -5.881834128
   -1.722808875   -0.304025096   23.210679736   -6.497902749   -5.817730105
   -1.520125478   -0.304025096   24.618969564   -6.823965051   -3.524176644
   -1.317442081   -0.304025096   25.667121105   -2.148077687   -1.981972905
   -1.114758684   -0.304025096   24.769839374   12.464193629    4.921667890
   -0.912075287   -0.304025096   20.367138225   31.104233987   14.030564202
   -0.709391890   -0.304025096   12.138687417   49.636079925   23.560010556
   -0.506708493   -0.304025096    1.016232952   56.849174813   28.048846667
   -0.304025096   -0.304025096   -9.563987006   45.111190515   21.148059324
   -0.101341699   -0.304025096  -16.681019646   23.938852529   15.454870969
    0.101341699   -0.304025096  -18.539035044   -7.691266270    7.344300621
    0.304025096   -0.304025096  -13.382123231  -40.898194176   -4.022634341
    0.506708493   -0.304025096   -3.661210250  -50.772140028   -9.394586745
    0.709391890   -0.304025096    6.056888767  -43.094110779   -8.908822842
    0.912075287   -0.304025096   12.814032423  -21.055470165   -8.003338766
    1.114758684   -0.304025096   14.086358206    8.326615830   -6.324873060
    1.317442081   -0.304025096    9.707008088   34.036673811   -9.777662027
    1.520125478   -0.304025096    0.891255370   50.785734124   -7.751868822
    1.722808875   -0.304025096  -10.025170445   55.143192100   -4.486394148
    1.925492272   -0.304025096  -20.641794031   47.071368652   -0.668979520
    2.128175669   -0.304025096  -28.070065886   24.138114698    0.649762432
    2.330859066   -0.304025096  -29.844090158   -7.297780466    4.216640266
    2.533542463   -0.304025096  -25.336145263  -35.479221163    6.202307950
    2.736225860   -0.304025096  -16.242250797  -52.501453370    7.414574210
    2.938909257   -0.304025096   -4.926726472  -56.288899211    6.715166018

   -3.141592654   -0.101341699    4.510776876  -50.820675415    5.613357737
   -2.938909257   -0.101341699   13.370831513  -36.096294148    1.269870205
   -2.736225860   -0.101341699   19.009171328  -19.650570494   -0.780639926
   -2.533542463   -0.101341699   21.620760782   -7.082636907   -1.387314367
   -2.330859066   -0.101341699   22.294877908   -0.872283029   -1.665149868
   -2.128175669   -0.101341699   22.522223222   -2.101257648   -0.968627724
   -1.925492272   -0.101341699   23.082864690   -3.114219859   -2.289303859
   -1.722808875   -0.101341699   23.930500346   -5.814122946   -1.253404784
   -1.520125478   -0.101341699   25.240182998   -5.466008367   -1.433940710
   -1.317442081   -0.101341699   25.451273908    4.565055416    4.696398255
   -1.114758684   -0.101341699   23.046039091   20.088600225   11.757053966
   -0.912075287   -0.101341699   16.952774515   40.281944147   20.296346958
   -0.709391890   -0.101341699    7.179192183   53.726987472   23.065585576
   -0.506708493   -0.101341699   -3.771261453   52.367171899   20.204132694
   -0.304025096   -0.101341699  -13.495570039   41.991896566   19.063402283
   -0.101341699   -0.101341699  -19.738737196   16.472722808   13.658695480
    0.101341699   -0.101341699  -19.323610540  -20.761010431    0.804835835
    0.304025096   -0.101341699  -12.098334406  -47.062747194   -7.638600665
    0.506708493   -0.101341699   -1.729653592  -52.209414345  -10.120283440
    0.709391890   -0.101341699    8.121870915  -42.860907963  -11.617694861
    0.912075287   -0.101341699   14.755836824  -20.821398474  -11.846305416
    1.114758684   -0.101341699   16.166307325    7.427720561  -12.591200663
    1.317442081   -0.101341699   11.643566744   36.530133609   -9.099460920
    1.520125478   -0.101341699    2.238272073   53.407726998   -6.102339078
    1.722808875   -0.101341699   -9.190530252   58.048624355   -2.856518919
    1.925492272   -0.101341699  -20.431499613   49.761549753   -1.399027900
    2.128175669   -0.101341699  -28.310366659   26.577438771    1.658712000
    2.330859066   -0.101341699  -30.794056364   -3.185531597    5.079397964
    2.533542463   -0.101341699  -26.927225789  -33.535498173    9.224444514
    2.736225860   -0.101341699  -18.121646464  -51.368551572   11.712414133
    2.938909257   -0.101341699   -6.778705240  -58.424444017   10.920413903

   -3.141592654    0.101341699    3.404524430  -54.723567188    4.965402916
   -2.938909257    0.101341699   12.981117808  -39.442288937    2.444533932
   -2.736225860    0.101341699   19.067137696  -20.332483725    0.992368278
   -2.533542463    0.101341699   21.675745685   -7.056517904    0.569557558
   -2.330859066    0.101341699   22.419136816   -1.462864585    0.619595414
   -2.128175669    0.101341699   22.759776865   -2.323587900   -0.714588522
   -1.925492272    0.101341699   23.218746536   -2.252121769    1.343915610
   -1.722808875    0.101341699   23.967386331   -5.157344379    0.751376522
   -1.520125478    0.101341699   24.708102924   -0.477487571    6.193991112
   -1.317442081    0.101341699   23.891015361    9.225265527    9.774486749
   -1.114758684    0.101341699   20.296132895   27.571933562   13.887004586
   -0.912075287    0.101341699   12.991527012   42.798275705   15.507291879
   -0.709391890    0.101341699    3.272380019   52.656039768   16.402381949
   -0.506708493    0.101341699   -7.640916921   52.397212341   17.837031455
   -0.304025096    0.101341699  -17.096448938   38.657794875   15.902722972
   -0.101341699    0.101341699  -21.872830960    4.906692941    6.922819880
    0.101341699    0.101341699  -18.923782271  -31.229419762   -5.211309019
    0.304025096    0.101341699  -10.447638819  -50.145841568   -8.864158819
    0.506708493    0.101341699    0.441018110  -54.607010873  -11.863643065
    0.709391890    0.101341699   10.819868002  -45.840209036  -16.491502150
    0.912075287    0.101341699   17.744275282  -19.023369279  -16.906357834
    1.114758684    0.101341699   18.256360312   11.917302560   -7.633058631
    1.317442081    0.101341699   13.333494275   37.697841768   -6.174665163
    1.520125478    0.101341699    3.111036505   59.493257022   -1.175443172
    1.722808875    0.101341699   -9.036313786   58.273215208    1.377873672
    1.925492272    0.101341699  -20.271193158   51.129623369    0.786306075
    2.128175669    0.101341699  -28.713922735   30.103643647    2.666430527
    2.330859066    0.101341699  -32.014122186    1.349405678    7.076738221
    2.533542463    0.101341699  -29.010512716  -29.971242831   11.058904184
    2.736225860    0.101341699  -20.661761854  -50.997541981   11.473776306
    2.938909257    0.101341699   -8.830103277  -63.134604682    8.151591579

   -3.141592654    0.304025096    2.602931129  -57.853725522    2.802675123
   -2.938909257    0.304025096   12.581911540  -39.691789895    1.467778830
   -2.736225860    0.304025096   18.701506592  -21.206233204    1.888550260
   -2.533542463    0.304025096   21.461083828   -7.148612990    1.794113134
   -2.330859066    0.304025096   22.222733014   -1.702322096    0.848765985
   -2.128175669    0.304025096   22.383813477   -0.225903398    3.236671309
   -1.925492272    0.304025096   22.658497437   -3.232676951    1.962566321
   -1.722808875    0.304025096   23.396881433   -2.195981891    5.165193821
   -1.520125478    0.304025096   23.169161278    4.039294733    8.820948347
   -1.317442081    0.304025096   21.749022708   11.381611022   10.722823377
   -1.114758684    0.304025096   17.869515652   27.735980957   10.044029169
   -0.912075287    0.304025096   10.476371714   44.978702168   12.138545258
   -0.709391890    0.304025096    0.099944225   55.011082524   14.444692297
   -0.506708493    0.304025096  -10.850592745   51.413189548   14.026714973
   -0.304025096    0.304025096  -19.788433404   32.465802935    9.269739168
   -0.101341699    0.304025096  -22.316421375   -8.565560864   -2.483523855
    0.101341699    0.304025096  -17.378768001  -36.689550057   -9.339290519
    0.304025096    0.304025096   -8.035197166  -54.986802707  -17.296847758
    0.506708493    0.304025096    4.071675762  -60.912292638  -25.941115385
    0.709391890    0.304025096   15.126227239  -44.329210119  -23.253695059
    0.912075287    0.304025096   20.652199599   -8.721957714   -9.988008368
    1.114758684    0.304025096   19.347654625   18.547044448   -2.364695305
    1.317442081    0.304025096   13.427143090   41.311742437    5.437944392
    1.520125478    0.304025096    2.708746396   61.029630798    3.936244077
    1.722808875    0.304025096   -9.669668737   58.826182095    4.335605951
    1.925492272    0.304025096  -20.877851031   51.021341455    4.566447341
    2.128175669    0.304025096  -29.593658717   32.758046031    6.050268841
    2.330859066    0.304025096  -33.485924843    4.454072485    6.662257599
    2.533542463    0.304025096  -31.062326626  -28.445046157    7.927885989
    2.736225860    0.304025096  -22.428587830  -54.492950646    6.325324404
    2.938909257    0.304025096  -10.072734694  -64.573106788    4.691957939

   -3.141592654    0.506708493    2.203905738  -57.447270424    1.591476391
   -2.938909257    0.506708493   12.089030959  -39.871090906    3.918368005
   -2.736225860    0.506708493   18.131252285  -19.768599109    4.502270476
   -2.533542463    0.506708493   20.803633388   -8.699514748    4.332503579
   -2.330859066    0.506708493   21.935380295   -2.788717338    2.475977182
   -2.128175669    0.506708493   22.528448381   -4.253744506   -5.070240750
   -1.925492272    0.506708493   23.103908877    1.114497663   -4.617875960
   -1.722808875    0.506708493   22.090544827    6.351765552    6.967573077
   -1.520125478    0.506708493   21.156116507    3.535844592    9.869266938
   -1.317442081    0.506708493   19.970556254   10.189964690    6.123702111
   -1.114758684    0.506708493   16.105250811   29.613106567    7.260948150
   -0.912075287    0.506708493    8.163763459   46.757380561    8.419939572
   -0.709391890    0.506708493   -2.285135295   55.328688901    9.616115027
   -0.506708493    0.506708493  -13.183399930   48.043217356    7.690922558
   -0.304025096    0.506708493  -20.416653844   21.348522335   -1.994808871
   -0.101341699    0.506708493  -21.111404116  -15.808393801  -10.305710760
    0.101341699    0.506708493  -14.373155948  -47.934642854  -24.215834606
    0.304025096    0.506708493   -2.692059316  -64.720798524  -34.776832133
    0.506708493    0.506708493    9.957270249  -54.603744890  -26.972789038
    0.709391890    0.506708493   18.691729194  -32.972671122  -12.211480995
    0.912075287    0.506708493   22.824030919   -2.955435232  -15.981158095
    1.114758684    0.506708493   19.268778128   32.890358822    1.096611489
    1.317442081    0.506708493   11.788381398   40.661597555    9.157751557
    1.520125478    0.506708493    1.611002913   59.687036575    7.968470805
    1.722808875    0.506708493  -10.703333078   58.327964466    6.537045939
    1.925492272    0.506708493  -21.984032857   52.876608304    6.848770517
    2.128175669    0.506708493  -30.935160528   32.014405979    6.580716655
    2.330859066    0.506708493  -34.548693015    3.612343736    4.133305753
    2.533542463    0.506708493  -31.984431147  -29.591791773    1.633518720
    2.736225860    0.506708493  -23.175226255  -54.690621323    0.213887507
    2.938909257    0.506708493  -10.671475057  -66.246267104    0.453711462

   -3.141592654    0.709391890    1.930190719  -54.172379874    0.559302919
   -2.938909257    0.709391890   11.310303953  -37.957830945    2.426240947
   -2.736225860    0.709391890   17.244600697  -21.006699888    2.842532119
   -2.533542463    0.709391890   20.141754674   -8.496583521    1.849982578
   -2.330859066    0.709391890   21.389071031   -6.354969252    2.319487523
   -2.128175669    0.709391890   23.051005855   -7.599207304    3.464557988
   -1.925492272    0.709391890   23.088028215    8.260251529    5.905175542
   -1.722808875    0.709391890   20.774280568   10.511851691    5.644805028
   -1.520125478    0.709391890   19.654972341    1.257217744    5.211571771
   -1.317442081    0.709391890   19.031972124    9.113551088    4.253855870
   -1.114758684    0.709391890   14.904787700   31.483703452    5.216936738
   -0.912075287    0.709391890    6.772799249   47.923559079    7.594823029
   -0.709391890    0.709391890   -3.947711949   54.501642595    5.399650923
   -0.506708493    0.709391890  -13.773778952   40.077661727   -1.091551003
   -0.304025096    0.709391890  -19.301075678   10.485211061  -11.997382717
   -0.101341699    0.709391890  -16.700321655  -34.933709906  -36.448741703
    0.101341699    0.709391890   -7.123486492  -55.337170012  -44.181003254
    0.304025096    0.709391890    4.742433356  -57.680860890  -34.814928478
    0.506708493    0.709391890   14.263486486  -36.238430330  -17.213644946
    0.709391890    0.709391890   21.644108137  -38.642846106  -17.069933749
    0.912075287    0.709391890   26.126971959    7.264062435   -6.210056330
    1.114758684    0.709391890   18.972494352   49.653920704    5.388081946
    1.317442081    0.709391890    9.786244783   43.138141180   10.877134167
    1.520125478    0.709391890   -0.591992786   59.134611535   12.216864072
    1.722808875    0.709391890  -12.575210892   56.959466279   11.269388863
    1.925492272    0.709391890  -23.732802746   51.818245344    9.624133640
    2.128175669    0.709391890  -32.234108333   29.579841185    6.519776585
    2.330859066    0.709391890  -35.403956232    0.748616870    4.449363664
    2.533542463    0.709391890  -32.024669016  -33.798486202   -0.866285964
    2.736225860    0.709391890  -22.643939760  -56.022181859   -3.609491941
    2.938909257    0.709391890  -10.242844561  -63.670199405   -3.619519849

   -3.141592654    0.912075287    1.959324170  -52.147815959    0.524153581
   -2.938909257    0.912075287   11.039731146  -36.118838616    2.026720049
   -2.736225860    0.912075287   16.509052736  -19.201474525    6.944405169
   -2.533542463    0.912075287   19.427979753  -10.169563214    7.060316331
   -2.330859066    0.912075287   20.726356927   -3.641371767    5.450257257
   -2.128175669    0.912075287   21.488725484   -4.186792769    8.308277463
   -1.925492272    0.912075287   21.682283268    4.673749215    5.964620299
   -1.722808875    0.912075287   19.757894274   10.741574957    5.260689349
   -1.520125478    0.912075287   18.629875725    0.393699791    5.106302706
   -1.317442081    0.912075287   18.158325851    9.039155749    3.962751913
   -1.114758684    0.912075287   13.888252424   32.927564885    4.185765397
   -0.912075287    0.912075287    5.634861598   45.897987528    0.623835086
   -0.709391890    0.912075287   -4.001474038   47.919855045   -3.766380645
   -0.506708493    0.912075287  -12.458793878   29.355778182  -15.105619238
   -0.304025096    0.912075287  -13.700037809  -17.775137693  -43.505373920
   -0.101341699    0.912075287   -7.132477371  -41.130549826  -51.545410832
    0.101341699    0.912075287    1.848862156  -46.393905395  -41.077254670
    0.304025096    0.912075287   10.543105066  -36.228552168  -21.304322110
    0.506708493    0.912075287   16.837990763  -29.730494467   -4.972915611
    0.709391890    0.912075287   22.627929455  -21.366693842   14.145152725
    0.912075287    0.912075287   22.877712038   20.255357347   32.590461092
    1.114758684    0.912075287   16.153500972   40.444056086   19.695023563
    1.317442081    0.912075287    7.468467545   45.762848242   11.858179597
    1.520125478    0.912075287   -2.810685647   55.974762153    9.996968094
    1.722808875    0.912075287  -14.710154755   58.788783755    9.475324759
    1.925492272    0.912075287  -25.654971585   47.920250289    9.872454634
    2.128175669    0.912075287  -33.659362616   28.674302002    7.617039745
    2.330859066    0.912075287  -36.114503958   -5.794374398    2.035628326
    2.533542463    0.912075287  -31.728201347  -35.621546296   -1.543503066
    2.736225860    0.912075287  -22.155790968  -57.410053203   -1.947863337
    2.938909257    0.912075287   -9.686482138  -61.852561086   -1.381739250

   -3.141592654    1.114758684    1.277291395  -50.515596026    5.323677448
   -2.938909257    1.114758684   10.044250825  -33.025001640    6.933198218
   -2.736225860    1.114758684   14.699618575  -16.065378680    7.472067389
   -2.533542463    1.114758684   17.542609075  -12.020044759    9.028130244
   -2.330859066    1.114758684   19.275453038   -5.385544046    7.459250411
   -2.128175669    1.114758684   20.156527668   -3.521615395    6.620204014
   -1.925492272    1.114758684   20.147163411    5.159750677   10.765135442
   -1.722808875    1.114758684   18.416568248    8.523597853    7.264336821
   -1.520125478    1.114758684   17.775862706   -1.507367211    3.440745439
   -1.317442081    1.114758684   17.403412869    9.588932407    3.793503122
   -1.114758684    1.114758684   13.349931417   29.214904313    1.619411355
   -0.912075287    1.114758684    5.987755974   42.619737359   -1.157836798
   -0.709391890    1.114758684   -2.692113963   37.168312776  -11.898658173
   -0.506708493    1.114758684   -6.879315250    1.989828029  -37.408902860
   -0.304025096    1.114758684   -4.179310387  -24.956484288  -43.330855049
   -0.101341699    1.114758684    1.912102531  -32.657537194  -34.685695971
    0.101341699    1.114758684    8.231449043  -28.045779630  -18.696338772
    0.304025096    1.114758684   12.913936213  -18.253334184   -1.424010366
    0.506708493    1.114758684   15.951409082  -12.449254498   10.108068017
    0.709391890    1.114758684   17.811593040   -4.466210908   21.920467805
    0.912075287    1.114758684   17.123954281   12.404911602   19.797488282
    1.114758684    1.114758684   12.619100840   31.522002104   14.670931530
    1.317442081    1.114758684    4.876753271   43.604506672   13.547161804
    1.520125478    1.114758684   -5.015440842   54.535455428   11.862633907
    1.722808875    1.114758684  -16.845376693   59.362995577   12.141986450
    1.925492272    1.114758684  -27.887789026   47.526544751   11.086148424
    2.128175669    1.114758684  -35.274437591   22.729874161    7.822085888
    2.330859066    1.114758684  -36.444786609  -10.606416963    2.263978802
    2.533542463    1.114758684  -31.539963299  -37.267545082   -0.656251059
    2.736225860    1.114758684  -21.562407813  -58.524934438   -3.111035395
    2.938909257    1.114758684   -9.568515899  -56.683308766   -0.192971620

   -3.141592654    1.317442081    0.586872963  -46.561252338    0.730104034
   -2.938909257    1.317442081    8.893924035  -33.556209114    3.654358610
   -2.736225860    1.317442081   13.804589937  -15.789774083    3.786822683
   -2.533542463    1.317442081   16.154009823   -9.426946443    5.726649752
   -2.330859066    1.317442081   17.809852183   -5.967844121    8.052926476
   -2.128175669    1.317442081   18.328987947    0.297018759   10.590362666
   -1.925492272    1.317442081   18.016081350    2.687463392    7.525284616
   -1.722808875    1.317442081   17.243301988    3.899347800    4.293840142
   -1.520125478    1.317442081   17.007384951   -1.422730136    3.952508544
   -1.317442081    1.317442081   16.728712743    7.713874784    2.268076231
   -1.114758684    1.317442081   13.274717951   25.522284364   -2.245614961
   -0.912075287    1.317442081    7.193843579   31.740402542  -15.312504524
   -0.709391890    1.317442081    1.805563534   17.925869342  -29.243514425
   -0.506708493    1.317442081    0.612746054   -5.335044266  -32.632770104
   -0.304025096    1.317442081    2.996566388  -15.563862800  -27.676995961
   -0.101341699    1.317442081    6.266342382  -15.953078981   -7.624002210
    0.101341699    1.317442081    9.193986191  -12.327034996    6.682898027
    0.304025096    1.317442081   11.403947697  -10.884924554   14.751800099
    0.506708493    1.317442081   13.822175291  -11.285173883   12.795347687
    0.709391890    1.317442081   14.918197355    1.666892404   13.784309300
    0.912075287    1.317442081   13.470262488   11.961631369   19.500528636
    1.114758684    1.317442081    9.573694762   27.999700454   14.857879507
    1.317442081    1.317442081    2.336260305   41.865884706   10.869883155
    1.520125478    1.317442081   -7.366656014   54.539209548   10.770575244
    1.722808875    1.317442081  -19.098351033   57.336121520    8.360495916
    1.925492272    1.317442081  -29.492735657   44.440226414    4.281820618
    2.128175669    1.317442081  -36.475981300   20.965716732    3.149784410
    2.330859066    1.317442081  -36.973461538  -15.324952193    1.499712048
    2.533542463    1.317442081  -31.259678942  -39.434131325   -2.040596969
    2.736225860    1.317442081  -21.296926361  -56.905621800   -0.099496482
    2.938909257    1.317442081   -9.654749724  -54.823063098    1.291172130

   -3.141592654    1.520125478    0.684437384  -46.306457500   -1.461948143
   -2.938909257    1.520125478    8.497454273  -30.487283326    0.028184599
   -2.736225860    1.520125478   13.081815405  -15.272539471    0.157514912
   -2.533542463    1.520125478   15.180915520   -6.797693710    2.075785428
   -2.330859066    1.520125478   16.063078912   -2.111810218    7.019534043
   -2.128175669    1.520125478   16.424421784   -2.589118630    7.239178496
   -1.925492272    1.520125478   16.906089110   -0.334448864    5.675712481
   -1.722808875    1.520125478   16.447079812    2.732674026    3.143040835
   -1.520125478    1.520125478   16.550423940   -3.084638367   -0.023811415
   -1.317442081    1.520125478   16.625392421    4.674578450   -1.747880539
   -1.114758684    1.520125478   14.519702297   15.284681727   -8.915893699
   -0.912075287    1.520125478   10.676908058   21.805074603  -11.795733926
   -0.709391890    1.520125478    6.695218457   13.636954591  -18.382639644
   -0.506708493    1.520125478    5.884541309   -3.331144885  -18.974230184
   -0.304025096    1.520125478    6.238685655    2.385760018   -2.589378760
   -0.101341699    1.520125478    5.698523182   -0.567138332    9.366009503
    0.101341699    1.520125478    6.506665345   -4.827479825   18.630465055
    0.304025096    1.520125478    7.515497492   -7.529390212   22.154687789
    0.506708493    1.520125478    9.680033723  -10.245653604   26.799888693
    0.709391890    1.520125478   10.466443432    1.500140404   26.075252580
    0.912075287    1.520125478    9.959189893    4.320030350   13.030360314
    1.114758684    1.520125478    7.272906219   24.489058649    8.570496244
    1.317442081    1.520125478    0.462229503   40.806042965    7.313062158
    1.520125478    1.520125478   -9.097045875   53.063433276    5.086206732
    1.722808875    1.520125478  -20.116187797   52.837930033    2.009546110
    1.925492272    1.520125478  -29.917993095   42.772177090    0.314680154
    2.128175669    1.520125478  -36.402084190   17.978767957   -3.678659716
    2.330859066    1.520125478  -36.639647342  -15.050109280   -4.531961339
    2.533542463    1.520125478  -30.778013417  -41.242624641   -3.405840111
    2.736225860    1.520125478  -20.883548308  -53.676162640   -4.710452334
    2.938909257    1.520125478   -9.768161702  -54.833610636   -1.967118011

   -3.141592654    1.722808875    1.601052264  -44.343387459   -8.150798526
   -2.938909257    1.722808875    9.265372197  -31.138491298   -8.007443080
   -2.736225860    1.722808875   14.044444152  -15.554761830   -6.273251804
   -2.533542463    1.722808875   15.719362309   -2.386171823   -6.182932099
   -2.330859066    1.722808875   15.759373851    0.476435174   -4.073619904
   -2.128175669    1.722808875   15.751960696   -0.314004961   -1.412676475
   -1.925492272    1.722808875   15.942749182   -1.955155074    0.868819040
   -1.722808875    1.722808875   16.487262704   -2.737685366   -3.924587781
   -1.520125478    1.722808875   17.032699964   -3.427240762   -4.996689647
   -1.317442081    1.722808875   17.766817913   -1.495593135   -9.535042090
   -1.114758684    1.722808875   16.751568194   11.090770395  -15.168751855
   -0.912075287    1.722808875   14.331276038   10.996390591  -39.458089636
   -0.709391890    1.722808875   11.826011514   15.778631302  -35.632564265
   -0.506708493    1.722808875    8.183314306   17.300092926   -5.304361443
   -0.304025096    1.722808875    5.493502284    9.877343967    3.319142404
   -0.101341699    1.722808875    3.683482606    8.219842940    9.531292644
    0.101341699    1.722808875    2.554293861    1.658402289   16.718731002
    0.304025096    1.722808875    3.140605159   -6.542978886   19.654255581
    0.506708493    1.722808875    4.672223795   -7.863020659   20.069953498
    0.709391890    1.722808875    6.397333782   -9.026197036   14.400089646
    0.912075287    1.722808875    7.559975767    0.515146894   12.148826297
    1.114758684    1.722808875    5.514296789   19.555862974    7.134620969
    1.317442081    1.722808875   -0.179041906   36.537693837   -1.666421515
    1.520125478    1.722808875   -9.113417467   50.176335212   -4.497605296
    1.722808875    1.722808875  -19.701931476   52.222218432   -6.694286912
    1.925492272    1.722808875  -29.353988538   40.417307967   -6.560944090
    2.128175669    1.722808875  -35.192267168   15.797235593   -7.729940777
    2.330859066    1.722808875  -35.370253226  -14.729999016   -8.088104321
    2.533542463    1.722808875  -29.413781450  -41.885374994  -10.289333213
    2.736225860    1.722808875  -19.540405915  -53.209238414   -8.424719930
    2.938909257    1.722808875   -8.506613895  -54.010409777   -9.504433289

   -3.141592654    1.925492272    3.678748604  -46.864257505  -11.842640032
   -2.938909257    1.925492272   11.402578360  -27.478821147  -12.181055900
   -2.736225860    1.925492272   15.466098441  -14.781523589  -13.407164090
   -2.533542463    1.925492272   17.264794027   -2.452694943  -10.028457182
   -2.330859066    1.925492272   17.239795123    0.638137075   -9.643272567
   -2.128175669    1.925492272   16.900491666    2.843480889   -8.719658326
   -1.925492272    1.925492272   16.923023759   -4.133496218   -8.685737973
   -1.722808875    1.925492272   17.661943544   -1.730392262   -7.105276176
   -1.520125478    1.925492272   18.690943973   -9.854803242  -10.802957130
   -1.317442081    1.925492272   19.852312808    1.580098987   -9.421589210
   -1.114758684    1.925492272   20.980262000  -21.934497443  -22.533736255
   -0.912075287    1.925492272   25.437324751    0.067951230  -43.544786855
   -0.709391890    1.925492272   17.821524350   58.775087704  -12.033929301
   -0.506708493    1.925492272    9.389979344   20.911287707   -8.841718577
   -0.304025096    1.925492272    5.740899191   21.140830965   -2.735312930
   -0.101341699    1.925492272    1.989341696   12.395141627    6.643277310
    0.101341699    1.925492272    0.100012055    7.911546206   10.729852907
    0.304025096    1.925492272   -0.465201655   -3.983847583   16.837911640
    0.506708493    1.925492272    1.100950734   -9.675033808   17.051171079
    0.709391890    1.925492272    3.528285281  -14.005746892   13.793857254
    0.912075287    1.925492272    5.779374972   -5.694857484    3.605368515
    1.114758684    1.925492272    5.414738367   10.505444165   -5.059285294
    1.317442081    1.925492272    0.843445235   34.479175499   -7.428437658
    1.520125478    1.925492272   -7.587350692   46.555226305  -10.400182198
    1.722808875    1.925492272  -17.725791628   51.993532184  -11.391055428
    1.925492272    1.925492272  -27.340097683   39.918246390  -12.707288091
    2.128175669    1.925492272  -33.281693075   16.842075472  -11.642154981
    2.330859066    1.925492272  -33.210873336  -17.896287371  -12.965136405
    2.533542463    1.925492272  -27.029049140  -40.437714515  -12.270929469
    2.736225860    1.925492272  -17.299776445  -53.891902885  -13.440424766
    2.938909257    1.925492272   -6.398327495  -51.741385520  -11.499850556

   -3.141592654    2.128175669    6.532452751  -42.275714960  -15.693932081
   -2.938909257    2.128175669   14.260526227  -37.546752465  -16.135788592
   -2.736225860    2.128175669   20.512662153  -15.696108816  -28.966288850
   -2.533542463    2.128175669   20.142964000    9.934705528  -16.740672097
   -2.330859066    2.128175669   19.568872313   -2.071489468  -13.004526369
   -2.128175669    2.128175669   18.991372069    6.397882944  -11.892463849
   -1.925492272    2.128175669   18.887473466   -5.214690148  -10.796044988
   -1.722808875    2.128175669   19.572305971   -1.753167393  -11.682019797
   -1.520125478    2.128175669   20.947938264  -10.463387373  -10.797756418
   -1.317442081    2.128175669   21.812108403    0.821077044  -11.583737809
   -1.114758684    2.128175669   23.676078974  -20.464652724   -3.439482389
   -0.912075287    2.128175669   25.051201573   20.140397199   33.856749117
   -0.709391890    2.128175669   17.264512803   40.524058991    5.070805489
   -0.506708493    2.128175669   11.355589323   23.677909137   -8.106576075
   -0.304025096    2.128175669    5.749524345   29.176190524    1.767521562
   -0.101341699    2.128175669    0.818442662   20.247113060    6.686625299
    0.101341699    2.128175669   -2.847482376   13.761136289   17.181997509
    0.304025096    2.128175669   -3.873941687   -2.910031263   16.867619449
    0.506708493    2.128175669   -2.251066364  -13.376785660   15.273257165
    0.709391890    2.128175669    1.628851091  -22.764900921    4.847655742
    0.912075287    2.128175669    5.591452205  -13.678739783   -0.632175187
    1.114758684    2.128175669    6.501297411    6.086176448   -6.672008115
    1.317442081    2.128175669    2.870292291   29.210125055  -12.824995579
    1.520125478    2.128175669   -4.962627638   46.906232251  -14.393705364
    1.722808875    2.128175669  -15.178413831   50.537506222  -14.157880916
    1.925492272    2.128175669  -24.452662389   39.612735681  -14.795001897
    2.128175669    2.128175669  -30.419414165   16.417818039  -15.559199741
    2.330859066    2.128175669  -30.443882307  -15.947304332  -13.714574832
    2.533542463    2.128175669  -24.385789099  -42.100160756  -14.059008493
    2.736225860    2.128175669  -14.525961643  -52.368550031  -13.338321197
    2.938909257    2.128175669   -3.589079954  -54.818628320  -15.387279999

   -3.141592654    2.330859066    9.392765148  -42.206312220  -12.758672456
   -2.938909257    2.330859066   17.360420033  -38.659730979  -12.414139862
   -2.736225860    2.330859066   23.282454562  -12.777375188    2.177471520
   -2.533542463    2.330859066   22.918566690    7.818055567   -9.728926114
   -2.330859066    2.330859066   22.236041026    0.824349321  -12.659595567
   -2.128175669    2.330859066   21.522644875    4.920647161  -11.926401049
   -1.925492272    2.330859066   21.227908494   -1.944515041  -11.286219222
   -1.722808875    2.330859066   21.800027148   -3.873001269   -9.199139602
   -1.520125478    2.330859066   23.070545729   -7.893049160  -10.097490180
   -1.317442081    2.330859066   24.424020749   -4.685147745  -12.067216622
   -1.114758684    2.330859066   24.507936137    5.854781259   -9.445424856
   -0.912075287    2.330859066   21.980647295   16.511709364  -11.851300977
   -0.709391890    2.330859066   18.326715846   21.926531797  -10.393814276
   -0.506708493    2.330859066   12.241073580   36.139657696   -0.520802200
   -0.304025096    2.330859066    5.199240233   32.221495631    5.471236556
   -0.101341699    2.330859066   -1.286198088   31.149243403   14.266826089
    0.101341699    2.330859066   -6.153724436   14.810321311   16.773694346
    0.304025096    2.330859066   -7.512852890   -1.168767458   19.812495141
    0.506708493    2.330859066   -5.011694513  -24.117221863   11.650441764
    0.709391890    2.330859066    1.052299291  -31.381038301    0.409690911
    0.912075287    2.330859066    6.688957251  -22.525896117  -10.911441866
    1.114758684    2.330859066    9.019497333    2.359997751  -15.405710609
    1.317442081    2.330859066    5.598677137   29.694219692  -12.487508684
    1.520125478    2.330859066   -2.296884493   46.470189737  -11.526132396
    1.722808875    2.330859066  -12.335589596   50.273005236  -12.071481556
    1.925492272    2.330859066  -21.812259854   40.677817282  -10.668131116
    2.128175669    2.330859066  -27.690434753   15.479196334  -10.183594453
    2.330859066    2.330859066  -27.810986043  -14.895293843  -11.498104140
    2.533542463    2.330859066  -21.655202841  -43.441644731  -11.821287785
    2.736225860    2.330859066  -11.792233913  -51.576664541  -13.332078722
    2.938909257    2.330859066   -0.768363288  -55.985560085  -12.828386048

   -3.141592654    2.533542463   12.699807558  -40.094032669  -20.081276954
   -2.938909257    2.533542463   19.189196291  -25.886655691   -6.897640729
   -2.736225860    2.533542463   23.167887029  -12.701711867   -7.602866099
   -2.533542463    2.533542463   24.619264825   -2.856770381   -7.916422121
   -2.330859066    2.533542463   24.472089136    4.039004491   -8.774645432
   -2.128175669    2.533542463   23.576514492    3.059420199   -8.451329601
   -1.925492272    2.533542463   23.303449283    0.424535106   -9.415957543
   -1.722808875    2.533542463   23.537177753   -3.997446599   -8.380536247
   -1.520125478    2.533542463   24.928851814   -8.109367436   -8.019528655
   -1.317442081    2.533542463   26.264234206   -4.768439064   -6.438665125
   -1.114758684    2.533542463   26.672880226    2.367744914   -6.713104818
   -0.912075287    2.533542463   24.511035457   19.874248698   -0.438541697
   -0.709391890    2.533542463   18.910572169   33.776000730    4.774130456
   -0.506708493    2.533542463   11.340159559   40.204704707   10.065111078
   -0.304025096    2.533542463    2.890886957   42.014417189   17.094613136
   -0.101341699    2.533542463   -5.042622489   34.754787626   23.693094796
    0.101341699    2.533542463  -10.685092966   19.236074620   27.893918427
    0.304025096    2.533542463  -11.812303055  -10.400962521   21.140370766
    0.506708493    2.533542463   -6.570127096  -38.241873587    2.860692309
    0.709391890    2.533542463    1.973779084  -41.844807083   -8.552592404
    0.912075287    2.533542463    8.909786411  -23.757695589   -9.571454012
    1.114758684    2.533542463   11.041997047    2.795890761   -8.173842970
    1.317442081    2.533542463    7.827526017   28.835612878  -10.042234197
    1.520125478    2.533542463   -0.229078855   48.262114427   -8.271191475
    1.722808875    2.533542463  -10.582119062   51.387168695   -5.621425263
    1.925492272    2.533542463  -20.160168750   40.856156939   -5.199138967
    2.128175669    2.533542463  -26.220974425   16.749661737   -4.812875710
    2.330859066    2.533542463  -26.175111522  -17.973311322   -4.304426790
    2.533542463    2.533542463  -19.655453719  -42.733763600   -7.884826295
    2.736225860    2.533542463   -9.746012147  -55.118561216   -5.593150295
    2.938909257    2.533542463    2.340318444  -60.152145089  -17.176634695

   -3.141592654    2.736225860   15.277485926  -32.903200497    1.180941338
   -2.938909257    2.736225860   20.218533904  -24.807414433   -1.753561943
   -2.736225860    2.736225860   24.853719369  -13.931763512   -1.925786512
   -2.533542463    2.736225860   25.659117494    0.444038492   -0.974185815
   -2.330859066    2.736225860   25.578976439    2.445787645   -1.778403400
   -2.128175669    2.736225860   24.710688984    3.025976803   -1.169837791
   -1.925492272    2.736225860   24.584929597    0.593214617   -0.930947191
   -1.722808875    2.736225860   24.531647491   -3.167679434    0.559321847
   -1.520125478    2.736225860   25.968389021   -7.490723745   -0.376641869
   -1.317442081    2.736225860   26.866244856   -2.679617127    1.906768854
   -1.114758684    2.736225860   26.771018350    7.445444591    3.651118167
   -0.912075287    2.736225860   23.281760755   24.351834498    6.266565078
   -0.709391890    2.736225860   17.337974844   36.839105769   11.781944819
   -0.506708493    2.736225860    8.114452974   50.135207164   22.056668274
   -0.304025096    2.736225860   -1.660063714   47.129405539   28.955270965
   -0.101341699    2.736225860  -11.052670303   41.346098945   34.866567262
    0.101341699    2.736225860  -16.557340878   11.727027892   29.024452068
    0.304025096    2.736225860  -15.412609695  -26.237055706   13.277090674
    0.506708493    2.736225860   -6.217147997  -55.566445266   -5.494802861
    0.709391890    2.736225860    3.535313203  -40.699102338   -6.304613186
    0.912075287    2.736225860   12.075973912  -41.168319949  -24.394313126
    1.114758684    2.736225860   15.841984752   11.732571991  -38.307206353
    1.317442081    2.736225860    9.344773365   41.539265683   -2.984601126
    1.520125478    2.736225860    0.558973100   47.775022724    0.993385455
    1.722808875    2.736225860  -10.203373076   54.708823293    3.171767403
    1.925492272    2.736225860  -20.048216056   40.407011495    4.353595466
    2.128175669    2.736225860  -26.044271009   16.894899308    4.598859447
    2.330859066    2.736225860  -25.937183548  -19.468958132    2.014571401
    2.533542463    2.736225860  -18.995497936  -43.623400130    3.178979935
    2.736225860    2.736225860   -9.340902600  -54.797028115    0.659632277
    2.938909257    2.736225860    4.135030142  -72.000028066    4.518218691

   -3.141592654    2.938909257   12.675381988  -48.106971179   17.278534873
   -2.938909257    2.938909257   19.533607300  -24.130438380    7.702662574
   -2.736225860    2.938909257   23.767251219  -15.322491481    8.919483103
   -2.533542463    2.938909257   25.060558571   -0.398288220    6.469745214
   -2.330859066    2.938909257   24.972210276    2.616474378    8.361193318
   -2.128175669    2.938909257   23.772219935    5.832113254    9.366175262
   -1.925492272    2.938909257   23.524577691   -1.103948976    9.309516867
   -1.722808875    2.938909257   23.506777093   -1.218287657    7.735569455
   -1.520125478    2.938909257   24.762983623   -8.239487221   10.467119550
   -1.317442081    2.938909257   25.530716592   -0.080425220    9.334572192
   -1.114758684    2.938909257   25.069798737    8.285262709   15.835868760
   -0.912075287    2.938909257   20.726916975   33.050811691   24.169819196
   -0.709391890    2.938909257   12.885231719   44.978110322   32.588529139
   -0.506708493    2.938909257    2.014252067   58.967475255   38.552684041
   -0.304025096    2.938909257   -9.173555500   51.063086780   44.346007567
   -0.101341699    2.938909257  -18.891962223   40.148073666   42.299218471
    0.101341699    2.938909257  -22.582973209   -6.312413037   28.997110870
    0.304025096    2.938909257  -17.006656373  -47.482306574    2.411494844
    0.506708493    2.938909257   -4.836955573  -62.186449836   -6.803220596
    0.709391890    2.938909257    5.204659090  -42.788442882  -10.897508788
    0.912075287    2.938909257   16.108830081  -58.007123416   -4.817506208
    1.114758684    2.938909257   19.980805837   32.323201783   12.470335728
    1.317442081    2.938909257    8.786734631   54.377546745    7.172693788
    1.520125478    2.938909257   -0.432133768   48.154300148    8.466812652
    1.722808875    2.938909257  -11.950847593   57.118546897   12.589778293
    1.925492272    2.938909257  -21.675947338   41.123405129   11.266704278
    2.128175669    2.938909257  -28.196079247   16.688052065   15.213611610
    2.330859066    2.938909257  -27.414463290  -20.485233559   13.598006227
    2.533542463    2.938909257  -20.971110258  -43.894319630   14.869473793
    2.736225860    2.938909257  -10.314306396  -56.199906634   10.796108039
    2.938909257    2.938909257    1.122566486  -58.769926917   18.908294948
