#! FIELDS phi psi b1.bias der_phi der_psi
#! SET min_phi -pi
#! SET max_phi pi
#! SET nbins_phi  31
#! SET periodic_phi true
#! SET min_psi -pi
#! SET max_psi pi
#! SET nbins_psi  31
#! SET periodic_psi true
   -3.141592654   -3.141592654   17.580602483  -59.547086278   35.503658080
   -2.938909257   -3.141592654   25.409643677  -21.703128408   29.787798936
   -2.736225860   -3.141592654   29.173242009  -15.824162819   36.140398788
   -2.533542463   -3.141592654   30.411363397    3.360504731   35.859442177
   -2.330859066   -3.141592654   29.331396067    5.266140992   34.685932367
   -2.128175669   -3.141592654   28.575584878   -0.449538456   30.688029918
   -1.925492272   -3.141592654   29.819359896   -6.758179072   29.748281138
   -1.722808875   -3.141592654   29.668314293    3.861096231   32.910239449
   -1.520125478   -3.141592654   31.102638045  -16.396363830   22.836060157
   -1.317442081   -3.141592654   32.083400357   13.790518019   28.031617910
   -1.114758684   -3.141592654   27.352131934   24.968056791   49.054882458
   -0.912075287   -3.141592654   21.859366845   34.757298726   48.573608503
   -0.709391890   -3.141592654   12.612456878   54.081420604   63.266985528
   -0.506708493   -3.141592654    0.613257967   63.293677649   71.732584937
   -0.304025096   -3.141592654  -11.787498954   54.741459861   77.047503455
   -0.101341699   -3.141592654  -20.305028986   26.466567455   59.801395079
    0.101341699   -3.141592654  -20.932586322  -23.158687310   40.935299697
    0.304025096   -3.141592654  -11.643948480  -62.483626566   19.137549525
    0.506708493   -3.141592654    1.574845851  -61.964605357   18.716929400
    0.709391890   -3.141592654   12.462799997  -46.812264968   13.232937567
    0.912075287   -3.141592654   20.481704122  -26.391263130   45.895614376
    1.114758684   -3.141592654   20.330269371   27.514135598   61.297297707
    1.317442081   -3.141592654   12.751683701   40.402759370   27.814327497
    1.520125478   -3.141592654    3.104062754   58.761984937   34.148722891
    1.722808875   -3.141592654   -9.446303859   57.607208222   33.223404470
    1.925492272   -3.141592654  -19.877382526   48.013332436   39.867797388
    2.128175669   -3.141592654  -27.396858775   18.058369003   40.152216224
    2.330859066   -3.141592654  -26.594268052  -20.863617872   48.233425457
    2.533542463   -3.141592654  -19.710268535  -49.071490912   49.535813266
    2.736225860   -3.141592654   -7.826436856  -60.571622425   47.491340840
    2.938909257   -3.141592654    4.144261678  -62.948893220   40.822398488

   -3.141592654   -2.938909257    7.270275618  -67.009776306   63.611365923
   -2.938909257   -2.938909257   16.872503696  -24.338769808   55.206335715
   -2.736225860   -2.938909257   19.541435613   -9.914693314   50.772115272
   -2.533542463   -2.938909257   21.599595040   -7.471047257   46.143248320
   -2.330859066   -2.938909257   21.820181676    4.079800412   39.442543619
   -2.128175669   -2.938909257   21.313194608   -1.760596395   41.118565602
   -1.925492272   -2.938909257   21.792115043    1.421321560   46.620676853
   -1.722808875   -2.938909257   21.246349592   -3.601531352   44.953458840
   -1.520125478   -2.938909257   24.032482501  -14.130763139   51.213872781
   -1.317442081   -2.938909257   22.735898027   26.195200318   61.658407451
   -1.114758684   -2.938909257   17.031260643   25.845064356   53.080744097
   -0.912075287   -2.938909257   10.025763235   49.053660892   71.417837853
   -0.709391890   -2.938909257   -1.952106420   64.216936634   77.177899859
   -0.506708493   -2.938909257  -15.389682971   66.288635468   79.790828443
   -0.304025096   -2.938909257  -26.317280891   36.584160751   58.951881586
   -0.101341699   -2.938909257  -30.596017371    6.804802392   38.594270987
    0.101341699   -2.938909257  -27.222510944  -44.386917709   18.733281799
    0.304025096   -2.938909257  -14.782416110  -67.501287702   12.981492486
    0.506708493   -2.938909257   -1.807165231  -61.211449849   13.410296499
    0.709391890   -2.938909257    9.106522787  -41.477072824   19.650563739
    0.912075287   -2.938909257   14.687122737  -16.121133296   14.528822069
    1.114758684   -2.938909257   14.889831936   19.517751315    9.139328821
    1.317442081   -2.938909257    7.049966629   50.153730096   31.083792687
    1.520125478   -2.938909257   -3.546478843   56.249821564   30.006509927
    1.722808875   -2.938909257  -16.194652901   64.674197884   34.157595194
    1.925492272   -2.938909257  -27.981483970   50.229629994   37.405655577
    2.128175669   -2.938909257  -35.976667793   24.998885023   43.899525084
    2.330859066   -2.938909257  -37.176586233  -12.221229213   52.844414497
    2.533542463   -2.938909257  -31.234057896  -47.492028031   60.750525893
    2.736225860   -2.938909257  -19.000045313  -65.536030985   61.995542558
    2.938909257   -2.938909257   -6.403711376  -62.139271478   59.386017476

   -3.141592654   -2.736225860   -5.211669997  -59.164349756   55.338290578
   -2.938909257   -2.736225860    4.865252327  -37.993481285   55.839801899
   -2.736225860   -2.736225860   10.230393419  -17.419350876   43.575421591
   -2.533542463   -2.736225860   12.860600625   -8.931425456   40.400784768
   -2.330859066   -2.736225860   13.527818435    2.110167691   41.149720702
   -2.128175669   -2.736225860   12.896391977    1.976140878   39.894523790
   -1.925492272   -2.736225860   12.732140611    0.466958582   41.378657912
   -1.722808875   -2.736225860   12.813689667   -1.432900749   39.496649034
   -1.520125478   -2.736225860   12.628383652    5.239522892   51.227758892
   -1.317442081   -2.736225860   10.686253631   13.814343108   50.323656572
   -1.114758684   -2.736225860    5.877414380   37.247032855   54.811944936
   -0.912075287   -2.736225860   -4.111437131   57.322714666   59.913037696
   -0.709391890   -2.736225860  -16.600518470   65.524552377   65.223940116
   -0.506708493   -2.736225860  -28.815976457   47.166590807   50.234945158
   -0.304025096   -2.736225860  -34.761870892   15.954528958   27.226162310
   -0.101341699   -2.736225860  -35.949557287   -9.563676539   16.817492612
    0.101341699   -2.736225860  -29.218884621  -53.286618413    5.242144820
    0.304025096   -2.736225860  -17.057939873  -63.425179479    8.524234671
    0.506708493   -2.736225860   -4.199826986  -58.559260483   11.302238556
    0.709391890   -2.736225860    4.934269838  -33.697564694   18.025178525
    0.912075287   -2.736225860   10.908255496  -21.212263920   22.678403601
    1.114758684   -2.736225860    9.762019338   35.027933732   39.723310200
    1.317442081   -2.736225860    0.502054083   46.250053204   30.210746221
    1.520125478   -2.736225860   -9.554160036   59.693118320   30.375398890
    1.722808875   -2.736225860  -23.035527739   65.066819969   30.034403500
    1.925492272   -2.736225860  -34.636422937   52.183974472   28.039937483
    2.128175669   -2.736225860  -43.953841566   33.603905738   30.911104280
    2.330859066   -2.736225860  -46.613531497   -5.756743149   36.765878854
    2.533542463   -2.736225860  -42.549750055  -35.115753318   46.284913965
    2.736225860   -2.736225860  -32.063377090  -65.411591814   61.395412092
    2.938909257   -2.736225860  -18.176176245  -67.678198317   56.399298733

   -3.141592654   -2.533542463  -15.431564013  -62.078153961   46.111975045
   -2.938909257   -2.533542463   -4.526593317  -42.523460521   39.716047532
   -2.736225860   -2.533542463    1.556775266  -20.967827498   38.768639381
   -2.533542463   -2.533542463    4.999432577  -11.454495931   36.676228457
   -2.330859066   -2.533542463    5.603511300    3.004517615   35.957156413
   -2.128175669   -2.533542463    5.183695353    0.822319795   35.543357274
   -1.925492272   -2.533542463    4.801590669    2.024240831   35.502938126
   -1.722808875   -2.533542463    4.936689775   -1.916042502   35.236142505
   -1.520125478   -2.533542463    4.507878070    6.656004822   32.469857067
   -1.317442081   -2.533542463    2.225431285   18.600688052   36.434306704
   -1.114758684   -2.533542463   -4.214074696   44.113695174   42.786451790
   -0.912075287   -2.533542463  -14.698589527   59.417775410   46.481003048
   -0.709391890   -2.533542463  -27.860260287   62.735153372   40.500025392
   -0.506708493   -2.533542463  -36.299737990   19.095515643   23.402407779
   -0.304025096   -2.533542463  -38.509502674    7.890227413    9.611883548
   -0.101341699   -2.533542463  -37.720470140  -22.464405357   -1.886977555
    0.101341699   -2.533542463  -29.648450710  -52.144446441   -4.617091951
    0.304025096   -2.533542463  -17.739905001  -62.828682719   -2.751370712
    0.506708493   -2.533542463   -6.188663424  -48.139904305    7.154415129
    0.709391890   -2.533542463    2.815241702  -42.347303513    5.286475909
    0.912075287   -2.533542463    7.992828923    1.264401555    6.941420099
    1.114758684   -2.533542463    2.991480392   36.449652300   22.715199453
    1.317442081   -2.533542463   -4.443128185   40.969152747   18.428257975
    1.520125478   -2.533542463  -14.986578516   60.050930238   19.394577251
    1.722808875   -2.533542463  -27.105823498   58.979949576   10.042846856
    1.925492272   -2.533542463  -38.939200577   55.040089612   13.121766612
    2.128175669   -2.533542463  -47.922326794   31.636743196    9.664877589
    2.330859066   -2.533542463  -51.368218126    1.432910689   11.830192091
    2.533542463   -2.533542463  -48.802558675  -24.422401217   16.478945174
    2.736225860   -2.533542463  -41.547302741  -49.433740214   30.408975265
    2.938909257   -2.533542463  -28.977923190  -69.463103859   45.818932833

   -3.141592654   -2.330859066  -22.838105776  -57.077428692   23.663739920
   -2.938909257   -2.330859066  -12.033442585  -47.937092951   30.689118874
   -2.736225860   -2.330859066   -4.718953808  -23.451328182   23.895270201
   -2.533542463   -2.330859066   -1.490712821  -10.728807786   25.121414093
   -2.330859066   -2.330859066   -0.300878236   -1.264908287   20.140857628
   -2.128175669   -2.330859066   -0.354384363    0.643306180   16.555225337
   -1.925492272   -2.330859066   -0.463920040   -0.185709172   15.316126233
   -1.722808875   -2.330859066   -0.175068996   -0.839112557   15.133931826
   -1.520125478   -2.330859066   -1.080204770    9.992478302   19.646001534
   -1.317442081   -2.330859066   -3.925711068   19.638289853   20.493799131
   -1.114758684   -2.330859066  -10.283908565   43.615375640   13.850570615
   -0.912075287   -2.330859066  -20.324893731   52.065636770    2.576881338
   -0.709391890   -2.330859066  -30.579808643   45.874887938  -13.019750965
   -0.506708493   -2.330859066  -36.998997301   15.206397578  -18.192303858
   -0.304025096   -2.330859066  -37.659037769   -5.818898097  -20.042806593
   -0.101341699   -2.330859066  -34.390442564  -28.334029605  -29.424538603
    0.101341699   -2.330859066  -26.400273298  -48.270592926  -25.734223388
    0.304025096   -2.330859066  -15.876006440  -51.673059197  -14.625668158
    0.506708493   -2.330859066   -6.836891370  -38.402864196   -1.615745903
    0.709391890   -2.330859066    1.097995553  -38.563776138   11.213810877
    0.912075287   -2.330859066    5.108667517    6.898277866   22.445981878
    1.114758684   -2.330859066    0.034509699   32.061965507    6.022830937
    1.317442081   -2.330859066   -6.654000202   39.326715222    1.873592523
    1.520125478   -2.330859066  -16.688307749   55.188043607   -2.081555342
    1.722808875   -2.330859066  -27.874574948   57.046396166   -1.818254099
    1.925492272   -2.330859066  -39.792518614   55.508633359   -4.497740151
    2.128175669   -2.330859066  -48.661803398   32.094890049   -1.594856592
    2.330859066   -2.330859066  -52.873104305    6.897275501    4.912056429
    2.533542463   -2.330859066  -51.099059350  -20.867080467    9.642617064
    2.736225860   -2.330859066  -45.463029146  -37.053160161   11.023814400
    2.938909257   -2.330859066  -35.153654574  -61.590721122   15.270604252

   -3.141592654   -2.128175669  -24.643688798  -53.642572298   -5.029475709
   -2.938909257   -2.128175669  -14.779511766  -42.909035481   -4.249872041
   -2.736225860   -2.128175669   -7.651455206  -26.329512874    1.672684483
   -2.533542463   -2.128175669   -4.008121711  -11.533065811   -1.724860829
   -2.330859066   -2.128175669   -2.268294520   -5.900110942    0.124819330
   -2.128175669   -2.128175669   -1.791822041    0.756216019   -0.024781202
   -1.925492272   -2.128175669   -1.930606341   -0.692070393    0.269012944
   -1.722808875   -2.128175669   -1.694258365    0.070413024   -0.195655965
   -1.520125478   -2.128175669   -2.506131303    8.366447120   -4.599681662
   -1.317442081   -2.128175669   -5.054968931   16.960186810   -8.499360351
   -1.114758684   -2.128175669   -9.807768566   31.265961138  -14.815112766
   -0.912075287   -2.128175669  -17.543460852   42.116640541  -21.739626981
   -0.709391890   -2.128175669  -25.380914902   32.603004685  -33.076069489
   -0.506708493   -2.128175669  -30.252665905   14.429856375  -43.092752216
   -0.304025096   -2.128175669  -30.788557093   -9.200908390  -44.400162766
   -0.101341699   -2.128175669  -27.044558591  -26.341999772  -41.406139082
    0.101341699   -2.128175669  -20.377345532  -38.501742972  -32.403712434
    0.304025096   -2.128175669  -12.326546983  -38.590198810  -20.266491047
    0.506708493   -2.128175669   -5.098799878  -32.572167367  -15.010662521
    0.709391890   -2.128175669    0.377212737  -19.491349310   -6.903708310
    0.912075287   -2.128175669    2.453892144   -1.261031515   -2.284145588
    1.114758684   -2.128175669    0.753083840   19.182624107   -9.030216329
    1.317442081   -2.128175669   -5.383183359   39.881437399  -11.075006155
    1.520125478   -2.128175669  -14.731346101   51.456183833  -14.861612429
    1.722808875   -2.128175669  -25.908188126   57.306046304  -17.342624973
    1.925492272   -2.128175669  -37.266539272   53.542998125  -19.152608506
    2.128175669   -2.128175669  -47.049312840   40.557829160  -14.889197125
    2.330859066   -2.128175669  -52.521123704   11.447407296  -11.527907909
    2.533542463   -2.128175669  -51.693014101  -18.235126546   -9.009031546
    2.736225860   -2.128175669  -45.674788154  -40.182783921  -11.050594791
    2.938909257   -2.128175669  -35.876961365  -54.559575532   -7.933891220

   -3.141592654   -1.925492272  -21.389280187  -50.877096412  -24.720730640
   -2.938909257   -1.925492272  -12.163249101  -39.472567492  -17.597853264
   -2.736225860   -1.925492272   -5.432908703  -26.485300811  -19.108436032
   -2.533542463   -1.925492272   -1.711531147  -10.303002061  -16.824393681
   -2.330859066   -1.925492272   -0.698288689   -1.555664533  -15.152684345
   -2.128175669   -1.925492272   -0.609976470    0.111388216  -12.536654421
   -1.925492272   -1.925492272   -0.508553870   -1.570982607  -14.048835870
   -1.722808875   -1.925492272   -0.081546905   -1.675055192  -13.942539674
   -1.520125478   -1.925492272   -0.222074955    3.724948698  -15.861057278
   -1.317442081   -1.925492272   -1.837539864   13.024312288  -20.062199276
   -1.114758684   -1.925492272   -5.774730837   25.675854800  -23.926224182
   -0.912075287   -1.925492272  -11.609210545   29.425712431  -39.889682891
   -0.709391890   -1.925492272  -16.984336547   22.972658689  -50.051023341
   -0.506708493   -1.925492272  -20.618779325   11.162258913  -51.332426042
   -0.304025096   -1.925492272  -20.870190293   -8.463832173  -51.597758129
   -0.101341699   -1.925492272  -17.984851954  -18.224959908  -45.473827364
    0.101341699   -1.925492272  -13.476070197  -26.897904125  -34.416734217
    0.304025096   -1.925492272   -7.478952885  -29.987600788  -26.355200158
    0.506708493   -1.925492272   -1.932314571  -24.419308324  -13.272850975
    0.709391890   -1.925492272    2.209551534  -15.131560096   -5.236128672
    0.912075287   -1.925492272    3.685711280    1.124859722   -0.796408917
    1.114758684   -1.925492272    1.714377161   18.355751144    0.581008006
    1.317442081   -1.925492272   -3.696768779   34.560027286   -3.460055075
    1.520125478   -1.925492272  -12.029506849   46.865435988   -8.737688800
    1.722808875   -1.925492272  -22.240371108   52.654320642  -15.117166493
    1.925492272   -1.925492272  -33.047619636   53.290662922  -20.220710463
    2.128175669   -1.925492272  -43.013757703   41.378026702  -22.865815066
    2.330859066   -1.925492272  -48.434555164   10.528030210  -25.147030232
    2.533542463   -1.925492272  -47.461598578  -18.697025385  -27.443651080
    2.736225860   -1.925492272  -41.418988144  -39.573129417  -27.411193827
    2.938909257   -1.925492272  -32.019060858  -51.519259325  -27.650945399

   -3.141592654   -1.722808875  -15.685690808  -45.674013556  -30.074271235
   -2.938909257   -1.722808875   -7.518670480  -36.012767851  -29.181716767
   -2.736225860   -1.722808875   -1.159410693  -24.729636439  -23.525349481
   -2.533542463   -1.722808875    2.153700211   -9.548247821  -22.121065278
   -2.330859066   -1.722808875    3.385641561   -2.633309155  -23.008158845
   -2.128175669   -1.722808875    3.243996492    2.255051960  -23.582231523
   -1.925492272   -1.722808875    3.189415550   -1.345273530  -21.005029466
   -1.722808875   -1.722808875    3.279032332    0.136007501  -19.515363027
   -1.520125478   -1.722808875    3.616132295   -2.634726043  -22.802648905
   -1.317442081   -1.722808875    3.110959177    9.593809403  -31.009580343
   -1.114758684   -1.722808875    0.343614444   15.014802458  -37.425089383
   -0.912075287   -1.722808875   -2.875624475   18.221147359  -40.053964080
   -0.709391890   -1.722808875   -6.991720915   20.120834307  -43.783086109
   -0.506708493   -1.722808875  -10.061984763    8.952913075  -50.294465884
   -0.304025096   -1.722808875  -10.702986090   -1.511784660  -46.121506189
   -0.101341699   -1.722808875   -9.738339536   -8.489511198  -35.698689760
    0.101341699   -1.722808875   -6.909751510  -19.001880590  -30.195867096
    0.304025096   -1.722808875   -2.963042136  -17.516240694  -15.690109246
    0.506708493   -1.722808875   -0.006742834  -12.328385310   -5.431265678
    0.709391890   -1.722808875    1.926779986   -5.656757472    7.452709502
    0.912075287   -1.722808875    2.127326908    3.371155296   14.451419562
    1.114758684   -1.722808875    0.397861022   14.978131585   15.550966954
    1.317442081   -1.722808875   -4.264824869   30.652313798    9.900083987
    1.520125478   -1.722808875  -11.544032430   39.680750291    3.087693700
    1.722808875   -1.722808875  -19.916019985   42.850099329   -9.472186316
    1.925492272   -1.722808875  -29.151691890   48.047366853  -19.033214906
    2.128175669   -1.722808875  -38.290675482   37.798306120  -23.751682633
    2.330859066   -1.722808875  -43.183512272    9.189501182  -27.185734159
    2.533542463   -1.722808875  -41.927602886  -21.014319253  -28.170722867
    2.736225860   -1.722808875  -35.337328727  -41.707565111  -32.846868498
    2.938909257   -1.722808875  -25.766231035  -51.057771833  -33.487322315

   -3.141592654   -1.520125478   -9.251294600  -43.648605370  -33.196059790
   -2.938909257   -1.520125478   -1.179474814  -34.407884378  -30.718443734
   -2.736225860   -1.520125478    4.297408881  -19.868998024  -28.799277573
   -2.533542463   -1.520125478    7.142104342   -8.600557533  -25.005963573
   -2.330859066   -1.520125478    7.992448299   -0.878186682  -21.956044392
   -2.128175669   -1.520125478    7.917177080    1.256262469  -20.554730836
   -1.925492272   -1.520125478    7.586943521    1.109130566  -21.182016233
   -1.722808875   -1.520125478    7.927194561   -4.934777347  -24.487233952
   -1.520125478   -1.520125478    9.360903243   -7.914180794  -32.118372107
   -1.317442081   -1.520125478   10.334124733    0.701874708  -34.701367698
   -1.114758684   -1.520125478    8.619445614   15.190897429  -39.546584606
   -0.912075287   -1.520125478    4.997967779   18.901348331  -42.029196462
   -0.709391890   -1.520125478    1.456637812   14.643103868  -44.698090821
   -0.506708493   -1.520125478   -0.756707727    8.687050887  -42.350135249
   -0.304025096   -1.520125478   -2.592596519    8.053045383  -35.442057501
   -0.101341699   -1.520125478   -2.876043213   -5.783448638  -32.009299768
    0.101341699   -1.520125478   -1.529392895   -4.161715161  -20.339850386
    0.304025096   -1.520125478   -1.083756379   -2.199019898   -2.928254776
    0.506708493   -1.520125478   -0.776387851    1.102208995   16.201387004
    0.709391890   -1.520125478   -1.592706285    5.534643793   29.586190372
    0.912075287   -1.520125478   -2.973883709    9.236873303   37.868034677
    1.114758684   -1.520125478   -5.253079914   11.855265878   36.481234778
    1.317442081   -1.520125478   -8.004416189   17.943523197   25.735643916
    1.520125478   -1.520125478  -12.823984208   27.159536193    8.089158629
    1.722808875   -1.520125478  -18.331474018   28.939581574   -5.391261876
    1.925492272   -1.520125478  -25.559294174   41.685788437  -14.933784970
    2.128175669   -1.520125478  -33.455848928   31.358023890  -22.777532149
    2.330859066   -1.520125478  -37.302609312    5.879387989  -29.356041818
    2.533542463   -1.520125478  -35.533177875  -23.762188775  -33.778477296
    2.736225860   -1.520125478  -28.209911082  -45.360535116  -35.938866775
    2.938909257   -1.520125478  -18.528440326  -47.717449172  -35.861800619

   -3.141592654   -1.317442081   -2.714977871  -42.465768864  -30.200334823
   -2.938909257   -1.317442081    4.847986900  -32.025856238  -28.875440710
   -2.736225860   -1.317442081    9.847458243  -16.027898968  -25.275699581
   -2.533542463   -1.317442081   11.691937879   -4.568018158  -19.978258853
   -2.330859066   -1.317442081   12.055434414    1.534095593  -17.146991754
   -2.128175669   -1.317442081   11.442908482    2.117433082  -15.432083804
   -1.925492272   -1.317442081   11.516202336   -1.890397989  -18.313994382
   -1.722808875   -1.317442081   12.419215024   -9.014475478  -20.255707533
   -1.520125478   -1.317442081   14.813018414  -10.155011551  -18.948779359
   -1.317442081   -1.317442081   15.486918558    1.709737577  -17.971717838
   -1.114758684   -1.317442081   14.993188398    3.873921078  -24.380317524
   -0.912075287   -1.317442081   13.419446100   10.565355880  -35.619274513
   -0.709391890   -1.317442081   11.203073642   12.793080220  -46.128943396
   -0.506708493   -1.317442081    7.568364304   21.146618340  -38.984839772
   -0.304025096   -1.317442081    4.176424108   11.137151058  -29.761342048
   -0.101341699   -1.317442081    2.184299521   10.311552539  -15.137921007
    0.101341699   -1.317442081    0.083987328   10.751483813    6.211227081
    0.304025096   -1.317442081   -2.867077052   18.689586167   23.490238596
    0.506708493   -1.317442081   -6.602420286   16.311864266   39.155525601
    0.709391890   -1.317442081   -9.674196395   14.511424901   48.072041348
    0.912075287   -1.317442081  -11.897192694    6.150769658   46.010736444
    1.114758684   -1.317442081  -12.651333060    3.118274172   36.300107347
    1.317442081   -1.317442081  -13.164266730    1.634950436   21.245235640
    1.520125478   -1.317442081  -14.046225618    9.663626719    2.712821161
    1.722808875   -1.317442081  -17.348913405   22.340325123   -6.312104792
    1.925492272   -1.317442081  -23.070093055   33.374220722  -11.259558555
    2.128175669   -1.317442081  -29.452499211   24.696727850  -17.113160108
    2.330859066   -1.317442081  -31.958532001   -0.601801954  -22.987816815
    2.533542463   -1.317442081  -29.006033276  -28.552512924  -29.552647330
    2.736225860   -1.317442081  -21.282069944  -44.063220421  -31.803830336
    2.938909257   -1.317442081  -11.988499014  -47.067236647  -29.520258408

   -3.141592654   -1.114758684    2.935183433  -37.944745213  -25.279979008
   -2.938909257   -1.114758684    9.699688123  -29.153694122  -17.190748536
   -2.736225860   -1.114758684   14.151245183  -13.230325238  -15.971020432
   -2.533542463   -1.114758684   15.332471205   -0.475872153  -15.576633706
   -2.330859066   -1.114758684   14.948063076    3.190545868  -12.771566517
   -2.128175669   -1.114758684   14.600991749   -0.852731222  -15.517294752
   -1.925492272   -1.114758684   15.270266431   -5.212129888  -17.848102790
   -1.722808875   -1.114758684   16.673674340   -8.410914207  -21.376174578
   -1.520125478   -1.114758684   18.314408113   -7.097568296  -20.508969987
   -1.317442081   -1.114758684   19.628476483   -5.730247127  -24.830923746
   -1.114758684   -1.114758684   20.085806727    2.100680424  -27.710459898
   -0.912075287   -1.114758684   19.378366642    2.978270324  -26.657170059
   -0.709391890   -1.114758684   18.211183207   12.823518451  -21.936372977
   -0.506708493   -1.114758684   13.665290621   28.649937130  -17.740971312
   -0.304025096   -1.114758684    8.129079994   25.295431379   -7.100718139
   -0.101341699   -1.114758684    2.641337366   30.467632532   11.893965668
    0.101341699   -1.114758684   -3.965204236   32.887063306   32.370044131
    0.304025096   -1.114758684  -10.333163281   30.458496420   47.787766572
    0.506708493   -1.114758684  -16.497687424   29.202254802   59.592616264
    0.709391890   -1.114758684  -20.976205292   12.375102334   61.834577686
    0.912075287   -1.114758684  -21.676237509   -3.100740594   49.843280172
    1.114758684   -1.114758684  -20.010687715  -14.377503881   32.537006097
    1.317442081   -1.114758684  -16.249669074  -18.448836681   10.733430555
    1.520125478   -1.114758684  -14.198658512   -0.497999472    0.441001642
    1.722808875   -1.114758684  -15.851334400   16.622700459   -6.102484818
    1.925492272   -1.114758684  -20.772512989   29.522916302  -10.080388600
    2.128175669   -1.114758684  -26.180869929   20.109268340  -14.868001773
    2.330859066   -1.114758684  -27.924316190   -4.724194227  -16.373747527
    2.533542463   -1.114758684  -24.002041188  -32.482055831  -18.482519380
    2.736225860   -1.114758684  -15.838882434  -45.962218345  -20.184386554
    2.938909257   -1.114758684   -5.983476470  -48.982041575  -28.382959629

   -3.141592654   -0.912075287    6.795517669  -31.675671825  -10.402943167
   -2.938909257   -0.912075287   12.348875922  -24.899065441  -10.868026452
   -2.736225860   -0.912075287   16.430968615  -13.737760299   -7.707524322
   -2.533542463   -0.912075287   17.853814972   -1.104231822   -8.944733209
   -2.330859066   -0.912075287   17.447028470    2.959774454  -10.343001023
   -2.128175669   -0.912075287   17.339689881   -2.153846678  -10.918260344
   -1.925492272   -0.912075287   18.248792878   -7.382868856  -11.569340130
   -1.722808875   -0.912075287   20.440166058  -12.796736486  -14.872088538
   -1.520125478   -0.912075287   22.643193272   -8.533619847  -16.416796250
   -1.317442081   -0.912075287   24.236620631   -7.150290891  -16.643368257
   -1.114758684   -0.912075287   24.981033565    0.754754290  -16.501980199
   -0.912075287   -0.912075287   23.998701048    9.190206667  -15.371646262
   -0.709391890   -0.912075287   20.735089723   23.694834592   -4.653818168
   -0.506708493   -0.912075287   14.788190328   33.859232067    4.509547783
   -0.304025096   -0.912075287    6.908994664   44.407663027   19.643907149
   -0.101341699   -0.912075287   -2.816428059   49.650884182   40.383711898
    0.101341699   -0.912075287  -12.754753055   48.164785821   55.275214414
    0.304025096   -0.912075287  -22.246486188   44.677112107   69.952607352
    0.506708493   -0.912075287  -29.875819347   26.472056267   65.563807675
    0.709391890   -0.912075287  -31.852692397   -5.648865683   37.209362749
    0.912075287   -0.912075287  -29.275469622  -16.996037398   18.851464585
    1.114758684   -0.912075287  -24.552643583  -30.983855496   14.472681775
    1.317442081   -0.912075287  -17.946265767  -28.318332037    5.911169701
    1.520125478   -0.912075287  -14.440405167   -6.145941351    1.329271755
    1.722808875   -0.912075287  -15.296951460   14.264177444   -0.625206669
    1.925492272   -0.912075287  -19.490648451   24.019030788   -2.628855511
    2.128175669   -0.912075287  -24.012879449   18.417880007   -5.382735252
    2.330859066   -0.912075287  -25.578132667   -6.439718025   -6.779653339
    2.533542463   -0.912075287  -21.360251491  -32.401194597   -9.388332503
    2.736225860   -0.912075287  -13.007999738  -50.458886054   -9.923427599
    2.938909257   -0.912075287   -1.817964281  -53.705468927  -11.056490594

   -3.141592654   -0.709391890    7.044448566  -35.702343414    5.655093533
   -2.938909257   -0.709391890   13.538952877  -25.672627352    1.796897083
   -2.736225860   -0.709391890   17.111485116  -11.509174618    2.369587261
   -2.533542463   -0.709391890   18.570360487   -2.139952997    2.755140092
   -2.330859066   -0.709391890   18.416596838    0.469407719    0.841514809
   -2.128175669   -0.709391890   18.906814500   -4.092216981   -3.678559403
   -1.925492272   -0.709391890   20.068724588   -9.106106142   -5.204181997
   -1.722808875   -0.709391890   22.437615079  -11.234825080   -3.316315846
   -1.520125478   -0.709391890   24.215126967   -8.517312146   -2.199315676
   -1.317442081   -0.709391890   26.189384303   -8.313850414   -3.792363578
   -1.114758684   -0.709391890   26.744819053    2.240709567   -2.788269348
   -0.912075287   -0.709391890   25.230502121   15.384590517    2.708321433
   -0.709391890   -0.709391890   19.914101440   35.178295279   14.834082187
   -0.506708493   -0.709391890   11.554411335   48.816409029   30.689092477
   -0.304025096   -0.709391890   -0.159296067   63.865943857   49.465498639
   -0.101341699   -0.709391890  -13.190401583   65.103653037   63.129716450
    0.101341699   -0.709391890  -26.481614422   61.699877043   75.795259833
    0.304025096   -0.709391890  -36.254945153   33.780248668   57.624910719
    0.506708493   -0.709391890  -40.119197908    1.030505411   31.805802264
    0.709391890   -0.709391890  -36.200427081  -32.200769630   13.904721585
    0.912075287   -0.709391890  -31.266396508  -14.690928359   10.189016818
    1.114758684   -0.709391890  -26.765458266  -36.894401983    2.831186813
    1.317442081   -0.709391890  -18.368033819  -34.931828673   -3.450032616
    1.520125478   -0.709391890  -14.353614862   -6.751268370   -3.651079279
    1.722808875   -0.709391890  -15.138752533   14.717244880   -0.753212021
    1.925492272   -0.709391890  -19.508737249   24.604672543    2.890554563
    2.128175669   -0.709391890  -24.030524471   17.688369314    5.386326221
    2.330859066   -0.709391890  -25.142876307   -9.790441070    3.202544286
    2.533542463   -0.709391890  -20.422274960  -34.013123746    3.478024020
    2.736225860   -0.709391890  -11.660229924  -51.932504840   -0.563714643
    2.938909257   -0.709391890   -1.061696939  -47.086251048    2.288464797

   -3.141592654   -0.506708493    5.367822389  -36.265094447   11.090705681
   -2.938909257   -0.506708493   11.859817267  -26.215854166   12.267107866
   -2.736225860   -0.506708493   15.673081016  -11.915535788   10.011511357
   -2.533542463   -0.506708493   17.101792550   -3.396519802    9.544255271
   -2.330859066   -0.506708493   17.615711911   -2.954778227    6.128030402
   -2.128175669   -0.506708493   18.520148661   -5.754869475    6.791713791
   -1.925492272   -0.506708493   19.810811237   -7.055617946    6.979209469
   -1.722808875   -0.506708493   21.633715154  -11.430113729    8.657311001
   -1.520125478   -0.506708493   24.107443564  -11.061795479    5.414705207
   -1.317442081   -0.506708493   25.666970515   -4.538768730    9.544284347
   -1.114758684   -0.506708493   25.779272905    5.719180849   14.508960374
   -0.912075287   -0.506708493   22.321869082   29.156552239   26.823027257
   -0.709391890   -0.506708493   14.283750267   49.526575953   39.918607032
   -0.506708493   -0.506708493    2.305711167   67.770308299   56.705594713
   -0.304025096   -0.506708493  -12.526394938   77.291629028   72.124724904
   -0.101341699   -0.506708493  -28.187810224   72.400933078   77.466094213
    0.101341699   -0.506708493  -39.430879438   35.604330461   42.769906581
    0.304025096   -0.506708493  -43.587014099    9.435560685   18.543460068
    0.506708493   -0.506708493  -43.508449510  -11.680152754    7.115912770
    0.709391890   -0.506708493  -39.137080225  -28.989827981    9.399130261
    0.912075287   -0.506708493  -32.043563787  -41.827355043  -17.221408153
    1.114758684   -0.506708493  -22.782440162  -45.204660936  -43.078526102
    1.317442081   -0.506708493  -15.252167523  -27.304826203  -29.822233735
    1.520125478   -0.506708493  -12.285221091   -0.366699673  -17.018207102
    1.722808875   -0.506708493  -14.979298962   24.043136728   -1.931850420
    1.925492272   -0.506708493  -20.741349089   30.503166777    8.754880009
    2.128175669   -0.506708493  -26.150028241   18.715650859   14.689007533
    2.330859066   -0.506708493  -27.244314184   -7.738652138   17.345796056
    2.533542463   -0.506708493  -23.218256280  -33.086266085   20.861237830
    2.736225860   -0.506708493  -13.766671022  -56.391222274   20.407657263
    2.938909257   -0.506708493   -2.862348335  -46.988414081   16.153015243

   -3.141592654   -0.304025096    1.728755989  -38.201873091   25.747512153
   -2.938909257   -0.304025096    8.589921542  -29.761949343   21.016850577
   -2.736225860   -0.304025096   13.231675825  -15.175689275   13.987208051
   -2.533542463   -0.304025096   15.176029157   -5.911028570    9.333620038
   -2.330859066   -0.304025096   16.104865498   -3.801969285    7.666164080
   -2.128175669   -0.304025096   16.927347906   -4.865018497    7.269254308
   -1.925492272   -0.304025096   18.244127987   -8.237498301    6.495508480
   -1.722808875   -0.304025096   20.102384777   -9.367061195    6.307804341
   -1.520125478   -0.304025096   21.840791587   -7.424667422   13.643211432
   -1.317442081   -0.304025096   22.710039547    0.439495409   18.364966799
   -1.114758684   -0.304025096   21.102328398   16.670112442   29.538692503
   -0.912075287   -0.304025096   15.238521562   42.708970768   42.039053712
   -0.709391890   -0.304025096    4.085514397   65.051277419   60.934499270
   -0.506708493   -0.304025096  -10.944856638   84.316635168   77.229522893
   -0.304025096   -0.304025096  -28.697767742   80.942566234   80.238451976
   -0.101341699   -0.304025096  -40.205901093   31.972603392   35.971196633
    0.101341699   -0.304025096  -44.188659187   13.265850395   12.416774026
    0.304025096   -0.304025096  -45.853915742    1.452682952    4.648079515
    0.506708493   -0.304025096  -44.263605002  -19.975719429   -2.856678447
    0.709391890   -0.304025096  -36.021049281  -62.050038480  -45.816813389
    0.912075287   -0.304025096  -22.082334871  -64.522485449  -70.460837765
    1.114758684   -0.304025096  -12.021404906  -35.603848531  -56.227476063
    1.317442081   -0.304025096   -7.307121337   -9.668163071  -41.791608341
    1.520125478   -0.304025096   -8.341221517   18.466316256  -19.260709124
    1.722808875   -0.304025096  -14.146600743   37.705998234   -5.152279145
    1.925492272   -0.304025096  -22.601399533   41.342222949    8.471121031
    2.128175669   -0.304025096  -29.381336692   23.545527637   16.206247436
    2.330859066   -0.304025096  -31.512394773   -4.223788559   22.693024576
    2.533542463   -0.304025096  -27.541692846  -33.339840055   21.835151109
    2.736225860   -0.304025096  -18.741761911  -52.061438256   26.889494835
    2.938909257   -0.304025096   -7.562019266  -53.688182447   29.553312136

   -3.141592654   -0.101341699   -3.709771642  -45.623630379   21.502360072
   -2.938909257   -0.101341699    4.667775690  -38.137878938   11.007459267
   -2.736225860   -0.101341699   11.152120591  -22.612329201    2.609302511
   -2.533542463   -0.101341699   13.816166524   -7.502968163    1.597649116
   -2.330859066   -0.101341699   15.247747212   -5.894299926   -0.478053776
   -2.128175669   -0.101341699   16.065311642   -4.393275015   -0.417723468
   -1.925492272   -0.101341699   17.552085930   -8.232199647   -0.506062981
   -1.722808875   -0.101341699   18.647741018   -3.783982752    6.988348057
   -1.520125478   -0.101341699   19.480861640   -1.836300651   11.115735927
   -1.317442081   -0.101341699   18.097614978   15.433373201   27.876568924
   -1.114758684   -0.101341699   13.618190832   30.883836798   45.877401196
   -0.912075287   -0.101341699    4.301295734   60.920275071   66.006489314
   -0.709391890   -0.101341699  -10.244226675   82.391296861   77.983785964
   -0.506708493   -0.101341699  -28.329086418   86.918091470   82.823906781
   -0.304025096   -0.101341699  -40.825200584   33.035188250   34.009557187
   -0.101341699   -0.101341699  -44.613834534   11.981877828   14.137703560
    0.101341699   -0.101341699  -45.712949926   -2.532152374   -1.232924022
    0.304025096   -0.101341699  -44.793008934   -6.236315958  -15.556187032
    0.506708493   -0.101341699  -39.167387137  -60.503459036  -53.047022024
    0.709391890   -0.101341699  -22.251906229  -87.949765604  -79.233906780
    0.912075287   -0.101341699   -8.363147885  -49.915010946  -62.768234257
    1.114758684   -0.101341699   -0.769102901  -23.270078410  -54.184683562
    1.317442081   -0.101341699    0.111846720   12.622106918  -33.202252299
    1.520125478   -0.101341699   -4.556762514   32.946595433  -19.225604795
    1.722808875   -0.101341699  -13.364045573   51.575706060   -2.839853986
    1.925492272   -0.101341699  -23.873661421   49.469372089    3.795424066
    2.128175669   -0.101341699  -32.587595982   33.062903392   14.426598658
    2.330859066   -0.101341699  -35.857856951   -1.780227944   19.218038820
    2.533542463   -0.101341699  -32.492129034  -29.375893629   25.618058340
    2.736225860   -0.101341699  -24.534628335  -47.664698152   28.820371911
    2.938909257   -0.101341699  -13.981680027  -53.996156642   29.303303036

   -3.141592654    0.101341699   -5.266838104  -55.755334193   -5.951472632
   -2.938909257    0.101341699    5.194761898  -46.381218477  -12.923356778
   -2.736225860    0.101341699   12.195658606  -21.403026545   -9.959086495
   -2.533542463    0.101341699   15.022339622   -9.704707902  -12.515193691
   -2.330859066    0.101341699   16.347967994   -3.815021935  -10.089878504
   -2.128175669    0.101341699   17.395843851   -7.178964580  -10.692236656
   -1.925492272    0.101341699   18.327649375   -0.342650364   -4.665834512
   -1.722808875    0.101341699   18.107616038    1.536651568   -0.890072349
   -1.520125478    0.101341699   16.637713083   16.012976758   16.526205551
   -1.317442081    0.101341699   11.699123817   31.784838557   34.216065886
   -1.114758684    0.101341699    3.198001231   53.372575548   53.818570950
   -0.912075287    0.101341699   -9.558469791   72.160533962   68.262114031
   -0.709391890    0.101341699  -26.153502246   86.613705925   75.168027909
   -0.506708493    0.101341699  -39.957011794   40.920091022   31.471444647
   -0.304025096    0.101341699  -44.512585380   14.197733248   11.060797632
   -0.101341699    0.101341699  -46.091431158   -4.214356209   -1.240522050
    0.101341699    0.101341699  -43.509378002  -13.783531570  -14.566934389
    0.304025096    0.101341699  -39.323833792  -41.729473674  -41.794374630
    0.506708493    0.101341699  -24.373833900  -94.132899413  -82.593538933
    0.709391890    0.101341699   -7.122410737  -70.765455982  -68.931872857
    0.912075287    0.101341699    4.584024835  -42.741355727  -63.373756540
    1.114758684    0.101341699    8.931355794   -2.116521359  -39.681887380
    1.317442081    0.101341699    7.073238219   21.088885183  -33.427248115
    1.520125478    0.101341699   -0.844776389   55.156020170  -15.288380793
    1.722808875    0.101341699  -12.615989099   56.887526043   -4.821599181
    1.925492272    0.101341699  -24.239812791   57.952258331    0.212577548
    2.128175669    0.101341699  -34.415604847   37.769691872    2.420446263
    2.330859066    0.101341699  -38.901052948    6.080907981    9.764496081
    2.533542463    0.101341699  -36.666154811  -26.991817617   13.557053214
    2.736225860    0.101341699  -28.975676736  -47.640782159   11.682915407
    2.938909257    0.101341699  -17.514344635  -62.837278460    3.475123342

   -3.141592654    0.304025096   -2.471314835  -62.163144848  -18.641076510
   -2.938909257    0.304025096    8.403570540  -43.237241199  -17.820624692
   -2.736225860    0.304025096   14.937509117  -22.843268129  -18.506867530
   -2.533542463    0.304025096   18.205880404   -9.615665168  -17.510195388
   -2.330859066    0.304025096   19.138484500   -1.574201282  -16.166755581
   -2.128175669    0.304025096   19.322089059    0.346608959   -8.837239194
   -1.925492272    0.304025096   18.848737591    3.551358648   -2.900405714
   -1.722808875    0.304025096   17.621945544   11.968934089    7.347037378
   -1.520125478    0.304025096   12.800422779   35.352535915   22.965092717
   -1.317442081    0.304025096    3.998641514   51.298208049   42.655967198
   -1.114758684    0.304025096   -8.480638089   71.894829612   63.307792019
   -0.912075287    0.304025096  -24.147829482   78.428589119   71.101836601
   -0.709391890    0.304025096  -37.920832293   51.103663075   31.785445149
   -0.506708493    0.304025096  -44.056540371   13.938450027   12.648315764
   -0.304025096    0.304025096  -45.865613432    5.282572737   -1.848670024
   -0.101341699    0.304025096  -45.230682702  -13.303744341   -4.817223867
    0.101341699    0.304025096  -40.072465746  -41.415881324  -29.889964837
    0.304025096    0.304025096  -26.700083465  -88.467382600  -80.054539022
    0.506708493    0.304025096   -8.227355021  -83.893810999  -76.349640859
    0.709391890    0.304025096    6.355063997  -60.866105139  -62.805838274
    0.912075287    0.304025096   15.093830241  -20.850037858  -39.766870899
    1.114758684    0.304025096   15.641742809    9.000019256  -28.076381300
    1.317442081    0.304025096   11.872580432   33.122177392  -12.560859688
    1.520125478    0.304025096    1.558746891   63.493161728  -10.154862381
    1.722808875    0.304025096  -11.456260233   62.793537334   -6.995189336
    1.925492272    0.304025096  -23.844446969   58.091924497   -4.850382791
    2.128175669    0.304025096  -34.018736738   40.405525176   -4.485184828
    2.330859066    0.304025096  -39.463108743   10.691409927   -4.618120712
    2.533542463    0.304025096  -37.679174253  -27.666523294   -4.665600615
    2.736225860    0.304025096  -29.000496315  -56.049838477  -10.492036153
    2.938909257    0.304025096  -15.980305971  -68.816660880  -15.779880290

   -3.141592654    0.506708493    1.656438843  -59.769306827  -21.463190607
   -2.938909257    0.506708493   12.353222094  -45.312612865  -19.822228356
   -2.736225860    0.506708493   19.074648719  -20.371740369  -18.423283442
   -2.533542463    0.506708493   21.665526149   -7.595288604  -16.041497352
   -2.330859066    0.506708493   22.291678079    0.436955407  -14.493233741
   -2.128175669    0.506708493   22.267874902    0.435588625  -20.826312206
   -1.925492272    0.506708493   20.744368385   16.371954504  -14.522171319
   -1.722808875    0.506708493   16.078186430   29.806250092    4.817820349
   -1.520125478    0.506708493    7.684067090   53.420318941   22.128469813
   -1.317442081    0.506708493   -4.667992113   68.240370091   37.231542787
   -1.114758684    0.506708493  -20.207251639   79.229004936   40.878193256
   -0.912075287    0.506708493  -32.346698547   36.461976417    1.492671782
   -0.709391890    0.506708493  -38.492928168   33.037589099  -15.075963927
   -0.506708493    0.506708493  -43.767421450    9.420516820  -16.658516095
   -0.304025096    0.506708493  -43.500046388   -2.366338031  -19.030155746
   -0.101341699    0.506708493  -41.353204770  -34.026287877  -45.014457167
    0.101341699    0.506708493  -27.845504125  -88.029627573  -85.406279440
    0.304025096    0.506708493  -10.017096981  -85.749309322  -77.474433118
    0.506708493    0.506708493    6.241808374  -68.684390681  -62.826461164
    0.709391890    0.506708493   16.929961798  -41.682509931  -42.079684303
    0.912075287    0.506708493   23.449109838  -14.187868938  -47.983861450
    1.114758684    0.506708493   20.678775344   34.119728630  -22.690291636
    1.317442081    0.506708493   13.514921713   36.614457260   -7.506619150
    1.520125478    0.506708493    3.433574194   63.343851311   -6.918801412
    1.722808875    0.506708493   -9.704262779   62.470236450   -9.234298118
    1.925492272    0.506708493  -22.324437351   61.457575456   -8.967889536
    2.128175669    0.506708493  -32.679830115   37.099325132   -9.375777251
    2.330859066    0.506708493  -37.307027097    7.681802919  -14.837267719
    2.533542463    0.506708493  -34.684019946  -33.759604767  -22.283306703
    2.736225860    0.506708493  -25.115494997  -57.350515139  -26.036317458
    2.938909257    0.506708493  -11.884987951  -70.762101167  -23.413214183

   -3.141592654    0.709391890    6.052950281  -59.167935429  -21.300769441
   -2.938909257    0.709391890   16.100051306  -39.357191923  -17.900121726
   -2.736225860    0.709391890   22.263855733  -22.075275312  -15.877496080
   -2.533542463    0.709391890   24.928286851   -4.487605027  -16.721870475
   -2.330859066    0.709391890   25.268164829   -2.673471873  -15.117667354
   -2.128175669    0.709391890   25.836509817    2.026583645   -9.531872458
   -1.925492272    0.709391890   22.909026320   26.538768943   -5.189014662
   -1.722808875    0.709391890   15.926411523   41.472871456   -3.156413978
   -1.520125478    0.709391890    5.724724321   60.792313102   -2.570184231
   -1.317442081    0.709391890   -8.847089805   79.637857553    1.112777629
   -1.114758684    0.709391890  -23.095653289   51.903069382   -7.408159919
   -0.912075287    0.709391890  -30.159757241   27.708632588   -5.185234817
   -0.709391890    0.709391890  -36.458972924   29.086665013   -6.151078035
   -0.506708493    0.709391890  -39.285293728   -0.685502437  -25.732839178
   -0.304025096    0.709391890  -37.111766133  -25.012049867  -51.373511675
   -0.101341699    0.709391890  -26.731842107  -74.528087381  -87.250642990
    0.101341699    0.709391890  -11.104077204  -73.597917729  -71.909922250
    0.304025096    0.709391890    3.954635947  -75.123587919  -61.348004624
    0.506708493    0.709391890   16.550788799  -45.732294898  -41.197536199
    0.709391890    0.709391890   25.526053258  -49.183234488  -44.034655908
    0.912075287    0.709391890   32.216047597    1.334539814  -26.218616700
    1.114758684    0.709391890   24.749759833   54.616082559  -14.381367436
    1.317442081    0.709391890   15.079355090   43.850046367   -6.505663233
    1.520125478    0.709391890    4.253343943   62.513176765   -2.842153227
    1.722808875    0.709391890   -8.331689530   60.168119846   -3.900964388
    1.925492272    0.709391890  -20.618049282   59.471816330   -7.488049053
    2.128175669    0.709391890  -30.525676615   34.633982394  -10.178021291
    2.330859066    0.709391890  -34.168568949    0.191026037  -15.382166761
    2.533542463    0.709391890  -30.130863701  -38.928043639  -20.950147421
    2.736225860    0.709391890  -19.836901325  -59.043109166  -22.797483559
    2.938909257    0.709391890   -6.982265693  -66.350244705  -23.798287057

   -3.141592654    0.912075287    9.753143379  -56.513893013  -13.688364012
   -2.938909257    0.912075287   19.546772579  -38.385809619  -13.806414850
   -2.736225860    0.912075287   25.234257496  -19.166190349   -9.280145527
   -2.533542463    0.912075287   27.838464025   -6.783045524   -9.545467523
   -2.330859066    0.912075287   28.026816163    3.852491488  -11.103167838
   -2.128175669    0.912075287   26.880068880    7.318858943   -6.371353881
   -1.925492272    0.912075287   24.171807994   22.271351396   -9.874756923
   -1.722808875    0.912075287   17.586735194   41.391367764  -12.785121885
   -1.520125478    0.912075287    7.621900907   57.703528393  -14.915327480
   -1.317442081    0.912075287   -5.646052977   70.174477678  -28.020042669
   -1.114758684    0.912075287  -19.002303943   57.442735105  -34.390750459
   -0.912075287    0.912075287  -27.830543704   28.727630770  -37.636293040
   -0.709391890    0.912075287  -31.173257202    6.617421013  -53.991869046
   -0.506708493    0.912075287  -30.280807140  -19.619701665  -70.344190808
   -0.304025096    0.912075287  -22.287771018  -55.738233591  -85.793645278
   -0.101341699    0.912075287  -10.214357715  -60.164623784  -74.059460513
    0.101341699    0.912075287    2.483313963  -65.252165599  -65.100648619
    0.304025096    0.912075287   14.585599856  -50.130798302  -41.479590292
    0.506708493    0.912075287   23.475963370  -42.130306026  -24.645777641
    0.709391890    0.912075287   31.286470717  -27.748848737   -3.615533021
    0.912075287    0.912075287   32.268713567   18.507656053   18.462990634
    1.114758684    0.912075287   25.456389199   43.454179966    5.734242438
    1.317442081    0.912075287   15.945919748   49.759652232   -1.834398551
    1.520125478    0.912075287    4.890556076   60.101227605   -2.096303536
    1.722808875    0.912075287   -7.777960589   61.824688316   -2.149103301
    1.925492272    0.912075287  -19.511842963   53.771366930   -2.539105911
    2.128175669    0.912075287  -28.713404699   32.122244558   -8.434752550
    2.330859066    0.912075287  -31.023691395   -9.077062951  -15.569585672
    2.533542463    0.912075287  -26.088656973  -37.764786945  -18.733845477
    2.736225860    0.912075287  -15.924077118  -61.134449935  -18.031520817
    2.938909257    0.912075287   -2.712720911  -65.430962168  -17.396579831

   -3.141592654    1.114758684   11.671406478  -54.024476684   -7.168962833
   -2.938909257    1.114758684   21.114438569  -35.510439627   -3.126600697
   -2.736225860    1.114758684   26.038132668  -16.622641961   -3.372587248
   -2.533542463    1.114758684   28.871282267  -10.745167652   -3.100270241
   -2.330859066    1.114758684   29.803804867    1.485328978   -6.708334700
   -2.128175669    1.114758684   28.766180362    8.305726014   -8.170706500
   -1.925492272    1.114758684   25.972397517   20.746722601   -5.076695715
   -1.722808875    1.114758684   20.225509152   35.437586108  -11.882500262
   -1.520125478    1.114758684   11.683483938   49.012803765  -23.408686868
   -1.317442081    1.114758684    0.788932363   55.252354664  -34.221939009
   -1.114758684    1.114758684   -9.035209524   38.905174647  -58.048382950
   -0.912075287    1.114758684  -14.937224471   20.156772764  -71.005541180
   -0.709391890    1.114758684  -16.786624247   -4.097414589  -77.901110008
   -0.506708493    1.114758684  -13.269950138  -28.064680705  -83.666941455
   -0.304025096    1.114758684   -6.166291738  -42.214604745  -70.813818596
   -0.101341699    1.114758684    3.688822441  -51.922378093  -60.250238027
    0.101341699    1.114758684   13.222756961  -40.167759007  -34.949216047
    0.304025096    1.114758684   20.347780711  -31.634815059  -15.850042546
    0.506708493    1.114758684   25.932600003  -22.169363265   -2.796586833
    0.709391890    1.114758684   29.029926073   -7.956917533   11.495175787
    0.912075287    1.114758684   28.743422521   12.081197383   12.157129453
    1.114758684    1.114758684   23.992397081   33.931230931    7.246374511
    1.317442081    1.114758684   15.542061315   48.234089280    5.670062076
    1.520125478    1.114758684    4.707069557   58.350488930    3.066085527
    1.722808875    1.114758684   -7.740779864   62.518835022    2.682335320
    1.925492272    1.114758684  -19.540436852   50.982378673    1.249562831
    2.128175669    1.114758684  -27.251366195   22.582959357   -4.600792639
    2.330859066    1.114758684  -28.250815310  -11.982870636  -10.706814382
    2.533542463    1.114758684  -22.878840213  -40.494982889  -13.315191778
    2.736225860    1.114758684  -12.230174796  -61.458450022  -16.784817458
    2.938909257    1.114758684    0.254888319  -58.916686650  -13.430826751

   -3.141592654    1.317442081   13.019096828  -46.837855599   -4.855058013
   -2.938909257    1.317442081   21.639932694  -36.264860431   -2.217188259
   -2.736225860    1.317442081   26.920355781  -16.229507496   -0.920973451
   -2.533542463    1.317442081   29.301766057   -9.449603739    0.694872016
   -2.330859066    1.317442081   30.460817342   -0.065758883    1.089709806
   -2.128175669    1.317442081   29.377731585    9.035289056    0.098320985
   -1.925492272    1.317442081   27.009712226   15.305739580   -8.363100037
   -1.722808875    1.317442081   22.852095853   26.049307098  -15.125911522
   -1.520125478    1.317442081   16.314714497   37.923727274  -22.619446558
   -1.317442081    1.317442081    8.548602899   35.471595729  -42.067801139
   -1.114758684    1.317442081    2.297890793   26.687761873  -54.620339936
   -0.912075287    1.317442081   -1.587676580    8.511220479  -69.553210942
   -0.709391890    1.317442081   -1.184544062   -8.996331841  -74.011144323
   -0.506708493    1.317442081    1.459365030  -19.208990302  -65.015821073
   -0.304025096    1.317442081    6.876045840  -30.755563473  -56.102437399
   -0.101341699    1.317442081   12.489764756  -24.629854261  -26.413587494
    0.101341699    1.317442081   17.371951371  -22.865033288  -10.848796396
    0.304025096    1.317442081   21.455187587  -19.489175504    3.643162040
    0.506708493    1.317442081   25.972180419  -22.043773265    4.037190582
    0.709391890    1.317442081   28.163440214    2.225713349    6.645772923
    0.912075287    1.317442081   26.369764215   12.860762583   14.207111642
    1.114758684    1.317442081   22.171796254   31.092172812   10.272863133
    1.317442081    1.317442081   14.294434430   44.231727676    5.604726111
    1.520125478    1.317442081    3.961612070   59.195111919    4.910532372
    1.722808875    1.317442081   -8.652963727   60.167581478    4.614950571
    1.925492272    1.317442081  -19.490992686   46.924182643   -1.585999161
    2.128175669    1.317442081  -26.761498024   19.889238522   -2.559385614
    2.330859066    1.317442081  -26.615797716  -19.056681684   -6.719112710
    2.533542463    1.317442081  -20.309292292  -42.090703989  -11.325469262
    2.736225860    1.317442081   -9.676083497  -60.685317470   -8.896903363
    2.938909257    1.317442081    2.616486661  -56.902120847   -7.247392705

   -3.141592654    1.520125478   13.339439402  -48.920831883   -0.070663330
   -2.938909257    1.520125478   21.718476503  -31.668233403    1.083030505
   -2.736225860    1.520125478   26.307795856  -15.540829412    1.270473116
   -2.533542463    1.520125478   28.664546256   -8.355198494    2.475865211
   -2.330859066    1.520125478   29.653901307   -1.251383901    4.791347609
   -2.128175669    1.520125478   29.453857972    2.041941483   -0.315250305
   -1.925492272    1.520125478   28.733710358    7.210284381   -4.723440946
   -1.722808875    1.520125478   25.829638265   20.784068933  -12.632141394
   -1.520125478    1.520125478   21.270868060   22.369928424  -25.365468781
   -1.317442081    1.520125478   16.912267047   20.099583525  -38.986365820
   -1.114758684    1.520125478   13.800313689    9.653369123  -55.185730884
   -0.912075287    1.520125478   12.297638808    7.651143687  -52.625610246
   -0.709391890    1.520125478   11.154601806   -0.633535784  -46.578879413
   -0.506708493    1.520125478   13.095109567  -14.339349199  -44.425181562
   -0.304025096    1.520125478   14.914001782   -2.892598710  -22.401295170
   -0.101341699    1.520125478   15.762874812   -8.456062405   -8.439650632
    0.101341699    1.520125478   17.678589140   -7.563351053    9.263693713
    0.304025096    1.520125478   19.397522640  -13.334381612   15.303024413
    0.506708493    1.520125478   22.845783650  -14.929386517   25.841866522
    0.709391890    1.520125478   23.957547633    1.941297329   28.851645564
    0.912075287    1.520125478   23.340957192    4.971831247   13.943455999
    1.114758684    1.520125478   20.323384625   27.137987642    9.074381236
    1.317442081    1.520125478   12.928772685   43.732425847    8.283904701
    1.520125478    1.520125478    2.669861892   57.128052763    5.962266040
    1.722808875    1.520125478   -9.075353451   55.285705134   -0.734002604
    1.925492272    1.520125478  -19.167282391   43.586973745   -1.745172506
    2.128175669    1.520125478  -25.585976443   15.885060753   -8.196612916
    2.330859066    1.520125478  -25.182016132  -18.051351032   -7.109420670
    2.533542463    1.520125478  -18.847944969  -44.033513627   -4.065246346
    2.736225860    1.520125478   -8.156736433  -57.141883947   -6.461997846
    2.938909257    1.520125478    2.973541919  -52.367763038   -0.053083861

   -3.141592654    1.722808875   13.885973767  -43.360462244   -5.126877838
   -2.938909257    1.722808875   21.649134988  -32.985608123   -1.223717508
   -2.736225860    1.722808875   26.803850467  -17.034513803   -0.358264853
   -2.533542463    1.722808875   28.781167594   -4.078031554   -1.327938343
   -2.330859066    1.722808875   29.163645502   -1.099228730   -0.343617654
   -2.128175669    1.722808875   29.349656403   -0.003891946    0.183659673
   -1.925492272    1.722808875   29.035417204    2.561722558   -1.757722855
   -1.722808875    1.722808875   28.217393071    7.136900525  -12.083461369
   -1.520125478    1.722808875   26.045495372   11.407943998  -22.549299402
   -1.317442081    1.722808875   24.657371126    3.671371641  -37.261268668
   -1.114758684    1.722808875   23.124029696   11.894577233  -40.106756812
   -0.912075287    1.722808875   21.429653708    1.959116479  -63.196489921
   -0.709391890    1.722808875   21.074946630    6.688554608  -58.217838896
   -0.506708493    1.722808875   18.838938720   10.620323040  -17.374629801
   -0.304025096    1.722808875   17.553421559    4.571451811   -7.858138517
   -0.101341699    1.722808875   16.125355587    8.503696889    3.814209111
    0.101341699    1.722808875   15.068614339    0.500449375   10.924469624
    0.304025096    1.722808875   15.920470921   -8.094719833   17.360446572
    0.506708493    1.722808875   17.815112967   -9.278731753   19.827229667
    0.709391890    1.722808875   19.555834588   -8.017792219   14.872750119
    0.912075287    1.722808875   20.472869341    1.874568321   14.804358034
    1.114758684    1.722808875   18.078230500   21.613829609    9.948588350
    1.317442081    1.722808875   11.878978149   39.595218509   -0.648586687
    1.520125478    1.722808875    2.352266115   52.271415108   -3.044800055
    1.722808875    1.722808875   -8.500841857   53.509119131   -4.688372599
    1.925492272    1.722808875  -18.451860799   41.123325799   -5.904120877
    2.128175669    1.722808875  -24.076016857   13.758335174   -6.490835037
    2.330859066    1.722808875  -23.954323438  -16.034195175   -5.572964374
    2.533542463    1.722808875  -17.471256799  -45.558441989  -10.702185445
    2.736225860    1.722808875   -7.036686383  -54.478918828   -5.507035615
    2.938909257    1.722808875    4.019588038  -53.237383611   -9.034917282

   -3.141592654    1.925492272   15.062356839  -44.486157638   -7.786541098
   -2.938909257    1.925492272   22.865806184  -30.148371084  -13.566913861
   -2.736225860    1.925492272   27.330552898  -15.179718235  -19.398317484
   -2.533542463    1.925492272   29.140170427   -3.513652462   -6.936863264
   -2.330859066    1.925492272   29.676288675   -2.770255902   -4.460640684
   -2.128175669    1.925492272   29.691764626    2.720075084   -3.231052366
   -1.925492272    1.925492272   29.782036806   -5.020777944   -3.894122021
   -1.722808875    1.925492272   30.474238854    0.390487145   -9.329900774
   -1.520125478    1.925492272   30.767875679   -4.892261788  -21.853217854
   -1.317442081    1.925492272   30.628433014    7.920230309  -18.816225955
   -1.114758684    1.925492272   31.939583190  -32.199517558  -42.828322347
   -0.912075287    1.925492272   38.859774151   -6.993602273  -71.815969290
   -0.709391890    1.925492272   30.858141801   65.156827116  -21.175541933
   -0.506708493    1.925492272   21.918674257   19.662359629  -12.991952287
   -0.304025096    1.925492272   18.498734108   20.437875082   -1.250288702
   -0.101341699    1.925492272   15.084388813   10.435151590    5.272119513
    0.101341699    1.925492272   13.149260550    9.874853403   12.458148982
    0.304025096    1.925492272   12.464084675   -5.025813326   18.006582755
    0.506708493    1.925492272   14.076686369   -8.500627458   20.229658950
    0.709391890    1.925492272   16.286310706  -13.485557152   17.008671289
    0.912075287    1.925492272   18.332824903   -4.069506966    3.903899428
    1.114758684    1.925492272   17.793796349   10.547407626   -5.605145647
    1.317442081    1.925492272   12.930558142   38.012595125   -7.317362978
    1.520125478    1.925492272    3.689428832   49.945784410  -10.493169556
    1.722808875    1.925492272   -6.977791136   53.880798935  -11.192865781
    1.925492272    1.925492272  -16.635174465   38.479324890  -12.553200483
    2.128175669    1.925492272  -22.386770523   17.052657532  -11.816085179
    2.330859066    1.925492272  -22.164904916  -20.835760789  -13.678176657
    2.533542463    1.925492272  -15.260590112  -42.797516894   -9.680277782
    2.736225860    1.925492272   -5.386635955  -54.114874231  -11.118622571
    2.938909257    1.925492272    5.517589726  -50.482456177   -6.822188918

   -3.141592654    2.128175669   17.833173095  -40.053561108  -18.579120194
   -2.938909257    2.128175669   27.230071358  -58.014580624  -24.820134271
   -2.736225860    2.128175669   36.628773989  -14.154502078  -53.213894841
   -2.533542463    2.128175669   32.742596413   29.715382703  -23.994586183
   -2.330859066    2.128175669   31.143729153   -7.731895342  -11.016815785
   -2.128175669    2.128175669   30.950039756    9.201168704  -11.071559691
   -1.925492272    2.128175669   30.855862780   -9.557651436   -9.502623819
   -1.722808875    2.128175669   32.398056907   -4.128231979  -10.796637253
   -1.520125478    2.128175669   33.758556649   -7.056974948   -8.673096926
   -1.317442081    2.128175669   33.481355385    4.165133302  -15.238320189
   -1.114758684    2.128175669   36.650942832  -33.834242946   -2.009533754
   -0.912075287    2.128175669   39.240326864   24.946483163   49.875755788
   -0.709391890    2.128175669   29.976589222   44.557813114   10.814971587
   -0.506708493    2.128175669   24.004282712   23.220247300   -9.481920312
   -0.304025096    2.128175669   18.435774511   27.943636409    0.870508384
   -0.101341699    2.128175669   13.808784774   20.179658277    7.916213905
    0.101341699    2.128175669    9.803091168   15.884305887   16.898666286
    0.304025096    2.128175669    8.489391120   -1.908983498   19.373398854
    0.506708493    2.128175669   10.035888979  -14.065544581   16.291790896
    0.709391890    2.128175669   14.214413199  -24.427071279    2.577747615
    0.912075287    2.128175669   18.370490889  -13.524602699   -2.225257684
    1.114758684    2.128175669   18.948354242    8.619593630   -7.560108645
    1.317442081    2.128175669   14.965508281   30.260584650  -14.908986175
    1.520125478    2.128175669    6.708656248   50.058438995  -17.955914702
    1.722808875    2.128175669   -3.935984134   51.241933863  -17.806388931
    1.925492272    2.128175669  -13.381332678   40.647623218  -18.177963762
    2.128175669    2.128175669  -19.106514456   12.834572342  -19.573915313
    2.330859066    2.128175669  -18.722247403  -14.928740349  -17.708216345
    2.533542463    2.128175669  -12.929275112  -42.470175921  -15.098630837
    2.736225860    2.128175669   -2.821900475  -53.113354614  -13.783123646
    2.938909257    2.128175669    8.166290564  -54.506462155  -19.086789887

   -3.141592654    2.330859066   21.592403344  -37.888982090  -19.393215141
   -2.938909257    2.330859066   30.704701043  -56.989313093   -8.275245417
   -2.736225860    2.330859066   39.612081151  -11.930460980   23.828678724
   -2.533542463    2.330859066   35.988294349   26.734593559   -6.589375147
   -2.330859066    2.330859066   34.244418816   -4.302912099  -18.057523922
   -2.128175669    2.330859066   33.978836107    6.803705343  -15.269200854
   -1.925492272    2.330859066   33.705401231   -4.864881585  -15.854251104
   -1.722808875    2.330859066   34.553924345   -2.998659047   -9.719715414
   -1.520125478    2.330859066   35.880664595   -9.736270629  -14.074011380
   -1.317442081    2.330859066   37.236689012   -2.328743785  -18.010004530
   -1.114758684    2.330859066   37.007130571    5.859230962  -11.558041701
   -0.912075287    2.330859066   34.348610225   17.787386246  -15.296772866
   -0.709391890    2.330859066   31.116665983   16.002983373  -15.554050679
   -0.506708493    2.330859066   25.777253982   37.578176956   -4.443872410
   -0.304025096    2.330859066   18.059097602   33.722192089    3.578700617
   -0.101341699    2.330859066   11.810683660   29.868587924   12.422396123
    0.101341699    2.330859066    6.759091560   16.778303880   15.973940627
    0.304025096    2.330859066    5.180729882   -0.937636545   14.817798657
    0.506708493    2.330859066    7.822795119  -25.985670615    6.992821909
    0.709391890    2.330859066   14.257749608  -32.019937154   -2.117285948
    0.912075287    2.330859066   19.799589235  -22.150890154  -13.473012835
    1.114758684    2.330859066   22.215600283    2.125538450  -20.467409612
    1.317442081    2.330859066   18.534480591   31.993964208  -15.970074837
    1.520125478    2.330859066   10.230476658   48.340122198  -16.148234602
    1.722808875    2.330859066   -0.322736676   53.147372815  -16.530639344
    1.925492272    2.330859066   -9.993476554   38.931131749  -14.223280424
    2.128175669    2.330859066  -15.336561866   13.990710693  -15.043583197
    2.330859066    2.330859066  -15.670134535  -12.766944848  -12.373670161
    2.533542463    2.330859066   -9.588271728  -44.397300550  -15.611361369
    2.736225860    2.330859066    0.329837655  -51.783511761  -16.799427144
    2.938909257    2.330859066   11.791446226  -58.581885509  -16.350703792

   -3.141592654    2.533542463   26.995733326  -32.727969098  -31.917122450
   -2.938909257    2.533542463   31.910102122  -22.690880478   -6.415665465
   -2.736225860    2.533542463   35.878459327  -12.447686540   -3.478656241
   -2.533542463    2.533542463   37.234159453   -4.065384885   -8.447189227
   -2.330859066    2.533542463   37.348389471    4.860899193  -10.240186065
   -2.128175669    2.533542463   36.243717518    1.406387732   -7.991478955
   -1.925492272    2.533542463   36.664802492   -1.403935835  -13.228004234
   -1.722808875    2.533542463   36.722617005   -3.433788918  -11.568896175
   -1.520125478    2.533542463   38.567355222  -10.834195399   -9.658944460
   -1.317442081    2.533542463   39.838762091   -2.555305471   -8.032985324
   -1.114758684    2.533542463   40.020884192    2.712950923   -8.305134007
   -0.912075287    2.533542463   37.698837445   20.397892436    0.276315640
   -0.709391890    2.533542463   32.295054981   32.127302038    4.840994204
   -0.506708493    2.533542463   24.880344503   39.810480282   11.855526676
   -0.304025096    2.533542463   16.577463864   41.921818927   13.151342650
   -0.101341699    2.533542463    8.296176373   37.157800514   23.248926994
    0.101341699    2.533542463    2.495346675   18.837851117   25.642182136
    0.304025096    2.533542463    1.363191121  -10.375968798   23.212681741
    0.506708493    2.533542463    6.828287188  -39.668843138    3.001426985
    0.709391890    2.533542463   15.378848611  -41.307400127   -7.256430483
    0.912075287    2.533542463   22.549173041  -25.760101219   -9.974783664
    1.114758684    2.533542463   24.476884034    6.944697871   -6.454578989
    1.317442081    2.533542463   20.705120604   28.288899220   -7.649935848
    1.520125478    2.533542463   13.017509850   47.717773364   -9.042714607
    1.722808875    2.533542463    2.137100164   55.849222025   -5.793948221
    1.925492272    2.533542463   -7.899853549   39.798921978   -4.926127164
    2.128175669    2.533542463  -13.545486901   16.132046151   -2.605846410
    2.330859066    2.533542463  -13.780033782  -16.936038976   -4.759269929
    2.533542463    2.533542463   -6.946800501  -44.873559202   -9.555010196
    2.736225860    2.533542463    2.963596060  -55.414964828   -6.294309644
    2.938909257    2.533542463   16.246421365  -69.468920859  -26.509317703

   -3.141592654    2.736225860   30.219388863  -21.374156958   10.277418185
   -2.938909257    2.736225860   32.602773756  -19.913348775    3.378962645
   -2.736225860    2.736225860   37.597547883  -15.699065877    3.372047326
   -2.533542463    2.736225860   38.021996902    2.413632153    4.902297639
   -2.330859066    2.736225860   38.044270376    1.771278149    3.800783574
   -2.128175669    2.736225860   37.213839902    0.712356017    1.860513548
   -1.925492272    2.736225860   38.007485068   -2.442642078    4.458452823
   -1.722808875    2.736225860   37.650741327   -0.226067617    6.586225310
   -1.520125478    2.736225860   39.214740184  -10.098280387    5.284951752
   -1.317442081    2.736225860   40.013756905    0.731678810    9.293265949
   -1.114758684    2.736225860   39.388769307    8.454486349   10.724576873
   -0.912075287    2.736225860   35.909653402   23.192757515    9.947287176
   -0.709391890    2.736225860   30.364201843   35.123646989   16.313562232
   -0.506708493    2.736225860   21.274869395   49.536845636   26.478967289
   -0.304025096    2.736225860   11.716506204   46.929087925   35.912746944
   -0.101341699    2.736225860    2.032077772   42.821500345   39.719041086
    0.101341699    2.736225860   -3.580766454   13.314913856   35.537304667
    0.304025096    2.736225860   -3.206446437  -23.193968600   20.007305419
    0.506708493    2.736225860    6.275768195  -58.560292983    3.861478713
    0.709391890    2.736225860   15.737044228  -37.261594270    4.738265917
    0.912075287    2.736225860   25.132581623  -52.736387981  -20.223338177
    1.114758684    2.736225860   30.095332280   16.387077509  -48.249190028
    1.317442081    2.736225860   21.852313288   47.450323414    0.587907426
    1.520125478    2.736225860   12.835358335   48.062774206   11.179490613
    1.722808875    2.736225860    1.422026413   58.972651656   13.220322061
    1.925492272    2.736225860   -8.701210648   39.132615683   13.268175243
    2.128175669    2.736225860  -14.537836815   17.519892981   14.255489021
    2.330859066    2.736225860  -14.457645810  -21.504542186   12.095775898
    2.533542463    2.736225860   -6.877202862  -45.154078346   11.695790603
    2.736225860    2.736225860    2.673531420  -56.741630988    7.952905771
    2.938909257    2.736225860   18.352548880  -87.621462149   15.448282027

   -3.141592654    2.938909257   24.185749428  -48.658599066   36.344109302
   -2.938909257    2.938909257   30.155962555  -18.970714406   18.810902487
   -2.736225860    2.938909257   34.192557515  -16.910609348   20.903542551
   -2.533542463    2.938909257   35.525952859    0.451536619   17.401538764
   -2.330859066    2.938909257   35.401525362    2.435561952   22.835742140
   -2.128175669    2.938909257   34.332858212    3.510877080   24.967418591
   -1.925492272    2.938909257   34.797227286   -3.334761765   22.460843733
   -1.722808875    2.938909257   34.574313789    0.839172663   19.496883396
   -1.520125478    2.938909257   35.887838574   -9.493788251   24.671382333
   -1.317442081    2.938909257   36.415861041    2.727062764   20.928607104
   -1.114758684    2.938909257   35.726449287    7.866074726   29.316409608
   -0.912075287    2.938909257   31.410199694   32.819605290   40.180442379
   -0.709391890    2.938909257   23.885918640   42.962060729   47.241805098
   -0.506708493    2.938909257   13.163508925   58.680379754   52.551073973
   -0.304025096    2.938909257    2.181498442   50.753248739   58.044645492
   -0.101341699    2.938909257   -7.990956321   43.227127266   57.934722045
    0.101341699    2.938909257  -11.953088782   -4.898082571   45.164607055
    0.304025096    2.938909257   -7.252719633  -42.708245992   21.759525405
    0.506708493    2.938909257    4.799027122  -63.346602307   11.541371791
    0.709391890    2.938909257   14.390455829  -41.397594331    6.974128612
    0.912075287    2.938909257   27.794271800  -81.716871361    9.587393159
    1.114758684    2.938909257   33.839318808   43.257036975   35.758654173
    1.317442081    2.938909257   18.806163188   67.672414267   28.048042468
    1.520125478    2.938909257    9.149660017   46.698497111   24.118261342
    1.722808875    2.938909257   -2.963548380   61.485907562   28.729999442
    1.925492272    2.938909257  -12.920526092   40.768527803   27.690700980
    2.128175669    2.938909257  -19.668186605   17.966536299   34.591934615
    2.330859066    2.938909257  -18.639869932  -23.609205849   29.487074846
    2.533542463    2.938909257  -11.536199439  -47.106089674   32.073524754
    2.736225860    2.938909257   -0.398190598  -57.435572402   24.658047956
    2.938909257    2.938909257   11.592287031  -64.534890276   38.898098083
